tree
version=v4
num_class=1
num_tree_per_iteration=1
label_index=0
max_feature_idx=445
objective=binary sigmoid:1
feature_names=Column_0 Column_1 Column_2 Column_3 Column_4 Column_5 Column_6 Column_7 Column_8 Column_9 Column_10 Column_11 Column_12 Column_13 Column_14 Column_15 Column_16 Column_17 Column_18 Column_19 Column_20 Column_21 Column_22 Column_23 Column_24 Column_25 Column_26 Column_27 Column_28 Column_29 Column_30 Column_31 Column_32 Column_33 Column_34 Column_35 Column_36 Column_37 Column_38 Column_39 Column_40 Column_41 Column_42 Column_43 Column_44 Column_45 Column_46 Column_47 Column_48 Column_49 Column_50 Column_51 Column_52 Column_53 Column_54 Column_55 Column_56 Column_57 Column_58 Column_59 Column_60 Column_61 Column_62 Column_63 Column_64 Column_65 Column_66 Column_67 Column_68 Column_69 Column_70 Column_71 Column_72 Column_73 Column_74 Column_75 Column_76 Column_77 Column_78 Column_79 Column_80 Column_81 Column_82 Column_83 Column_84 Column_85 Column_86 Column_87 Column_88 Column_89 Column_90 Column_91 Column_92 Column_93 Column_94 Column_95 Column_96 Column_97 Column_98 Column_99 Column_100 Column_101 Column_102 Column_103 Column_104 Column_105 Column_106 Column_107 Column_108 Column_109 Column_110 Column_111 Column_112 Column_113 Column_114 Column_115 Column_116 Column_117 Column_118 Column_119 Column_120 Column_121 Column_122 Column_123 Column_124 Column_125 Column_126 Column_127 Column_128 Column_129 Column_130 Column_131 Column_132 Column_133 Column_134 Column_135 Column_136 Column_137 Column_138 Column_139 Column_140 Column_141 Column_142 Column_143 Column_144 Column_145 Column_146 Column_147 Column_148 Column_149 Column_150 Column_151 Column_152 Column_153 Column_154 Column_155 Column_156 Column_157 Column_158 Column_159 Column_160 Column_161 Column_162 Column_163 Column_164 Column_165 Column_166 Column_167 Column_168 Column_169 Column_170 Column_171 Column_172 Column_173 Column_174 Column_175 Column_176 Column_177 Column_178 Column_179 Column_180 Column_181 Column_182 Column_183 Column_184 Column_185 Column_186 Column_187 Column_188 Column_189 Column_190 Column_191 Column_192 Column_193 Column_194 Column_195 Column_196 Column_197 Column_198 Column_199 Column_200 Column_201 Column_202 Column_203 Column_204 Column_205 Column_206 Column_207 Column_208 Column_209 Column_210 Column_211 Column_212 Column_213 Column_214 Column_215 Column_216 Column_217 Column_218 Column_219 Column_220 Column_221 Column_222 Column_223 Column_224 Column_225 Column_226 Column_227 Column_228 Column_229 Column_230 Column_231 Column_232 Column_233 Column_234 Column_235 Column_236 Column_237 Column_238 Column_239 Column_240 Column_241 Column_242 Column_243 Column_244 Column_245 Column_246 Column_247 Column_248 Column_249 Column_250 Column_251 Column_252 Column_253 Column_254 Column_255 Column_256 Column_257 Column_258 Column_259 Column_260 Column_261 Column_262 Column_263 Column_264 Column_265 Column_266 Column_267 Column_268 Column_269 Column_270 Column_271 Column_272 Column_273 Column_274 Column_275 Column_276 Column_277 Column_278 Column_279 Column_280 Column_281 Column_282 Column_283 Column_284 Column_285 Column_286 Column_287 Column_288 Column_289 Column_290 Column_291 Column_292 Column_293 Column_294 Column_295 Column_296 Column_297 Column_298 Column_299 Column_300 Column_301 Column_302 Column_303 Column_304 Column_305 Column_306 Column_307 Column_308 Column_309 Column_310 Column_311 Column_312 Column_313 Column_314 Column_315 Column_316 Column_317 Column_318 Column_319 Column_320 Column_321 Column_322 Column_323 Column_324 Column_325 Column_326 Column_327 Column_328 Column_329 Column_330 Column_331 Column_332 Column_333 Column_334 Column_335 Column_336 Column_337 Column_338 Column_339 Column_340 Column_341 Column_342 Column_343 Column_344 Column_345 Column_346 Column_347 Column_348 Column_349 Column_350 Column_351 Column_352 Column_353 Column_354 Column_355 Column_356 Column_357 Column_358 Column_359 Column_360 Column_361 Column_362 Column_363 Column_364 Column_365 Column_366 Column_367 Column_368 Column_369 Column_370 Column_371 Column_372 Column_373 Column_374 Column_375 Column_376 Column_377 Column_378 Column_379 Column_380 Column_381 Column_382 Column_383 Column_384 Column_385 Column_386 Column_387 Column_388 Column_389 Column_390 Column_391 Column_392 Column_393 Column_394 Column_395 Column_396 Column_397 Column_398 Column_399 Column_400 Column_401 Column_402 Column_403 Column_404 Column_405 Column_406 Column_407 Column_408 Column_409 Column_410 Column_411 Column_412 Column_413 Column_414 Column_415 Column_416 Column_417 Column_418 Column_419 Column_420 Column_421 Column_422 Column_423 Column_424 Column_425 Column_426 Column_427 Column_428 Column_429 Column_430 Column_431 Column_432 Column_433 Column_434 Column_435 Column_436 Column_437 Column_438 Column_439 Column_440 Column_441 Column_442 Column_443 Column_444 Column_445
feature_infos=[0:9] [0:8] [0:27] [0:261] [0:22] [0:1] [0:1] [0:1] [0:1] [0:19] [25650:4500000] [45000:4050000] [1615.5:258025.5] [40500:4050000] [0:6] [0:7] [0:4] [0:4] [0:5] [0.0002899999963119626:0.072507999837398529] [-25229:-7489] [-17583:365243] [-24672:0] [-7197:0] [0:91] none [0:1] [0:1] [0:1] [0:1] [0:1] [0:17] [1:20] [1:3] [1:3] [0:6] [0:23] [0:1] [0:1] [0:1] [0:1] [0:1] [0:1] [0:57] [0.014568132348358631:0.95162397623062134] [8.1736168056067982e-08:0.85499966144561768] [0.00052726524882018566:0.89600956439971924] [0:1] [0:1] [0:1] [0:1] [0:1] [0:1] [0:1] [0:1] [0:1] [0:1] [0:1] [0:1] [0:1] [0:1] [0:3] [0:2] [0:1] [0:6] [0:1] [0:47] [0:6] [0:47] [0:6] [0:1] [0:1] [0:1] [0:1] [20:69] [0:3] [0.0054441862739622593:1.875964879989624] [0:1] [0:4] [1:3] [0:5] [0:33] [1:5] [0:262] [0:0.99999833106994629] [0:0.99999833106994629] [0:1] [-2922:-2] [-2922:0] [-2922:-2] [0:2792] [0:2770] [0:5250] [-42060:31198] [-2858:31199] [-21940.5:31198] [-42023:0] [-2887:0] [-8376.5:0] [0:115987184] [0:115987184] [0:115987184] [0:9] [0:6] [0:1017957888] [0:72711280] [0:170100000] [-3112461.25:334498336] [-1083614.625:35108520] [-579854.125:6412500] [-97891.6640625:4500000] [0:3756681] [0:1361214] [0:3756681] [-41947:14] [-2866:372] [-20939:14] [0:27282428] [0:59615220] [0:59586684] [-96:0] [-87:0] [-90.5:0] [0:695] [0:190] [0:35] [0:44] [0:27] [0:346] [0:1254] [0:1097] [-2922:-2] [-2922:0] [-2922:-2] [0:2770] [0:2770] [0:5250] [-42056:31198] [-41874:31199] [-41874:31198] [-2916:-7] [-2916:-7] [-2916:-7] [0:4351414.5] [0:1665490.5] [0:4351414.5] [0:9] [0:6] [0:334739712] [0:90034672] [0:170100000] [-3112461.25:334498336] [-1083614.625:83624584] [-579854.125:6412500] [-144963.53125:4500000] [0:3756681] [0:1878340.5] [0:3756681] [-41946:372] [-41856:372] [-41856:372] [0:28422490] [0:56844980] [0:56844980] [-96:0] [-91:0] [-92.5:0] [0:425] [0:72] [0:26] [0:11] [0:9] [0:76] [0:323] [0:371] [-2922:-10] [-2922:0] [-2922:-10] [0:2234] [0:1681] [0:2234] [-42060:31192] [-41871:31198] [-41871:31192] [-42023:0] [-2887:0] [-8376.5:0] [0:115987184] [0:115987184] [0:115987184] [0:6] [0:3] [0:1017597888] [0:84799824] [0:135000000] [-67962.328125:17866476] [-33981.1640625:7279290] [-34750.3515625:2250000] [-8687.587890625:1125000] [0:1851210] [0:617070] [0:1851210] [-41947:0] [-41862:0] [-41862:0] [0:54562656] [0:59586684] [0:59586684] [-96:0] [-94:0] [-94.5:0] [0:564] [0:168] [0:28] [0:33] [0:18] [0:271] [0:1172] [0:936] [-2919:-8] [-2919:-8] [-2919:-8] [0:2792] [0:2792] [0:2792] [-2749:31196] [-2749:31196] [-2749:31196] [-2682:-5] [-2682:-5] [-2682:-5] [0:2690127] [0:2690127] [0:2690127] [0:1] [0:1] [0:52942500] [0:52942500] [0:52942500] [0:18676952] [0:18676952] [-46585.93359375:321509.5625] [-46585.93359375:233163.859375] [0:1329597] [0:1329597] [0:1329597] [-2871:-1] [-2871:-1] [-2871:-1] [0:7501833] [0:7501833] [0:7501833] [-95:0] [-93:0] [-94:0] [0:79] [0:36] [0:6] [0:5] [0:4] [0:115] [0:142] [0:265] [0:4] [0:9] [0:2] [0:86] [0:19] none [0:10] none [0:1] [0:5] [0:44] none [0:13] [0:1] [0:3] [0:2] [0:5] [0:2] [0:16] [0:17] [0:3] none none [0:2] [0:10] none [0:4] [0:1] [0:2] [0:3] [0:8] none [0:79] [0:16] none [0:10] none [0:1] [0:4] [0:43] [0:13] none [0:3] [0:1] [0:3] none [0:5] [0:3] none [0:1] [0:6] [0:2] none [0:32] [0:1] [0:84] [0:9] [-5.9718842506408691:7.789100170135498] [0:14.705492973327637] [1:94] [585.85498046875:300425.4375] [585.85498046875:418058.15625] [0:1455993.75] [0:4050000] [0:4185000] [0:37973712] [0:4050000] [0:4104351] [0:41461128] [-0.22499999403953552:2025000] [0:3060045] [-0.44999998807907104:3960000] [0:4050000] [0:4185000] [0:37973712] [0:23] [0:23] [0:23] [-7.4893819146382157e-06:0.98071527481079102] [0:1] [-1.4978763829276431e-05:0.98071527481079102] [-2922:-2] [-2922:-1] [-2922:-2] [-96:-1] [-5:-1] [-50.179775238037109:-1] [-2930.232666015625:895607.75] [0:1354829.25] [-2394000:567295744] [0:1350000] [0:1350000] [0:66591000] [0:904500] [0:159371488] [0:923464.9375] [0:159099248] [0:918645.4375] [0:155435024] [0:967379.75] [0:153680944] [0:960505.875] [-2930.232666015625:862239.875] [0:1354829.25] [-2930.232666015625:886660.4375] [0:1354829.25] [-2930.232666015625:886660.4375] [0:1354829.25] [0:19008] [0:78.857139587402344] [0:3724] [0:35] [0:19008] [0:78.857139587402344] [0:1342.26318359375] [0:2800] [0:1119708] [0:1309.5999755859375] [0:2800] [0:1119708] [0:8] [1:277] [0:25] [0:23274726] [135:1328695.5] [135:3771487.75] [0:25537054] [85.1153564453125:1328695.5] [135:3771487.75] [-2911:-3] [-2883:-1] [-2883:-3] [-4921:-5] [-2888:-1] [-2888:-5] [0.3333333432674408:9189.2451171875] [0:38849.80078125] [-382510.4375:146145.90625] [0:885811.1875] [-2630909:20512.349609375] [-15063.525390625:2424726.5] [0:1975.09521484375] [0:82954] [0:2790] [0:1] [0:245] [0:1] [0:27] [0:58] [0:68] [0:16] [0:58] [0:19] [0:12] [0:63] [0:26] [0:36] [0:71] [0:8] [0:59] [0:36] [0:31] [0:3] [0:27] [0:40] [0:20] [0:51] [0:32] [0:19] [0:20] [-96:-1] [-96:-1] [-96:-1] [0:2356.9267578125] [0:4050] [0:249991] [0:1740.554443359375] [0:3373] [0:184970] [1:72] [1:81] [0:60] [0:72]
tree_sizes=7062 7068 7055 7073 7057 7066 7056 7068 7068 7080 7065 7062 7074 7070 7054 7087 7092 7070 7067 7072 7097 7082 7050 7091 7092 7096 7102 7077 7081 7081 7082 7077 7108 7098 7069 7105 7098 7104 7095 7100 7081 7073 7046 7094 7085 7110 7100 7086 7093 7101 7069 7110 7070 7109 7097 7103 7120 7089 7104 7105 7099 7088 7105 7111 7092 7106 7099 7077 7091 7101 7107 7067 7085 7100 7098 7113 7089 7090 7092 7115 7091 7116 7098 7109 7062 7094 7069 7067 7097 7073 7079 7082 7090 7063 7054 7091 7072 7088 7021 7090 7071 7078 7097 7129 7062 7046 7060 7050 6988 7088 7045 7085 7071 7034 7062 7053 7084 7044 7079 7067 7041 7038 7060 7061 7044 7082 7029 7056 7082 7057 7069 7088 7046 7054 7030 7103 7063 7054 7078 7042 7060 7020 7097 7023 7046 7044 7013 7013 7020 7031 7107 7002 7057 7044 7078 7012 7031 7049 7017 7051 7025 7059 7063 7029 7079 7036 7065 7029 7049 7060 7034 7011 7004 7034 7029 7027 6992 6999 7015 7034 6976 7012 7029 6985 7033 7036 7023 6993 6923 7056 7015 7013 6995 7011 7042 7040 6961 7012 6993 6950 7025 7021 6913 6985 6956 6953 6957 7028 7028 6951 6970 6932 6953 6986 6972 6904 7009 7010 6908 6959 6920 7037 6977 6930 6944 6953 6970 7003 6981 6991

Tree=0
num_leaves=63
num_cat=0
split_feature=45 46 46 46 46 45 45 44 45 404 44 46 407 6 74 407 44 45 44 392 404 16 320 16 45 395 407 398 44 23 44 44 44 404 44 70 334 392 44 20 402 46 16 404 45 372 389 374 374 16 20 95 45 20 365 386 356 20 11 104 16 334
split_gain=13824.1 7237.91 4455.9 2999.29 1497.12 1286.25 1018.11 666.059 645.627 629.434 553.744 499.424 468.77 468.704 398.182 395.395 393.516 322.581 303.45 286.926 284.731 280.16 271.64 263.016 248.158 230.687 228.936 221.506 200.416 197.528 193.98 170.687 166.755 165.549 164.582 163.196 161.745 153.714 149.036 145.988 143.038 139.923 134.31 127.857 126.763 125.663 123.825 121.089 120.564 120.244 119.239 114.357 114.26 109.871 107.267 125.087 106.567 105.896 104.664 103.686 103.243 101.995
threshold=0.45986029505729681 0.31625196337699896 0.53617310523986828 0.54512897133827221 0.31159181892871862 0.64762485027313244 0.16947995126247409 0.50893419981002819 0.13744141161441806 0.074754688888788237 0.5409483313560487 0.15147104114294055 0.87219011783599865 1.0000000180025095e-35 54.500000000000007 0.87219011783599865 0.52753433585166942 0.62729275226593029 0.58792203664779674 -1654.4999999999998 0.27533206343650823 1.5000000000000002 0.49967034161090856 2.5000000000000004 0.20709417760372165 -1072.4999999999998 0.803928703069687 0.91429716348648082 0.51937815546989452 -4070.4999999999995 0.58792203664779674 0.34762114286422735 0.27618595957756048 0.26670421659946447 0.29820570349693304 1.0000000180025095e-35 18629.190429687504 -2406.4999999999995 0.2437362223863602 -18448.499999999996 -18152.077148437496 0.15147104114294055 1.5000000000000002 1.6365323662757876 0.63312265276908886 0.42933948338031774 176723.39062500003 0.61081871390342724 0.47402159869670873 2.5000000000000004 -18051.499999999996 -325.29167175292963 0.66568124294281017 -19619.499999999996 42142.457031250007 174646.12500000003 4781.5888671875009 -19561.499999999996 258738.75000000003 2041065.8750000002 1.5000000000000002 9933.5249023437518
decision_type=2 2 2 2 2 2 2 2 2 2 2 2 2 2 2 2 2 2 2 2 2 2 2 2 2 2 2 2 2 2 2 2 2 2 2 2 2 2 2 2 2 2 2 2 2 2 2 2 2 2 2 2 2 2 2 2 2 2 2 2 2 2
left_child=2 11 4 5 24 7 39 15 50 17 14 44 30 20 21 19 22 47 25 32 31 -8 53 -17 -1 35 -9 -23 38 -25 37 -10 -3 59 -19 -11 54 -7 -14 -6 -27 -26 -39 -21 -2 51 -31 -5 58 -40 -4 -16 -24 -13 55 -29 -37 -42 -33 -15 -55 -12
right_child=1 3 8 9 6 12 10 26 13 18 61 16 28 33 45 23 -18 34 -20 43 -22 27 52 29 41 40 -28 36 -30 46 -32 48 -34 -35 -36 56 -38 42 49 -41 57 -43 -44 -45 -46 -47 -48 -49 -50 -51 -52 -53 -54 60 -56 -57 -58 -59 -60 -61 -62 -63
leaf_value=0.067738055814213369 0.051473175363002076 0.033410171472621611 0.0032882010252786118 -0.047034610437779942 0.031627308758605761 -0.031643730116030312 0.0046969408472612743 -0.011330261959233192 0.0057421508907024837 -0.053261330344449381 -0.0045222403919462778 -0.012330638618508026 0.0025021663815302077 0.0020249447161268374 -0.035074327619461144 -0.031920262195795496 -0.013796075772954249 -0.024906049621507234 -0.059642370379495352 0.016598169919870703 -0.0045844082465451271 0.050845803011206156 0.042344726530988627 -0.021539794258767769 0.061474948805434436 -0.083601594417566205 -0.045455424899051508 0.036729727831133541 -0.066397439908322198 0.013874812652308093 -0.04506313550812921 -0.061347064289251622 -0.0083554901180074043 0.02321550374628813 -0.06720651441994073 -0.03236929299081668 0.0068535474254173348 -0.029895583033102992 -0.058378967198731493 0.054219599820437649 -0.034446995151783059 0.042480225835447666 0.0014561460803386875 0.046192374583071474 0.027737779496384115 0.041181478789879919 -0.0071361221297753527 -0.0044894575747850274 0.0026511003435949047 -0.035134245879758164 0.035627125388654042 0.0017654134457031915 0.013712383772541069 -0.0037817449323764014 0.048371042324183502 0.018225062658279566 -0.0044261226814301963 0.0073123020145105929 -0.03522513927244262 -0.028322102691796174 0.021981412326266964 -0.038830497604293177
leaf_weight=2935.8850072324276 1566.2897764444351 273.95541551709175 422.83816766738892 3714.2157019376755 915.35868173837662 833.85043820738792 1079.8502306640148 817.44785419106483 246.05657824873924 861.73630854487419 674.79796928167343 420.45532843470573 202.46417361497879 1159.748494297266 271.96548941731453 1082.9497168660164 934.26210910081863 243.37971025705338 944.31349110603333 1947.1904850900173 1220.6220407783985 1279.1872639358044 1518.7866989076138 1152.8313095271587 1465.4254516065121 56.724483758211136 1232.5058705508709 1891.5105718970299 857.6113715171814 1360.0043758153915 603.39207139611244 496.99889001250267 1872.4911034703255 759.16082572937012 4167.1326835155487 2368.0816414356232 794.26348897814751 446.29448688030243 789.08396947383881 3267.5785372555256 193.75163370370865 2865.1245260834694 1456.2881546616554 449.15090796351433 877.76633390784264 155.76284429430962 1447.6318271160126 175.12779065966606 168.97821649909019 1886.4145882427692 874.65740922093391 934.42664432525635 452.16652765870094 515.07972913980484 766.12068250775337 1765.8162868320942 398.63779011368752 701.38972046971321 1678.6352487802505 371.66871708631516 1587.0085827708244 319.05768093466759
leaf_count=5075 3562 789 1645 20719 2691 4221 4150 3581 937 4987 2802 1856 793 4561 1408 5492 4170 1177 5667 6706 5071 2936 3919 5445 2841 386 6810 5237 5341 4808 3326 3011 8016 2446 26065 12045 2995 2233 4702 7130 999 7380 5755 1101 2695 408 6138 727 661 9770 2454 3683 1601 2126 1822 5985 1654 2634 8699 1840 5179 1692
internal_value=2.10154e-05 -0.0188412 0.0265027 -0.0292499 0.0380758 -0.0162013 0.0285833 -0.00597895 -0.00694064 -0.0469114 0.0198692 0.0241806 -0.0330128 -0.0137512 0.0238057 -0.000447101 0.0157295 -0.0556158 -0.0338345 0.0102524 -0.0244942 0.0282802 0.0218683 -0.0100845 0.0565159 -0.0285138 -0.0318475 0.0321999 -0.0451819 -0.00411376 -0.0194018 -0.0338749 -0.00302485 0.00412398 -0.0648723 -0.0342611 0.0276287 -0.0137434 -0.0388598 0.0492757 -0.0066056 0.0489079 -0.00589812 0.0221451 0.0429488 -0.00108271 0.00304147 -0.0451189 -0.0380326 -0.0419898 0.0250883 -0.00653963 0.035776 0.0110017 0.031359 0.0277954 -0.0283432 -0.00172642 -0.0411924 -0.00534016 0.0156686 -0.0155362
internal_weight=69189.4 40407.9 28781.5 32536 21382.1 18711.6 14115.7 11636.2 7399.36 13824.5 9932.76 7871.82 7075.4 6101.87 8938.9 9586.21 5427.76 8299.86 5524.64 4542.79 3811.29 7576.75 4493.5 5043.42 7266.43 4580.32 2049.95 6496.9 3735.57 3960.47 3339.83 2590.67 2146.45 2290.58 4410.51 3628.46 5217.71 2736.43 2877.96 4182.94 951.866 4330.55 1902.58 2396.34 2444.06 1362.15 2807.64 3889.34 2344.61 2675.5 1297.5 1206.39 1970.95 2522.54 4423.45 3657.33 2766.72 895.141 2175.63 1531.42 2102.09 993.856
internal_count=276755 187195 89560 162087 58235 85027 42939 48886 31325 77060 33118 25108 36141 27226 28624 38495 18851 48688 28372 16612 18379 23125 14681 21883 15296 22705 10391 18975 20606 16391 15535 13308 8805 8847 27242 18686 16039 12209 15265 9821 4019 10221 7988 7807 6257 5499 10946 21446 12371 14472 4099 5091 5520 9161 13044 11222 13699 3633 11710 6401 7305 4494
is_linear=0
shrinkage=1


Tree=1
num_leaves=63
num_cat=0
split_feature=45 46 46 46 46 45 45 45 398 404 44 44 46 20 44 45 6 407 16 44 395 16 320 433 45 6 404 342 398 16 44 44 407 408 350 439 389 20 20 175 366 20 16 20 45 46 6 374 46 93 45 444 372 445 13 12 95 89 45 194 390 407
split_gain=12481.7 6534.97 4024.18 2712.89 1353.88 1161.7 920.044 604.693 587.839 531.271 501.418 471.02 451.172 361.706 355.226 332.049 312.555 297.424 281.58 268.649 247.852 246.562 245.431 237.217 224.903 223.695 201.161 200.718 197.284 188.717 183.126 168.226 159.525 154.606 158.485 141.839 140.658 133.304 132.086 130.791 129.345 136.919 144.235 127.492 127.154 126.858 125.353 123.991 119.349 116.982 114.645 110.02 107.448 105.654 104.704 114.392 102.694 100.807 100.58 99.8102 99.5768 99.4111
threshold=0.45986029505729681 0.31625196337699896 0.53617310523986828 0.53975856304168712 0.31159181892871862 0.61834949254989635 0.16947995126247409 0.24617037177085879 0.97872820496559154 0.046164946630597122 0.52475199103355419 0.50893419981002819 0.15147104114294055 -20036.499999999996 0.52753433585166942 0.62729275226593029 1.0000000180025095e-35 0.89287593960762035 2.5000000000000004 0.27618595957756048 -1298.4999999999998 1.5000000000000002 0.49598684906959539 -57.499999999999993 0.20709417760372165 1.0000000180025095e-35 0.35559079051017767 0.10570911690592767 0.91429716348648082 1.5000000000000002 0.51660504937171947 0.29820570349693304 0.80227509140968334 15.500000000000002 40851.058593750007 0.29198718070983892 136838.21093750003 -14701.499999999998 -18448.499999999996 -1574.4999999999998 179778.80468750003 -15429.499999999998 2.5000000000000004 -19799.499999999996 0.71892666816711437 0.14509548246860507 1.0000000180025095e-35 0.46821977198123937 0.64879858493804943 -1709.4999999999998 0.63312265276908886 8.9949493408203143 0.42933948338031774 35.500000000000007 675191.25000000012 16053.750000000002 -325.29167175292963 -1411.6904296874998 0.66703766584396373 495024.75000000006 9224.5214843750018 0.89115902781486522
decision_type=2 2 2 2 2 2 2 2 2 2 2 2 2 2 2 2 2 2 2 2 2 2 2 2 2 2 2 2 2 2 2 2 2 2 2 2 2 2 2 2 2 2 2 2 2 2 2 2 2 2 2 2 2 2 2 2 2 2 2 2 2 2
left_child=2 12 4 5 24 11 38 25 27 18 13 17 50 52 22 40 26 23 -7 -11 46 -15 54 -3 -1 43 39 37 -23 -19 44 -17 49 -30 -35 47 -31 48 -6 -9 41 -10 -43 -4 -20 -26 53 -22 -5 -13 -2 60 56 -21 55 -14 -8 -38 -24 -18 -12 -33
right_child=1 3 7 8 6 9 10 16 15 19 51 32 14 21 -16 31 59 29 30 20 35 28 58 -25 45 -27 -28 -29 33 36 -32 61 -34 34 -36 -37 57 -39 -40 -41 -42 42 -44 -45 -46 -47 -48 -49 -50 -51 -52 -53 -54 -55 -56 -57 -58 -59 -60 -61 -62 -63
leaf_value=0.064406308263420184 0.048912508609186139 -0.0013476956710924482 -0.019546405175981274 -0.0094711296495124438 0.030033621664948815 -0.056556448924413839 -0.032776067896551013 -0.046505432245789284 -0.05104144544628008 0.026476470030354311 -0.004125011457676896 -0.045704680556151962 -0.0059282142051234185 0.0047659097787247414 -0.013126875983948117 -0.022666020439312744 0.0052970910037698285 -0.0317782641721258 -0.019283617490087928 -0.0450134515914331 -0.014858936740694804 0.048472990695977713 0.039954405020018485 0.023272277601978777 0.05904511955929817 0.028396760475733376 -0.0073070085099122611 -0.039118682087093466 0.035448003045791633 0.010523898700707236 -0.056261458720439583 -0.050952646469067879 -0.040236304808183146 0.010830349681093639 0.038348441510183233 0.041331756582978753 -0.044437573516661638 0.00047799867942664568 0.051527171886198687 -0.019574449886951062 -0.011611720043473911 -0.053543799098670436 -0.024141771088529704 0.0091065451089075624 -0.045137761760345757 0.040643608372901679 -0.01298644627832741 0.028756740863238185 -0.040816839821241124 0.0041655494963361624 0.026336080539281603 0.0044549461557983616 0.038140091553590549 -0.017860344871704178 -0.0090277538084726529 0.022477371310354172 0.0019912559354390564 -0.0071199603127633073 0.013062942013475963 -0.023814944873897341 -0.045522589455710118 -0.066091531598282835
leaf_weight=2932.5197114050388 1565.2527415752411 1813.9074574261904 567.80000001192093 556.74913838505745 915.1297858953476 1583.097355261445 274.11013641953468 1284.8073637634516 2542.8884473443031 357.23987497389317 253.45921376347542 155.61538727581501 464.59528270363808 1061.7679707407951 934.21766817569733 297.09281130135059 1310.4939322471619 669.08012419939041 2046.240117251873 1111.6924029588699 987.2629886418581 1264.7277965396643 1538.6505714207888 2124.0749805420637 1370.7379392981529 1135.8624451160431 797.12187910079956 1975.9958311915398 2476.9057839512825 1244.6990664452314 581.46562461555004 1574.4273324161768 968.70896533131599 1973.0808010101318 712.05434742569923 168.82939854264259 202.7223816215992 725.41776461899281 3265.1781795173883 694.54289811849594 344.2811965495348 608.54308326542377 1325.9962242096663 1227.5481733232737 619.55615761876106 2957.1362228095531 893.45755340158939 195.15705506503582 668.05245594680309 481.25868824124336 877.59752427041531 473.90564095973969 156.78410673141479 528.59406809508801 545.41519930958748 1494.687183842063 943.33622153103352 1686.4116245657206 449.23723812401295 379.73470030725002 340.27887527644634 3484.0484751015902
leaf_count=5075 3562 7347 2660 2434 2691 9469 1414 7219 14722 1111 1054 864 1942 4069 4170 1427 4995 3426 9577 6173 4468 2898 3987 6773 2632 3431 3390 10622 6836 4532 3480 9137 5258 7116 1884 442 1117 2916 7130 3271 1525 3574 6474 4532 3446 7589 3996 594 3627 1867 2695 1834 416 2455 2339 4823 3707 7178 1590 1827 1890 22056
internal_value=-1.29508e-08 -0.0179263 0.0251688 -0.0278193 0.0361712 -0.0151829 0.027144 -0.00661496 -0.0443223 -0.0279279 0.0188604 -0.00281135 0.0229581 0.0227599 0.0149258 -0.0506626 -0.0181951 0.0023006 -0.0392668 -0.0150171 -0.0188326 0.027087 0.0207593 0.0119319 0.0537157 0.0110313 -0.0285147 -0.0278875 0.0307747 -0.00767275 -0.0308378 -0.059232 -0.0274573 0.0264385 0.0181277 -0.00153901 -0.00252617 -0.0165079 0.0468219 -0.0370555 -0.0411443 -0.0434152 -0.0333907 4.47122e-05 -0.0252924 0.0464718 -0.0280553 -0.00766022 -0.0265682 -0.00801987 0.0408019 -0.0135108 -0.000819417 -0.0362632 0.010348 0.0157417 -0.00583667 -0.0111245 0.0338773 -0.00124336 -0.0278505 -0.0613796
internal_weight=69161.2 40392.2 28769 32522.6 21371.1 18419.1 14110.7 7397.91 14103.5 9072.59 9930.41 9346.48 7869.65 8862.77 5426.8 10177.3 4466.7 7740.9 4830.36 4242.23 3884.99 7488.54 4492.59 3937.98 7260.39 2931.21 2776.47 3926.22 6426.77 3802.91 3247.26 5355.57 1605.58 5162.04 2685.14 1351.25 3133.83 1950.22 4180.31 1979.35 4821.71 4477.43 1934.54 1795.35 2665.8 4327.87 2533.74 1182.42 1224.8 636.874 2442.85 1067.64 1374.23 1640.29 2504.7 1959.28 1217.45 1889.13 1987.89 1690.23 593.738 5058.48
internal_count=276755 187195 89560 162087 58235 83573 42939 31325 78514 45211 33118 38362 25108 28340 18851 58915 20702 30373 25972 19239 18128 22803 14681 14120 15296 10623 13880 19599 18734 16253 16503 32620 7989 15836 9000 5504 12827 8977 9821 10490 26295 24770 10048 7192 13023 10221 12624 5062 6061 2731 6257 4778 5537 8628 9104 6765 5121 8295 5577 6822 2944 31193
is_linear=0
shrinkage=0.05


Tree=2
num_leaves=63
num_cat=0
split_feature=46 46 44 15 44 398 334 20 407 16 44 407 407 392 16 16 46 20 433 374 433 374 400 389 372 33 320 46 16 333 336 16 334 175 443 6 20 77 346 412 20 444 193 6 389 320 34 44 6 389 44 44 390 16 20 58 323 70 44 44 11 16
split_gain=11203.6 4527.61 2616.87 1194.27 1041.18 856.34 580.006 567.023 529.11 491.486 452.428 430.959 425.709 300.862 296.341 295.878 268.989 259.39 249.162 242.035 229.068 220.794 208.76 205.622 199.656 199.475 182.79 175.914 166.796 163.556 155.505 155.441 153.705 153.353 145.398 147.959 142.019 140.425 139.8 139.497 133.297 130.731 123.647 119.807 118.541 129.976 111.195 109.473 107.485 120.73 114.596 106.304 103.245 101.9 100.722 100.29 99.7767 99.7563 99.5987 96.976 96.2615 95.214
threshold=0.53617310523986828 0.26434811949729925 0.50893419981002819 5.5000000000000009 0.5409483313560487 0.94712811708450328 11894.692382812502 -17461.499999999996 0.83334827423095714 1.5000000000000002 0.57231971621513378 0.8889046609401704 0.84092277288436901 -2377.4999999999995 1.5000000000000002 1.5000000000000002 0.14509548246860507 -17783.499999999996 -37.499999999999993 0.48968963325023657 -56.499999999999993 0.71525096893310558 763.69500732421886 64414.058593750007 0.5313907563686372 2.5000000000000004 0.46402868628501898 0.61867693066596996 2.5000000000000004 14564.024902343752 34337.250000000007 1.5000000000000002 5976.8549804687509 -2035.4999999999998 36.500000000000007 1.0000000180025095e-35 -17846.499999999996 1.0000000180025095e-35 -915.19091796874989 1.0000000180025095e-35 -17720.499999999996 13.177496910095217 127351.50000000001 1.0000000180025095e-35 171912.93750000003 0.15326616168022159 1.5000000000000002 0.13918162882328036 1.0000000180025095e-35 94868.773437500015 0.3163637518882752 0.76123443245887767 6506.8376464843759 1.5000000000000002 -13351.499999999998 0.089950002729892745 10643.583984375002 1.0000000180025095e-35 0.37037946283817297 0.27310955524444586 273672.00000000006 2.5000000000000004
decision_type=2 2 2 2 2 2 2 2 2 2 2 2 2 2 2 2 2 2 2 2 2 2 2 2 2 2 2 2 2 2 2 2 2 2 2 2 2 2 2 2 2 2 2 2 2 2 2 2 2 2 2 2 2 2 2 2 2 2 2 2 2 2
left_child=1 10 3 8 5 18 11 24 13 56 16 20 38 58 -13 -10 -1 34 54 25 -5 22 37 -19 27 30 53 43 -14 -12 -11 59 55 -16 35 -17 -33 61 -4 48 -20 47 -24 -7 -39 -46 -6 -32 49 -35 -51 -40 -22 -18 60 -30 -9 -50 -3 -15 -2 -8
right_child=4 2 12 6 46 7 21 9 15 19 29 14 28 31 33 17 26 23 40 -21 52 -23 42 -25 -26 -27 -28 -29 32 -31 41 36 -34 39 -36 -37 -38 44 51 -41 -42 -43 -44 -45 45 -47 -48 -49 57 50 -52 -53 -54 -55 -56 -57 -58 -59 -60 -61 -62 -63
leaf_value=0.053716389287554359 -0.038709922028073829 0.022195734193697372 -0.023455311392792375 0.021094020768755266 -0.075260234857474018 -0.039576557759352232 -0.045571344511772728 -0.02995736617838007 -0.02972907243863579 0.013012253792680995 0.01965258534743446 -0.011355418061743949 -0.054752394486124484 0.041034054283043575 0.00078252741353576508 -0.028622049431685361 0.011341019887449275 0.035063164980543002 -0.0094965113067404152 0.016519799985345571 0.053164015848762618 0.040127810782410976 0.030320183876875212 -0.00038453767479148317 -0.010042772866337233 0.0013901947822807868 0.045981786407146591 -0.050674716562738586 -0.0099054543478912047 -0.030378807177558406 0.023052078983676127 0.010380116676245296 -0.044643226809127308 0.02494551928587424 0.0092212818753434553 -0.00020847560007386707 0.032677035600680727 0.019623255865229561 0.0064985896241862911 0.037854572323009268 0.03043208265220786 -0.006038968326062274 -0.010187190002516569 -0.0086911361584752298 -0.030995167330006308 0.0027687674160927845 -0.049513620271503224 -0.030193245407169195 0.0039380152106712691 0.030197383798943208 -0.010993328571521887 -0.03024825452332593 0.035655201073193747 0.033502128838859876 0.0036660676353713235 -0.054619362268806121 -0.053831720057663283 0.033818562233136187 -0.013383678873830457 -0.0087282474011595966 -0.011279922814341 -0.011377281842674282
leaf_weight=4219.7056218385696 411.9961521178484 232.02409765124321 1265.2617673575878 2365.1943143159151 474.34292289614677 1068.400877058506 264.94146171212196 719.35670621693134 1516.1221705973148 288.91466553509235 997.3312746733427 899.68567091226578 1097.5735358297825 114.72449503839016 901.87226304411888 1680.0801481604576 654.55211043357849 496.01876439154148 299.02227593958378 552.07699419558048 1171.1386539191008 391.8326670229435 786.81444852054119 2334.7401513308287 445.19761820137501 1068.1068094968796 3112.9994586706161 3779.1029809713364 842.53973489999771 195.34621903300285 99.212049022316933 1202.3256479054689 959.6135918200016 715.34894272685051 485.73665726184845 629.97218579053879 1758.9367773979902 681.80886363983154 1079.9121840745211 1215.1810909509659 694.47618605196476 765.02368077635765 247.69513569772243 444.67149285972118 375.6509612351656 1181.6206169575453 3617.8112943470478 3577.9593321979046 357.99415217339993 215.93767465651035 774.39385925233364 240.67427168786526 2995.6331449747086 2499.5749500840902 818.31165531277657 147.33317184448242 1117.4288829267025 1271.0178297907114 1291.8466687947512 667.78859987854958 1430.007323294878 879.04014618694782
leaf_count=8574 2212 742 6135 7679 3188 5848 1473 3691 7676 1058 3254 3988 6552 294 3564 8364 2326 1367 1307 1923 2476 1015 2293 9302 1969 4290 7235 22113 3724 971 325 4340 5388 2213 1798 2527 4963 2256 4115 3244 2065 3298 1065 1957 1892 4594 21026 18328 1368 634 3363 1221 8148 6924 3207 878 6647 3571 5748 2858 6360 3831
internal_value=-2.66045e-08 0.0136124 0.00477948 0.0106323 -0.029783 -0.0244953 0.0189732 -0.0301481 -0.00125878 -0.0217025 0.0406386 0.0245044 -0.0264991 0.0107631 0.0152305 -0.0101248 0.0439573 -0.00484229 -0.00295145 -0.0151148 0.0335219 0.00415627 0.000965642 0.00582677 -0.0422013 -0.0181264 0.0373865 -0.0449065 -0.0391617 0.011458 -0.0225325 0.0183868 -0.030384 0.0196179 -0.0156448 -0.0208734 0.0236241 -0.00504491 -0.0115781 0.0233515 0.0184144 -0.0248443 0.0206214 -0.0304998 0.00223644 -0.0053759 -0.052498 -0.0287567 0.0180665 0.00929385 -0.00201186 -0.00019845 0.0405763 0.0289032 -0.0109306 -0.0165607 -0.0444816 0.027252 -0.00796637 -0.00143258 -0.0174151 -0.0192965
internal_weight=69087 47415.5 35736 30103.1 21671.4 17579.3 17692.8 13925.5 12410.3 8188.08 11679.5 12883.4 5632.91 5267.65 6351.43 7142.67 10486.8 5626.55 3653.81 6351.29 6531.97 4809.4 4417.57 2830.76 5737.37 5799.22 6267.13 5292.18 3047.06 1192.68 4731.11 3743.78 1949.49 5451.75 2795.79 2310.05 2961.26 3383.06 2585.85 4549.87 993.498 4442.2 1034.51 1513.07 2239.08 1557.27 4092.15 3677.17 3334.69 1705.68 990.332 1320.59 4166.77 3154.13 2660.32 989.873 1836.79 1629.01 1523.87 782.513 1842 1143.98
internal_count=276755 165943 136659 108646 110812 86598 58667 71447 49979 39560 29284 40248 28013 18945 21945 31034 25059 23358 15151 29222 18303 18419 17404 10669 31887 27299 16485 29918 16542 4225 23009 12455 9990 17957 12689 10891 9303 14046 11471 14393 3372 21951 3358 7805 8742 6486 24214 18653 11149 6210 3997 5336 10624 9250 11779 4602 10338 4939 6490 3152 8572 5304
is_linear=0
shrinkage=0.05


Tree=3
num_leaves=63
num_cat=0
split_feature=45 46 46 46 46 46 45 45 45 44 404 400 44 44 6 74 320 374 389 45 404 16 44 45 398 45 407 16 395 443 194 372 333 44 404 398 401 70 21 44 159 6 334 45 116 402 445 334 407 82 444 46 45 444 390 334 44 45 40 95 374 46
split_gain=10946.8 5402.9 3266.69 1607.28 1113.85 974.68 935.682 821.734 541.738 513.502 474.788 458.362 396.739 370.757 368.401 287.035 271.356 242.125 253.703 233.911 227.129 226.061 211.412 203.164 199.732 189.442 183.925 168.342 159.861 157.614 149.291 148.373 145.183 141.163 140.413 137.032 134.882 129.744 128.972 123.198 122.035 120.901 119.838 116.885 116.525 116.004 110.298 106.991 105.453 104.494 103.544 102.413 101.644 100.664 104.623 100.398 99.6366 99.3644 98.9453 98.7309 96.9682 95.089
threshold=0.45986029505729681 0.40923070907592779 0.53617310523986828 0.56649360060691845 0.31159181892871862 0.22195798158645633 0.66424405574798595 0.17452486604452136 0.13744141161441806 0.51132869720458995 0.080013226717710509 545.00946044921886 0.52475199103355419 0.55316847562789928 1.0000000180025095e-35 54.500000000000007 0.52908101677894603 0.56316488981246959 188905.70312500003 0.6009390950202943 0.27533206343650823 1.5000000000000002 0.58792203664779674 0.20709417760372165 0.91429716348648082 0.65469303727149974 0.89287593960762035 2.5000000000000004 -1072.4999999999998 45.000000000000007 86994.179687500015 0.68989801406860363 12555.225097656252 0.29820570349693304 0.26670421659946447 0.96552178263664257 1142.4968872070315 1.0000000180025095e-35 -3206.4999999999995 0.28276640176773077 -18.499999999999996 1.0000000180025095e-35 12148.672851562502 0.54729899764060985 -309.97222900390619 -18152.077148437496 40.500000000000007 10800.225097656252 0.90706098079681408 1.5000000000000002 8.9949493408203143 0.15147104114294055 0.55508324503898632 19.057037353515629 16234.997558593752 9230.1748046875018 0.68705892562866222 0.68005239963531505 1.0000000180025095e-35 -947.18334960937489 0.68237251043319713 0.72311496734619152
decision_type=2 2 2 2 2 2 2 2 2 2 2 2 2 2 2 2 2 2 2 2 2 2 2 2 2 2 2 2 2 2 2 2 2 2 2 2 2 2 2 2 2 2 2 2 2 2 2 2 2 2 2 2 2 2 2 2 2 2 2 2 2 2
left_child=2 5 4 6 23 25 11 41 -4 16 19 13 15 17 20 24 26 18 40 53 30 39 28 -1 -9 44 42 -26 37 43 -10 35 -27 -21 -16 -23 -13 -12 -29 -8 -3 47 -7 -20 -2 -30 56 -6 57 -28 -14 -25 -42 54 -5 -40 -38 -11 61 -17 -15 -32
right_child=1 3 8 10 7 9 21 12 14 48 22 36 50 60 34 59 -18 -19 29 33 -22 31 -24 51 27 32 49 38 45 -31 58 -33 -34 -35 -36 -37 46 -39 55 -41 52 -43 -44 -45 -46 -47 -48 -49 -50 -51 -52 -53 -54 -55 -56 -57 -58 -59 -60 -61 -62 -63
leaf_value=0.059687706862536105 0.025372974443891156 -0.024100440507043349 0.024298091856896145 -0.034277552026282958 0.041762757504650555 0.016364127484449927 0.0032348196691927623 0.04162059031904599 -0.0080581781153433261 -0.0072584072949267416 -0.048071016752475125 0.025092777238293919 -0.025723617576824471 -0.04409939887230805 -0.0041646175170675162 -0.04707193631729184 0.02049703729064542 0.020097001369496742 -0.014018562039355049 -0.021726020880183106 -0.003050939266511188 -0.015752197805744477 -0.052814691916919759 0.053394969373096103 0.0032630115981719487 0.022247242751868092 0.0096284927693512361 0.0036053366617190066 -0.079803758341374723 0.0018323517069170619 -0.032513788826955235 -0.0013422272713894119 -0.019197722470909433 -0.058667304637620987 0.022138875510191242 -0.03929107332230411 -0.0019164138547240071 -0.024690044710673466 0.03283504954663307 -0.056624884116233537 0.014839147316380662 0.05296735873697142 -0.0086295272963649704 -0.034327068889923325 0.044637914016037415 -0.0010978493150130095 0.027260767155811994 0.016863108086337935 -0.045645394516743862 -0.020978655635517089 0.005773242392066222 0.037097096333343314 -0.0065344537439152514 -0.0085188611594043777 -0.055640673778156707 0.015778577988871844 -0.055897640106684833 -0.043602266459043103 0.0061002845213621558 0.0034132607402373935 0.013402734718610832 -0.058981885459901552
leaf_weight=2914.5689921230078 1378.8399830460548 529.2393239736557 1296.7470700740814 1716.2587012201548 1909.886121198535 1449.5518610328436 91.868337154388428 1404.488861322403 629.84193317592144 706.70118056237698 779.25910539925098 851.1043406277895 584.57517427206039 1175.2976942360401 1530.7457742393017 105.15380135178566 2250.9401901215315 575.04977913200855 1111.6514999717474 274.26474243402481 1220.0502046942711 845.92154979705811 839.22658544778824 1454.9081807732582 1127.3738234043121 1005.16292065382 358.28748086094856 628.61325567960739 49.776447340846062 562.45071123540401 1373.1498400270939 420.80359375476837 267.55079138278961 4529.4842696785927 758.9031897187233 2297.6333069056273 1261.1899351328611 2486.8601226657629 2977.012476220727 1335.5028845816851 967.84335085749626 1880.7102383822203 716.73387631773949 1953.6430007815361 1822.2595673501492 787.32356470823288 315.36022908985615 557.31189571321011 478.64441922307014 1257.8930226117373 471.31282259523869 2856.1629852503538 1307.9640194326639 255.68811659514904 860.43372435867786 1214.8186788260937 91.696853250265121 256.26073807477951 129.9631295055151 1225.2138755917549 78.194326624274254 450.71156348288059
leaf_count=5075 4120 2567 4099 9212 4657 4925 365 3407 2783 3064 4536 2642 2914 6681 6401 598 7296 1885 5014 1335 5071 3880 5075 2841 4358 3147 1318 2375 348 2239 7228 1716 1213 28411 2446 12541 5117 12386 8245 8170 3384 3846 3062 10209 4231 3219 981 1834 2732 5957 1816 7380 5557 1150 5243 4122 551 1431 511 4767 285 2786
internal_value=-7.55662e-08 -0.016807 0.023598 -0.0286923 0.033531 0.0113932 -0.0180608 0.0253443 -0.00504731 0.000345559 -0.0420234 -0.00977396 0.0172751 -0.0154673 -0.0112924 0.0207944 0.00675142 -0.0109875 -0.0137663 -0.0498386 -0.0208309 -0.0359579 -0.0299489 0.049491 0.0246615 0.0298521 -0.00142858 0.0206569 -0.0252722 -0.0224977 -0.0292269 -0.0292245 0.0135347 -0.0565582 0.00455366 -0.0329568 0.00889552 -0.0302685 0.0247249 -0.0527722 -0.00247403 0.0434177 0.00809477 -0.026962 0.0363397 -0.00577794 0.000632018 0.0361382 -0.0264642 -0.0141934 -0.0116645 0.0425973 0.0025552 -0.038442 -0.0414113 0.027892 -0.00557519 -0.0169301 -0.036051 -0.000577148 -0.0405123 -0.0390546
internal_weight=69002 40299.8 28702.2 28351 21312.1 11948.8 15772.4 14086.5 7390.11 7475.01 12578.6 10780.7 9738.56 8261.33 6093.37 8682.67 6033.41 7007.84 6432.79 7636.13 3803.72 4991.73 4942.45 7225.64 7352.31 4473.81 3782.47 5947.82 4103.22 3627.75 2583.67 3564.36 1272.71 4803.75 2289.65 3143.55 2519.35 3266.12 4820.44 1427.37 2805.05 4347.91 2166.29 3065.29 3201.1 837.1 1668.25 2467.2 1441.61 1616.18 1055.89 4311.07 2275.81 2832.38 2576.69 4191.83 1352.89 962.962 1953.82 1330.37 1253.49 1823.86
internal_count=276755 187195 89560 144699 58235 42496 73784 42939 31325 29785 70915 47112 32602 37821 27226 27872 22558 30855 28970 45351 18379 26672 25564 15296 22507 12711 15262 19100 20489 17462 13308 18137 4360 29746 8847 16421 9291 16922 14742 8535 11508 10337 7987 15223 8351 3567 6649 6491 7227 7275 4730 10221 8941 15605 14455 12367 5668 4495 10525 5365 6966 10014
is_linear=0
shrinkage=0.05


Tree=4
num_leaves=63
num_cat=0
split_feature=45 46 46 46 46 45 46 45 45 400 44 407 44 44 20 6 44 407 16 44 45 45 334 374 44 6 320 45 45 407 16 21 44 23 11 44 407 21 342 320 407 408 21 20 152 44 45 433 374 21 44 45 116 395 45 44 6 334 407 44 386 334
split_gain=9929.24 4712.54 3320.33 1338.47 1144.32 892.251 722.214 694.903 590.91 442.377 420.631 416.434 376 319.177 265.204 256.757 234.962 234.384 219.748 210.334 203.376 196.865 195.126 191.006 185.509 184.243 183.526 170.325 166.466 155.533 149.951 147.758 145.694 145.538 144.1 142.555 139.365 136.074 134.545 124.638 120.813 120.253 116.061 113.69 112.863 110.563 114.496 109.957 108.579 104.488 103.518 102.591 102.296 101.504 100.598 100.438 97.3333 96.5887 96.4658 95.5668 94.7375 93.1982
threshold=0.48863543570041662 0.39535748958587652 0.53617310523986828 0.56649360060691845 0.28006245195865637 0.25170813500881201 0.22195798158645633 0.66424405574798595 0.24617037177085879 545.00946044921886 0.52753433585166942 0.85186177492141735 0.52475199103355419 0.54332682490348827 -20036.499999999996 1.0000000180025095e-35 0.21597693115472796 0.89287593960762035 1.5000000000000002 0.55087542533874523 0.67585098743438732 0.2693829238414765 9230.1748046875018 0.44504831731319433 0.63541463017463695 1.0000000180025095e-35 0.33215230703353887 0.11771276965737344 0.6009390950202943 0.76768454909324657 2.5000000000000004 -2869.4999999999995 0.68995374441146862 -4110.4999999999991 225085.50000000003 0.30136474967002874 0.88294637203216564 -3089.4999999999995 0.10890039056539537 0.52908101677894603 0.84092277288436901 20.500000000000004 -90.499999999999986 -15534.499999999998 82587.375000000015 0.31042939424514776 0.067723959684371962 -67.499999999999986 0.4817046076059342 -2437.4999999999995 0.28276640176773077 0.61525872349739086 -529.95834350585926 -1453.4999999999998 0.70372965931892406 0.6459135413169862 1.0000000180025095e-35 12029.152343750002 0.91989260911941539 0.72884276509284984 194658.34375000003 20850.525390625004
decision_type=2 2 2 2 2 2 2 2 2 2 2 2 2 2 2 2 2 2 2 2 2 2 2 2 2 2 2 2 2 2 2 2 2 2 2 2 2 2 2 2 2 2 2 2 2 2 2 2 2 2 2 2 2 2 2 2 2 2 2 2 2 2
left_child=2 6 4 7 21 19 26 9 25 13 17 20 14 16 52 34 -3 39 50 27 24 -1 36 30 47 45 54 -6 59 53 -18 -17 38 -32 -10 -30 -16 -36 -11 57 -14 56 49 -39 -38 -4 -47 -5 -15 -29 -9 -19 -7 -20 -2 -45 -35 -8 61 -13 -46 -48
right_child=1 3 8 11 5 12 10 18 15 32 -12 28 40 48 22 31 23 51 29 -21 -22 -23 -24 -25 -26 -27 -28 42 35 -31 33 -33 -34 41 37 -37 44 43 -40 -41 -42 -43 -44 55 60 46 58 -49 -50 -51 -52 -53 -54 -55 -56 -57 -58 -59 -60 -61 -62 -63
leaf_value=0.056495542211045219 0.018139804807799625 0.021469967282202754 0.04271499808839551 -0.026469777951312608 0.048759877314366526 -0.028639414188857539 0.015988373671333531 0.0011551758887145048 -0.048993412101559691 0.020978449852205729 -0.026781264808201106 -0.035241052731029468 0.0034321019651164819 -0.044597736717260555 0.034918072682300613 -0.029830786943744726 -0.033312345303510717 0.0052552403498441671 -0.024222047362661054 0.0047973601802227487 -0.04458206617449563 0.039301049687328005 0.0086915459865022811 0.012643704668735628 -0.053915517434888038 0.027159327274958983 0.035178094664040281 0.017810484228987664 -0.019835522227913918 -0.033744422946454897 -0.027740559149837599 0.0043880596268285306 -0.039714174944378365 -0.0097579990437803993 -0.04205184848971031 -0.056167491751510361 -0.0062624391830133188 -0.02477656590349861 -0.0044193945504930748 0.029203754697391143 -0.029250747846342691 -0.021242107728228488 0.010897503642584679 0.0022977133068876189 0.031579438826733364 0.024069041226237643 0.0088456609685328424 -0.0063277171729391917 0.0084903789966406743 0.040599343517795858 -0.053163099043323829 -0.016253744941735926 0.0042158137296384769 0.0060097164191057675 -0.021196281894749685 -0.069305382658367262 0.01298573429827957 -0.0081782330144030864 -0.025496738688732347 -0.074588243872230051 0.0098867952427337397 -0.041879276952776941
leaf_weight=3333.0290533751249 1234.1950460672379 478.00649902224541 148.63027594983578 1514.6186204403639 2774.2776888459921 311.49345943331718 1246.2316910177469 93.640926226973534 532.79429884254932 1365.1155674308538 1150.6462758630514 2273.3572982549667 544.2809974104166 1125.1112710386515 2448.005505785346 393.64175195991993 1217.1322711259127 1093.0813401788473 663.4120721668005 471.03305053710938 1480.1236803233624 3325.6756430715322 2253.2302056699991 566.71845716238022 399.85567778348923 1135.0211049318314 2685.1773944497108 629.18810473382473 287.32377508282661 2576.6148666739464 1237.1090725064278 1588.5970233380795 149.57135453820229 1088.3604352772236 582.24770896136761 4474.612440392375 398.78088882565498 1237.2073599845171 843.75011278688908 1098.0635396689177 588.47701123356819 1010.6396839618683 538.24130019545555 883.04318222403526 1239.0878617167473 328.9290661662817 685.07943904399872 1226.0526903271675 105.33111414313316 2507.7987235337496 1385.5543394237757 1124.897470459342 989.51032808423042 477.48182894289494 187.18664053082466 51.850666955113411 828.51019909977913 618.74067354202271 526.16509918868542 165.55740961432457 847.60477051138878 104.34573203325272
leaf_count=5942 3964 1566 377 7779 5885 1568 4221 378 3127 4422 5842 12433 2148 6512 6468 1995 6422 4145 3279 1780 8564 8056 8136 1991 2471 3431 7007 2030 1392 13722 6201 6201 823 4740 3271 28144 1631 6252 3490 3173 3021 4833 1919 3591 3467 1039 2583 5383 402 6123 8467 5149 3802 1821 860 342 2961 2642 2622 1135 3043 571
internal_value=-1.83596e-07 -0.0173786 0.0207405 -0.0283967 0.0304058 0.0233602 0.0111568 -0.018589 -0.00661312 -0.0108912 0.000565008 -0.0410173 0.0135109 -0.0167232 0.017122 -0.0166202 -0.0122563 0.00663831 -0.0334247 0.037052 -0.0293022 0.0479078 0.0208825 -0.0149665 -0.0221008 0.0113951 0.0274877 0.0394077 -0.0485347 -0.026939 -0.0178739 -0.00240727 0.00804306 -0.013362 -0.025191 -0.0539753 0.0264503 -0.0205867 0.0112769 0.0158394 -0.0135469 -0.00728589 0.0323481 -0.0148328 0.0181102 0.00141668 -0.00231583 -0.0174591 -0.0400532 0.0360286 -0.0497245 -0.00565352 -0.00365057 -0.0115696 0.0129595 -0.00167351 7.23018e-05 0.00797063 -0.00891268 -0.037912 0.022768 0.00214087
internal_weight=68869 37471.8 31397.3 27033.6 23199.7 16541 10438.2 15212.1 8197.55 10015.4 6331.66 11821.5 9620.47 7656.92 8487.71 5269.38 6426.48 5181.01 5196.7 6920.54 4620.65 6658.7 7186.71 5948.47 3140.53 2928.17 4106.56 6449.51 7200.85 3717.51 5381.75 1982.24 2358.44 4164.62 3287.14 4761.94 4933.48 2754.35 2208.87 2963.04 1132.76 2927.51 3675.23 2172.1 2485.47 1793.15 1644.52 2740.67 1230.44 3136.99 1479.2 2217.98 1301 1140.89 1421.38 934.894 1916.87 1864.97 1315.59 2438.91 2086.69 789.425
internal_count=276755 176334 100421 139331 65019 51021 37003 72030 35402 44363 25172 67301 33284 35628 28115 24779 28714 19330 27667 17737 24197 13998 22745 27148 15633 10623 11831 15957 43104 18822 25157 8196 8735 18735 16583 29536 14609 13456 7912 10036 5169 12534 10072 10185 8141 7192 6815 13162 6914 8153 8845 9294 5370 5100 4824 3933 7701 6863 5776 13568 6510 3154
is_linear=0
shrinkage=0.05


Tree=5
num_leaves=63
num_cat=0
split_feature=45 46 46 46 45 46 45 404 407 6 44 45 44 45 44 78 46 6 398 320 333 392 408 372 407 44 20 407 395 20 45 407 372 334 21 20 433 334 333 13 20 45 44 374 412 20 78 78 45 407 21 49 44 6 412 444 391 407 336 20 194 44
split_gain=9003.8 4924.22 2312.58 2007.05 1063.66 873.109 570.343 509.395 398.389 397.801 374.331 343.941 334.649 287.708 287.604 279.275 265.924 249.05 228.057 207.737 207.175 204.129 195.263 258.566 187.386 180.405 180.443 179.458 162.637 156.993 154.121 152.072 137.071 133.158 131.056 128.921 122.883 122.244 122.237 119.423 117.229 117.116 116.949 114.489 109.908 109.262 154.242 106.526 105.225 104.786 102.811 101.134 97.4949 95.603 94.7923 93.5615 93.4814 92.3802 91.4799 89.3318 87.7296 86.9181
threshold=0.41529947519302374 0.31625196337699896 0.57003265619277965 0.54512897133827221 0.61834949254989635 0.34660151600837713 0.15426684916019442 0.26256084442138677 0.74142366647720348 1.0000000180025095e-35 0.57231971621513378 0.13744141161441806 0.56677734851837169 0.63312265276908886 0.26986736059188848 1.5000000000000002 0.14509548246860507 1.0000000180025095e-35 0.94345480203628551 0.46402868628501898 9180.4501953125018 -2406.4999999999995 15.500000000000002 0.89596861600875866 0.87761092185974132 0.58533906936645519 -18382.499999999996 0.85937818884849559 -1083.4999999999998 -14899.499999999998 0.20709417760372165 0.81622976064682018 0.44504831731319433 45000.023437500007 -2026.4999999999998 -19619.499999999996 -61.499999999999993 18000.044921875004 16157.250000000002 742520.25000000012 -17207.499999999996 0.616756170988083 0.31341937184333807 0.23117408901453021 1.0000000180025095e-35 -15429.499999999998 1.5000000000000002 1.5000000000000002 0.66703766584396373 0.80953404307365429 -3051.4999999999995 0.99274998903274547 0.24702616780996325 1.0000000180025095e-35 1.5000000000000002 18.262726783752445 450906.29687500006 0.78573593497276317 35543.250000000007 -18051.499999999996 79694.011718750015 0.43300138413906103
decision_type=2 2 2 2 2 2 2 2 2 2 2 2 2 2 2 2 2 2 2 2 2 2 2 2 2 2 2 2 2 2 2 2 2 2 2 2 2 2 2 2 2 2 2 2 2 2 2 2 2 2 2 2 2 2 2 2 2 2 2 2 2 2
left_child=2 10 5 4 9 30 53 13 21 14 16 59 18 32 -3 29 -2 31 -8 35 24 -6 -20 56 40 26 -9 36 41 44 -1 60 45 -31 -26 -18 -11 47 -12 -19 -16 50 -33 -23 -10 55 58 -29 -21 -15 -28 -37 -51 57 -22 -5 -24 -7 -47 -4 -13 -45
right_child=1 3 11 7 8 6 12 25 15 27 38 17 -14 49 20 -17 19 39 22 48 54 43 23 -25 34 -27 28 37 -30 33 -32 42 -34 -35 -36 51 -38 -39 -40 -41 -42 -43 -44 61 -46 46 -48 -49 -50 52 -52 -53 -54 -55 -56 -57 -58 -59 -60 -61 -62 -63
leaf_value=0.053722122453743783 0.038545937627547606 0.025572748414580154 -0.00031576923842340226 -0.04657383773176528 -0.027702205219404197 0.04725674880541552 0.034446315747387178 -0.033003388223859169 -0.038398690766787646 0.0063055104536635142 0.00054224363411079976 0.022160321426692779 -0.015417912452408819 -0.036015827214733058 -0.011396444868983282 -0.046455753967725555 -0.015841315416135569 0.010010891028981785 0.024519517895259378 0.03348962622482856 -0.033974097428155318 -0.029692949681917047 -0.0042531905667372678 0.036350706453013477 -0.03702224786356325 -0.045299219848140095 -0.032347011353942745 0.012186990787274855 0.016860812786093346 -0.0093620866608296587 0.03911128166455026 0.015291237166190986 -0.010117836752059343 -0.073460424060087778 -0.0096671108874414897 0.015243654568337909 0.031309850395471128 -0.023334093964348462 -0.043665711993290612 -0.027175008121610635 0.012251646733305204 -0.02925403026080587 -0.033431893559979942 0.030998962825964739 -0.017756792890656032 0.023980034616061359 -0.04805791797566461 -0.017352682188386866 0.0081742974396698583 -0.014166733489569556 0.00483411506080256 -0.041637662317413282 -0.055804904269518708 0.050253704384051349 -0.0073085712508146605 -0.019308940218605519 0.02458978415108945 0.025034588774137719 -0.022869450144081288 0.030127595022105658 -0.013377808730844288 0.0012892377142981809
leaf_weight=3308.9450854361057 2221.553569406271 552.8492743819952 360.31722766160965 2492.1108622997999 840.59290698170662 761.82448111474514 2030.067049831152 1147.0737236440182 1893.5316826403141 829.06684644520283 958.03817830979824 230.57313948869705 728.81167455017567 978.48890228569508 820.2650942504406 2010.3411179929972 451.37156035006046 1352.1095714867115 2836.3414883762598 2024.5333719998598 1256.5406933426857 237.89510753750801 2199.6846086829901 584.05319055914879 581.15182764828205 656.64602825045586 244.77775199711323 1515.9279057681561 488.58636663854122 1686.4138438403606 3970.816447660327 133.50084279477596 537.35476526618004 85.113340497016907 1775.571519061923 2295.8584834635258 1206.2962364703417 428.26011633872986 186.86532509326935 256.93809479475021 1451.2722959518433 849.0783371925354 1589.8832994699478 314.34026442468166 977.90869662165642 112.59579139947891 679.75930197536945 382.13320553302765 514.86951291561127 145.93449997901917 773.25867187976837 80.897674366831779 3835.1296091675758 1534.8517713397741 453.59311723709106 360.11969085037708 322.05050411820412 1211.2576005458832 1396.917591303587 727.49234277009964 703.53324329853058 1135.3297834843397
leaf_count=6012 5341 1695 1446 14866 4293 1634 5375 6173 10418 3124 3777 774 3389 5500 3592 11898 2016 4944 8598 5328 6577 1214 8952 1513 3114 3922 1299 5423 1697 7504 9541 474 2442 566 7861 7726 3394 2087 1035 1268 5112 4465 8564 913 4676 385 4079 1812 1844 682 3110 430 24592 3084 1962 1801 1002 3533 7047 2079 3236 4545
internal_value=-2.97977e-07 -0.0136214 0.024051 -0.0219741 -0.0118387 0.032047 0.023875 -0.0360654 -0.0244676 -0.00153451 0.0199771 -0.00505313 0.0170131 -0.0419133 -0.0090136 -0.0308878 0.0239976 -0.0114519 0.019978 0.0179763 -0.0120303 -0.00757158 0.015035 0.00637333 -0.00653546 -0.021249 -0.0167405 0.0102821 -0.0088215 -0.0241472 0.0457525 -0.0208518 -0.0341238 -0.0124417 -0.0164127 0.0086554 0.0211248 0.000795463 -0.00667315 0.00407292 0.00371219 -0.015542 -0.0296576 0.00245568 -0.0313688 -0.0366826 -0.0282809 0.00623982 0.0283569 -0.0506754 -0.00410575 0.0133076 -0.0542786 0.0408949 -0.0269014 -0.0431314 -0.000569658 0.0336148 -0.0193749 0.0200438 -0.00460564 0.00773137
internal_weight=68709.3 43866.2 24843.1 35132.2 20434.4 19488.7 12208.9 14697.8 9181.47 11252.9 8733.99 5354.35 8701.01 10538.4 6891.24 6653.31 7589.08 4266.54 7972.2 5367.53 6338.39 2528.16 5942.13 3105.79 4628.26 4159.42 3502.77 4361.68 2355.7 4642.97 7279.76 2657.49 5578.86 1771.53 2356.72 2828.13 2035.36 2326.32 1144.9 1609.05 2271.54 1867.11 1723.38 1687.57 2871.44 5041.5 2189.27 1898.06 2539.4 4959.55 1018.04 2376.76 3981.06 3507.93 1710.13 2852.23 2521.74 1973.08 1509.51 1087.81 934.106 1449.67
internal_count=276755 201337 75418 173840 91780 52633 37080 82060 46027 45753 27497 22785 28829 61394 29913 35062 22685 19260 25440 17344 28218 10965 20065 11467 19679 20666 16744 15840 10571 23164 15553 13048 30620 8070 10975 10172 6518 9322 4812 6212 8704 8874 9038 6672 15094 28178 11511 7235 7172 30774 4409 8156 25274 8251 8539 16667 9954 5167 7432 3525 4010 5458
is_linear=0
shrinkage=0.05


Tree=6
num_leaves=63
num_cat=0
split_feature=45 320 45 45 320 407 404 20 44 44 45 346 44 344 44 20 407 21 20 44 45 400 44 334 95 44 89 404 412 45 16 408 44 374 16 386 99 404 44 374 16 372 20 334 44 444 15 443 282 181 20 11 374 44 406 89 133 144 368 11 404 149
split_gain=8180.33 1673.65 1613.87 1061.04 937.891 621.13 553.196 445.317 418.904 377.756 365.705 333.117 319.575 313.446 304.93 304.158 264.13 256.764 258.943 237.579 234.126 233.211 226.554 206.232 193.938 191.626 186.804 182.433 168.224 166.83 164.696 164.4 162.27 155.56 152.966 145.346 144.254 144.1 134.32 132.71 125.812 131.324 129.293 123.358 120.881 119.981 117.421 115.079 113.284 113.127 109.938 109.848 107.631 105.62 105.16 104.781 104.058 101.684 101.667 100.854 100.189 97.2793
threshold=0.48863543570041662 0.20922231674194339 0.24617037177085879 0.65469303727149974 0.20922231674194339 0.89287593960762035 0.080013226717710509 -20036.499999999996 0.58792203664779674 0.66542431712150585 0.61979857087135326 -1012.8452148437499 0.24702616780996325 -1520.4999999999998 0.50610950589180004 -19319.499999999996 0.74142366647720348 -3089.4999999999995 -19383.499999999996 0.5409483313560487 0.077649947255849852 600.83132934570324 0.50610950589180004 12148.672851562502 -379.86666870117182 0.16077015548944476 -849.95001220703114 2.1964792013168339 1.0000000180025095e-35 0.73017221689224254 1.5000000000000002 15.500000000000002 0.20520228147506717 0.48968963325023657 3.5000000000000004 99410.941406250015 270.08999633789068 0.57156577706336986 0.27957202494144445 0.27924077212810522 2.5000000000000004 0.41206791996955877 -15164.499999999998 38732.804687500007 0.31926910579204565 20.46362400054932 6.5000000000000009 29.500000000000004 1.5000000000000002 -1898.4999999999998 -19619.499999999996 276295.50000000006 0.87119814753532421 0.24072401970624926 4.5000000000000009 -1142.7735595703123 -660.91665649414051 1734.299987792969 36814.791015625007 765042.75000000012 0.3650109469890595 2628814.5000000005
decision_type=2 2 2 2 2 2 2 2 2 2 2 2 2 2 2 2 2 2 2 2 2 2 2 2 2 2 2 2 2 2 2 2 2 2 2 2 2 2 2 2 2 2 2 2 2 2 2 2 2 2 2 2 2 2 2 2 2 2 2 2 2 2
left_child=2 6 7 5 17 11 10 24 12 15 36 44 -5 38 20 45 58 47 -19 25 -9 23 31 28 -1 -7 -27 39 56 43 53 -20 -12 35 -28 -22 40 61 -8 49 -2 42 -42 46 -3 -6 -18 -4 -31 57 -32 -48 60 -13 -46 -38 -17 -15 -14 -29 -33 -37
right_child=1 3 4 8 9 19 13 14 -10 -11 32 30 16 27 -16 21 29 18 22 -21 33 -23 -24 -25 -26 26 34 59 -30 48 50 52 -34 -35 -36 37 55 -39 -40 -41 41 -43 -44 -45 54 -47 51 -49 -50 -51 -52 -53 -54 -55 -56 -57 -58 -59 -60 -61 -62 -63
leaf_value=-0.0095805335428220152 -0.049702404047433972 0.024821415737703422 -0.037696701833655206 0.021672563261493083 -0.0020908579826746996 0.034020830681878569 0.0068223116866984474 0.051556199675040104 -0.045233113586913141 -0.019260812162650007 0.007023906761294137 0.047818035208607383 -0.05141997289614722 -0.049265781349522003 0.008916139894619696 -0.0015774776589499663 -0.027207167447528963 -0.019743628365617789 0.021111462180165824 -0.031941090986385701 0.044407119876802105 0.037761777293617571 -0.025795312116627767 0.0043883028176702294 0.022547945027045019 -0.015880503071219059 -0.02084774252895652 0.041237244040963045 0.036433172240172611 -0.049985555902895218 0.0056502664777782581 -0.012869207428570079 -0.04807879447312146 0.054558605606198685 0.01064592820434432 0.021528493679647799 -0.022435636741246687 0.041078129492995441 -0.028635176596626778 0.020089223546545791 -0.040103621140453793 0.010747996520248097 -0.013210994875104427 -0.053056152743689161 -0.022026092882500084 0.031933953620493616 -0.033569118095937205 -0.0010055942748048202 -0.013950212239364421 -0.0068904357017364973 0.028104730984159765 -0.0011302726928892816 0.034695200488361638 -0.0052823002218271697 0.00028653327873354867 0.012670046604927028 0.021604633241090337 0.015961501981984438 2.9754347409109632e-05 -0.050839500525471495 0.012416917315928169 -0.073450603427395941
leaf_weight=701.28271143138409 679.82791382074356 362.35131093859673 792.07010072469711 516.50051592290401 1806.4336109906435 283.53539599478245 287.66703858971596 2887.7963934838772 1510.3347949981689 649.04693873226643 137.5886050760746 105.37920081615448 101.83203412592411 331.12652605772018 880.07039427757263 579.15461012721062 1489.749143153429 1403.0749743431807 1662.0687695592642 1050.7364508956671 1590.697532966733 2268.8700610846281 518.00086225569248 1739.5596082061529 1422.3771914541721 3167.3759787231684 504.20434530079365 291.74105387926102 1844.3504494130611 926.19379009306431 666.15169289708138 1151.4939045459032 4617.9194582104683 842.06290717422962 1638.4629459828138 2917.1182960569859 506.62752562761307 1221.4948465526104 3734.7725993692875 332.59080831706524 1116.7567833065987 229.46097901463509 745.16006201505661 258.26909503340721 735.07625322043896 302.4811006039381 327.63971564173698 292.6698275655508 285.27324004471302 1194.7698991447687 2999.8839894831181 1282.6711147427559 197.29190762341022 841.12770359218121 1875.1171925365925 366.18486431241035 2948.4165501147509 72.904454782605171 1681.9602244198322 33.115182131528854 593.72444227337837 27.210495144128799
leaf_count=3018 4109 1119 4256 1683 7322 787 1095 5489 9021 3102 538 230 598 1934 3126 2325 7785 6763 5292 5752 3510 5658 2600 6545 4374 14885 2414 752 4730 5619 2547 5113 28216 1548 5962 8849 2546 2829 19486 1105 6372 853 3456 1580 3605 857 1757 1199 1330 5180 8811 5471 526 3492 7589 1339 9166 258 6865 193 2053 171
internal_value=-4.16395e-07 -0.0158124 0.0188735 -0.0072774 0.00959765 0.00103502 -0.0289596 0.0327974 -0.0213913 0.0178503 -0.0373518 0.0108122 -0.0161499 -0.0177325 0.0370705 0.0199468 -0.0192246 -0.0055563 -0.00119019 -0.0101265 0.0396825 0.0238042 0.00512427 0.0193511 0.0119384 -0.00602869 -0.00816718 -0.00281596 0.0241964 -0.0255939 0.0192238 0.00956761 -0.0464845 0.0344861 0.00323496 0.0315499 -0.0254335 0.0266404 -0.0260994 -0.00864689 -0.0310165 -0.0249424 -0.0293409 -0.019856 -0.00224034 0.00278931 -0.0170901 -0.0277972 -0.0415 -0.0146247 0.0240246 -0.0077304 -0.000309653 0.000629617 -0.00599709 -0.00770719 0.0177986 -0.037496 -0.00290738 0.0318511 -0.00426685 0.0206507
internal_weight=68526.9 37288 31238.8 22609.8 18748.7 14229.4 14678.2 12490.1 8380.42 12138.3 8399.53 7585.09 6870.09 6278.69 10366.5 11489.3 6353.59 6610.39 5525.65 6644.32 9486.38 9380.35 4122.58 7111.48 2123.66 5593.58 5310.04 2256.25 5371.92 4569.8 4612.54 3604.58 4755.51 6598.58 2142.67 5756.52 3644.02 4165.82 4022.44 1931.39 2771.21 2091.38 1861.92 3358.33 2972.54 2108.91 3100.06 1084.74 1211.47 1598.8 3666.04 1610.31 1942.51 946.507 2610.19 872.812 3527.57 404.031 1783.79 324.856 1745.22 2944.33
internal_count=276755 176334 100421 98902 67507 57193 77432 32914 41709 39705 47429 27393 32688 30003 25522 36603 31005 27802 22347 29800 22396 28424 15584 22766 7392 24048 23261 9422 16221 23542 15080 12984 28754 16907 8376 15359 18675 11849 20581 8477 14790 10681 9828 16593 12313 8179 15013 5455 6949 7372 11358 7228 7692 3722 11194 3885 11491 2192 7463 945 7166 9020
is_linear=0
shrinkage=0.05


Tree=7
num_leaves=63
num_cat=0
split_feature=45 46 46 46 45 46 45 404 78 404 46 20 6 44 44 45 74 6 6 44 320 192 44 408 44 44 20 342 407 46 404 374 408 78 404 350 21 45 404 45 104 24 13 44 442 87 116 334 13 374 444 20 49 77 44 372 408 444 115 89 21 11
split_gain=7426.54 4320.79 2031.29 1745.79 878.736 794.113 481.137 438.326 351.502 350.49 322.519 301.303 299.196 294.878 268.903 243.554 226.079 214.908 199.558 199.302 180.634 179.366 169.751 169.169 160.441 158.027 157.67 153.733 152.768 150.13 142.913 138.389 163.325 134.588 130.617 127.515 121.225 120.641 117.18 115.087 135.586 114.764 111.273 110.299 110.271 107.201 105.102 103.723 102.237 100.089 99.3882 100.228 101.627 98.172 98.0757 96.1596 102.637 93.7182 91.9569 90.6164 89.8263 89.203
threshold=0.41529947519302374 0.31625196337699896 0.57003265619277965 0.54512897133827221 0.61834949254989635 0.34660151600837713 0.14575342833995822 0.26256084442138677 1.5000000000000002 0.046164946630597122 0.12890933454036715 -17084.499999999996 1.0000000180025095e-35 0.563867747783661 0.57231971621513378 0.57846233248710643 54.500000000000007 1.0000000180025095e-35 1.0000000180025095e-35 0.51660504937171947 0.46402868628501898 94729.500000000015 0.50893419981002819 15.500000000000002 0.30136474967002874 0.58533906936645519 -18448.499999999996 0.10396733880043031 0.77272987365722667 0.16590650379657748 0.27533206343650823 0.77459675073623668 17.500000000000004 1.5000000000000002 0.08331699296832086 6445.5998535156259 -1488.4999999999998 0.25614911317825323 0.060997823253273971 0.077649947255849852 2041065.8750000002 8.5000000000000018 675191.25000000012 0.18366928398609164 19.637626647949222 -2328.4999999999995 -680.40457153320301 7875.5625000000009 1113750.0000000002 0.69274476170539867 14.319574356079103 -19678.499999999996 0.99230000376701366 1.0000000180025095e-35 0.50610950589180004 0.68989801406860363 16.500000000000004 15.677552700042726 -20.499999999999996 -992.38751220703114 -3051.4999999999995 251640.00000000003
decision_type=2 2 2 2 2 2 2 2 2 2 2 2 2 2 2 2 2 2 2 2 2 2 2 2 2 2 2 2 2 2 2 2 2 2 2 2 2 2 2 2 2 2 2 2 2 2 2 2 2 2 2 2 2 2 2 2 2 2 2 2 2 2
left_child=2 10 5 4 8 29 -7 15 11 19 -2 18 21 16 20 45 23 31 58 33 43 61 35 38 -17 26 -9 -28 -25 -1 37 32 -11 41 53 -13 -37 -23 -8 -14 48 -6 -19 -12 59 -5 -18 -32 -41 -26 51 -45 -53 -10 -31 56 -43 -30 -3 -34 -29 -4
right_child=1 3 12 7 9 6 13 25 34 17 14 22 39 -15 -16 24 46 42 -20 -21 -22 30 -24 28 49 -27 27 60 57 54 47 -33 44 -35 -36 36 -38 -39 -40 40 -42 55 -44 50 -46 -47 -48 -49 -50 -51 -52 52 -54 -55 -56 -57 -58 -59 -60 -61 -62 -63
leaf_value=0.052472688923807631 0.036408501684576558 -0.034965839885332882 -0.028836650169079804 -0.0393422537632339 -0.046609700665510088 0.038046919489627844 0.022628522607961294 -0.030848565585227996 -0.043608439846934181 -0.0067510942175656287 0.043120229845625899 -0.01336478905162812 0.041402013597794864 -0.014361718914789882 -0.011490794196640876 -0.014887573908642716 -0.030997943580751964 0.0098087857264279685 0.0092005038353188944 -0.050449318758312572 0.02711399976458382 -0.01476794146312068 -0.014104932276890227 0.028264928820459403 -0.047730964978660917 -0.042318340555189279 0.0077041317173274591 -0.039208298912494499 0.0018199514461941218 0.039814293481322892 0.011199093193638592 0.015719899804228041 -0.057000799962015118 -0.040944215188604055 -0.0047946959390504917 0.0057179929787260558 0.022535339688507336 -0.040462331606000192 0.041909265353387473 0.014970582552356483 -0.021575578995937456 -0.010040281259765728 -0.020081886631861116 -0.023484305412978482 -0.017848910483382614 -0.021594735063258944 0.0059912767288612225 -0.024263876848726065 -0.052026217845580203 -0.016151479793375941 0.025737741530615324 0.0085523974881501451 -0.054199808347847968 -0.017044047078780895 0.016391351000329457 0.014704373437094648 -0.032375825783186596 0.028911048499296078 -0.011436205676865117 -0.024403615105008662 -0.010876793361785183 0.019380408676325119
leaf_weight=2507.3068752735853 2058.5438279211521 567.45611773431301 119.53740850090981 1378.8972711861134 354.46614943444729 3268.2360205352306 2017.916819870472 1129.3239497244358 574.23150607943535 850.01473984122276 223.92075152695179 404.05751015245914 249.61672432720661 751.28049029409885 910.01478472352028 429.87617301940918 232.94491754472256 1234.2715808898211 1017.3562197238207 1078.8475227355957 2719.1095426529646 876.79423944652081 626.12029777467251 1264.9742841422558 6145.8023748546839 650.6543755531311 929.34353737533092 380.95008216798306 1843.4557703435421 4199.4037478417158 502.05345383286476 236.75532646477222 582.34664560854435 1086.1580225974321 1117.6867699325085 1759.8750012665987 2739.7405614703894 953.77648232877254 1292.9714213758707 1372.8290573656559 375.14567895233631 1225.1132128685713 416.39800095558167 329.34462696313858 625.49499598145485 2221.9817523956299 1093.7584128677845 349.88124726712704 59.406891867518425 261.58918979763985 548.44102676212788 1854.5031333565712 66.845446422696114 882.01301172375679 500.13369573652744 228.85328099131584 886.52958205342293 386.09637579321861 1547.9288327991962 336.33258605003357 1053.3795255720615 485.54207773506641
leaf_count=4423 5029 3017 614 7955 2062 7676 6054 6110 3276 3730 525 1784 592 3488 4068 2064 1200 4644 3732 6809 7649 4037 2954 3515 38692 3922 3624 2152 6992 9544 1841 832 3625 6388 4656 6582 8596 5487 2954 4713 1778 5614 2017 1566 3020 11386 4101 1717 344 1297 1650 6621 389 4211 1586 813 4771 1100 6945 1702 4858 1662
internal_value=-4.48392e-07 -0.0123941 0.0219093 -0.0202447 -0.0107931 0.0294429 0.0216441 -0.0334533 -0.00142792 -0.0223043 0.0191134 0.00339261 -0.00537787 0.0156094 0.0137614 -0.0389151 0.0183782 -0.0118737 -0.00899654 -0.0314936 0.0177634 -0.0147356 0.0104113 0.0220592 -0.0444578 -0.0196944 -0.0154801 -0.00813734 0.0143859 0.0425927 -0.0202823 -0.0207466 -0.0243527 -0.0260851 -0.0176514 0.0135416 0.0159578 -0.0281554 0.0301581 0.00957803 0.00518283 -0.0200964 0.00226856 0.00935284 -0.0340417 -0.0283909 -0.000503356 -0.0033652 0.0121917 -0.0464417 0.00665157 0.00200072 0.00636919 -0.027519 0.0373216 -0.016081 -0.0194174 0.00651138 -0.0177481 -0.0450668 -0.0184015 0.00985481
internal_weight=68373.6 43670.6 24703.1 34959.8 20378 19358.5 12151.6 14581.8 11236.5 9141.58 8710.72 8662.53 5344.58 8883.4 6652.18 10438.1 8132.12 4281.61 3132.74 4859.97 5742.16 3287.58 5529.79 6805.41 6837.27 4143.65 3493 2363.67 3494.53 7206.84 2682.51 2630.94 2394.19 3781.12 2573.93 4903.67 4499.62 1830.57 3310.89 2057 1807.38 2694.96 1650.67 3023.05 1544.17 3600.88 1326.7 851.935 1432.24 6407.39 2799.13 2250.69 1921.35 1456.24 4699.54 2340.5 2111.64 2229.55 2115.38 918.679 1434.33 605.079
internal_count=276755 201337 75418 173840 91780 52633 37080 82060 45753 46027 27497 33610 22785 29404 22468 61394 25916 19570 13694 26457 18400 15358 19916 20615 42053 20666 16744 10634 11607 15553 13082 12909 12077 19648 12143 16962 15178 9524 9008 7427 6835 13260 6661 10751 8347 19341 5301 3558 5057 39989 10226 8576 7010 7487 11130 11198 10385 8092 9962 5327 7010 2276
is_linear=0
shrinkage=0.05


Tree=8
num_leaves=63
num_cat=0
split_feature=45 46 46 46 46 45 16 46 45 6 407 44 6 398 45 139 372 21 407 45 6 44 44 333 16 333 45 12 6 11 333 44 7 20 444 45 45 398 20 407 45 334 44 334 407 398 320 412 44 87 45 374 104 408 84 45 404 11 433 176 45 44
split_gain=6743.38 3448.19 2400.93 973.056 907.452 671.304 546.853 533.264 408.823 403.085 320.981 276.698 261.051 229.184 210.562 208.882 196.771 193.856 191.512 188.46 187.685 186.749 183.638 180.01 174 164.955 164.514 150.538 148.324 146.697 145.935 140.329 140.059 136.574 133.433 126.894 122.583 121.662 126.272 117.494 112.411 110.372 109.799 109.34 107.182 105.47 102.373 96.5878 96.3636 96.0919 92.0923 89.6719 113.054 88.6345 107.279 88.1823 86.8478 86.4659 86.148 85.7882 85.7005 84.7441
threshold=0.48863543570041662 0.39535748958587652 0.53617310523986828 0.56649360060691845 0.2425239831209183 0.26097631454467779 1.5000000000000002 0.25328075885772711 0.24617037177085879 1.0000000180025095e-35 0.85186177492141735 0.51132869720458995 1.0000000180025095e-35 0.92762091755867015 0.71892666816711437 364.07142639160162 0.81866538524627697 -4461.4999999999991 0.92157796025276195 0.65469303727149974 1.0000000180025095e-35 0.55087542533874523 0.31926910579204565 18231.750000000004 1.5000000000000002 9180.4501953125018 0.677210032939911 16053.750000000002 1.0000000180025095e-35 273672.00000000006 12555.225097656252 0.29497572779655462 1.0000000180025095e-35 -20888.499999999996 13.045875549316408 0.6009390950202943 0.5833972990512849 0.94130596518516552 -14952.499999999998 0.88294637203216564 0.20709417760372165 17325.224609375004 0.30136474967002874 5976.8549804687509 0.7569570541381837 0.93750423192977916 0.45692852139472967 1.0000000180025095e-35 0.16967506706714633 -2750.4999999999995 0.70072087645530712 0.68237251043319713 87696.000000000015 18.500000000000004 0.074175771325826659 0.67291221022605907 0.35559079051017767 279173.25000000006 -75.499999999999986 -722.49999999999989 0.67585098743438732 0.72884276509284984
decision_type=2 2 2 2 2 2 2 2 2 2 2 2 2 2 2 2 2 2 2 2 2 2 2 2 2 2 2 2 2 2 2 2 2 2 2 2 2 2 2 2 2 2 2 2 2 2 2 2 2 2 2 2 2 2 2 2 2 2 2 2 2 2
left_child=2 7 4 6 40 21 31 19 27 13 24 18 15 50 23 -7 22 -10 43 46 29 33 -15 32 -5 39 28 -4 51 -19 -21 -3 -11 -6 55 61 57 -29 -39 58 -1 47 -37 -9 -35 -16 -2 -14 -20 -34 59 52 -26 54 -38 -33 -31 -24 -17 -8 -13 -12
right_child=1 3 8 10 5 12 9 11 17 14 35 60 41 16 45 25 -18 20 48 30 -22 -23 36 -25 26 -27 -28 37 -30 56 -32 34 49 44 -36 42 53 38 -40 -41 -42 -43 -44 -45 -46 -47 -48 -49 -50 -51 -52 -53 -54 -55 -56 -57 -58 -59 -60 -61 -62 -63
leaf_value=0.052814604598698578 0.019570128697694221 0.00011471177148403577 -0.011771521536606169 -0.042426507911357048 0.013937830833925635 -0.017094604209634399 0.013936409370764614 0.021949990194169634 -0.042577282831925516 0.019254764423761641 -0.02964867122981988 -0.014346947749400624 0.01897037733658628 0.0069348651299581321 0.012138917958284772 0.0056179839944499937 0.0036928200525335069 -0.037880142002174343 0.039844045677447287 0.015487725474555633 0.0014562203301985753 0.0025898990761013523 -0.036493491948326968 -0.022553428129643428 0.01963236103160958 -0.0073278903303786672 -0.036153798807026218 0.035462345581013778 0.0030099986968061105 -0.018765526441487299 -0.021166178835975422 -0.033600072745057892 -0.044687680242217753 0.045003113081850329 -0.015303856124972863 -0.016300286570290649 -0.030370517569115699 -0.0043270712701998261 0.023091983366121713 0.004849746605454737 0.037856588337290824 0.0044293191631816168 -0.048299160790205353 0.0025737849434359457 0.0311552155114821 -0.042276293433824275 0.036791561125119158 0.037156365623844063 -0.014096663941053092 0.0023643897215341264 -0.030248261493081526 0.011550975021871024 -0.030804161424979631 -0.041770054323197095 0.0075417672939775554 -0.052608342053045577 0.0035565287032255938 -0.0094765963684739427 0.028979673229122746 -0.019415820546675136 -0.045235996474132428 -0.067169869676804259
leaf_weight=2037.063512519002 1706.332927569747 295.17376606166363 676.51376600563526 1041.0484414547682 814.99913987517357 923.33883713185787 878.63649646937847 1405.4338797330856 548.45359958708286 1755.8775381445885 2242.3127197027206 709.56030873954296 2044.0705410093069 407.5250178873539 116.68101443350315 548.24433647096157 661.65910531580448 763.26065364480019 88.436917915940285 1242.1097262948751 1810.4116954803467 535.23766951262951 399.60201679170132 507.64868322014809 122.02821311354637 1205.8535915017128 1014.5795242935419 554.30482193827629 970.79656548798084 1508.8820367902517 347.53591710329056 1573.2738551646471 116.38291288912296 2075.2867092937231 630.53306630253792 285.70484191179276 1346.0712242871523 900.19320739805698 786.98584941029549 1846.8084400296211 3275.9154627919197 775.58082507550716 4346.3976455032825 1510.6997404098511 4277.1625273674726 376.02196404337883 1745.9311427175999 1135.8012559860945 1298.5396150201559 1604.0502200573683 199.40865835547447 176.8696866184473 1241.3078276664019 1634.2400074750185 216.62120831012726 996.68643346428871 612.67488393187523 1143.9528975337744 1408.2640766501427 247.00708575546741 328.51324570178986 161.31198590993881
leaf_count=3409 5313 1218 2961 6210 2688 4129 3110 4403 3177 5968 12433 3395 6441 1552 435 1996 2588 4327 227 4084 7262 2024 2153 2500 451 5040 5879 1471 4137 7561 1602 8665 664 4262 3116 1392 7259 3759 2432 6900 7508 2880 28144 5887 10995 2189 4207 2836 5916 6407 1051 688 6832 9505 883 6443 2452 5155 3911 1169 1969 1135
internal_value=-6.13504e-07 -0.0143934 0.0171847 -0.0238985 0.0254824 0.0200128 -0.0155349 0.0100573 -0.00610076 -0.0103153 -0.0347884 -0.000951955 0.0113918 -0.0176946 0.00144551 0.00475804 -0.0219743 -0.0144486 0.0046376 0.02172 -0.0111628 0.0310795 -0.0252732 0.00525897 -0.0244657 0.00878614 -0.0191621 0.00890036 -0.0122965 -0.0190821 0.00747427 -0.0328727 0.00932043 0.033207 -0.035915 -0.0414884 -0.0280421 0.0151394 0.00846257 0.0138951 0.0435917 0.0213413 -0.0463255 0.0119122 0.0356792 -0.0293898 0.0282796 0.0254661 -0.0106573 -0.000818563 0.00106971 -0.0219443 -0.0262897 -0.0336289 -0.0251151 -0.0409719 -0.0123192 -0.0164708 0.0224334 0.00661772 -0.0241222 -0.0321668
internal_weight=68157.8 37092.5 31065.3 26709.4 22903.6 17590.6 15107.1 10383.1 8161.68 11611.4 11602.4 5341.18 9887.96 7134.72 4476.66 5932.51 5809.67 5243.68 4303.11 5041.91 4695.23 7702.69 5148.01 3983.96 4566.63 5009.17 3525.58 2918 2511 2884.82 1589.65 3495.67 3476.31 7167.45 3200.49 7035.73 4740.49 2241.48 1687.18 3803.32 5312.98 3955.45 4632.1 2916.13 6352.45 492.703 3452.26 3179.87 1386.98 1720.43 1325.05 1540.21 1363.34 3196.93 1562.69 2569.96 2121.56 1543.55 1956.51 1125.64 1038.07 2403.62
internal_count=276755 176334 100421 139331 65019 54102 72030 37003 35402 52588 67301 21797 34133 34425 18163 21976 29095 24779 16433 15206 21602 19969 26507 15539 24197 17847 17987 10623 12108 14340 5686 19442 13039 17945 18224 43104 24955 7662 6191 12807 10917 12157 29536 10290 15257 2624 9520 9277 6143 7071 5330 7971 7283 17647 8142 15108 10013 7308 5907 4279 5364 13568
is_linear=0
shrinkage=0.05


Tree=9
num_leaves=63
num_cat=0
split_feature=45 45 44 320 407 392 320 20 44 407 44 6 320 433 45 45 184 95 406 20 16 412 100 374 44 433 372 386 404 404 45 320 16 407 44 333 100 20 320 11 45 407 89 374 408 404 6 12 23 21 386 444 11 444 44 16 6 6 412 350 405 100
split_gain=6146.05 1742.93 1099.73 999.207 963.079 497.791 463.449 434.406 414.775 369.175 336.546 299.657 280.145 276.053 272.323 257.143 234.67 218.178 209.803 208.818 255.189 175.518 168.818 168.246 162.171 155.522 147.566 142.643 139.768 138.373 138.591 138.166 136.216 134.455 129.539 125.29 124.653 121.582 120.803 119.951 116.646 114.731 113.723 112.841 132.076 123.173 110.175 108.41 107.403 105.25 101.132 99.3435 98.7732 97.4547 95.8152 94.7206 93.3183 92.8749 89.3092 88.4076 86.7615 84.244
threshold=0.55120238661766063 0.25614911317825323 0.27618595957756048 0.20922231674194339 0.83597925305366527 -1203.4999999999998 0.20049534738063815 -18116.499999999996 0.66820615530014049 0.85937818884849559 0.50610950589180004 1.0000000180025095e-35 0.30496701598167425 -64.499999999999986 0.71892666816711437 0.077649947255849852 -1481.4999999999998 -160.26786041259763 7.5000000000000009 -16601.499999999996 2.5000000000000004 1.0000000180025095e-35 2990.992553710938 0.31843157112598425 0.50893419981002819 -37.499999999999993 0.78232997655868541 85386.917968750015 0.3600109070539475 0.071457020938396468 0.677210032939911 0.55170026421546947 1.5000000000000002 0.78788903355598461 0.50893419981002819 9270.2250976562518 2434.5224609375005 -19256.499999999996 0.77114039659500133 199116.00000000003 0.68595156073570263 0.89287593960762035 -1159.6547241210935 0.48968963325023657 20.500000000000004 0.38893201947212225 1.0000000180025095e-35 13740.750000000002 -4100.4999999999991 -5834.4999999999991 142838.41406250003 14.488503932952883 269766.00000000006 7.1824584007263192 0.15613632649183276 2.5000000000000004 1.0000000180025095e-35 1.0000000180025095e-35 1.0000000180025095e-35 71089.777343750015 12.500000000000002 2402.336303710938
decision_type=2 2 2 2 2 2 2 2 2 2 2 2 2 2 2 2 2 2 2 2 2 2 2 2 2 2 2 2 2 2 2 2 2 2 2 2 2 2 2 2 2 2 2 2 2 2 2 2 2 2 2 2 2 2 2 2 2 2 2 2 2 2
left_child=1 7 41 11 5 12 29 17 9 13 14 16 32 47 21 -9 22 33 23 46 54 35 -3 31 43 61 27 -18 -29 30 36 50 -4 -1 59 38 -6 -20 48 -22 56 -2 -41 44 45 -17 -11 -5 -8 -48 -7 -12 -35 -46 -21 -43 -34 -19 -44 -14 -27 -13
right_child=2 3 4 8 6 18 10 15 -10 19 51 25 34 -15 -16 24 26 57 37 20 39 -23 -24 -25 -26 60 -28 28 -30 -31 -32 -33 40 52 -36 -37 -38 -39 -40 42 -42 55 58 -45 53 -47 49 -49 -50 -51 -52 -53 -54 -55 -56 -57 -58 -59 -60 -61 -62 -63
leaf_value=0.019005516487006199 0.025050969580205137 -0.033370216215393093 -0.039747833085217454 -0.013982330764625002 -0.039595060053952025 0.0020550723233777692 -0.030829073248474771 0.046299483890347375 -0.019160365974291278 -0.01210633209446932 -0.043397617854129017 -0.010621977627850389 -0.0041906623279687619 0.03105856602388864 -0.037738844557809161 0.027686578432355016 0.013223363371290056 0.015318707537707447 -0.011564805355592057 0.041418403197922213 -0.0017155796723346062 0.0014657206355975865 -0.0016700546241471806 0.016098845596534038 0.0030172535280860008 0.011124422671399598 0.02351957393049639 -0.024225631690867052 0.0027104527188392927 -0.02474225129399673 -0.052255695582300365 0.013857417926926494 -0.020588405011589341 -0.042984598993053028 -0.022641609086729159 -0.032153315115586077 -0.011187387925294619 0.031508628356566599 0.012591263656426797 -0.00049575935792002112 -0.033315979868244486 -0.021141304546923617 0.019766826379039648 0.048714278381359784 0.00011452458342662506 0.047727532656190758 -0.068368915756946189 0.014891463828147395 -0.0092261658189867774 0.013268606226223454 -0.026235179606777098 -0.015869414256584745 -0.004536923614552762 0.025145631738743499 -0.010533930650289059 0.011776787120045365 -0.00017563707837032653 0.037830456016195037 0.037579068235664745 0.01883450236126015 0.044202446319640668 0.013185121214912679
leaf_weight=466.46361821889877 1314.3765336275101 1921.9272964596748 1074.5562181323767 373.44710896909237 2558.8214198946953 457.22003048658371 835.41324156522751 2810.705515652895 940.65986144542694 1618.151555582881 1727.1121899187565 1540.0629836469889 1708.0983852446079 4397.276183411479 1158.5303962677717 2640.535667181015 539.06559838354588 1314.8912370949984 199.41458187997341 96.102477699518204 587.18277321755886 1866.7193094789982 537.42896173894405 901.42946577072144 579.13192488253117 1137.9556869566441 377.63545042276382 1483.2905374467373 713.12699024379253 1490.0497835725546 2011.4000863283873 461.02233445644379 1599.670384272933 222.47719405591488 742.63881368935108 1026.2105969637632 454.80113849043846 918.0412582308054 430.12675404548645 459.30006980895996 1055.0209075659513 292.34938685595989 1951.3535738289356 761.26482146978378 580.77940773963928 1080.3832428902388 41.344761475920677 2510.4188011288643 1848.2094054669142 875.55130399763584 1022.0783644616604 404.49165511131287 670.46900713443756 1176.6685463190079 1159.8833838552237 865.48449508845806 861.37399552762508 703.18062779307365 1100.6459409594536 551.49451570212841 240.05799305438995 489.76383656263351
leaf_count=1482 4004 10426 6244 1619 15361 1849 4545 5470 4607 7290 10628 6797 7267 11781 6783 7115 1959 4249 886 229 2281 7735 2246 3130 2184 4097 1185 7523 2799 7910 13372 1616 7987 1225 3827 5610 2211 2609 1601 1854 5890 1434 6182 1442 2132 2101 265 8444 8504 3047 5211 2087 2728 3308 5069 3137 3616 1679 2760 1860 550 1716
internal_value=-8.1126e-07 0.013308 -0.0169952 0.00560821 -0.0198805 -0.00890629 -0.0278982 0.0281616 0.0130575 0.0150552 -0.0207323 -0.0077563 -0.0164012 0.0231743 -0.0155435 0.0335732 -0.0148988 0.0127327 0.00546721 0.0075621 0.0131592 -0.0112626 -0.026443 -0.00175041 0.0283274 0.00392311 -0.00577899 -0.00982367 -0.0154801 -0.0381238 -0.0420917 -0.0100428 -0.024168 -0.00275088 -0.00452513 -0.0170019 -0.0353079 0.023822 -0.0120084 0.0192018 -0.0194066 0.0149414 0.0226997 0.0306766 0.0281701 0.0335055 -0.00425997 0.0111524 -0.0159512 0.0095874 -0.0174913 -0.0381739 -0.0141161 0.0168737 -0.00655877 0.00346507 -0.0134439 0.0231627 0.0261905 0.00142905 0.0168868 -0.00487772
internal_weight=67934.7 38098.6 29836.2 25091.6 27363.9 11552.1 15811.9 13007 16111.3 15170.7 9296.81 8980.32 7592.85 7281.14 7165.21 9629.47 5572.47 3377.48 3959.21 7889.52 5354.47 6006.68 2459.36 2841.75 6818.76 3407.84 3113.12 2735.48 2196.42 6515.07 5025.02 1940.32 4590.62 1359.41 3002.23 4139.96 3013.62 1117.46 3113.75 4098.48 3516.07 2472.21 3511.3 6239.63 5478.37 3720.92 2535.05 2883.87 2683.62 916.896 1479.3 2131.6 892.946 1757.45 1255.99 1157.83 2461.04 2018.07 3052 2259.59 1378.01 2029.83
internal_count=276755 129841 146914 94726 138339 51992 86347 35115 55428 50821 47493 39298 36691 21844 34778 23752 26138 11363 15301 28977 18375 27995 12672 11806 18282 13160 13466 12281 10322 38854 30944 8676 23737 5435 12954 20260 17572 3495 14650 13077 17493 8575 10796 16098 14656 9216 10602 10063 13049 3312 7060 12715 3953 5440 5298 4571 11603 5928 8942 9127 4647 8513
is_linear=0
shrinkage=0.05


Tree=10
num_leaves=63
num_cat=0
split_feature=45 45 89 45 20 407 407 44 44 346 404 407 44 16 20 44 89 433 95 367 44 132 392 6 334 439 392 20 20 316 404 143 16 12 21 44 16 108 334 143 45 408 82 316 6 334 21 44 12 275 21 167 13 70 131 21 12 406 148 398 100 94
split_gain=5615.82 1724.56 1097.23 779.982 543.776 526.509 516.59 451.602 399.903 398.341 312.229 298.993 284.84 273.744 229.211 225.038 212.374 212.274 200 195.985 190.732 183.239 176.949 152.311 151.934 142.43 140.713 140.487 136.994 133.404 132.894 130.565 127.07 125.287 125.128 122.286 119.868 115.262 110.664 110.635 109.048 105.928 103.961 103 101.903 99.671 95.965 95.3852 93.7049 92.9523 92.7012 92.6574 92.2236 89.0257 88.3997 87.7319 85.8065 84.9119 84.208 87.2827 83.5525 81.2176
threshold=0.39564508199691778 0.64762485027313244 -1079.1832885742185 0.13744141161441806 -19799.499999999996 0.89115902781486522 0.89115902781486522 0.50610950589180004 0.19254000484943393 -915.19091796874989 0.087521042674779906 0.83334827423095714 0.57734686136245739 2.5000000000000004 -17023.499999999996 0.24702616780996325 -1061.828430175781 -44.499999999999993 -371.94444274902338 23865.940429687504 0.51398327946662914 -257.49999999999994 -784.49999999999989 1.0000000180025095e-35 7776.2250976562509 0.29198718070983892 -1102.4999999999998 -18116.499999999996 -19191.499999999996 3.5000000000000004 0.55558210611343395 3938.1975097656255 2.5000000000000004 17075.250000000004 -2352.4999999999995 0.13275808840990069 1.5000000000000002 40619.224609375007 6750.0449218750009 593.93252563476574 0.73017221689224254 15.500000000000002 1.5000000000000002 4.5000000000000009 1.0000000180025095e-35 38732.804687500007 -5306.4999999999991 0.20520228147506717 18893.250000000004 1.0000000180025095e-35 -5204.4999999999991 78.500000000000014 675191.25000000012 1.0000000180025095e-35 -1767.4999999999998 1.0000000180025095e-35 13007.250000000002 4.5000000000000009 1111317.7500000002 0.98807811737060558 9640.6445312500018 341.50000000000006
decision_type=2 2 2 2 2 2 2 2 2 2 2 2 2 2 2 2 2 2 2 2 2 2 2 2 2 2 2 2 2 2 2 2 2 2 2 2 2 2 2 2 2 2 2 2 2 2 2 2 2 2 2 2 2 2 2 2 2 2 2 2 2 2
left_child=3 2 8 27 18 12 9 11 -2 30 24 26 17 35 23 -7 46 29 48 -11 33 42 28 -15 60 47 50 -1 -12 40 44 37 -18 -16 -30 -8 -21 -23 -20 52 -3 56 -17 -37 -4 -39 -13 -19 -5 58 -6 -26 -35 -44 -33 -32 -34 -40 59 -9 -10 -49
right_child=1 5 6 4 7 15 13 49 10 19 22 16 -14 14 20 21 32 25 38 36 -22 31 -24 -25 51 -27 -28 -29 34 -31 55 54 41 39 -36 43 -38 45 57 -41 -42 -43 53 -45 -46 -47 -48 61 -50 -51 -52 -53 -54 -55 -56 -57 -58 -59 -60 -61 -62 -63
leaf_value=0.021600859715490514 0.0329076281827302 -0.016365452951825045 -0.020410826148292444 -0.038545130462022716 -0.0093284340709191334 0.0031410188406150747 0.042311380026324737 0.0055910444623062452 -0.021752169400268383 -0.0040607959246053574 -0.027230453391219878 -0.042000586282752973 -0.034706877867984966 -0.02009045406402294 -0.0031465545190885488 -0.025788838998722575 0.0034414010872019628 0.041159126726950046 0.013021255469859295 0.0080290764254290926 -0.02491396576252471 -0.045311526512032275 0.016647289772998446 0.0059805723823701555 -0.038444426466497289 0.040670244282853721 0.040391543907223347 0.039512849222841602 -0.019114481053085185 0.00079671978362762068 0.012370194706687751 -0.06754760397297549 0.0090223603395507748 0.018101713168378216 0.0013312961377649022 -0.025628482661533909 0.027369462223217001 -0.017301575858855167 -0.029243652444493236 0.044920448510655943 -0.038211082915054845 0.015301455146275587 -0.055236209610071189 0.0099589780865848923 0.0045818256187972238 -0.066156843657553852 0.0032676433494794677 -0.025055000270609896 -0.0093001299976304581 -0.067811794776265574 0.026259098791616899 0.031589636829200428 -0.0035356000182104261 -0.039165184035568963 0.023538329677475121 -0.019719067240104731 0.035923754410021602 0.0065776864001004581 0.014481526406188272 -0.024590059040529008 0.0097617311871451493 0.00094626687382935455
leaf_weight=1425.907317340374 400.84694455564022 2464.6305920630693 1068.638389274478 437.4984807819128 195.16381375491619 401.76038193702698 76.866550460457802 400.84162220358849 3100.0800387859344 728.21720205247402 1135.6057115644217 126.37008829414845 1442.9104062765837 1717.5289619415998 1209.5896491110325 892.86909659206867 906.94293121993542 121.70975324511528 1487.6392976343632 991.96470394730568 421.43586553633213 678.40919589996338 599.68274728953838 831.39413125813007 2039.5200304538012 221.53438396751881 2270.0679819732904 4712.5379732251167 1256.413387298584 855.11102253198624 1665.0950767248869 30.725572317838669 353.45651571452618 1979.6666179299355 1850.4328799545765 1925.1077143251896 4164.8068402707577 1490.3393096327782 335.0210148692131 296.7806088924408 743.60530924797058 1836.630439043045 1320.4729904830456 227.33127205073833 659.59045571088791 112.26021352410316 1591.7578581571579 381.41612935066223 732.49994334578514 60.66210800409317 2933.8579968512058 48.347752615809441 655.53789199888706 2480.4095608890057 200.18614262342453 244.24279621243477 1837.0031157284975 326.81681573390961 409.7698961943388 595.33461567759514 225.63549135625362 1412.7395480126143
leaf_count=4191 1129 12103 5177 2428 805 1601 188 1521 16046 2955 5969 693 8425 8629 4924 5047 3304 292 5136 3623 2230 4272 2054 3256 11869 560 5044 10136 6106 3541 5853 213 1185 6649 7538 10067 11985 7667 1678 674 4302 5940 8954 836 2551 787 6036 1965 3283 390 8188 153 2738 15313 692 1180 4459 1192 1407 2952 886 5788
internal_value=-8.77803e-07 -0.0103134 -0.00326002 0.0200945 0.014532 -0.0239661 0.0039852 0.0189847 -0.0160852 0.0121803 -0.0180001 0.0221728 -0.014698 -0.00436896 0.000423198 -0.0332784 0.0150777 -0.010042 -0.00360069 0.0202202 0.00713202 -0.035309 -0.00877551 -0.0115867 -0.026251 0.00271347 0.0309147 0.0353521 -0.0123691 -0.0167516 -0.000827024 -0.0244097 0.0203495 0.0103929 -0.00693701 -0.0196569 0.0236491 -0.0280366 0.00545407 0.0159786 -0.0214288 0.0241574 -0.0411419 -0.0218699 -0.0108722 -0.0207238 -6.18818e-05 -0.00167553 -0.0202357 -0.00721236 0.0240394 -0.0368227 0.0127192 -0.0447485 0.0114183 0.00826533 0.0315829 -0.011555 -0.00459768 -0.0124458 -0.0196141 -0.00458129
internal_weight=67747.2 44771.4 29520.4 22975.8 16837.3 15251.1 18863.8 13517.9 10656.6 9522.56 10255.7 12051.3 7643.66 9341.24 7111.93 7607.43 6652.16 6200.75 3319.48 5884.99 4563.01 7205.67 4842.13 2548.92 5413.58 2137.4 5399.09 6138.45 4242.45 4063.35 3637.57 2511.92 4934.03 4141.57 3106.85 2229.31 5156.77 2281.01 2149.48 2931.99 3208.24 4027.09 4693.75 2152.44 1728.23 1602.6 1718.13 1915.87 1170 1466.61 3129.02 2087.87 2635.2 3800.88 230.912 1909.34 2190.46 661.838 1405.95 996.176 3325.72 1794.16
internal_count=276755 206787 125265 69968 55641 81522 73515 41924 51750 33324 50621 35654 36976 40191 29100 44546 21617 28551 13717 18563 17215 42945 21667 11885 28954 8605 14037 14327 19613 19946 14761 13631 14888 14985 13644 11091 15608 12726 8006 10061 16405 11584 29314 10903 7728 8454 6729 8045 5711 6270 8993 12022 9387 24267 905 7033 5644 2870 5880 4473 16932 7753
is_linear=0
shrinkage=0.05


Tree=11
num_leaves=63
num_cat=0
split_feature=46 45 46 45 46 45 16 398 374 6 398 44 44 45 6 139 320 15 194 407 389 407 404 45 44 45 44 6 16 79 44 399 443 20 15 79 132 358 407 70 333 334 24 24 407 334 11 44 13 16 404 44 24 408 45 433 46 46 49 20 44 84
split_gain=5463.65 3129.75 1170.86 1147.28 1095.42 694.53 462.177 349.739 322.51 287.742 286.851 263.779 242.222 227.401 208.034 200.565 190.706 180.881 172.657 167.569 163.522 150.255 150.124 148.953 146.58 142.131 134.544 133.837 132.566 122.135 121.047 120.625 115.25 104.831 102.807 108.649 102.459 99.1777 98.9506 98.7167 98.4361 97.0499 96.6635 95.4684 95.01 94.7459 93.707 89.9936 93.6089 89.3158 87.5293 87.2512 86.3381 86.0096 85.5425 84.8705 83.0897 81.5683 88.7996 79.8927 78.2994 77.669
threshold=0.53617310523986828 0.55322471261024486 0.27428251504898077 0.39564508199691778 0.26434811949729925 0.30881147086620336 2.5000000000000004 0.97872820496559154 0.43785113096237188 1.0000000180025095e-35 0.92306998372077953 0.51937815546989452 0.27618595957756048 0.62729275226593029 1.0000000180025095e-35 329.08332824707037 0.46035239100456243 5.5000000000000009 88250.960937500015 0.79566884040832531 132982.08593750003 0.87448400259017955 0.27533206343650823 0.70528200268745433 0.41402503848075872 0.2693829238414765 0.64078217744827282 1.0000000180025095e-35 3.5000000000000004 1.5000000000000002 0.66542431712150585 0.12911926954984668 36.500000000000007 -19191.499999999996 6.5000000000000009 1.5000000000000002 -31.499999999999996 8512.1342773437518 0.69231328368186962 1.0000000180025095e-35 9450.4501953125018 5064.7500000000009 8.5000000000000018 8.5000000000000018 0.84092277288436901 10695.509765625002 251640.00000000003 0.57231971621513378 243717.75000000003 2.5000000000000004 0.24076207727193835 0.26986736059188848 8.5000000000000018 29.500000000000004 0.25614911317825323 -86.499999999999986 0.67778009176254284 0.09414414688944818 0.99274998903274547 -14343.499999999998 0.29820570349693304 0.13809509575366977
decision_type=2 2 2 2 2 2 2 2 2 2 2 2 2 2 2 2 2 2 2 2 2 2 2 2 2 2 2 2 2 2 2 2 2 2 2 2 2 2 2 2 2 2 2 2 2 2 2 2 2 2 2 2 2 2 2 2 2 2 2 2 2 2
left_child=1 4 16 9 25 14 21 24 10 18 31 15 -12 30 19 -7 26 50 46 55 -21 51 54 27 -5 -1 57 36 -26 -19 34 -8 33 -22 -9 -36 61 45 -11 -16 -29 -31 -40 -37 -13 56 -2 48 -15 -27 -17 -4 -25 -44 -20 -6 -30 -3 -59 -24 -50 -14
right_child=3 2 6 7 5 11 8 13 -10 38 12 44 23 47 39 17 -18 29 22 20 32 -23 59 52 28 49 -28 40 37 41 -32 -33 -34 -35 35 43 -38 -39 42 -41 -42 -43 53 -45 -46 -47 -48 -49 60 -51 -52 -53 -54 -55 -56 -57 -58 58 -60 -61 -62 -63
leaf_value=0.045506734537004892 -0.023089342392860871 0.032652630233279439 0.017237911562094373 0.0047653081322605473 0.0086700275273412196 -0.0089668238733045854 0.021166146470425945 -0.031604927576360922 0.017563911596943257 0.031992914107012604 0.01383071267904573 -6.1420293520561255e-05 -0.024619521204880031 -0.052201935919532649 0.019591323546339457 -0.0033519881839897377 0.026858578593724154 0.0017893173579269801 -0.015343018336303915 0.025327229449061101 -0.025617194094499831 -0.036776382049022449 -0.01181603653561885 -0.063190991794169649 -0.037026913302589483 0.01838824495021367 -0.030407506173617527 0.0038960219546649156 -0.00065269464474991773 0.028429997512353838 -0.04704831808132931 -0.0052145885584420322 0.026833655835704663 0.0037901341586639757 -0.034703602386525735 -0.038594485899448985 0.02285146617199843 0.0096802670361308442 -0.020864702383449923 0.038064316229889844 -0.021150082805991344 0.01326046509236687 0.018062004272965091 -0.0076375982127799462 -0.024832558014661565 -0.031066575892800308 0.015709301167731449 -0.053219300890485613 -0.0052008485123344233 0.035310487793851771 0.013686561425540712 -0.020704094812697069 -0.027280361653092007 -0.0095908307540123992 -0.037224900431096296 0.034309316666852822 -0.024656313704760752 0.0077522574299219334 -0.057874123628487498 0.019732863404856953 -0.035539106777873163 -0.0018160012990903825
leaf_weight=2937.7896945178509 197.6747445166111 336.2208416312933 165.93403513729572 689.96348184347153 400.14646053314209 1324.6912606060505 844.25314921140671 2313.8540855199099 1136.4175894111395 472.98012259602547 664.95824983716011 738.09537230432034 2853.3629960119724 830.13770966231823 964.93241879343987 2105.1402176618576 2170.8425945043564 976.18998067080975 927.63882766664028 1261.3724599927664 401.35098125040531 2104.6181282550097 565.48869507014751 193.77493271231651 899.83009421080351 1030.3031633198261 227.27896235883236 1355.8815304487944 860.08400179445744 2276.8591338098049 628.1778127104044 890.22306254506111 389.89092123508453 1237.3601775169373 685.16657607257366 287.9204910248518 134.74029715359211 356.48968444764614 277.19989389181137 2886.7616645395756 552.00845988094807 1963.7207904905081 1141.4573064595461 1844.710725530982 813.99640312790871 931.60455563664436 731.58637928962708 1137.8072071224451 229.43553191423416 3206.3247127234936 1174.1637833714485 1744.3232356458902 1228.6544922739267 373.10978399217129 861.35660873353481 1669.0106838941574 620.70683966577053 1620.2041070610285 53.239703744649887 311.0451872497797 2911.3651580289006 429.63268944621086
leaf_count=5427 993 862 542 2797 1343 5554 2719 13236 3840 1274 2312 3030 14852 5651 2821 8550 6054 3697 4256 3486 1897 12651 2526 1309 5257 3067 1173 5434 3799 6296 4077 3815 1087 4360 3974 1676 471 1430 1282 6521 2748 6643 3708 8803 4265 5232 2572 8025 1041 7579 3934 8792 6774 1574 4997 4005 3327 5834 321 1005 18300 1878
internal_value=-9.53035e-07 0.00957844 -0.00622899 -0.0211091 0.0202313 0.0143672 -0.0131742 -0.0283438 -0.00755752 -0.00230825 -0.0106784 0.00610175 -0.0149613 -0.0331425 0.0245729 0.00912895 0.0163012 0.0119504 -0.0111028 0.0182025 0.0111908 -0.0275611 -0.0175728 -0.0177985 -0.016378 0.0370555 0.00605583 -0.0139593 -0.0203544 0.0177347 -0.0263312 0.00762619 0.0024009 -0.00341227 -0.0237951 -0.017382 -0.0198815 -0.0149362 0.0116511 0.0334364 -0.00335055 0.0214053 0.00628144 -0.011817 -0.0130527 -0.0185739 0.00745596 -0.0408219 -0.0372696 0.0311952 0.00274871 -0.0174083 -0.0321724 0.0112498 -0.0258786 0.029351 -0.0107144 0.0101796 0.00566439 -0.000620652 -0.0333229 -0.0216353
internal_weight=67551.5 46464.7 18706.6 21086.8 27758.1 20583.7 14298.8 15227.3 10283.9 5859.54 9147.49 11372.9 7413.01 10868.6 9210.83 9820.77 4407.79 8496.07 3594.79 5359.13 3289.97 4014.88 2665.53 6748.06 4358.68 7174.42 2236.94 5325.63 3668.72 5216.77 5759.83 1734.48 2028.6 1638.71 5131.65 2817.8 3417.74 2768.89 2264.75 3851.69 1907.89 4240.58 1791.77 2132.63 1552.09 2412.4 929.261 5108.75 3970.94 4236.63 3279.3 1910.26 1422.43 1514.57 1789 2069.16 1480.79 2009.66 1673.44 876.534 3140.8 3283
internal_count=276755 165943 82381 110812 83562 67489 68137 86625 46152 24187 42312 41969 35778 64783 25520 34674 14244 29120 16349 16178 10830 21985 12784 33466 21842 16073 8190 25383 19045 16636 31766 6534 7344 6257 27689 14453 17201 13788 7838 9342 8182 12939 6564 10479 7295 12358 3565 33017 24992 10646 12484 9334 8083 5282 9253 5348 7126 7017 6155 3531 19341 16730
is_linear=0
shrinkage=0.05


Tree=12
num_leaves=63
num_cat=0
split_feature=46 45 46 45 45 46 16 20 45 398 334 404 45 45 44 389 407 21 45 44 12 374 404 404 395 115 20 342 46 374 336 44 194 94 6 444 44 44 391 46 44 346 24 356 21 445 46 6 444 44 101 21 320 386 334 320 445 186 439 44 444 404
split_gain=4953.57 2845.57 1569.09 1053.86 634.857 568.092 435.416 348.796 310.325 295.629 264.023 258.559 208.512 204.411 200.837 180.479 170.85 169.743 167.042 157.743 149.766 149.293 148.116 144.719 142.779 138.556 137.575 136.963 121.62 118.866 129.146 114.021 113.657 112.231 111.143 130.265 118.856 110.679 108.336 106.23 104.503 103.795 99.2628 96.8216 99.6415 95.8864 93.1039 91.7226 91.6031 104.955 112.744 91.343 90.7969 90.0333 89.9587 89.5024 87.6697 84.9973 84.783 84.1793 83.1625 80.7925
threshold=0.53617310523986828 0.41149203479290014 0.26999659836292272 0.45986029505729681 0.69032058119773876 0.34660151600837713 2.5000000000000004 -19256.499999999996 0.13744141161441806 0.97872820496559154 5064.7500000000009 0.46674406528472906 0.12823890149593356 0.63743942975997936 0.68164953589439403 132982.08593750003 0.78961640596389782 -2467.4999999999995 0.69032058119773876 0.73444241285324108 13007.250000000002 0.28368294239044195 0.060997823253273971 0.33334159851074224 -1282.4999999999998 -20.499999999999996 -17461.499999999996 0.10570911690592767 0.16590650379657748 0.30873274803161627 34337.250000000007 0.65441286563873302 45000.562500000007 762.50000000000011 1.0000000180025095e-35 12.501655578613283 0.26678179204463964 0.50610950589180004 14252.265136718752 0.11283535137772562 0.28276640176773077 -820.65686035156239 6.5000000000000009 10869.391113281252 -1566.4999999999998 40.500000000000007 0.63386860489845287 1.0000000180025095e-35 15.021054744720461 0.13918162882328036 2901.622436523438 -2869.4999999999995 0.40189743041992193 112134.26171875001 11250.112304687502 0.67423704266548168 29.500000000000004 -384.92857360839838 0.21461949497461322 0.4357356876134873 12.501655578613283 0.058842040598392494
decision_type=2 2 2 2 2 2 2 2 2 2 2 2 2 2 2 2 2 2 2 2 2 2 2 2 2 2 2 2 2 2 2 2 2 2 2 2 2 2 2 2 2 2 2 2 2 2 2 2 2 2 2 2 2 2 2 2 2 2 2 2 2 2
left_child=1 5 13 11 6 28 22 25 -7 27 23 12 -2 39 15 -10 -17 60 19 29 -14 38 33 43 -13 -8 -22 46 -1 30 -11 52 -28 -4 35 36 -18 58 -6 -3 -24 -42 -35 44 -9 47 -5 53 49 -32 -51 -34 54 -27 -15 -50 59 -52 -19 -29 -12 -40
right_child=3 2 4 9 21 8 7 10 14 18 17 24 20 31 -16 16 34 37 -20 -21 26 -23 40 -25 -26 45 32 56 -30 -31 48 -33 51 42 -36 -37 -38 -39 61 -41 41 -43 -44 -45 -46 -47 -48 -49 55 50 57 -53 -54 -55 -56 -57 -58 -59 -60 -61 -62 -63
leaf_value=0.045205263264490057 0.012188133555876349 0.039676063339656391 -0.045521853194537609 0.0053721559389216115 -0.013086694065792333 0.032124497417640861 -0.030190582368716086 -0.0058534865722090681 0.025232989653130995 0.0020917089836083986 -0.022842379244394539 0.0026190623859263257 -0.036920731267804152 0.010205086550294055 -0.026343132577529717 0.020269427847331337 0.0271404230158582 0.0042206779073029662 -0.043878057479015714 -0.054950312591979938 -0.022735611435780574 -0.00035729938283617785 0.02387945333473631 0.02696314858261737 0.033333700074547848 0.003432432053916596 0.025207117547393416 -0.0071927224128137349 0.031234579139446817 -0.0040804705180807329 0.028059118568550853 -0.02743512332754354 -0.026102688486370779 -0.045939037506687042 0.012807636023055447 0.012478229806484421 -0.021230480947727903 -0.018828179023755894 -0.040718825281539438 0.022001183315622744 -0.023063797198868155 0.0017058916050897014 -0.014335553481763874 0.031910293441930859 0.012610110881655014 0.014013336481587431 -0.016755297746161229 0.0049405888856523363 -0.021412737320333466 -0.037440514997974537 -0.020612340715978318 -0.0016897280754493483 0.020950980859746171 -0.026503718043481547 -0.024515855944252471 0.029651924903013105 -0.0072822131625046712 0.049637260857250384 0.031169825971507997 -0.037749995849331572 0.0077435146651052894 -0.023286572178898679
