{"learner":{"attributes":{"best_iteration":"197","best_score":"0.7807085421660965"},"feature_names":[],"feature_types":[],"gradient_booster":{"model":{"gbtree_model_param":{"num_parallel_tree":"1","num_trees":"248"},"iteration_indptr":[0,1,2,3,4,5,6,7,8,9,10,11,12,13,14,15,16,17,18,19,20,21,22,23,24,25,26,27,28,29,30,31,32,33,34,35,36,37,38,39,40,41,42,43,44,45,46,47,48,49,50,51,52,53,54,55,56,57,58,59,60,61,62,63,64,65,66,67,68,69,70,71,72,73,74,75,76,77,78,79,80,81,82,83,84,85,86,87,88,89,90,91,92,93,94,95,96,97,98,99,100,101,102,103,104,105,106,107,108,109,110,111,112,113,114,115,116,117,118,119,120,121,122,123,124,125,126,127,128,129,130,131,132,133,134,135,136,137,138,139,140,141,142,143,144,145,146,147,148,149,150,151,152,153,154,155,156,157,158,159,160,161,162,163,164,165,166,167,168,169,170,171,172,173,174,175,176,177,178,179,180,181,182,183,184,185,186,187,188,189,190,191,192,193,194,195,196,197,198,199,200,201,202,203,204,205,206,207,208,209,210,211,212,213,214,215,216,217,218,219,220,221,222,223,224,225,226,227,228,229,230,231,232,233,234,235,236,237,238,239,240,241,242,243,244,245,246,247,248],"tree_info":[0,0,0,0,0,0,0,0,0,0,0,0,0,0,0,0,0,0,0,0,0,0,0,0,0,0,0,0,0,0,0,0,0,0,0,0,0,0,0,0,0,0,0,0,0,0,0,0,0,0,0,0,0,0,0,0,0,0,0,0,0,0,0,0,0,0,0,0,0,0,0,0,0,0,0,0,0,0,0,0,0,0,0,0,0,0,0,0,0,0,0,0,0,0,0,0,0,0,0,0,0,0,0,0,0,0,0,0,0,0,0,0,0,0,0,0,0,0,0,0,0,0,0,0,0,0,0,0,0,0,0,0,0,0,0,0,0,0,0,0,0,0,0,0,0,0,0,0,0,0,0,0,0,0,0,0,0,0,0,0,0,0,0,0,0,0,0,0,0,0,0,0,0,0,0,0,0,0,0,0,0,0,0,0,0,0,0,0,0,0,0,0,0,0,0,0,0,0,0,0,0,0,0,0,0,0,0,0,0,0,0,0,0,0,0,0,0,0,0,0,0,0,0,0,0,0,0,0,0,0,0,0,0,0,0,0,0,0,0,0,0,0,0,0,0,0,0,0],"trees":[{"base_weights":[1.8383545E-7,5.3345704E-1,-3.832487E-1,7.639233E-1,-1.3366766E-1,2.6496655E-1,-6.636459E-1,1.1326989E0,5.722671E-1,2.3443279E-1,-3.753446E-1,6.0123587E-1,-5.0143953E-2,-4.0172884E-1,-9.66427E-1,1.3511224E0,9.854362E-1,9.8673296E-1,3.9665335E-1,-2.4933977E-1,4.0519854E-1,-5.9331876E-1,-1.6931122E-2,7.525295E-1,2.1989161E-1,9.421753E-2,-6.484267E-1,-1.5444656E-1,-6.807447E-1,-1.1471659E0,-7.0360404E-1,1.5039316E0,1.2105818E0,1.2446754E0,8.595628E-1,6.337995E-1,1.0844746E0,4.7314778E-1,-2.4990775E-1,2.5843808E-1,-4.6321344E-1,5.0138646E-1,-4.5954832E-1,-7.612121E-1,-1.698732E-1,-9.037743E-1,6.117855E-2,5.576281E-1,9.815418E-1,4.0945703E-1,-2.1550205E-1,3.05265E-1,-1.7490071E-1,-4.1944918E-1,-1.1820332E0,-5.8848433E-2,-6.764527E-1,-4.3018952E-1,-8.8080144E-1,-9.74606E-1,-1.3370017E0,-6.0023266E-1,-1.2054174E0,-8.989689E-2,1.1307338E-1,9.371788E-2,1.3704657E-2,3.1433713E-2,9.573145E-2,6.886026E-2,2.9976876E-2,5.6527033E-2,1.1675666E-2,8.434489E-2,2.7555835E-2,3.1728687E-4,4.2957544E-2,2.2795532E-2,-3.4390185E-2,-8.3814666E-2,3.0961793E-2,-2.3341462E-2,-1.01099625E-1,2.5587147E-2,6.6997655E-2,-1.2667218E-1,-2.170612E-2,-5.182144E-3,-6.2423244E-2,1.2041701E-2,-4.1694053E-2,-3.46934E-3,-1.0539538E-1,1.064415E-2,-4.510282E-2,6.529135E-2,2.8956415E-2,7.874576E-2,3.960512E-2,3.5781685E-2,-3.8251773E-2,-4.883483E-2,1.2079855E-2,3.7605125E-2,1.5171326E-3,-4.5549918E-2,-1.2052236E-3,-1.54411E-2,-7.225501E-2,9.372345E-3,-9.623205E-2,1.1044139E-2,-1.8875927E-2,-1.6984195E-2,-7.252091E-2,-5.1360648E-2,-3.16169E-3,-8.964642E-2,-5.5073228E-2,-8.4386006E-2,-5.7512913E-2,-5.1717535E-2,-1.0276345E-1,-5.3655162E-2,-1.0254285E-2,-9.299946E-2,4.9869204E-3],"categories":[],"categories_nodes":[],"categories_segments":[],"categories_sizes":[],"default_left":[0,0,0,0,0,0,0,0,0,0,0,0,0,0,0,0,0,0,0,0,0,0,0,0,0,0,0,0,0,0,0,0,0,0,0,0,0,0,0,0,0,0,0,0,0,0,0,0,0,0,0,0,0,0,0,0,0,0,0,0,0,0,0,0,0,0,0,0,0,0,0,0,0,0,0,0,0,0,0,0,0,0,0,0,0,0,0,0,0,0,0,0,0,0,0,0,0,0,0,0,0,0,0,0,0,0,0,0,0,0,0,0,0,0,0,0,0,0,0,0,0,0,0,0,0,0,0],"id":0,"left_children":[1,3,5,7,9,11,13,15,17,19,21,23,25,27,29,31,33,35,37,39,41,43,45,47,49,51,53,55,57,59,61,63,65,67,69,71,73,75,77,79,81,83,85,87,89,91,93,95,97,99,101,103,105,107,109,111,113,115,117,119,121,123,125,-1,-1,-1,-1,-1,-1,-1,-1,-1,-1,-1,-1,-1,-1,-1,-1,-1,-1,-1,-1,-1,-1,-1,-1,-1,-1,-1,-1,-1,-1,-1,-1,-1,-1,-1,-1,-1,-1,-1,-1,-1,-1,-1,-1,-1,-1,-1,-1,-1,-1,-1,-1,-1,-1,-1,-1,-1,-1,-1,-1,-1,-1,-1,-1],"loss_changes":[1.4145905E4,4.4475986E3,7.3185205E3,1.5189131E3,6.609055E2,1.2883826E3,2.2285684E3,2.3513184E2,1.0294775E3,2.4336441E2,3.5033966E2,3.3919165E2,5.422608E2,1.0397966E3,6.18416E2,6.1700195E1,1.4233398E2,1.4455273E2,4.9173328E2,8.361872E1,1.8129205E2,1.9811859E2,1.17604004E2,1.8739941E2,1.3809991E2,2.8734662E2,1.486225E2,3.987674E2,3.5457397E2,2.5166797E2,2.7494287E2,1.5986084E1,6.1723145E1,3.704956E1,7.940625E1,5.2364716E1,9.441089E1,4.1521997E2,1.2172365E2,4.9003265E1,7.238298E1,1.2273328E2,4.5195816E1,9.818787E1,1.0124699E2,5.9033493E1,8.356744E1,1.2189856E2,5.9455444E1,7.2708405E1,8.3415726E1,1.5850449E2,1.5273561E2,9.918956E1,4.8491455E1,2.6853146E2,1.6147296E2,3.1078082E2,1.8047363E2,1.2577832E2,7.798389E1,2.352378E2,3.9957275E1,0E0,0E0,0E0,0E0,0E0,0E0,0E0,0E0,0E0,0E0,0E0,0E0,0E0,0E0,0E0,0E0,0E0,0E0,0E0,0E0,0E0,0E0,0E0,0E0,0E0,0E0,0E0,0E0,0E0,0E0,0E0,0E0,0E0,0E0,0E0,0E0,0E0,0E0,0E0,0E0,0E0,0E0,0E0,0E0,0E0,0E0,0E0,0E0,0E0,0E0,0E0,0E0,0E0,0E0,0E0,0E0,0E0,0E0,0E0,0E0,0E0,0E0,0E0,0E0],"parents":[2147483647,0,0,1,1,2,2,3,3,4,4,5,5,6,6,7,7,8,8,9,9,10,10,11,11,12,12,13,13,14,14,15,15,16,16,17,17,18,18,19,19,20,20,21,21,22,22,23,23,24,24,25,25,26,26,27,27,28,28,29,29,30,30,31,31,32,32,33,33,34,34,35,35,36,36,37,37,38,38,39,39,40,40,41,41,42,42,43,43,44,44,45,45,46,46,47,47,48,48,49,49,50,50,51,51,52,52,53,53,54,54,55,55,56,56,57,57,58,58,59,59,60,60,61,61,62,62],"right_children":[2,4,6,8,10,12,14,16,18,20,22,24,26,28,30,32,34,36,38,40,42,44,46,48,50,52,54,56,58,60,62,64,66,68,70,72,74,76,78,80,82,84,86,88,90,92,94,96,98,100,102,104,106,108,110,112,114,116,118,120,122,124,126,-1,-1,-1,-1,-1,-1,-1,-1,-1,-1,-1,-1,-1,-1,-1,-1,-1,-1,-1,-1,-1,-1,-1,-1,-1,-1,-1,-1,-1,-1,-1,-1,-1,-1,-1,-1,-1,-1,-1,-1,-1,-1,-1,-1,-1,-1,-1,-1,-1,-1,-1,-1,-1,-1,-1,-1,-1,-1,-1,-1,-1,-1,-1,-1],"split_conditions":[4.604008E-1,5.388627E-1,4.1359675E-1,3.1391668E-1,2.4652155E-1,2.636468E-1,5.585066E-1,2.0689675E-1,1.7012577E-1,-1.9823E4,1E0,6.558465E-1,5.131022E-1,6.256527E-1,6.666667E-2,1.7982176E-1,1.5008518E-1,-1.8453E4,5.3253263E-1,9.655172E-1,5.196672E-1,3.5714287E-1,-4.558E3,4.943435E-1,1.19295E4,8.9166665E-1,9.2540467E-1,5.4002845E-1,8.6116695E-1,6.4246535E-1,5.8863175E-1,-9.481E3,6.105015E-1,-5.95E2,5.3253263E-1,1.05525E4,5.26102E-1,-1.9624E4,7.193085E-1,2.025E5,2.4E1,4.9305555E-1,4.9455E4,3.4873053E-1,6.7455E3,6.109913E-1,7.30125E5,1.3937578E-1,5.26102E-1,1E0,4.0058458E-1,6.345E3,4E0,6.7846835E-1,3.61305E4,8.8378376E-1,8.030303E-1,-1.33E3,3E0,-1.5318E4,2.9969704E-1,-1.04E3,-8E1,-8.989689E-2,1.1307338E-1,9.371788E-2,1.3704657E-2,3.1433713E-2,9.573145E-2,6.886026E-2,2.9976876E-2,5.6527033E-2,1.1675666E-2,8.434489E-2,2.7555835E-2,3.1728687E-4,4.2957544E-2,2.2795532E-2,-3.4390185E-2,-8.3814666E-2,3.0961793E-2,-2.3341462E-2,-1.01099625E-1,2.5587147E-2,6.6997655E-2,-1.2667218E-1,-2.170612E-2,-5.182144E-3,-6.2423244E-2,1.2041701E-2,-4.1694053E-2,-3.46934E-3,-1.0539538E-1,1.064415E-2,-4.510282E-2,6.529135E-2,2.8956415E-2,7.874576E-2,3.960512E-2,3.5781685E-2,-3.8251773E-2,-4.883483E-2,1.2079855E-2,3.7605125E-2,1.5171326E-3,-4.5549918E-2,-1.2052236E-3,-1.54411E-2,-7.225501E-2,9.372345E-3,-9.623205E-2,1.1044139E-2,-1.8875927E-2,-1.6984195E-2,-7.252091E-2,-5.1360648E-2,-3.16169E-3,-8.964642E-2,-5.5073228E-2,-8.4386006E-2,-5.7512913E-2,-5.1717535E-2,-1.0276345E-1,-5.3655162E-2,-1.0254285E-2,-9.299946E-2,4.9869204E-3],"split_indices":[41,42,42,42,41,42,42,41,41,16,2,41,40,41,438,42,42,16,40,432,40,438,17,354,368,441,441,40,441,41,40,17,40,166,40,368,40,16,441,9,163,438,360,40,368,42,139,42,40,1,354,367,12,41,227,441,441,378,12,16,40,426,167,0,0,0,0,0,0,0,0,0,0,0,0,0,0,0,0,0,0,0,0,0,0,0,0,0,0,0,0,0,0,0,0,0,0,0,0,0,0,0,0,0,0,0,0,0,0,0,0,0,0,0,0,0,0,0,0,0,0,0,0,0,0,0,0],"split_type":[0,0,0,0,0,0,0,0,0,0,0,0,0,0,0,0,0,0,0,0,0,0,0,0,0,0,0,0,0,0,0,0,0,0,0,0,0,0,0,0,0,0,0,0,0,0,0,0,0,0,0,0,0,0,0,0,0,0,0,0,0,0,0,0,0,0,0,0,0,0,0,0,0,0,0,0,0,0,0,0,0,0,0,0,0,0,0,0,0,0,0,0,0,0,0,0,0,0,0,0,0,0,0,0,0,0,0,0,0,0,0,0,0,0,0,0,0,0,0,0,0,0,0,0,0,0,0],"sum_hessian":[6.918915E4,2.8925871E4,4.0263273E4,2.1498732E4,7.427139E3,1.215763E4,2.8105645E4,7.350446E3,1.4148286E4,2.943657E3,4.4834824E3,5.880917E3,6.2767124E3,1.5070991E4,1.3034653E4,2.95675E3,4.393696E3,4.2093013E3,9.938984E3,7.678653E2,2.1757917E3,2.7875432E3,1.695939E3,4.2097695E3,1.6711476E3,5.0572705E3,1.2194418E3,7.990678E3,7.080313E3,7.7214077E3,5.3132456E3,1.4118973E3,1.5448525E3,1.4331665E3,2.9605293E3,9.14529E2,3.2947722E3,8.887746E3,1.0512382E3,2.2750815E2,5.403572E2,1.9583768E3,2.174149E2,1.9955309E3,7.920123E2,1.3642487E2,1.559514E3,2.276113E3,1.9336564E3,1.1642891E3,5.0685858E2,2.8343708E3,2.2229E3,8.5453546E2,3.6490634E2,6.7547524E3,1.2359258E3,3.1448225E3,3.9354905E3,4.047961E3,3.6734468E3,4.4075137E3,9.0573236E2,1.4957501E0,1.4104016E3,1.4881849E3,5.666758E1,5.3592747E1,1.3795737E3,2.6251646E3,3.3536478E2,7.3071796E2,1.8381105E2,3.1196416E3,1.7513045E2,1.5575006E3,7.330246E3,2.8751376E2,7.6372437E2,2.2322227E1,2.0518591E2,4.6229297E2,7.806418E1,1.3914067E3,5.6697015E2,2.5344418E1,1.920705E2,1.8607875E2,1.8094521E3,4.2706186E2,3.6495047E2,5.074596E1,8.56789E1,1.3908054E3,1.687086E2,8.0449695E2,1.4716161E3,1.679071E3,2.5458531E2,1.084966E3,7.932314E1,2.3466206E2,2.721965E2,1.67857E3,1.1558009E3,5.9637976E2,1.6265201E3,6.1460547E2,2.3993001E2,2.6173498E1,3.3873285E2,3.265121E3,3.4896316E3,4.8554956E2,7.5037616E2,1.8983817E3,1.2464408E3,1.2483691E3,2.6871213E3,2.3446763E3,1.7032847E3,1.8013069E2,3.493316E3,3.529888E3,8.776256E2,8.817872E2,2.3945219E1],"tree_param":{"num_deleted":"0","num_feature":"480","num_nodes":"127","size_leaf_vector":"1"}},{"base_weights":[-1.0101395E-5,4.9394277E-1,-3.548314E-1,7.050801E-1,-1.3164681E-1,2.4522805E-1,-6.1450666E-1,1.0955924E0,5.475222E-1,4.409896E-1,-2.6763916E-1,5.5660367E-1,-4.643207E-2,-3.604621E-1,-8.830012E-1,1.2924173E0,9.5787066E-1,9.7393626E-1,4.0641278E-1,1.4610088E-1,7.2298104E-1,-4.6808517E-1,6.6879295E-2,7.2059214E-1,2.5030434E-1,8.7165825E-2,-6.0052276E-1,-2.4243796E-1,-8.822261E-1,-1.0462905E0,-6.460771E-1,1.3192092E0,7.52598E-1,1.1631751E0,8.359179E-1,1.0195751E0,3.8906434E-1,4.7859025E-1,-2.2006167E-1,-1.4704575E-1,4.887517E-1,9.250087E-2,8.604405E-1,-5.2795273E-1,6.096197E-1,-7.897239E-1,1.4138368E-1,5.482755E-1,9.2165095E-1,3.388018E-1,-6.2461424E-1,2.8244567E-1,-1.6182888E-1,-3.8826096E-1,-1.0960351E0,-1.3648921E-1,-6.9950724E-1,-9.541838E-1,-2.57211E-1,-8.581215E-1,-1.2109087E0,-5.4922265E-1,-1.1174123E0,1.0405364E-1,8.514154E-2,7.4784726E-2,-1.7425558E-2,4.6969663E-2,9.049815E-2,5.9029147E-2,9.272069E-2,6.1375216E-2,8.4471226E-2,6.667261E-3,6.676177E-2,3.3013395E-3,4.22893E-2,1.8529854E-4,-5.182634E-2,-2.9472234E-2,3.7250772E-2,-4.9304616E-2,4.527213E-2,4.0620416E-2,-4.7027733E-2,7.0614964E-2,6.315005E-3,-4.9758345E-2,-8.421027E-3,5.256179E-2,-1.2797043E-1,-7.45454E-2,5.956076E-2,-1.8214465E-3,3.600753E-2,4.528886E-2,-1.7336056E-2,4.795114E-2,7.6467216E-2,1.2660547E-2,5.195019E-2,-8.2523406E-2,-2.7690853E-3,3.4799032E-2,1.4034532E-3,5.6402553E-3,-3.1906024E-2,-1.42857935E-2,-6.694771E-2,-8.635997E-3,-9.126845E-2,2.3224799E-2,-1.7791918E-2,-5.910563E-2,3.0362053E-4,4.8619825E-3,-7.470211E-2,-5.839433E-2,1.715575E-2,-6.6925146E-2,6.781327E-3,-4.4791367E-2,-9.334583E-2,-4.942552E-2,-8.711311E-3,-8.646972E-2,1.1498091E-3],"categories":[],"categories_nodes":[],"categories_segments":[],"categories_sizes":[],"default_left":[0,0,0,0,0,0,0,0,0,0,0,0,0,0,0,0,0,0,0,0,0,0,0,0,0,0,0,0,0,0,0,0,0,0,0,0,0,0,0,0,0,0,0,0,0,0,0,0,0,0,0,0,0,0,0,0,0,0,0,0,0,0,0,0,0,0,0,0,0,0,0,0,0,0,0,0,0,0,0,0,0,0,0,0,0,0,0,0,0,0,0,0,0,0,0,0,0,0,0,0,0,0,0,0,0,0,0,0,0,0,0,0,0,0,0,0,0,0,0,0,0,0,0,0,0,0,0],"id":1,"left_children":[1,3,5,7,9,11,13,15,17,19,21,23,25,27,29,31,33,35,37,39,41,43,45,47,49,51,53,55,57,59,61,63,65,67,69,71,73,75,77,79,81,83,85,87,89,91,93,95,97,99,101,103,105,107,109,111,113,115,117,119,121,123,125,-1,-1,-1,-1,-1,-1,-1,-1,-1,-1,-1,-1,-1,-1,-1,-1,-1,-1,-1,-1,-1,-1,-1,-1,-1,-1,-1,-1,-1,-1,-1,-1,-1,-1,-1,-1,-1,-1,-1,-1,-1,-1,-1,-1,-1,-1,-1,-1,-1,-1,-1,-1,-1,-1,-1,-1,-1,-1,-1,-1,-1,-1,-1,-1],"loss_changes":[1.2116166E4,3.817268E3,6.2690063E3,1.3288477E3,5.6807104E2,1.1036385E3,1.9150098E3,1.671123E2,9.2608984E2,1.16313934E2,3.9525467E2,2.9504517E2,4.646114E2,8.8839355E2,5.274453E2,3.5942383E1,9.060791E1,1.01776855E2,5.233064E2,6.893923E1,6.1921112E1,2.3812982E2,1.4111554E2,1.3210205E2,1.5901775E2,2.4595332E2,1.27819214E2,5.6984784E2,1.1945776E2,2.4923926E2,2.5376807E2,2.892627E1,2.9876244E1,3.0995728E1,4.398645E1,7.531152E1,4.1838234E1,3.8444556E2,1.2535239E2,5.8809048E1,4.2048485E1,4.2082493E1,3.688498E1,1.966175E2,4.2265205E1,5.8020195E1,1.141181E2,8.952649E1,4.81333E1,1.11968475E2,5.2728195E1,1.3571606E2,1.3895767E2,8.5140915E1,4.315149E1,4.2955078E2,1.3799524E2,1.0182056E2,7.014741E1,1.225459E2,8.833984E1,2.1978955E2,3.8193726E1,0E0,0E0,0E0,0E0,0E0,0E0,0E0,0E0,0E0,0E0,0E0,0E0,0E0,0E0,0E0,0E0,0E0,0E0,0E0,0E0,0E0,0E0,0E0,0E0,0E0,0E0,0E0,0E0,0E0,0E0,0E0,0E0,0E0,0E0,0E0,0E0,0E0,0E0,0E0,0E0,0E0,0E0,0E0,0E0,0E0,0E0,0E0,0E0,0E0,0E0,0E0,0E0,0E0,0E0,0E0,0E0,0E0,0E0,0E0,0E0,0E0,0E0,0E0,0E0],"parents":[2147483647,0,0,1,1,2,2,3,3,4,4,5,5,6,6,7,7,8,8,9,9,10,10,11,11,12,12,13,13,14,14,15,15,16,16,17,17,18,18,19,19,20,20,21,21,22,22,23,23,24,24,25,25,26,26,27,27,28,28,29,29,30,30,31,31,32,32,33,33,34,34,35,35,36,36,37,37,38,38,39,39,40,40,41,41,42,42,43,43,44,44,45,45,46,46,47,47,48,48,49,49,50,50,51,51,52,52,53,53,54,54,55,55,56,56,57,57,58,58,59,59,60,60,61,61,62,62],"right_children":[2,4,6,8,10,12,14,16,18,20,22,24,26,28,30,32,34,36,38,40,42,44,46,48,50,52,54,56,58,60,62,64,66,68,70,72,74,76,78,80,82,84,86,88,90,92,94,96,98,100,102,104,106,108,110,112,114,116,118,120,122,124,126,-1,-1,-1,-1,-1,-1,-1,-1,-1,-1,-1,-1,-1,-1,-1,-1,-1,-1,-1,-1,-1,-1,-1,-1,-1,-1,-1,-1,-1,-1,-1,-1,-1,-1,-1,-1,-1,-1,-1,-1,-1,-1,-1,-1,-1,-1,-1,-1,-1,-1,-1,-1,-1,-1,-1,-1,-1,-1,-1,-1,-1,-1,-1,-1],"split_conditions":[4.604008E-1,5.424451E-1,4.1359675E-1,2.7933532E-1,1.5105496E-1,2.636468E-1,5.478105E-1,2.0689675E-1,1.5105496E-1,-1.5166E4,1E0,6.3906264E-1,5.131022E-1,7.0046633E-1,6.666667E-2,5.81301E-1,1.4464815E-1,5.0600237E-1,5.3253263E-1,1.0606061E-1,1.6155E4,8.75E-1,-4.558E3,4.943435E-1,6.6240954E-1,8.9166665E-1,9.2540467E-1,5.0600237E-1,3.478261E-1,6.27464E-1,5.8863175E-1,4.364234E5,2.1762852E-1,-8.782E2,6.818182E-1,5E0,3.3064517E-1,-1.9885E4,1.0125E4,3.9104235E-1,2.25E5,1.5E1,4.5E2,4.165263E2,3.41055E5,8.75E-1,2.6666668E-1,6.7015517E-1,3E0,6.088402E-1,-1.284E3,6.345E3,6.15458E-1,6.7846835E-1,6.867E4,9.228038E-1,3.3333334E-1,7.692308E-1,-7.01E2,1.9592697E4,2.9969704E-1,-1.04E3,1.2E0,1.0405364E-1,8.514154E-2,7.4784726E-2,-1.7425558E-2,4.6969663E-2,9.049815E-2,5.9029147E-2,9.272069E-2,6.1375216E-2,8.4471226E-2,6.667261E-3,6.676177E-2,3.3013395E-3,4.22893E-2,1.8529854E-4,-5.182634E-2,-2.9472234E-2,3.7250772E-2,-4.9304616E-2,4.527213E-2,4.0620416E-2,-4.7027733E-2,7.0614964E-2,6.315005E-3,-4.9758345E-2,-8.421027E-3,5.256179E-2,-1.2797043E-1,-7.45454E-2,5.956076E-2,-1.8214465E-3,3.600753E-2,4.528886E-2,-1.7336056E-2,4.795114E-2,7.6467216E-2,1.2660547E-2,5.195019E-2,-8.2523406E-2,-2.7690853E-3,3.4799032E-2,1.4034532E-3,5.6402553E-3,-3.1906024E-2,-1.42857935E-2,-6.694771E-2,-8.635997E-3,-9.126845E-2,2.3224799E-2,-1.7791918E-2,-5.910563E-2,3.0362053E-4,4.8619825E-3,-7.470211E-2,-5.839433E-2,1.715575E-2,-6.6925146E-2,6.781327E-3,-4.4791367E-2,-9.334583E-2,-4.942552E-2,-8.711311E-3,-8.646972E-2,1.1498091E-3],"split_indices":[41,42,42,42,41,42,42,41,41,16,2,41,40,41,438,40,42,40,40,438,8,408,17,354,40,441,441,40,408,41,40,226,42,167,408,11,438,16,368,354,7,373,240,434,227,406,438,40,12,354,218,367,41,41,228,432,408,432,380,390,40,426,408,0,0,0,0,0,0,0,0,0,0,0,0,0,0,0,0,0,0,0,0,0,0,0,0,0,0,0,0,0,0,0,0,0,0,0,0,0,0,0,0,0,0,0,0,0,0,0,0,0,0,0,0,0,0,0,0,0,0,0,0,0,0,0,0],"split_type":[0,0,0,0,0,0,0,0,0,0,0,0,0,0,0,0,0,0,0,0,0,0,0,0,0,0,0,0,0,0,0,0,0,0,0,0,0,0,0,0,0,0,0,0,0,0,0,0,0,0,0,0,0,0,0,0,0,0,0,0,0,0,0,0,0,0,0,0,0,0,0,0,0,0,0,0,0,0,0,0,0,0,0,0,0,0,0,0,0,0,0,0,0,0,0,0,0,0,0,0,0,0,0,0,0,0,0,0,0,0,0,0,0,0,0,0,0,0,0,0,0,0,0,0,0,0,0],"sum_hessian":[6.9128555E4,2.8898316E4,4.023024E4,2.16061E4,7.292215E3,1.2151204E4,2.8079033E4,6.2095586E3,1.5396542E4,1.3990123E3,5.8932026E3,5.8765283E3,6.2746753E3,1.4428958E4,1.3650074E4,2.5528162E3,3.6567424E3,3.826739E3,1.1569803E4,6.8460944E2,7.144029E2,3.684827E3,2.2083757E3,3.8265134E3,2.0500151E3,5.056367E3,1.218308E3,1.1768389E4,2.66057E3,8.0787437E3,5.5713306E3,2.4307324E3,1.22083755E2,1.3595073E3,2.2972354E3,3.549055E3,2.7768423E2,1.0374742E4,1.1950605E3,3.6926477E2,3.1534464E2,1.2817595E2,5.862269E2,3.491387E3,1.9343987E2,1.7593935E2,2.0324365E3,2.0625447E3,1.7639686E3,1.8622614E3,1.8775378E2,2.8337776E3,2.2225898E3,8.541856E2,3.641224E2,9.554867E3,2.2135215E3,2.385412E3,2.7515808E2,3.7726155E3,4.306128E3,4.6234297E3,9.479011E2,1.7688033E3,6.619291E2,9.779237E1,2.4291384E1,1.0297243E2,1.2565349E3,2.0500034E3,2.472319E2,1.2327997E3,2.3162551E3,1.7439468E2,1.03289566E2,1.7019731E3,8.672769E3,8.122552E2,3.8280536E2,2.674732E2,1.01791565E2,2.8297037E1,2.870476E2,7.907068E1,4.9105274E1,5.3058484E2,5.5642124E1,2.632655E3,8.587319E2,1.8678145E2,6.65842E0,1.5617545E2,1.9763908E1,1.3654902E3,6.669462E2,1.9254758E3,1.3706888E2,4.5619214E2,1.3077765E3,1.2589506E3,6.0331085E2,1.0328185E2,8.447193E1,1.6779773E3,1.1558003E3,1.1706138E3,1.0519761E3,6.1456866E2,2.3961694E2,4.0162994E1,3.239594E2,1.7596119E3,7.795255E3,1.9659194E3,2.4760188E2,9.406822E1,2.2913438E3,1.324502E2,1.427079E2,3.6413323E3,1.3128331E2,2.2514561E2,4.0809824E3,3.6879963E3,9.354333E2,9.19066E2,2.8835161E1],"tree_param":{"num_deleted":"0","num_feature":"480","num_nodes":"127","size_leaf_vector":"1"}},{"base_weights":[-7.0333867E-6,4.2444557E-1,-3.5733998E-1,6.2470406E-1,-1.5808049E-1,2.4514627E-1,-5.879616E-1,9.528204E-1,4.5827407E-1,1.8328807E-1,-3.716627E-1,5.9135044E-1,3.1612217E-2,-3.7065905E-1,-8.5140496E-1,1.1698323E0,8.246103E-1,8.00719E-1,2.8904295E-1,-2.7941316E-2,5.161802E-1,-5.530756E-1,-7.2173566E-2,4.4637954E-1,8.634128E-1,1.5302539E-1,-5.250707E-1,-7.6977646E-1,-2.486596E-1,-6.0440725E-1,-1.0116171E0,1.3088405E0,1.0423846E0,1.0681102E0,7.1491474E-1,9.2330945E-1,5.709861E-1,3.6521962E-1,-2.4141641E-1,-2.5019136E-1,2.90548E-1,-2.6483437E-1,5.946796E-1,-6.929821E-1,-1.9281302E-1,-8.519794E-1,-3.3314542E-3,6.247235E-1,1.7879722E-1,9.700092E-1,4.607973E-1,-1.3315251E-2,4.3379024E-1,-2.9733765E-1,-8.512189E-1,2.5446492E-3,-8.413714E-1,-1.5325783E-1,-6.818476E-1,-1.10435456E-1,-6.9547105E-1,-8.01836E-1,-1.1228268E0,-9.982806E-2,9.844444E-2,8.046911E-2,2.289986E-3,2.2409352E-2,8.230165E-2,3.171575E-2,5.894589E-2,4.7241773E-2,7.578907E-2,5.604213E-3,5.1100247E-2,-5.0178478E-3,3.375255E-2,2.1034002E-2,-3.314626E-2,-2.102301E-3,-4.6548694E-2,5.4206736E-2,8.452568E-3,-1.1964994E-1,1.8311207E-3,-1.1862365E-2,4.9491066E-2,-5.3644575E-2,9.445151E-2,-4.137674E-2,1.2187347E-2,-4.722903E-3,-9.5278926E-2,4.7158677E-2,-6.861662E-3,5.424734E-2,1.019159E-2,1.956156E-2,-6.218763E-2,7.559805E-2,9.179656E-3,2.2285061E-2,1.0832598E-1,-7.5553874E-3,3.6300477E-2,4.2851638E-2,2.862562E-3,-4.399729E-2,1.9724385E-3,-4.4662513E-2,-9.477309E-2,-2.8410792E-2,3.5959616E-2,-4.904461E-2,-8.2223095E-2,3.0098815E-2,-1.7229522E-2,-5.7878055E-2,2.876022E-3,-3.9937146E-2,1.8151421E-2,-8.1067786E-2,-4.353451E-2,-5.630515E-2,-1.1222025E-1,-3.939205E-2,-8.703333E-2],"categories":[],"categories_nodes":[],"categories_segments":[],"categories_sizes":[],"default_left":[0,0,0,0,0,0,0,0,0,0,0,0,0,0,0,0,0,0,0,0,0,0,0,0,0,0,0,0,0,0,0,0,0,0,0,0,0,0,0,0,0,0,0,0,0,0,0,0,0,0,0,0,0,0,0,0,0,0,0,0,0,0,0,0,0,0,0,0,0,0,0,0,0,0,0,0,0,0,0,0,0,0,0,0,0,0,0,0,0,0,0,0,0,0,0,0,0,0,0,0,0,0,0,0,0,0,0,0,0,0,0,0,0,0,0,0,0,0,0,0,0,0,0,0,0,0,0],"id":2,"left_children":[1,3,5,7,9,11,13,15,17,19,21,23,25,27,29,31,33,35,37,39,41,43,45,47,49,51,53,55,57,59,61,63,65,67,69,71,73,75,77,79,81,83,85,87,89,91,93,95,97,99,101,103,105,107,109,111,113,115,117,119,121,123,125,-1,-1,-1,-1,-1,-1,-1,-1,-1,-1,-1,-1,-1,-1,-1,-1,-1,-1,-1,-1,-1,-1,-1,-1,-1,-1,-1,-1,-1,-1,-1,-1,-1,-1,-1,-1,-1,-1,-1,-1,-1,-1,-1,-1,-1,-1,-1,-1,-1,-1,-1,-1,-1,-1,-1,-1,-1,-1,-1,-1,-1,-1,-1,-1],"loss_changes":[1.0461758E4,3.6779482E3,5.2035913E3,1.2807852E3,5.88191E2,7.6641003E2,1.5500947E3,2.186919E2,9.019844E2,2.1835861E2,2.6956427E2,1.5560498E2,4.3355624E2,7.225397E2,4.8379004E2,5.0537354E1,1.3188672E2,1.4446875E2,4.2117767E2,1.3461069E2,7.4064545E1,1.5561993E2,1.0055047E2,1.2311658E2,5.851245E1,2.4593652E2,8.505536E1,1.9211743E2,4.6976007E2,2.1667639E2,1.7228613E2,1.5587402E1,4.7343018E1,3.4328247E1,7.0751465E1,8.5227295E1,9.81947E1,3.3401062E2,1.371311E2,9.216108E1,6.000261E1,4.267541E1,5.3888092E1,9.769629E1,1.1048511E2,5.0079185E1,9.60245E1,7.454718E1,8.571565E1,3.4801086E1,4.617004E1,1.4386108E2,1.0660242E2,6.347994E1,4.8994965E1,5.3971832E1,1.5122656E2,3.9528082E2,1.3280927E2,1.1187838E2,1.7971814E2,9.02677E1,1.0839746E2,0E0,0E0,0E0,0E0,0E0,0E0,0E0,0E0,0E0,0E0,0E0,0E0,0E0,0E0,0E0,0E0,0E0,0E0,0E0,0E0,0E0,0E0,0E0,0E0,0E0,0E0,0E0,0E0,0E0,0E0,0E0,0E0,0E0,0E0,0E0,0E0,0E0,0E0,0E0,0E0,0E0,0E0,0E0,0E0,0E0,0E0,0E0,0E0,0E0,0E0,0E0,0E0,0E0,0E0,0E0,0E0,0E0,0E0,0E0,0E0,0E0,0E0,0E0,0E0],"parents":[2147483647,0,0,1,1,2,2,3,3,4,4,5,5,6,6,7,7,8,8,9,9,10,10,11,11,12,12,13,13,14,14,15,15,16,16,17,17,18,18,19,19,20,20,21,21,22,22,23,23,24,24,25,25,26,26,27,27,28,28,29,29,30,30,31,31,32,32,33,33,34,34,35,35,36,36,37,37,38,38,39,39,40,40,41,41,42,42,43,43,44,44,45,45,46,46,47,47,48,48,49,49,50,50,51,51,52,52,53,53,54,54,55,55,56,56,57,57,58,58,59,59,60,60,61,61,62,62],"right_children":[2,4,6,8,10,12,14,16,18,20,22,24,26,28,30,32,34,36,38,40,42,44,46,48,50,52,54,56,58,60,62,64,66,68,70,72,74,76,78,80,82,84,86,88,90,92,94,96,98,100,102,104,106,108,110,112,114,116,118,120,122,124,126,-1,-1,-1,-1,-1,-1,-1,-1,-1,-1,-1,-1,-1,-1,-1,-1,-1,-1,-1,-1,-1,-1,-1,-1,-1,-1,-1,-1,-1,-1,-1,-1,-1,-1,-1,-1,-1,-1,-1,-1,-1,-1,-1,-1,-1,-1,-1,-1,-1,-1,-1,-1,-1,-1,-1,-1,-1,-1,-1,-1,-1,-1,-1,-1],"split_conditions":[4.8845786E-1,5.424451E-1,3.944954E-1,3.1391668E-1,2.5781512E-1,2.1762852E-1,5.585066E-1,2.0689675E-1,2.0258155E-1,1E0,1E0,5.957654E-1,5.3253263E-1,2E0,8.5294116E-1,1.7982176E-1,1.4464815E-1,2.1E1,5.0600237E-1,-1.5166E4,1.25595E4,3.5714287E-1,-4.558E3,6.325002E-1,6.750001E-1,5.2887416E-1,6.558465E-1,2.9383266E-1,7.0046633E-1,4.3983352E-1,6.0312647E-1,-2E0,6.393261E-1,-5.95E2,1.5084E4,1E0,5.01E2,-1.9885E4,7.193085E-1,9.3333334E-1,9.073409E-2,-1.7166666E3,-4.247E3,2.5E0,-2.013E3,6.109913E-1,8.8448775E-1,6.795E5,6.9410115E-1,5.299992E4,1.1E1,3.0232558E-1,6.678216E-1,3.9559332E-1,1.2E1,8.82353E-2,6.6428554E-1,8.79679E-1,8E-1,-1.074E3,2E0,7.276208E-1,3.0618334E-1,-9.982806E-2,9.844444E-2,8.046911E-2,2.289986E-3,2.2409352E-2,8.230165E-2,3.171575E-2,5.894589E-2,4.7241773E-2,7.578907E-2,5.604213E-3,5.1100247E-2,-5.0178478E-3,3.375255E-2,2.1034002E-2,-3.314626E-2,-2.102301E-3,-4.6548694E-2,5.4206736E-2,8.452568E-3,-1.1964994E-1,1.8311207E-3,-1.1862365E-2,4.9491066E-2,-5.3644575E-2,9.445151E-2,-4.137674E-2,1.2187347E-2,-4.722903E-3,-9.5278926E-2,4.7158677E-2,-6.861662E-3,5.424734E-2,1.019159E-2,1.956156E-2,-6.218763E-2,7.559805E-2,9.179656E-3,2.2285061E-2,1.0832598E-1,-7.5553874E-3,3.6300477E-2,4.2851638E-2,2.862562E-3,-4.399729E-2,1.9724385E-3,-4.4662513E-2,-9.477309E-2,-2.8410792E-2,3.5959616E-2,-4.904461E-2,-8.2223095E-2,3.0098815E-2,-1.7229522E-2,-5.7878055E-2,2.876022E-3,-3.9937146E-2,1.8151421E-2,-8.1067786E-2,-4.353451E-2,-5.630515E-2,-1.1222025E-1,-3.939205E-2,-8.703333E-2],"split_indices":[41,42,42,42,41,42,42,41,41,2,2,354,40,12,441,42,42,442,40,16,8,438,17,41,41,354,41,40,41,40,41,199,40,166,8,96,128,16,441,441,41,211,17,408,429,42,432,9,40,358,356,408,41,354,374,438,41,432,406,380,12,40,40,0,0,0,0,0,0,0,0,0,0,0,0,0,0,0,0,0,0,0,0,0,0,0,0,0,0,0,0,0,0,0,0,0,0,0,0,0,0,0,0,0,0,0,0,0,0,0,0,0,0,0,0,0,0,0,0,0,0,0,0,0,0,0,0],"split_type":[0,0,0,0,0,0,0,0,0,0,0,0,0,0,0,0,0,0,0,0,0,0,0,0,0,0,0,0,0,0,0,0,0,0,0,0,0,0,0,0,0,0,0,0,0,0,0,0,0,0,0,0,0,0,0,0,0,0,0,0,0,0,0,0,0,0,0,0,0,0,0,0,0,0,0,0,0,0,0,0,0,0,0,0,0,0,0,0,0,0,0,0,0,0,0,0,0,0,0,0,0,0,0,0,0,0,0,0,0,0,0,0,0,0,0,0,0,0,0,0,0,0,0,0,0,0,0],"sum_hessian":[6.8974695E4,3.1526375E4,3.7448324E4,2.346098E4,8.065394E3,1.036646E4,2.7081863E4,7.8937476E3,1.5567233E4,3.1041584E3,4.961236E3,3.954017E3,6.412443E3,1.4841875E4,1.2239988E4,2.928598E3,4.96515E3,5.1474536E3,1.041978E4,1.8996765E3,1.2044818E3,3.0891584E3,1.8720775E3,2.5812273E3,1.3727897E3,5.2648896E3,1.1475532E3,3.473411E3,1.1368464E4,4.817564E3,7.4224243E3,1.3963356E3,1.5322623E3,1.5393638E3,3.425786E3,3.3544358E3,1.7930178E3,9.111617E3,1.3081631E3,1.1190142E3,7.8066235E2,1.0978847E2,1.0946934E3,2.224399E3,8.647594E2,1.5093967E2,1.7211378E3,1.5480892E3,1.0331381E3,1.084301E3,2.8848865E2,3.3067441E3,1.9581458E3,6.768525E2,4.7070074E2,2.9475415E2,3.1786567E3,9.317753E3,2.0507114E3,7.502226E2,4.067341E3,2.5744E3,4.8480244E3,1.4797176E0,1.394856E3,1.4873162E3,4.494617E1,5.6785442E1,1.4825784E3,6.715783E2,2.7542075E3,7.7046497E2,2.583971E3,3.2647705E2,1.4665408E3,1.4949814E3,7.6166353E3,3.6302545E2,9.4513763E2,7.0019086E2,4.1882327E2,2.2669022E2,5.5397217E2,1.8799324E1,9.098914E1,8.713751E1,1.00755585E3,2.1999285E3,2.4470636E1,4.2994592E2,4.3481348E2,5.270396E1,9.82357E1,2.0990756E2,1.5112302E3,1.2879023E3,2.6018692E2,9.5607806E2,7.7059975E1,1.037636E3,4.6665104E1,2.4844873E2,4.003992E1,2.813042E3,4.9370203E2,1.4526052E3,5.055405E2,3.5696002E2,3.198925E2,2.920572E2,1.7864355E2,1.6390063E2,1.3085352E2,1.8338639E3,1.3447928E3,1.128598E3,8.189155E3,1.8231613E3,2.2755013E2,3.411677E2,4.0905493E2,9.328176E2,3.1345234E3,2.3998828E3,1.7451703E2,2.8798654E2,4.5600376E3],"tree_param":{"num_deleted":"0","num_feature":"480","num_nodes":"127","size_leaf_vector":"1"}},{"base_weights":[-7.928545E-6,3.940565E-1,-3.3163628E-1,5.803344E-1,-1.4650065E-1,3.210908E-1,-5.1615614E-1,9.455345E-1,4.4836444E-1,1.6972134E-1,-3.4451553E-1,6.9475377E-1,1.886983E-1,-3.0157128E-1,-7.73897E-1,1.1411399E0,8.257773E-1,7.0858085E-1,2.634823E-1,-2.5856376E-2,4.7823116E-1,-5.13046E-1,-6.685835E-2,7.45957E-1,3.7875026E-4,3.0200437E-1,-3.0693567E-1,-8.874669E-2,-5.2179223E-1,-5.480619E-1,-9.183952E-1,5.019557E-1,1.1585459E0,1.0415771E0,7.3086977E-1,7.5317675E-1,7.400869E-2,3.866897E-1,-1.5674515E-2,-4.0191028E-1,1.4254639E-1,-2.4618727E-1,5.511328E-1,-5.62546E-1,4.2976862E-1,-7.941517E-1,-3.0562032E-3,3.2903346E-1,8.267174E-1,1.5488392E-1,-1.5108254E0,1.2149514E-1,5.369773E-1,-1.4836334E-1,-7.585686E-1,-3.3185107E-1,1.5236741E-1,-9.0126795E-1,-3.7558565E-1,-4.4595706E-1,-9.732081E-1,-7.5226676E-1,-1.0550306E0,5.5831213E-2,-9.467592E-2,9.807719E-2,8.1094705E-2,1.4531353E-2,8.035429E-2,5.9656385E-2,3.176365E-2,6.919608E-2,4.6346292E-2,-6.1580986E-2,2.1123206E-2,4.5121413E-2,1.5927002E-2,6.3651646E-3,-4.7268577E-2,8.139512E-2,-3.5087224E-2,3.680529E-2,-1.6819856E-3,-1.1146561E-1,1.6953076E-3,5.0583437E-2,1.1395876E-2,-4.8373822E-2,-3.7016277E-3,7.197357E-2,-8.194773E-3,-4.3759206E-3,-8.911199E-2,4.3687098E-2,-6.3476358E-3,-2.3388214E-2,3.929992E-2,6.814813E-2,3.317701E-2,-6.8736315E-2,2.7641758E-2,-1.4416878E-1,8.21736E-2,5.187777E-2,3.1748828E-3,5.019899E-2,1.4058637E-2,-3.735653E-2,3.8374634E-3,-4.011039E-2,-1.1462309E-1,3.0681742E-2,-2.9525682E-2,1.9191504E-2,-3.113007E-2,-6.375894E-2,-1.2947093E-1,2.2550594E-2,-3.3448655E-2,-2.2842897E-2,-5.829042E-2,-7.918903E-2,-2.747397E-2,-6.113994E-2,-2.4382243E-2,-3.4959182E-2,-8.1728935E-2],"categories":[],"categories_nodes":[],"categories_segments":[],"categories_sizes":[],"default_left":[0,0,0,0,0,0,0,0,0,0,0,0,0,0,0,0,0,0,0,0,0,0,0,0,0,0,0,0,0,0,0,0,0,0,0,0,0,0,0,0,0,0,0,0,0,0,0,0,0,0,0,0,0,0,0,0,0,0,0,0,0,0,0,0,0,0,0,0,0,0,0,0,0,0,0,0,0,0,0,0,0,0,0,0,0,0,0,0,0,0,0,0,0,0,0,0,0,0,0,0,0,0,0,0,0,0,0,0,0,0,0,0,0,0,0,0,0,0,0,0,0,0,0,0,0,0,0],"id":3,"left_children":[1,3,5,7,9,11,13,15,17,19,21,23,25,27,29,31,33,35,37,39,41,43,45,47,49,51,53,55,57,59,61,63,65,67,69,71,73,75,77,79,81,83,85,87,89,91,93,95,97,99,101,103,105,107,109,111,113,115,117,119,121,123,125,-1,-1,-1,-1,-1,-1,-1,-1,-1,-1,-1,-1,-1,-1,-1,-1,-1,-1,-1,-1,-1,-1,-1,-1,-1,-1,-1,-1,-1,-1,-1,-1,-1,-1,-1,-1,-1,-1,-1,-1,-1,-1,-1,-1,-1,-1,-1,-1,-1,-1,-1,-1,-1,-1,-1,-1,-1,-1,-1,-1,-1,-1,-1,-1],"loss_changes":[8.985195E3,3.1638945E3,4.4969067E3,1.1257964E3,5.043316E2,4.0695703E2,1.6096304E3,1.4433789E2,8.2570044E2,1.871636E2,2.3171655E2,7.652893E1,3.4139526E2,7.444691E2,4.3101318E2,2.5591797E1,7.8098145E1,2.0172021E2,3.4524774E2,1.203346E2,6.3692657E1,1.4406708E2,8.685493E1,6.722583E1,3.4982452E1,2.0976749E2,8.091026E1,4.7363617E2,4.3279443E2,2.2364783E2,1.8221436E2,2.8372349E1,2.4975342E1,2.946106E1,5.2785034E1,1.5206714E2,8.744873E1,2.608097E2,1.9003816E2,5.8123283E1,7.540648E1,3.6940266E1,5.3737152E1,1.2386279E2,4.417552E1,4.3695526E1,8.229974E1,4.1016434E1,5.2456543E1,3.145415E1,1.7009066E1,1.2632207E2,9.928369E1,5.854227E1,4.977899E1,1.8446884E2,2.3841792E2,9.01261E1,2.6849994E2,1.9478943E2,4.9710266E1,9.76416E1,8.981348E1,0E0,0E0,0E0,0E0,0E0,0E0,0E0,0E0,0E0,0E0,0E0,0E0,0E0,0E0,0E0,0E0,0E0,0E0,0E0,0E0,0E0,0E0,0E0,0E0,0E0,0E0,0E0,0E0,0E0,0E0,0E0,0E0,0E0,0E0,0E0,0E0,0E0,0E0,0E0,0E0,0E0,0E0,0E0,0E0,0E0,0E0,0E0,0E0,0E0,0E0,0E0,0E0,0E0,0E0,0E0,0E0,0E0,0E0,0E0,0E0,0E0,0E0,0E0,0E0],"parents":[2147483647,0,0,1,1,2,2,3,3,4,4,5,5,6,6,7,7,8,8,9,9,10,10,11,11,12,12,13,13,14,14,15,15,16,16,17,17,18,18,19,19,20,20,21,21,22,22,23,23,24,24,25,25,26,26,27,27,28,28,29,29,30,30,31,31,32,32,33,33,34,34,35,35,36,36,37,37,38,38,39,39,40,40,41,41,42,42,43,43,44,44,45,45,46,46,47,47,48,48,49,49,50,50,51,51,52,52,53,53,54,54,55,55,56,56,57,57,58,58,59,59,60,60,61,61,62,62],"right_children":[2,4,6,8,10,12,14,16,18,20,22,24,26,28,30,32,34,36,38,40,42,44,46,48,50,52,54,56,58,60,62,64,66,68,70,72,74,76,78,80,82,84,86,88,90,92,94,96,98,100,102,104,106,108,110,112,114,116,118,120,122,124,126,-1,-1,-1,-1,-1,-1,-1,-1,-1,-1,-1,-1,-1,-1,-1,-1,-1,-1,-1,-1,-1,-1,-1,-1,-1,-1,-1,-1,-1,-1,-1,-1,-1,-1,-1,-1,-1,-1,-1,-1,-1,-1,-1,-1,-1,-1,-1,-1,-1,-1,-1,-1,-1,-1,-1,-1,-1,-1,-1,-1,-1,-1,-1,-1],"split_conditions":[4.8845786E-1,5.424451E-1,3.4252888E-1,2.664568E-1,2.5781512E-1,1.5008518E-1,5.388627E-1,2.0689675E-1,2.5074556E-1,1E0,1E0,1E0,5.131022E-1,8.9166665E-1,8.492063E-1,2E0,1.2373532E-1,5.533597E-1,9.45E3,-1.9823E4,1.25595E4,8.75E-1,-4.558E3,-1.203E3,1.358E-1,4.943435E-1,1.8E1,-1.723E3,3E0,5.668186E-1,6.2912375E-1,2.5E-1,6.0701236E-2,-5.95E2,7.316925E3,1.2184509E-1,3.0507542E1,8.5E-1,5.0600237E-1,4.185E4,1.490805E5,-1.7166666E3,3E1,5.398559E-1,3.8113172E5,6.109913E-1,8.8448775E-1,8.23E2,6.795E5,-2.58E2,1.714E3,2.4440815E-1,6.6079956E-1,6.8E0,4E0,2.7453327E-1,7.063059E-1,3.958E-1,2.7453327E-1,6.766673E-1,-4.6775E2,5.01039E3,2.9969704E-1,5.5831213E-2,-9.467592E-2,9.807719E-2,8.1094705E-2,1.4531353E-2,8.035429E-2,5.9656385E-2,3.176365E-2,6.919608E-2,4.6346292E-2,-6.1580986E-2,2.1123206E-2,4.5121413E-2,1.5927002E-2,6.3651646E-3,-4.7268577E-2,8.139512E-2,-3.5087224E-2,3.680529E-2,-1.6819856E-3,-1.1146561E-1,1.6953076E-3,5.0583437E-2,1.1395876E-2,-4.8373822E-2,-3.7016277E-3,7.197357E-2,-8.194773E-3,-4.3759206E-3,-8.911199E-2,4.3687098E-2,-6.3476358E-3,-2.3388214E-2,3.929992E-2,6.814813E-2,3.317701E-2,-6.8736315E-2,2.7641758E-2,-1.4416878E-1,8.21736E-2,5.187777E-2,3.1748828E-3,5.019899E-2,1.4058637E-2,-3.735653E-2,3.8374634E-3,-4.011039E-2,-1.1462309E-1,3.0681742E-2,-2.9525682E-2,1.9191504E-2,-3.113007E-2,-6.375894E-2,-1.2947093E-1,2.2550594E-2,-3.3448655E-2,-2.2842897E-2,-5.829042E-2,-7.918903E-2,-2.747397E-2,-6.113994E-2,-2.4382243E-2,-3.4959182E-2,-8.1728935E-2],"split_indices":[41,42,42,42,41,42,42,41,41,2,2,1,40,441,441,30,42,40,368,16,8,408,17,123,71,354,373,378,12,40,41,51,41,166,366,41,435,441,40,6,226,211,442,354,138,42,432,172,9,166,124,40,41,478,457,40,41,79,40,41,380,133,40,0,0,0,0,0,0,0,0,0,0,0,0,0,0,0,0,0,0,0,0,0,0,0,0,0,0,0,0,0,0,0,0,0,0,0,0,0,0,0,0,0,0,0,0,0,0,0,0,0,0,0,0,0,0,0,0,0,0,0,0,0,0,0,0],"split_type":[0,0,0,0,0,0,0,0,0,0,0,0,0,0,0,0,0,0,0,0,0,0,0,0,0,0,0,0,0,0,0,0,0,0,0,0,0,0,0,0,0,0,0,0,0,0,0,0,0,0,0,0,0,0,0,0,0,0,0,0,0,0,0,0,0,0,0,0,0,0,0,0,0,0,0,0,0,0,0,0,0,0,0,0,0,0,0,0,0,0,0,0,0,0,0,0,0,0,0,0,0,0,0,0,0,0,0,0,0,0,0,0,0,0,0,0,0,0,0,0,0,0,0,0,0,0,0],"sum_hessian":[6.875369E4,3.1419092E4,3.7334594E4,2.3366754E4,8.052339E3,8.227964E3,2.9106629E4,6.200888E3,1.7165865E4,3.100733E3,4.951606E3,2.1514604E3,6.076504E3,1.5884221E4,1.3222408E4,2.3515146E3,3.8493735E3,7.1290684E3,1.0036796E4,1.89826E3,1.2024729E3,3.0807966E3,1.8708094E3,2.0036377E3,1.4782274E2,4.9461606E3,1.1303431E3,8.0784746E3,7.805746E3,5.1610464E3,8.0613613E3,6.312894E1,2.2883857E3,1.1727689E3,2.6766047E3,6.660781E3,4.682875E2,6.9631753E3,3.0736208E3,5.86711E2,1.311549E3,1.097288E2,1.092744E3,2.9274993E3,1.5329726E2,1.4995825E2,1.7208512E3,3.259583E2,1.6776794E3,1.3492549E2,1.2897243E1,2.7981233E3,2.1480376E3,8.375873E2,2.9275583E2,4.0224475E3,4.056027E3,2.1695547E3,5.6361914E3,4.1632354E3,9.9781085E2,3.6409766E3,4.420385E3,5.600982E1,7.1191225E0,7.756078E2,1.512778E3,4.0093697E1,1.1326753E3,2.2107324E3,4.6587238E2,2.9538284E3,3.7069524E3,8.761858E1,3.806689E2,3.117362E3,3.8458132E3,2.642219E3,4.3140173E2,2.42459E1,5.624651E2,4.2100452E2,8.9054443E2,1.8741058E1,9.098774E1,8.343238E2,2.5842026E2,2.522097E3,4.0540244E2,7.691149E1,7.638577E1,5.269638E1,9.726187E1,2.0968079E2,1.5111704E3,7.589204E1,2.5006627E2,1.3817917E3,2.958877E2,2.18881E1,1.1303739E2,1.13657055E1,1.531537E0,3.4016925E2,2.4579539E3,1.5574305E3,5.90607E2,3.037303E2,5.33857E2,2.2813245E2,6.462338E1,3.0935455E2,3.713093E3,3.4307004E3,6.253266E2,2.0448114E3,1.247433E2,5.310839E2,5.1051074E3,2.9191775E3,1.2440581E3,8.7756494E2,1.2024592E2,3.172659E3,4.6831757E2,2.4669333E2,4.1736914E3],"tree_param":{"num_deleted":"0","num_feature":"480","num_nodes":"127","size_leaf_vector":"1"}},{"base_weights":[-1.0807946E-5,4.582087E-1,-2.4792638E-1,6.0991997E-1,-9.6240774E-2,3.9225066E-1,-4.0861574E-1,8.738565E-1,4.518067E-1,3.6506042E-1,-2.0341478E-1,6.9073206E-1,2.6311016E-1,-2.1197468E-1,-6.8846905E-1,1.0336738E0,7.742727E-1,7.7920634E-1,3.177836E-1,-2.6855718E-3,5.4482365E-1,-3.2980213E-1,1.9216004E-1,8.1685466E-1,4.1812888E-1,3.4697285E-1,-2.4079946E-1,-2.0556117E-3,-4.546648E-1,-3.983937E-1,-8.0321157E-1,1.2087109E0,9.344472E-1,8.226004E-1,3.5295445E-1,6.273662E-1,9.737663E-1,1.6099809E-1,5.482255E-1,-1.3493088E-1,8.304532E-2,6.1465216E-1,-5.62461E-1,-6.254607E-1,-1.5961172E-1,3.0568037E-2,8.522321E-1,4.243409E-1,8.658085E-1,4.8537317E-1,-6.398516E-1,1.3660006E-1,5.133846E-1,-8.679271E-2,-7.05935E-1,-1.5268289E-1,2.3555876E-1,-1.1252293E-1,-5.849798E-1,9.612054E-2,-4.9241328E-1,-6.6624045E-1,-9.634116E-1,-9.563853E-2,9.100811E-2,5.4750483E-2,7.7634394E-2,4.5876876E-2,6.717436E-2,3.070856E-2,-9.068186E-2,6.784626E-2,3.355195E-2,1.6466523E-2,7.583811E-2,3.553892E-2,2.345961E-3,2.157075E-3,4.6317212E-2,-2.5842714E-3,8.010987E-2,4.8280563E-2,-1.3753214E-1,-1.157764E-1,1.28322E-2,-5.111135E-2,2.3742331E-2,-4.374456E-2,-1.7836016E-3,-3.504185E-2,1.1702488E-2,-7.7272695E-3,7.7407695E-2,3.8223565E-2,-1.3958329E-1,6.7076795E-2,2.0146746E-2,1.1493499E-2,4.8383232E-2,-1.2050464E-1,1.0931542E-2,6.692167E-2,5.5449503E-3,4.593075E-2,1.2515717E-2,4.7790688E-3,-4.531533E-2,1.01007484E-1,-5.979626E-2,3.9042916E-2,-1.610026E-2,3.1962756E-2,3.685869E-3,-3.947358E-2,7.354587E-3,1.529065E-2,-4.7691636E-2,-1.2099203E-2,4.4918414E-2,-5.1373776E-2,-1.9927908E-2,-5.3356677E-2,-3.1864257E-3,-7.561058E-2,-4.2463187E-2],"categories":[],"categories_nodes":[],"categories_segments":[],"categories_sizes":[],"default_left":[0,0,0,0,0,0,0,0,0,0,0,0,0,0,0,0,0,0,0,0,0,0,0,0,0,0,0,0,0,0,0,0,0,0,0,0,0,0,0,0,0,0,0,0,0,0,0,0,0,0,0,0,0,0,0,0,0,0,0,0,0,0,0,0,0,0,0,0,0,0,0,0,0,0,0,0,0,0,0,0,0,0,0,0,0,0,0,0,0,0,0,0,0,0,0,0,0,0,0,0,0,0,0,0,0,0,0,0,0,0,0,0,0,0,0,0,0,0,0,0,0,0,0,0,0],"id":4,"left_children":[1,3,5,7,9,11,13,15,17,19,21,23,25,27,29,31,33,35,37,39,41,43,45,47,49,51,53,55,57,59,61,63,65,67,69,71,73,75,77,-1,79,81,83,85,87,89,91,93,95,97,99,101,103,105,107,109,111,113,115,117,119,121,123,-1,-1,-1,-1,-1,-1,-1,-1,-1,-1,-1,-1,-1,-1,-1,-1,-1,-1,-1,-1,-1,-1,-1,-1,-1,-1,-1,-1,-1,-1,-1,-1,-1,-1,-1,-1,-1,-1,-1,-1,-1,-1,-1,-1,-1,-1,-1,-1,-1,-1,-1,-1,-1,-1,-1,-1,-1,-1,-1,-1,-1,-1],"loss_changes":[7.7799297E3,2.0225845E3,4.5717915E3,7.874546E2,2.5550623E2,3.43547E2,1.9548008E3,1.11745605E2,5.178904E2,6.4416534E1,2.0970279E2,9.222681E1,2.6318753E2,1.0630078E3,4.8762207E2,4.5969482E1,8.850073E1,1.00691895E2,3.0268787E2,4.957312E1,5.095038E1,1.5982147E2,1.0833837E2,3.4982666E1,6.1044907E1,1.8680707E2,6.361438E1,4.005123E2,4.3141516E2,1.9333423E2,2.2983936E2,1.3035522E1,3.4957397E1,5.9718994E1,4.0248035E1,9.585663E1,4.213562E1,2.0243495E2,1.22180115E2,0E0,3.560187E1,4.5062317E1,2.858569E1,6.1476013E1,1.161358E2,5.111114E1,3.443071E1,4.1104073E1,2.7630249E1,4.2515457E1,3.9313744E1,1.116485E2,1.0215338E2,5.21335E1,4.250756E1,2.8593103E2,1.5424431E2,2.3275452E2,2.8156543E2,8.616992E1,1.523247E2,1.5964111E2,8.541113E1,0E0,0E0,0E0,0E0,0E0,0E0,0E0,0E0,0E0,0E0,0E0,0E0,0E0,0E0,0E0,0E0,0E0,0E0,0E0,0E0,0E0,0E0,0E0,0E0,0E0,0E0,0E0,0E0,0E0,0E0,0E0,0E0,0E0,0E0,0E0,0E0,0E0,0E0,0E0,0E0,0E0,0E0,0E0,0E0,0E0,0E0,0E0,0E0,0E0,0E0,0E0,0E0,0E0,0E0,0E0,0E0,0E0,0E0,0E0,0E0,0E0,0E0],"parents":[2147483647,0,0,1,1,2,2,3,3,4,4,5,5,6,6,7,7,8,8,9,9,10,10,11,11,12,12,13,13,14,14,15,15,16,16,17,17,18,18,19,19,20,20,21,21,22,22,23,23,24,24,25,25,26,26,27,27,28,28,29,29,30,30,31,31,32,32,33,33,34,34,35,35,36,36,37,37,38,38,40,40,41,41,42,42,43,43,44,44,45,45,46,46,47,47,48,48,49,49,50,50,51,51,52,52,53,53,54,54,55,55,56,56,57,57,58,58,59,59,60,60,61,61,62,62],"right_children":[2,4,6,8,10,12,14,16,18,20,22,24,26,28,30,32,34,36,38,40,42,44,46,48,50,52,54,56,58,60,62,64,66,68,70,72,74,76,78,-1,80,82,84,86,88,90,92,94,96,98,100,102,104,106,108,110,112,114,116,118,120,122,124,-1,-1,-1,-1,-1,-1,-1,-1,-1,-1,-1,-1,-1,-1,-1,-1,-1,-1,-1,-1,-1,-1,-1,-1,-1,-1,-1,-1,-1,-1,-1,-1,-1,-1,-1,-1,-1,-1,-1,-1,-1,-1,-1,-1,-1,-1,-1,-1,-1,-1,-1,-1,-1,-1,-1,-1,-1,-1,-1,-1,-1,-1],"split_conditions":[4.053079E-1,5.726825E-1,3.1703177E-1,3.4905526E-1,1.2795071E-1,1.5008518E-1,5.478105E-1,1.7982176E-1,1.5105496E-1,-1.8029E4,5.2380955E-1,6.325002E-1,5.668186E-1,6.1185485E-1,9.791667E-1,1.4540933E-1,5.0600237E-1,1E0,1E0,-8.4E1,5.4002845E-1,-1.8382E4,-5.5E2,-8.26E2,6.9410115E-1,3.8637307E-1,1.61955E4,1E0,7.4147725E-1,4.1408402E-1,6.340948E-1,-2E0,3.4996843E-1,1.67535E4,2.4E1,7.864583E-1,6E0,9.583333E-1,2E0,-1.3493088E-1,-1.42E2,1E1,1.670444E-1,2.0597994E5,-2.869E3,1.5948E4,-7.353333E2,1E0,4.82E-2,3.3621624E-1,-1.49E2,1.8327068E-1,6.6079956E-1,6.821494E-1,6.6E-3,2.7453327E-1,1E0,-8E1,2.4440815E-1,-1.272E3,-1.073E3,1.910251E5,4.4E1,-9.563853E-2,9.100811E-2,5.4750483E-2,7.7634394E-2,4.5876876E-2,6.717436E-2,3.070856E-2,-9.068186E-2,6.784626E-2,3.355195E-2,1.6466523E-2,7.583811E-2,3.553892E-2,2.345961E-3,2.157075E-3,4.6317212E-2,-2.5842714E-3,8.010987E-2,4.8280563E-2,-1.3753214E-1,-1.157764E-1,1.28322E-2,-5.111135E-2,2.3742331E-2,-4.374456E-2,-1.7836016E-3,-3.504185E-2,1.1702488E-2,-7.7272695E-3,7.7407695E-2,3.8223565E-2,-1.3958329E-1,6.7076795E-2,2.0146746E-2,1.1493499E-2,4.8383232E-2,-1.2050464E-1,1.0931542E-2,6.692167E-2,5.5449503E-3,4.593075E-2,1.2515717E-2,4.7790688E-3,-4.531533E-2,1.01007484E-1,-5.979626E-2,3.9042916E-2,-1.610026E-2,3.1962756E-2,3.685869E-3,-3.947358E-2,7.354587E-3,1.529065E-2,-4.7691636E-2,-1.2099203E-2,4.4918414E-2,-5.1373776E-2,-1.9927908E-2,-5.3356677E-2,-3.1864257E-3,-7.561058E-2,-4.2463187E-2],"split_indices":[41,42,42,42,41,42,42,42,41,16,438,41,40,41,432,41,40,2,2,154,40,16,428,167,40,354,368,2,441,40,41,199,354,8,208,441,20,432,12,0,165,215,354,385,17,8,167,1,56,354,166,40,41,41,68,40,3,467,40,426,94,385,477,0,0,0,0,0,0,0,0,0,0,0,0,0,0,0,0,0,0,0,0,0,0,0,0,0,0,0,0,0,0,0,0,0,0,0,0,0,0,0,0,0,0,0,0,0,0,0,0,0,0,0,0,0,0,0,0,0,0,0,0,0,0],"split_type":[0,0,0,0,0,0,0,0,0,0,0,0,0,0,0,0,0,0,0,0,0,0,0,0,0,0,0,0,0,0,0,0,0,0,0,0,0,0,0,0,0,0,0,0,0,0,0,0,0,0,0,0,0,0,0,0,0,0,0,0,0,0,0,0,0,0,0,0,0,0,0,0,0,0,0,0,0,0,0,0,0,0,0,0,0,0,0,0,0,0,0,0,0,0,0,0,0,0,0,0,0,0,0,0,0,0,0,0,0,0,0,0,0,0,0,0,0,0,0,0,0,0,0,0,0],"sum_hessian":[6.8483445E4,2.4043418E4,4.4440023E4,1.8877861E4,5.165556E3,8.916353E3,3.552367E4,7.0705527E3,1.180731E4,9.73403E2,4.1921533E3,2.6913982E3,6.2249546E3,2.0864693E4,1.4658977E4,2.710777E3,4.3597754E3,3.4281082E3,8.379201E3,3.1991995E2,6.5348303E2,3.1771958E3,1.01495734E3,1.8387058E3,8.5269244E2,5.337052E3,8.879025E2,1.1188238E4,9.676455E3,4.15624E3,1.0502736E4,9.76693E2,1.7340841E3,3.9102898E3,4.4948584E2,1.9278129E3,1.5002953E3,4.987536E3,3.3916653E3,1.3662054E1,3.062579E2,6.1513574E2,3.8347324E1,1.15976E3,2.0174358E3,8.1619196E2,1.9876535E2,2.0496396E2,1.6337418E3,8.022438E2,5.0448654E1,2.3579822E3,2.9790698E3,6.6793524E2,2.1996732E2,6.847723E3,4.3405156E3,2.6695132E3,7.006942E3,6.639652E2,3.492275E3,5.6646333E3,4.8381035E3,1.3460866E0,9.753469E2,5.7490674E2,1.1591772E3,1.0084342E3,2.9018555E3,4.3450925E2,1.4976603E1,7.5733026E2,1.1704825E3,7.122184E1,1.4290734E3,1.4610754E3,3.5264607E3,3.995692E2,2.9920962E3,2.7448236E2,3.1775562E1,6.086418E2,6.493959E0,1.5931956E1,2.2415367E1,1.0949197E3,6.484034E1,4.8899316E2,1.5284426E3,1.6375546E2,6.524365E2,3.1563572E1,1.6720178E2,1.9833783E2,6.6261387E0,1.5587284E3,7.501346E1,2.6117157E2,5.410722E2,2.2146654E1,2.8302E1,1.7955379E2,2.1784282E3,2.3163376E3,6.627322E2,5.1809863E2,1.4983661E2,8.78629E0,2.1118102E2,5.766981E2,6.271025E3,2.1454602E3,2.1950554E3,8.998451E2,1.7696682E3,4.2459726E2,6.5823447E3,4.3957153E2,2.2439365E2,1.8872144E3,1.6050605E3,5.2818965E3,3.8273666E2,4.347077E3,4.9102637E2],"tree_param":{"num_deleted":"0","num_feature":"480","num_nodes":"125","size_leaf_vector":"1"}},{"base_weights":[-1.2456413E-6,2.777888E-1,-3.56877E-1,4.5175287E-1,-1.9193861E-1,1.1150591E-1,-5.5267286E-1,7.931048E-1,3.3039635E-1,1.5683474E-1,-3.4431836E-1,2.2196035E-1,-3.4077576E-1,-3.418662E-1,-7.0185804E-1,9.7280043E-1,6.656376E-1,5.9633785E-1,1.6723965E-1,-2.1468534E-1,2.8768936E-1,-4.9478593E-1,-8.911854E-2,5.104568E-1,6.892499E-2,-1.2262293E-2,-5.8198106E-1,-4.898801E-1,-2.8957361E-2,-5.4121226E-1,-8.85651E-1,1.0085623E0,6.022549E-1,3.9400735E-1,7.5309473E-1,2.4971409E-1,6.733914E-1,2.4021512E-1,-2.9204398E-1,-3.4537688E-1,2.4809405E-1,3.7216038E-1,-3.7561247E-1,-6.232037E-1,-1.7642315E-1,-5.9435725E-1,1.0525025E-2,2.5826156E-1,6.773027E-1,-2.2930263E-2,5.365243E-1,-1.9311117E-1,4.0594402E-1,-6.690194E-1,3.9744657E-1,2.2646864E-1,-5.389215E-1,-1.5736972E-1,7.5924444E-1,-8.95011E-1,-4.211365E-1,-1.0902745E0,-7.859841E-1,6.801746E-2,8.379996E-2,-9.789375E-2,4.938196E-2,3.3601705E-2,-3.5577457E-2,4.2198744E-2,6.3572586E-2,-1.7437743E-2,2.9153407E-2,6.653313E-2,4.2435676E-2,-1.0248926E-2,2.3327157E-2,-1.26535E-4,-4.193363E-2,-9.132863E-3,-5.10182E-2,3.3444572E-2,-4.8967823E-2,5.6522697E-2,1.9629203E-2,-1.2266985E-1,-1.5988799E-2,-5.4799285E-2,-2.0173306E-2,-1.656479E-3,-7.5177304E-2,-1.3728098E-3,-6.167884E-2,-1.0408901E-2,2.2100793E-2,-5.8147623E-3,3.2409884E-2,4.3361742E-2,7.552079E-2,3.3320937E-2,-8.573569E-3,-2.5898922E-2,4.5745544E-2,-2.7076507E-2,4.151395E-2,-4.742124E-2,3.9092164E-2,-5.628662E-2,1.10127535E-2,-4.2118788E-2,6.9361195E-2,2.8462132E-2,-5.8186382E-2,-4.861337E-2,-2.4283228E-2,-2.5228107E-2,1.9385774E-2,-1.2183229E-2,6.84922E-2,2.6545994E-2,-6.9157384E-2,-2.5472105E-2,-6.550391E-2,-8.501067E-2,-3.372421E-2,-1.4729399E-2,-6.2100902E-2],"categories":[],"categories_nodes":[],"categories_segments":[],"categories_sizes":[],"default_left":[0,0,0,0,0,0,0,0,0,0,0,0,0,0,0,0,0,0,0,0,0,0,0,0,0,0,0,0,0,0,0,0,0,0,0,0,0,0,0,0,0,0,0,0,0,0,0,0,0,0,0,0,0,0,0,0,0,0,0,0,0,0,0,0,0,0,0,0,0,0,0,0,0,0,0,0,0,0,0,0,0,0,0,0,0,0,0,0,0,0,0,0,0,0,0,0,0,0,0,0,0,0,0,0,0,0,0,0,0,0,0,0,0,0,0,0,0,0,0,0,0,0,0,0,0,0,0],"id":5,"left_children":[1,3,5,7,9,11,13,15,17,19,21,23,25,27,29,31,33,35,37,39,41,43,45,47,49,51,53,55,57,59,61,63,65,67,69,71,73,75,77,79,81,83,85,87,89,91,93,95,97,99,101,103,105,107,109,111,113,115,117,119,121,123,125,-1,-1,-1,-1,-1,-1,-1,-1,-1,-1,-1,-1,-1,-1,-1,-1,-1,-1,-1,-1,-1,-1,-1,-1,-1,-1,-1,-1,-1,-1,-1,-1,-1,-1,-1,-1,-1,-1,-1,-1,-1,-1,-1,-1,-1,-1,-1,-1,-1,-1,-1,-1,-1,-1,-1,-1,-1,-1,-1,-1,-1,-1,-1,-1],"loss_changes":[6.759358E3,3.133006E3,2.7368923E3,1.1587334E3,5.507672E2,4.3961227E2,6.616299E2,1.6741357E2,8.955508E2,1.5326851E2,2.7688593E2,3.121962E2,1.3686673E2,4.0401556E2,3.6336768E2,3.971167E1,1.0174841E2,2.09448E2,4.2889703E2,4.976689E1,1.3074475E2,1.8536414E2,1.3473596E2,1.02958374E2,1.9853459E2,5.546687E1,8.517349E1,2.0817078E2,2.837653E2,2.790829E2,1.1632666E2,2.9654297E1,2.9819656E1,4.938333E1,5.800659E1,9.586848E1,1.4711548E2,2.9469415E2,1.3606471E2,4.7910576E1,3.263841E1,8.693356E1,5.3642963E1,1.2283374E2,1.663764E2,5.789612E1,9.492098E1,5.7104973E1,4.760846E1,1.6503027E2,4.9344177E1,6.4378624E1,2.6830387E1,6.0933685E1,4.1949203E1,5.8601517E1,1.3008374E2,1.7953171E2,5.5893112E1,5.6687744E1,1.8081555E2,5.150415E1,9.567114E1,0E0,0E0,0E0,0E0,0E0,0E0,0E0,0E0,0E0,0E0,0E0,0E0,0E0,0E0,0E0,0E0,0E0,0E0,0E0,0E0,0E0,0E0,0E0,0E0,0E0,0E0,0E0,0E0,0E0,0E0,0E0,0E0,0E0,0E0,0E0,0E0,0E0,0E0,0E0,0E0,0E0,0E0,0E0,0E0,0E0,0E0,0E0,0E0,0E0,0E0,0E0,0E0,0E0,0E0,0E0,0E0,0E0,0E0,0E0,0E0,0E0,0E0,0E0,0E0],"parents":[2147483647,0,0,1,1,2,2,3,3,4,4,5,5,6,6,7,7,8,8,9,9,10,10,11,11,12,12,13,13,14,14,15,15,16,16,17,17,18,18,19,19,20,20,21,21,22,22,23,23,24,24,25,25,26,26,27,27,28,28,29,29,30,30,31,31,32,32,33,33,34,34,35,35,36,36,37,37,38,38,39,39,40,40,41,41,42,42,43,43,44,44,45,45,46,46,47,47,48,48,49,49,50,50,51,51,52,52,53,53,54,54,55,55,56,56,57,57,58,58,59,59,60,60,61,61,62,62],"right_children":[2,4,6,8,10,12,14,16,18,20,22,24,26,28,30,32,34,36,38,40,42,44,46,48,50,52,54,56,58,60,62,64,66,68,70,72,74,76,78,80,82,84,86,88,90,92,94,96,98,100,102,104,106,108,110,112,114,116,118,120,122,124,126,-1,-1,-1,-1,-1,-1,-1,-1,-1,-1,-1,-1,-1,-1,-1,-1,-1,-1,-1,-1,-1,-1,-1,-1,-1,-1,-1,-1,-1,-1,-1,-1,-1,-1,-1,-1,-1,-1,-1,-1,-1,-1,-1,-1,-1,-1,-1,-1,-1,-1,-1,-1,-1,-1,-1,-1,-1,-1,-1,-1,-1,-1,-1,-1],"split_conditions":[5.5185956E-1,5.388627E-1,4.1359675E-1,2.664568E-1,2.5781512E-1,5.0600237E-1,8.5294116E-1,2.718064E-1,2.6723E-1,-1.9823E4,1E0,2.1762852E-1,2.5533178E-1,-1.235E3,5.726825E-1,5.0600237E-1,3E0,-1.9624E4,5.131022E-1,6.253691E2,5.0600237E-1,-1.3822E4,2E0,3.8637307E-1,2.857143E-1,6.0230607E-1,2.95E0,2.7453327E-1,1.8065618E0,2E0,-2.484E3,5.0602007E-1,-1.58E1,6.8589365E-1,3.2535926E-1,-3.47E2,7.619048E-1,-1.9953E4,8.4375E-1,2.4E1,1.2591E4,7.3573776E-2,4.9455E4,4.165263E2,5.0600237E-1,-5.9E2,-3.7E1,-8.44E2,-6.5E1,3.0618334E-1,-6.44E2,7E0,2.2807247E5,2.8E1,3.8637307E-1,9.69E-2,1E0,3.3333334E-1,-1.9624E4,-8E1,5.533597E-1,2.8494855E6,2.9969704E-1,6.801746E-2,8.379996E-2,-9.789375E-2,4.938196E-2,3.3601705E-2,-3.5577457E-2,4.2198744E-2,6.3572586E-2,-1.7437743E-2,2.9153407E-2,6.653313E-2,4.2435676E-2,-1.0248926E-2,2.3327157E-2,-1.26535E-4,-4.193363E-2,-9.132863E-3,-5.10182E-2,3.3444572E-2,-4.8967823E-2,5.6522697E-2,1.9629203E-2,-1.2266985E-1,-1.5988799E-2,-5.4799285E-2,-2.0173306E-2,-1.656479E-3,-7.5177304E-2,-1.3728098E-3,-6.167884E-2,-1.0408901E-2,2.2100793E-2,-5.8147623E-3,3.2409884E-2,4.3361742E-2,7.552079E-2,3.3320937E-2,-8.573569E-3,-2.5898922E-2,4.5745544E-2,-2.7076507E-2,4.151395E-2,-4.742124E-2,3.9092164E-2,-5.628662E-2,1.10127535E-2,-4.2118788E-2,6.9361195E-2,2.8462132E-2,-5.8186382E-2,-4.861337E-2,-2.4283228E-2,-2.5228107E-2,1.9385774E-2,-1.2183229E-2,6.84922E-2,2.6545994E-2,-6.9157384E-2,-2.5472105E-2,-6.550391E-2,-8.501067E-2,-3.372421E-2,-1.4729399E-2,-6.2100902E-2],"split_indices":[41,42,42,42,41,40,441,41,41,16,2,42,42,429,42,40,12,16,40,434,40,16,12,354,408,354,406,40,438,12,17,354,200,40,354,129,441,16,441,442,367,41,360,434,40,216,467,380,166,40,192,456,140,472,354,54,2,408,16,469,40,365,40,0,0,0,0,0,0,0,0,0,0,0,0,0,0,0,0,0,0,0,0,0,0,0,0,0,0,0,0,0,0,0,0,0,0,0,0,0,0,0,0,0,0,0,0,0,0,0,0,0,0,0,0,0,0,0,0,0,0,0,0,0,0,0,0],"split_type":[0,0,0,0,0,0,0,0,0,0,0,0,0,0,0,0,0,0,0,0,0,0,0,0,0,0,0,0,0,0,0,0,0,0,0,0,0,0,0,0,0,0,0,0,0,0,0,0,0,0,0,0,0,0,0,0,0,0,0,0,0,0,0,0,0,0,0,0,0,0,0,0,0,0,0,0,0,0,0,0,0,0,0,0,0,0,0,0,0,0,0,0,0,0,0,0,0,0,0,0,0,0,0,0,0,0,0,0,0,0,0,0,0,0,0,0,0,0,0,0,0,0,0,0,0,0,0],"sum_hessian":[6.818031E4,3.8338258E4,2.9842057E4,2.7976986E4,1.0361271E4,8.797384E3,2.1044674E4,7.3361914E3,2.0640795E4,3.1504216E3,7.21085E3,7.071033E3,1.7263506E3,8.722545E3,1.2322129E4,3.0416394E3,4.294552E3,7.847274E3,1.2793521E4,8.2043024E2,2.3299915E3,4.5356567E3,2.6751934E3,2.4500176E3,4.6210156E3,7.3134045E2,9.9501013E2,5.921132E3,2.8014133E3,6.5772075E3,5.7449214E3,2.772354E3,2.6928552E2,1.0472955E3,3.2472563E3,1.4279429E3,6.419331E3,1.1039875E4,1.7536462E3,6.3995654E2,1.8047368E2,2.0671768E3,2.6281458E2,3.2312944E3,1.3043624E3,4.398725E2,2.2353208E3,9.7651624E2,1.4735013E3,3.8630989E3,7.579166E2,5.1093173E2,2.2040875E2,9.1409467E2,8.091549E1,3.791568E2,5.541975E3,2.4096396E3,3.9177362E2,1.6649727E3,4.912235E3,1.8784286E3,3.8664927E3,1.437823E3,1.3345309E3,7.066855E0,2.6221866E2,9.864213E2,6.0874165E1,1.079539E3,2.1677173E3,3.193542E2,1.1085887E3,2.146992E3,4.272339E3,1.7461262E3,9.293749E3,8.406772E2,9.1296906E2,3.8454303E2,2.5541351E2,1.4839536E2,3.2078312E1,4.62787E2,1.6043899E3,2.8975677E1,2.3383891E2,2.478413E3,7.528813E2,1.0998663E3,2.0449619E2,1.2504875E2,3.1482373E2,1.4656783E3,7.6964246E2,3.333257E2,6.4319055E2,1.1349087E3,3.3859265E2,6.3135815E2,3.2317407E3,5.79649E1,6.999517E2,4.175466E2,9.338513E1,2.158E1,1.9882875E2,8.311761E2,8.2918526E1,2.868551E1,5.222998E1,3.2947485E2,4.9681953E1,3.6741338E3,1.867841E3,1.6846554E3,7.249843E2,5.607538E1,3.3569824E2,3.5087185E1,1.6298855E3,4.1635864E3,7.4864874E2,1.7590359E3,1.193927E2,2.5765308E2,3.6088396E3],"tree_param":{"num_deleted":"0","num_feature":"480","num_nodes":"127","size_leaf_vector":"1"}},{"base_weights":[-9.527264E-6,3.8974017E-1,-2.2140329E-1,5.2415407E-1,-9.490573E-2,3.3535388E-1,-3.6078393E-1,7.656099E-1,3.8178116E-1,-2.5817305E-1,1.6817532E-1,6.3829887E-1,2.3492575E-1,-1.894834E-1,-6.0626006E-1,6.3637656E-1,8.8186157E-1,6.8892294E-1,2.6308504E-1,5.079429E-2,-4.1741234E-1,2.9008707E-1,-2.8961307E-1,5.509767E-1,9.545983E-1,1.07213914E-1,5.051892E-1,-5.2486026E-1,-7.0245616E-2,-3.393446E-1,-7.1297216E-1,7.237124E-1,4.108149E-1,1.0560298E0,8.002207E-1,5.4560035E-1,8.736632E-1,3.164759E-1,-3.1058726E-1,6.712823E-1,-7.214336E-2,3.8480908E-1,-4.8066384E-1,3.4034288E-1,-8.327819E-1,1.6262992E-1,-6.9642913E-1,7.0616144E-1,3.072818E-1,9.8507494E-1,-1.1320125E0,1.7039868E-1,-4.6407786E-1,8.9467466E-1,4.2787534E-1,-7.2715014E-1,-2.7740553E-1,-2.885704E-1,9.251722E-2,-2.5553966E-1,-8.17938E-1,-6.413055E-1,-1.0025282E0,-9.984661E-3,5.5966657E-2,3.459922E-2,-3.2799717E-2,-1.214656E-1,7.956061E-2,6.231558E-2,1.1455899E-2,6.0017295E-2,2.8635489E-2,1.189622E-2,6.821506E-2,4.1189894E-2,1.3890249E-2,-3.5760574E-2,1.6244074E-2,5.880003E-2,-4.7298875E-2,1.7662847E-2,-2.3762887E-2,3.2468229E-3,7.638117E-2,-9.4456726E-4,-4.399343E-2,-2.3701143E-2,3.1665407E-2,-1.2073574E-1,5.1461356E-3,-2.241857E-2,5.0393987E-2,-6.749083E-2,1.5154303E-2,5.630802E-2,-1.4163474E-4,2.6248273E-2,-1.5235394E-1,7.577966E-2,-7.281216E-2,-1.4281492E-1,7.884993E-2,2.508535E-2,-1.9254906E-3,-5.256671E-2,-2.092614E-3,7.012477E-2,-8.488338E-2,4.0707294E-2,3.1476596E-3,-7.662948E-2,-4.7190804E-2,3.4682926E-2,-2.7733123E-2,-3.426799E-2,4.802584E-3,1.4496917E-2,-2.3814902E-2,-2.4600914E-2,2.718711E-2,-6.475648E-2,4.795393E-2,-5.1708102E-2,-1.2417595E-2,-7.993211E-2,-2.913679E-2],"categories":[],"categories_nodes":[],"categories_segments":[],"categories_sizes":[],"default_left":[0,0,0,0,0,0,0,0,0,0,0,0,0,0,0,0,0,0,0,0,0,0,0,0,0,0,0,0,0,0,0,0,0,0,0,0,0,0,0,0,0,0,0,0,0,0,0,0,0,0,0,0,0,0,0,0,0,0,0,0,0,0,0,0,0,0,0,0,0,0,0,0,0,0,0,0,0,0,0,0,0,0,0,0,0,0,0,0,0,0,0,0,0,0,0,0,0,0,0,0,0,0,0,0,0,0,0,0,0,0,0,0,0,0,0,0,0,0,0,0,0,0,0,0,0,0,0],"id":6,"left_children":[1,3,5,7,9,11,13,15,17,19,21,23,25,27,29,31,33,35,37,39,41,43,45,47,49,51,53,55,57,59,61,63,65,67,69,71,73,75,77,79,81,83,85,87,89,91,93,95,97,99,101,103,105,107,109,111,113,115,117,119,121,123,125,-1,-1,-1,-1,-1,-1,-1,-1,-1,-1,-1,-1,-1,-1,-1,-1,-1,-1,-1,-1,-1,-1,-1,-1,-1,-1,-1,-1,-1,-1,-1,-1,-1,-1,-1,-1,-1,-1,-1,-1,-1,-1,-1,-1,-1,-1,-1,-1,-1,-1,-1,-1,-1,-1,-1,-1,-1,-1,-1,-1,-1,-1,-1,-1],"loss_changes":[5.8542236E3,1.6011143E3,3.3577227E3,6.6116406E2,2.2929358E2,2.6343048E2,1.4550269E3,1.06649414E2,4.4116858E2,1.6207552E2,1.1418631E2,5.9033142E1,2.2457953E2,8.1508264E2,4.0486182E2,6.634631E1,5.2536377E1,8.885315E1,2.6759192E2,8.556971E1,1.10480896E2,9.142052E1,7.9308914E1,6.377887E1,3.0695984E1,1.5966064E2,6.249884E1,2.6740808E2,5.344133E2,1.6279337E2,2.101831E2,4.711035E1,4.075099E1,1.6995605E1,5.0686035E1,7.9043396E1,3.761853E1,2.4400226E2,6.5306946E1,2.7716019E1,7.05845E1,3.4451286E1,9.990048E1,8.323135E1,4.8772675E1,4.8307877E1,4.1639885E1,3.2634277E1,6.662489E1,2.3712555E1,1.4075915E1,1.2809E2,4.5483368E1,2.924411E1,7.7311615E1,8.420215E1,1.6460855E2,3.8127924E2,3.5610437E2,1.5508937E2,4.0661804E1,1.8644482E2,7.778027E1,0E0,0E0,0E0,0E0,0E0,0E0,0E0,0E0,0E0,0E0,0E0,0E0,0E0,0E0,0E0,0E0,0E0,0E0,0E0,0E0,0E0,0E0,0E0,0E0,0E0,0E0,0E0,0E0,0E0,0E0,0E0,0E0,0E0,0E0,0E0,0E0,0E0,0E0,0E0,0E0,0E0,0E0,0E0,0E0,0E0,0E0,0E0,0E0,0E0,0E0,0E0,0E0,0E0,0E0,0E0,0E0,0E0,0E0,0E0,0E0,0E0,0E0,0E0,0E0],"parents":[2147483647,0,0,1,1,2,2,3,3,4,4,5,5,6,6,7,7,8,8,9,9,10,10,11,11,12,12,13,13,14,14,15,15,16,16,17,17,18,18,19,19,20,20,21,21,22,22,23,23,24,24,25,25,26,26,27,27,28,28,29,29,30,30,31,31,32,32,33,33,34,34,35,35,36,36,37,37,38,38,39,39,40,40,41,41,42,42,43,43,44,44,45,45,46,46,47,47,48,48,49,49,50,50,51,51,52,52,53,53,54,54,55,55,56,56,57,57,58,58,59,59,60,60,61,61,62,62],"right_children":[2,4,6,8,10,12,14,16,18,20,22,24,26,28,30,32,34,36,38,40,42,44,46,48,50,52,54,56,58,60,62,64,66,68,70,72,74,76,78,80,82,84,86,88,90,92,94,96,98,100,102,104,106,108,110,112,114,116,118,120,122,124,126,-1,-1,-1,-1,-1,-1,-1,-1,-1,-1,-1,-1,-1,-1,-1,-1,-1,-1,-1,-1,-1,-1,-1,-1,-1,-1,-1,-1,-1,-1,-1,-1,-1,-1,-1,-1,-1,-1,-1,-1,-1,-1,-1,-1,-1,-1,-1,-1,-1,-1,-1,-1,-1,-1,-1,-1,-1,-1,-1,-1,-1,-1,-1,-1],"split_conditions":[4.1569513E-1,5.726825E-1,3.1703177E-1,3.4905526E-1,1E0,1.3426542E-1,5.478105E-1,4.4122776E-1,1.5105496E-1,8.055556E-1,2.052387E6,-6.5E1,5.957654E-1,3E0,9.791667E-1,1.12455E4,1.5008518E-1,1E0,5.668186E-1,8.09955E4,3.0618334E-1,1.125E6,8.5E-1,1.0547366E-1,1.076E3,6.4730525E-1,2.6256955E-1,4.347826E-2,-1.6678E4,6.0305876E-1,5.743339E-1,-6.495E3,1.05E2,1.043145E5,1.665E-1,7.864583E-1,6E0,7.96875E-1,1.4333333E1,-1.51E2,3E0,-5.07E2,1.342138E-1,1.25595E4,1E0,-1.0154667E3,1.514709E4,1.593E-1,1.098E-1,3.966741E4,3E0,6.0312647E-1,2E0,-8.123E3,6.6428554E-1,8.23E2,2.8127545E-1,1E0,6.731456E-1,4.4E1,4.875E0,4.4444445E-1,1.9652174E1,-9.984661E-3,5.5966657E-2,3.459922E-2,-3.2799717E-2,-1.214656E-1,7.956061E-2,6.231558E-2,1.1455899E-2,6.0017295E-2,2.8635489E-2,1.189622E-2,6.821506E-2,4.1189894E-2,1.3890249E-2,-3.5760574E-2,1.6244074E-2,5.880003E-2,-4.7298875E-2,1.7662847E-2,-2.3762887E-2,3.2468229E-3,7.638117E-2,-9.4456726E-4,-4.399343E-2,-2.3701143E-2,3.1665407E-2,-1.2073574E-1,5.1461356E-3,-2.241857E-2,5.0393987E-2,-6.749083E-2,1.5154303E-2,5.630802E-2,-1.4163474E-4,2.6248273E-2,-1.5235394E-1,7.577966E-2,-7.281216E-2,-1.4281492E-1,7.884993E-2,2.508535E-2,-1.9254906E-3,-5.256671E-2,-2.092614E-3,7.012477E-2,-8.488338E-2,4.0707294E-2,3.1476596E-3,-7.662948E-2,-4.7190804E-2,3.4682926E-2,-2.7733123E-2,-3.426799E-2,4.802584E-3,1.4496917E-2,-2.3814902E-2,-2.4600914E-2,2.718711E-2,-6.475648E-2,4.795393E-2,-5.1708102E-2,-1.2417595E-2,-7.993211E-2,-2.913679E-2],"split_indices":[41,42,42,42,2,42,42,354,41,441,138,166,354,12,432,368,42,2,40,140,40,9,441,376,171,40,40,438,16,40,40,17,157,270,71,441,20,441,478,216,444,165,41,8,466,380,135,68,70,188,5,41,90,16,41,128,40,2,41,477,406,406,478,0,0,0,0,0,0,0,0,0,0,0,0,0,0,0,0,0,0,0,0,0,0,0,0,0,0,0,0,0,0,0,0,0,0,0,0,0,0,0,0,0,0,0,0,0,0,0,0,0,0,0,0,0,0,0,0,0,0,0,0,0,0,0,0],"split_type":[0,0,0,0,0,0,0,0,0,0,0,0,0,0,0,0,0,0,0,0,0,0,0,0,0,0,0,0,0,0,0,0,0,0,0,0,0,0,0,0,0,0,0,0,0,0,0,0,0,0,0,0,0,0,0,0,0,0,0,0,0,0,0,0,0,0,0,0,0,0,0,0,0,0,0,0,0,0,0,0,0,0,0,0,0,0,0,0,0,0,0,0,0,0,0,0,0,0,0,0,0,0,0,0,0,0,0,0,0,0,0,0,0,0,0,0,0,0,0,0,0,0,0,0,0,0,0],"sum_hessian":[6.784305E4,2.457665E4,4.32664E4,1.9240361E4,5.33629E3,8.662513E3,3.4603883E4,7.1351675E3,1.2105193E4,3.292804E3,2.0434858E3,2.1553796E3,6.5071333E3,2.038229E4,1.4221597E4,3.3819893E3,3.7531785E3,3.3728076E3,8.732385E3,1.1201299E3,2.172674E3,1.6140272E3,4.2945862E2,1.6912192E3,4.6416043E2,4.4199175E3,2.087216E3,5.3450396E3,1.5037249E4,4.0630361E3,1.0158561E4,2.436418E3,9.455711E2,1.1940087E3,2.5591697E3,1.9015371E3,1.4712705E3,7.989282E3,7.4310284E2,1.844943E2,9.3563556E2,1.584144E2,2.0142598E3,1.5455505E3,6.847669E1,2.036587E2,2.2579991E2,1.0320885E3,6.591308E2,4.579989E2,6.1615286E0,3.980389E3,4.395285E2,3.4394516E2,1.7432709E3,2.9398367E3,2.4052026E3,6.422091E3,8.615158E3,3.4588943E3,6.041417E2,8.1456787E3,2.012882E3,6.2241867E1,2.3741763E3,8.9285657E2,5.2714546E1,1.5261117E0,1.1924825E3,2.4432163E3,1.1595344E2,7.4284357E2,1.1586936E3,7.054069E1,1.4007299E3,2.880136E3,5.1091465E3,5.650392E2,1.7806363E2,1.7016008E2,1.43342085E1,4.1451526E2,5.211203E2,1.03627045E2,5.4787346E1,3.7188998E2,1.6423698E3,1.7107152E2,1.374479E3,3.6353294E1,3.21234E1,1.0705403E2,9.6604675E1,1.8410956E2,4.1690353E1,9.708573E2,6.123116E1,6.4814844E2,1.0982374E1,4.526228E2,5.3760853E0,4.646166E0,1.5153627E0,2.166641E3,1.8137477E3,2.8447345E2,1.5505504E2,3.3776297E2,6.1821856E0,1.34303E3,4.0024088E2,7.311863E2,2.2086504E3,2.6651456E2,2.138688E3,4.346665E3,2.0754258E3,6.9159907E3,1.6991672E3,3.0962842E3,3.6261005E2,5.8625287E2,1.7888865E1,7.3968096E3,7.4886884E2,1.8242827E3,1.8859921E2],"tree_param":{"num_deleted":"0","num_feature":"480","num_nodes":"127","size_leaf_vector":"1"}},{"base_weights":[-7.860164E-6,2.4378255E-1,-3.13358E-1,3.7922218E-1,-2.0726474E-1,9.680983E-2,-4.8616958E-1,6.9981164E-1,2.7487355E-1,8.485909E-2,-3.3266184E-1,1.9637403E-1,-3.1151503E-1,-6.2875134E-1,-2.935393E-1,8.6995876E-1,5.8091116E-1,5.375968E-1,1.4251871E-1,5.245846E-1,-2.9298052E-2,-4.002298E-1,2.2247687E-1,-5.105993E-3,3.726969E-1,-7.817922E-2,-5.8116215E-1,-5.402705E-1,-9.508192E-1,-4.279032E-1,8.810561E-2,9.0489167E-1,5.1226056E-1,2.8621706E-1,6.529983E-1,3.3852825E-1,6.5908456E-1,2.427339E-1,-1.2767659E-1,-1.3467075E-1,5.601219E-1,-2.4678558E-1,2.2561201E-1,-6.424306E-1,-2.6732212E-1,8.169853E-1,3.8637098E-2,1.363176E-1,-3.1572384E-1,6.177749E-1,2.4297039E-1,2.3477763E-1,-2.5642592E-1,-6.6110706E-1,3.4673065E-1,-4.0227968E-1,-7.370681E-1,1.310262E-1,-9.881792E-1,2.215832E-1,-4.7540253E-1,-4.8947448E-1,2.2918002E-1,4.440083E-2,7.0624314E-2,-1.450065E-1,4.1550875E-2,-1.2781319E-2,3.0066349E-2,6.927709E-2,4.448188E-2,5.0893243E-2,1.7465802E-2,1.3883831E-2,5.335215E-2,8.257488E-3,3.3981565E-2,-2.7875577E-3,-4.5965083E-2,1.4740372E-3,5.104033E-2,-2.911165E-2,2.2116207E-2,-4.259738E-2,2.2748781E-2,-4.0161576E-2,-7.0555665E-2,-1.2969265E-2,-5.967411E-2,-4.213263E-2,7.583909E-2,-6.197893E-2,1.3212581E-2,2.0445907E-2,-2.299866E-2,1.3530825E-2,-3.556947E-2,3.078626E-2,5.9050795E-2,2.6889877E-2,-6.225905E-3,-1.2902509E-1,2.1750178E-2,-3.1849254E-2,2.1386497E-2,-8.4527686E-2,-3.6949605E-2,-6.511084E-2,7.004556E-2,-2.4044959E-2,-5.8821976E-2,-1.7681897E-2,-5.838403E-2,3.0513762E-2,-1.1408612E-1,-8.185734E-2,-4.6299685E-2,-9.351796E-2,2.224629E-2,-4.323184E-2,-1.6047979E-2,4.745268E-3,-5.3272083E-2,7.5034774E-3,6.5969594E-2],"categories":[],"categories_nodes":[],"categories_segments":[],"categories_sizes":[],"default_left":[0,0,0,0,0,0,0,0,0,0,0,0,0,0,0,0,0,0,0,0,0,0,0,0,0,0,0,0,0,0,0,0,0,0,0,0,0,0,0,0,0,0,0,0,0,0,0,0,0,0,0,0,0,0,0,0,0,0,0,0,0,0,0,0,0,0,0,0,0,0,0,0,0,0,0,0,0,0,0,0,0,0,0,0,0,0,0,0,0,0,0,0,0,0,0,0,0,0,0,0,0,0,0,0,0,0,0,0,0,0,0,0,0,0,0,0,0,0,0,0,0,0,0,0,0],"id":7,"left_children":[1,3,5,7,9,11,13,15,17,19,21,23,25,27,29,31,33,35,37,39,41,43,45,47,49,51,53,55,57,59,61,63,65,67,69,71,73,75,77,-1,79,81,83,85,87,89,91,93,95,97,99,101,103,105,107,109,111,113,115,117,119,121,123,-1,-1,-1,-1,-1,-1,-1,-1,-1,-1,-1,-1,-1,-1,-1,-1,-1,-1,-1,-1,-1,-1,-1,-1,-1,-1,-1,-1,-1,-1,-1,-1,-1,-1,-1,-1,-1,-1,-1,-1,-1,-1,-1,-1,-1,-1,-1,-1,-1,-1,-1,-1,-1,-1,-1,-1,-1,-1,-1,-1,-1,-1],"loss_changes":[5.156109E3,2.3191204E3,2.0934934E3,9.7647266E2,3.211832E2,3.5601813E2,5.70542E2,1.4451831E2,7.658799E2,1.3223183E2,2.3018323E2,2.5009625E2,1.0797299E2,3.3974463E2,4.5337115E2,3.6358154E1,8.952014E1,1.782351E2,3.9670425E2,4.5770584E1,1.1603557E2,1.7587799E2,7.278621E1,1.444158E2,1.1921149E2,5.1466225E1,5.929727E1,2.5413599E2,1.0408496E2,2.0182446E2,1.8774902E2,3.0309326E1,2.8077637E1,4.3618256E1,5.4459106E1,1.0038742E2,1.133855E2,2.981004E2,1.7405731E2,0E0,3.483635E1,8.659417E1,5.9596268E1,6.129303E1,1.7606488E2,4.2690132E1,6.081165E1,1.3646921E2,8.098303E1,4.5329468E1,9.256969E1,3.6660767E1,5.3657833E1,5.7009216E1,4.6338562E1,1.7166638E2,7.991089E1,4.0146763E1,9.4528564E1,4.9545074E1,1.6080359E2,5.525966E1,1.5541513E2,0E0,0E0,0E0,0E0,0E0,0E0,0E0,0E0,0E0,0E0,0E0,0E0,0E0,0E0,0E0,0E0,0E0,0E0,0E0,0E0,0E0,0E0,0E0,0E0,0E0,0E0,0E0,0E0,0E0,0E0,0E0,0E0,0E0,0E0,0E0,0E0,0E0,0E0,0E0,0E0,0E0,0E0,0E0,0E0,0E0,0E0,0E0,0E0,0E0,0E0,0E0,0E0,0E0,0E0,0E0,0E0,0E0,0E0,0E0,0E0,0E0,0E0],"parents":[2147483647,0,0,1,1,2,2,3,3,4,4,5,5,6,6,7,7,8,8,9,9,10,10,11,11,12,12,13,13,14,14,15,15,16,16,17,17,18,18,19,19,20,20,21,21,22,22,23,23,24,24,25,25,26,26,27,27,28,28,29,29,30,30,31,31,32,32,33,33,34,34,35,35,36,36,37,37,38,38,40,40,41,41,42,42,43,43,44,44,45,45,46,46,47,47,48,48,49,49,50,50,51,51,52,52,53,53,54,54,55,55,56,56,57,57,58,58,59,59,60,60,61,61,62,62],"right_children":[2,4,6,8,10,12,14,16,18,20,22,24,26,28,30,32,34,36,38,40,42,44,46,48,50,52,54,56,58,60,62,64,66,68,70,72,74,76,78,-1,80,82,84,86,88,90,92,94,96,98,100,102,104,106,108,110,112,114,116,118,120,122,124,-1,-1,-1,-1,-1,-1,-1,-1,-1,-1,-1,-1,-1,-1,-1,-1,-1,-1,-1,-1,-1,-1,-1,-1,-1,-1,-1,-1,-1,-1,-1,-1,-1,-1,-1,-1,-1,-1,-1,-1,-1,-1,-1,-1,-1,-1,-1,-1,-1,-1,-1,-1,-1,-1,-1,-1,-1,-1,-1,-1,-1,-1],"split_conditions":[5.5185956E-1,5.726825E-1,4.1359675E-1,2.664568E-1,2.5781512E-1,5.0600237E-1,6.349207E-2,2.718064E-1,2.5074556E-1,6.944444E-1,4.4444445E-1,3.9104235E-1,2.9109737E-1,5.4002845E-1,-1.137E3,5.0600237E-1,2E0,6E0,1.19295E4,-2.863E3,-1.5273E4,-1.8382E4,7.2E4,9.166667E-1,2.032521E-1,7.235615E-1,2.95E0,5.9197664E-1,-7.7E1,2.7453327E-1,-1.9624E4,2.025E5,-2.805E3,-7.194E2,9.261717E-2,9.571288E4,-3.639E3,1E0,5.0600237E-1,-1.3467075E-1,1.6263E4,4.6389444E2,1.13625E4,-1.83E2,5.3253263E-1,-9.51E2,9.955422E4,1.61955E4,3.7930277E-1,1E0,9.714286E-1,2.7132615E4,7.47E2,1.0052631E1,3.8637307E-1,7.176855E-1,2.9969704E-1,1.552E-1,1.25E1,4.30425E4,3.6E1,1E0,1.8965517E0,4.440083E-2,7.0624314E-2,-1.450065E-1,4.1550875E-2,-1.2781319E-2,3.0066349E-2,6.927709E-2,4.448188E-2,5.0893243E-2,1.7465802E-2,1.3883831E-2,5.335215E-2,8.257488E-3,3.3981565E-2,-2.7875577E-3,-4.5965083E-2,1.4740372E-3,5.104033E-2,-2.911165E-2,2.2116207E-2,-4.259738E-2,2.2748781E-2,-4.0161576E-2,-7.0555665E-2,-1.2969265E-2,-5.967411E-2,-4.213263E-2,7.583909E-2,-6.197893E-2,1.3212581E-2,2.0445907E-2,-2.299866E-2,1.3530825E-2,-3.556947E-2,3.078626E-2,5.9050795E-2,2.6889877E-2,-6.225905E-3,-1.2902509E-1,2.1750178E-2,-3.1849254E-2,2.1386497E-2,-8.4527686E-2,-3.6949605E-2,-6.511084E-2,7.004556E-2,-2.4044959E-2,-5.8821976E-2,-1.7681897E-2,-5.838403E-2,3.0513762E-2,-1.1408612E-1,-8.185734E-2,-4.6299685E-2,-9.351796E-2,2.224629E-2,-4.323184E-2,-1.6047979E-2,4.745268E-3,-5.3272083E-2,7.5034774E-3,6.5969594E-2],"split_indices":[41,42,42,42,41,40,438,41,41,441,406,354,42,40,378,40,12,11,368,426,16,16,228,441,42,441,406,42,468,40,16,7,378,167,42,423,17,2,40,0,8,434,8,237,40,165,402,368,40,446,441,185,171,476,354,41,40,77,478,228,477,457,438,0,0,0,0,0,0,0,0,0,0,0,0,0,0,0,0,0,0,0,0,0,0,0,0,0,0,0,0,0,0,0,0,0,0,0,0,0,0,0,0,0,0,0,0,0,0,0,0,0,0,0,0,0,0,0,0,0,0,0,0,0,0],"split_type":[0,0,0,0,0,0,0,0,0,0,0,0,0,0,0,0,0,0,0,0,0,0,0,0,0,0,0,0,0,0,0,0,0,0,0,0,0,0,0,0,0,0,0,0,0,0,0,0,0,0,0,0,0,0,0,0,0,0,0,0,0,0,0,0,0,0,0,0,0,0,0,0,0,0,0,0,0,0,0,0,0,0,0,0,0,0,0,0,0,0,0,0,0,0,0,0,0,0,0,0,0,0,0,0,0,0,0,0,0,0,0,0,0,0,0,0,0,0,0,0,0,0,0,0,0],"sum_hessian":[6.749362E4,3.7960266E4,2.953335E4,2.919408E4,8.766186E3,8.75465E3,2.07787E4,7.1675557E3,2.2026525E4,2.6329092E3,6.133276E3,7.038847E3,1.7158037E3,1.1939222E4,8.839478E3,2.9457942E3,4.2217617E3,7.378065E3,1.4648461E4,5.419107E2,2.0909985E3,5.468022E3,6.65254E2,3.2855254E3,3.7533218E3,9.20527E2,7.9527673E2,9.3682E3,2.5710217E3,6.53767E3,2.3018076E3,2.6823093E3,2.634848E2,8.3072186E2,3.3910396E3,2.7976497E3,4.580415E3,1.0685369E4,3.9630916E3,7.4278226E0,5.344829E2,1.1283391E3,9.6265936E2,1.9360603E3,3.5319617E3,1.5631436E2,5.0893967E2,2.2580166E3,1.0275087E3,1.2977894E3,2.4555325E3,3.3392343E2,5.866036E2,7.324575E2,6.2819176E1,5.5086675E3,3.859533E3,8.573926E1,2.4852825E3,4.452903E2,6.0923794E3,4.5136816E2,1.8504393E3,2.838471E2,2.3984622E3,3.6620543E0,2.5982275E2,1.6663876E2,6.640831E2,6.1185754E2,2.7791821E3,6.618844E2,2.1357654E3,4.5547238E2,4.1249424E3,6.5542485E3,4.1311206E3,3.3409385E3,6.221531E2,9.759699E1,4.368859E2,8.950293E2,2.3330981E2,8.529181E1,8.7736755E2,1.4272092E3,5.0885098E2,2.9976846E3,5.3427704E2,1.9065418E1,1.3724895E2,6.9129425E1,4.3981024E2,1.7270212E3,5.309954E2,2.4878923E2,7.787194E2,5.854818E2,7.123076E2,1.8127942E3,6.427382E2,8.344734E0,3.255787E2,4.4773843E2,1.3886513E2,1.9297865E2,5.394789E2,2.0313755E1,4.250542E1,4.5398237E3,9.68844E2,2.9483636E2,3.5646965E3,7.411911E1,1.1620142E1,1.9425072E3,5.4277515E2,2.0887304E1,4.24403E2,4.3934507E3,1.6989287E3,1.2905017E2,3.22318E2,1.5448732E3,3.055662E2],"tree_param":{"num_deleted":"0","num_feature":"480","num_nodes":"125","size_leaf_vector":"1"}},{"base_weights":[-2.4443736E-5,2.2673473E-1,-2.9174682E-1,3.6775368E-1,-1.5119149E-1,8.97743E-2,-4.532753E-1,6.853464E-1,2.7615404E-1,1.2743473E-1,-2.7723992E-1,1.7675853E-1,-3.141524E-1,-5.001779E-1,7.7402376E-2,8.09451E-1,5.2937824E-1,4.9408028E-1,1.4464572E-1,-3.262556E-2,3.8025504E-1,-6.1790264E-1,-1.8804291E-1,2.9727107E-1,-7.926565E-2,1.17934614E-1,-4.452067E-1,-6.351842E-2,-5.647616E-1,-5.450662E-1,1.9031969E-1,1.0288845E0,7.520614E-1,2.1068886E-1,6.0630566E-1,1.8878879E-1,5.6479377E-1,-1.762163E-1,2.2473902E-1,3.088136E-1,-1.766901E-1,4.9969307E-1,-5.2849557E-3,-6.889946E-1,1.3718356E-1,-5.327173E-1,-7.263725E-2,4.004948E-1,-8.241757E-2,6.8855256E-2,-4.4982576E-1,2.664229E-1,-7.0755136E-1,-8.555704E-1,-2.9571575E-1,-2.5975588E-1,2.7605453E-1,-4.9225652E-1,-8.302761E-1,-2.540388E-1,-1.2844009E0,-1.422907E-2,4.9891552E-1,7.861762E-2,-2.3804927E-2,4.3966357E-2,6.30394E-2,5.2864435E-3,5.2452084E-2,5.0728E-2,2.2097735E-2,-1.882732E-2,2.3234544E-2,2.072601E-2,4.749749E-2,-5.0617345E-3,-4.5346737E-2,-7.143703E-3,2.3253733E-2,3.4315445E-2,-1.0987502E-2,5.3452186E-2,-1.830515E-2,-6.6397376E-3,4.4084646E-2,-6.469386E-2,2.4124125E-2,-4.5772176E-2,-1.0059971E-1,-1.2643154E-1,2.4855712E-2,-4.3536462E-2,3.0575117E-2,-1.5153254E-2,1.8227793E-2,-3.4732325E-3,3.5082426E-2,-3.0781297E-2,6.7123547E-3,-2.4441756E-2,1.3732695E-2,3.51254E-2,-4.3887485E-2,-2.5183342E-2,3.548804E-2,-9.575823E-2,8.063407E-2,-4.417061E-2,-1.0609216E-1,-1.0842198E-2,-6.064328E-2,-1.0332483E-2,-4.8331995E-2,2.911198E-3,5.1677864E-2,-2.9022967E-2,-5.0864704E-2,-6.580917E-2,-2.0919364E-2,-1.2483727E-1,6.226425E-4,-1.1294366E-1,1.5959082E-2,-1.9680142E-2,2.4670698E-2,-1.5325174E-2,4.7731135E-2],"categories":[],"categories_nodes":[],"categories_segments":[],"categories_sizes":[],"default_left":[0,0,0,0,0,0,0,0,0,0,0,0,0,0,0,0,0,0,0,0,0,0,0,0,0,0,0,0,0,0,0,0,0,0,0,0,0,0,0,0,0,0,0,0,0,0,0,0,0,0,0,0,0,0,0,0,0,0,0,0,0,0,0,0,0,0,0,0,0,0,0,0,0,0,0,0,0,0,0,0,0,0,0,0,0,0,0,0,0,0,0,0,0,0,0,0,0,0,0,0,0,0,0,0,0,0,0,0,0,0,0,0,0,0,0,0,0,0,0,0,0,0,0,0,0,0,0],"id":8,"left_children":[1,3,5,7,9,11,13,15,17,19,21,23,25,27,29,31,33,35,37,39,41,43,45,47,49,51,53,55,57,59,61,63,65,67,69,71,73,75,77,79,81,83,85,87,89,91,93,95,97,99,101,103,105,107,109,111,113,115,117,119,121,123,125,-1,-1,-1,-1,-1,-1,-1,-1,-1,-1,-1,-1,-1,-1,-1,-1,-1,-1,-1,-1,-1,-1,-1,-1,-1,-1,-1,-1,-1,-1,-1,-1,-1,-1,-1,-1,-1,-1,-1,-1,-1,-1,-1,-1,-1,-1,-1,-1,-1,-1,-1,-1,-1,-1,-1,-1,-1,-1,-1,-1,-1,-1,-1,-1],"loss_changes":[4.440675E3,2.0130164E3,1.809353E3,8.0002344E2,3.605279E2,3.0691537E2,5.1343994E2,1.1874585E2,6.118291E2,1.2941916E2,2.1464069E2,2.21766E2,8.770381E1,5.344238E2,1.17895775E2,4.2380127E1,6.682764E1,1.7335364E2,3.4227292E2,9.642048E1,5.7092667E1,7.879602E1,2.2281383E2,1.9156223E2,1.26325485E2,4.4439575E1,7.261722E1,1.6286606E2,3.1742334E2,5.509732E1,8.959594E1,1.8769226E1,3.9413696E1,3.644029E1,4.783319E1,8.057884E1,1.2872876E2,1.23893456E2,2.909579E2,3.9457016E1,8.277513E1,4.9106476E1,8.2744804E1,6.798041E1,4.5521435E1,6.3358032E1,1.7155188E2,1.1551337E2,5.898521E1,7.423508E1,8.1943954E1,3.8344757E1,5.750012E1,4.636177E1,6.7497406E1,7.2589066E1,8.768312E1,2.5366064E2,9.1836426E1,6.886575E1,2.4367851E1,7.286051E1,5.4838837E1,0E0,0E0,0E0,0E0,0E0,0E0,0E0,0E0,0E0,0E0,0E0,0E0,0E0,0E0,0E0,0E0,0E0,0E0,0E0,0E0,0E0,0E0,0E0,0E0,0E0,0E0,0E0,0E0,0E0,0E0,0E0,0E0,0E0,0E0,0E0,0E0,0E0,0E0,0E0,0E0,0E0,0E0,0E0,0E0,0E0,0E0,0E0,0E0,0E0,0E0,0E0,0E0,0E0,0E0,0E0,0E0,0E0,0E0,0E0,0E0,0E0,0E0,0E0,0E0],"parents":[2147483647,0,0,1,1,2,2,3,3,4,4,5,5,6,6,7,7,8,8,9,9,10,10,11,11,12,12,13,13,14,14,15,15,16,16,17,17,18,18,19,19,20,20,21,21,22,22,23,23,24,24,25,25,26,26,27,27,28,28,29,29,30,30,31,31,32,32,33,33,34,34,35,35,36,36,37,37,38,38,39,39,40,40,41,41,42,42,43,43,44,44,45,45,46,46,47,47,48,48,49,49,50,50,51,51,52,52,53,53,54,54,55,55,56,56,57,57,58,58,59,59,60,60,61,61,62,62],"right_children":[2,4,6,8,10,12,14,16,18,20,22,24,26,28,30,32,34,36,38,40,42,44,46,48,50,52,54,56,58,60,62,64,66,68,70,72,74,76,78,80,82,84,86,88,90,92,94,96,98,100,102,104,106,108,110,112,114,116,118,120,122,124,126,-1,-1,-1,-1,-1,-1,-1,-1,-1,-1,-1,-1,-1,-1,-1,-1,-1,-1,-1,-1,-1,-1,-1,-1,-1,-1,-1,-1,-1,-1,-1,-1,-1,-1,-1,-1,-1,-1,-1,-1,-1,-1,-1,-1,-1,-1,-1,-1,-1,-1,-1,-1,-1,-1,-1,-1,-1,-1,-1,-1,-1,-1,-1,-1],"split_conditions":[5.5185956E-1,5.388627E-1,4.1359675E-1,2.4318647E-1,2.618862E-1,5.3253263E-1,4.3589744E-1,3.5422474E-1,2.6723E-1,1E0,-3.088E3,9.166667E-1,1.7982176E-1,9.013158E-1,2E0,6.712515E-2,2E0,-1.9497E4,-5.845E2,1.490805E5,3E1,1.9858306E5,1E0,6.795E5,3.4252888E-1,9.288E3,1.0277778E1,-4.1E1,5.4002845E-1,4.9E1,1E0,1.46E2,3.4996843E-1,-1.0473684E1,1.17E4,-3.7955554E2,-2.429E3,1.34955E4,3E0,9.999637E-2,2.9969704E-1,9E0,1.55349E3,3.47355E4,1.0063929E5,5.714286E-1,3.3333334E-1,-2.0016E4,3E0,2E0,2.6256955E-1,-1.0926875E3,-2.1E1,1.5648658E4,7.77E-2,6.986094E-1,1.8065618E0,6.195277E-1,3E0,-2.354E3,1.4942528E-1,-2.382E3,-7.49E2,7.861762E-2,-2.3804927E-2,4.3966357E-2,6.30394E-2,5.2864435E-3,5.2452084E-2,5.0728E-2,2.2097735E-2,-1.882732E-2,2.3234544E-2,2.072601E-2,4.749749E-2,-5.0617345E-3,-4.5346737E-2,-7.143703E-3,2.3253733E-2,3.4315445E-2,-1.0987502E-2,5.3452186E-2,-1.830515E-2,-6.6397376E-3,4.4084646E-2,-6.469386E-2,2.4124125E-2,-4.5772176E-2,-1.0059971E-1,-1.2643154E-1,2.4855712E-2,-4.3536462E-2,3.0575117E-2,-1.5153254E-2,1.8227793E-2,-3.4732325E-3,3.5082426E-2,-3.0781297E-2,6.7123547E-3,-2.4441756E-2,1.3732695E-2,3.51254E-2,-4.3887485E-2,-2.5183342E-2,3.548804E-2,-9.575823E-2,8.063407E-2,-4.417061E-2,-1.0609216E-1,-1.0842198E-2,-6.064328E-2,-1.0332483E-2,-4.8331995E-2,2.911198E-3,5.1677864E-2,-2.9022967E-2,-5.0864704E-2,-6.580917E-2,-2.0919364E-2,-1.2483727E-1,6.226425E-4,-1.1294366E-1,1.5959082E-2,-1.9680142E-2,2.4670698E-2,-1.5325174E-2,4.7731135E-2],"split_indices":[41,42,42,42,41,40,408,41,41,2,17,441,42,432,30,41,12,16,150,226,442,400,22,9,42,366,476,467,40,418,2,251,354,469,367,129,17,367,12,375,40,20,437,368,369,408,438,16,12,12,40,123,379,424,44,41,438,42,446,209,414,19,122,0,0,0,0,0,0,0,0,0,0,0,0,0,0,0,0,0,0,0,0,0,0,0,0,0,0,0,0,0,0,0,0,0,0,0,0,0,0,0,0,0,0,0,0,0,0,0,0,0,0,0,0,0,0,0,0,0,0,0,0,0,0,0,0],"split_type":[0,0,0,0,0,0,0,0,0,0,0,0,0,0,0,0,0,0,0,0,0,0,0,0,0,0,0,0,0,0,0,0,0,0,0,0,0,0,0,0,0,0,0,0,0,0,0,0,0,0,0,0,0,0,0,0,0,0,0,0,0,0,0,0,0,0,0,0,0,0,0,0,0,0,0,0,0,0,0,0,0,0,0,0,0,0,0,0,0,0,0,0,0,0,0,0,0,0,0,0,0,0,0,0,0,0,0,0,0,0,0,0,0,0,0,0,0,0,0,0,0,0,0,0,0,0,0],"sum_hessian":[6.712765E4,3.7769332E4,2.9358316E4,2.7505855E4,1.0263478E4,8.732675E3,2.062564E4,6.155865E3,2.134999E4,3.196874E3,7.0666035E3,7.1858E3,1.546875E3,1.895078E4,1.674861E3,3.4257727E3,2.7300925E3,8.0339473E3,1.3316043E4,1.9580839E3,1.23879E3,1.4651086E3,5.6014946E3,4.8858374E3,2.2999622E3,3.600122E2,1.1868628E3,2.4420046E3,1.6508775E4,2.5658456E2,1.4182765E3,7.067046E2,2.719068E3,5.315914E2,2.198501E3,1.511597E3,6.5223506E3,2.659722E3,1.0656321E4,5.806871E2,1.3773969E3,9.4556384E2,2.932262E2,1.3391173E3,1.2599133E2,1.4041619E3,4.197333E3,3.8414343E3,1.0444031E3,1.6437385E3,6.562237E2,3.0570016E2,5.4312042E1,3.1565192E2,8.712109E2,1.5477836E3,8.942211E2,1.2969894E4,3.5388823E3,1.8507596E2,7.15086E1,8.534993E2,5.647771E2,6.969092E2,9.7954E0,9.4851404E2,1.7705541E3,4.1396628E2,1.1762513E2,1.7940116E3,4.0448947E2,3.2591458E2,1.1856824E3,1.2527289E3,5.2696216E3,2.1222644E3,5.374576E2,2.243007E3,8.413314E3,4.377075E2,1.4297957E2,9.632643E1,1.2810704E3,1.23174225E2,8.2238965E2,8.050034E1,2.1272586E2,1.1966827E3,1.4243448E2,1.1391867E1,1.1459947E2,1.3366469E3,6.751497E1,2.9772236E3,1.2201093E3,5.0272293E2,3.3387114E3,3.5868216E2,6.8572095E2,3.68534E2,1.2752045E3,8.398702E1,5.722367E2,7.797099E1,2.2772919E2,4.138211E1,1.2929933E1,2.1510452E2,1.00547386E2,6.738826E2,1.9732825E2,1.1761522E3,3.716314E2,5.686525E2,3.255686E2,8.282955E3,4.6869385E3,3.2593833E3,2.7949893E2,2.8186775E1,1.5688918E2,6.228716E1,9.221437E0,4.9544315E2,3.580562E2,9.228631E1,4.724908E2],"tree_param":{"num_deleted":"0","num_feature":"480","num_nodes":"127","size_leaf_vector":"1"}},{"base_weights":[-3.4513265E-5,3.4017974E-1,-1.703621E-1,4.5094782E-1,-5.7965524E-2,2.4473529E-1,-2.966205E-1,6.5739375E-1,3.322128E-1,2.0455392E-1,-2.1490064E-1,3.429794E-1,-3.968924E-2,-1.8315221E-1,-5.4920506E-1,6.9762236E-1,3.0192292E-1,1.956713E-1,5.2736515E-1,-1.142332E-1,3.5884136E-1,1.3332954E-1,-3.3489195E-1,1.280679E-1,4.6939522E-1,6.844365E-1,-1.1313016E-1,-9.742114E-2,-5.36988E-1,-4.3132305E-1,-7.374684E-1,9.230541E-1,6.423712E-1,-1.5168943E-1,3.249953E-1,4.3639144E-1,5.0697744E-2,2.3000962E-1,6.3029826E-1,-5.901943E-1,1.03828646E-1,6.4444974E-2,5.588166E-1,3.2742915E-1,-3.5394365E-1,2.228905E-2,-4.441165E-1,3.3451703E-1,-3.9122537E-2,4.326169E-1,1.2015793E0,-9.100298E-1,7.593872E-1,4.313484E-2,-4.5130637E-1,2.0743574E-1,-1.8559645E-1,-2.8437674E-1,-6.6340977E-1,-4.8870674E-1,6.542925E-2,-7.7813435E-1,-3.733537E-2,-2.3507278E-2,7.0668064E-2,4.4444956E-2,6.9822215E-2,1.9636964E-2,9.054297E-2,-4.963115E-4,4.312796E-2,2.767003E-2,-1.1125665E-2,2.5049815E-2,-3.4731116E-2,4.9775112E-2,-2.8739318E-2,-9.132428E-3,-8.745423E-2,-7.492296E-2,1.573566E-2,-6.874709E-2,1.264435E-2,-3.760782E-2,4.5850966E-2,-2.2710504E-2,3.484545E-2,-6.894769E-2,6.8060514E-3,-1.10617414E-1,7.323425E-3,-6.089858E-2,-2.3715887E-2,6.1005507E-2,1.9361552E-2,-1.3345137E-2,3.1823635E-2,4.892371E-2,2.5569797E-2,9.181678E-2,-1.068859E-1,-1.4633559E-1,1.0870275E-1,5.983333E-2,-1.2705149E-1,1.1651674E-2,-2.4926705E-2,-4.585388E-2,-3.929731E-3,2.7273973E-2,-5.6762053E-3,-1.820516E-2,2.3918435E-2,-2.4259485E-4,-3.882019E-2,-5.6587618E-2,-1.875002E-2,-7.5858845E-3,-4.1161843E-2,-5.049712E-2,1.5903967E-2,-7.705257E-2,-5.2390743E-2,1.9930193E-2,-5.643441E-2],"categories":[],"categories_nodes":[],"categories_segments":[],"categories_sizes":[],"default_left":[0,0,0,0,0,0,0,0,0,0,0,0,0,0,0,0,0,0,0,0,0,0,0,0,0,0,0,0,0,0,0,0,0,0,0,0,0,0,0,0,0,0,0,0,0,0,0,0,0,0,0,0,0,0,0,0,0,0,0,0,0,0,0,0,0,0,0,0,0,0,0,0,0,0,0,0,0,0,0,0,0,0,0,0,0,0,0,0,0,0,0,0,0,0,0,0,0,0,0,0,0,0,0,0,0,0,0,0,0,0,0,0,0,0,0,0,0,0,0,0,0,0,0,0,0],"id":9,"left_children":[1,3,5,7,9,11,13,15,17,19,21,23,25,27,29,31,33,35,37,39,41,43,45,47,49,51,53,55,57,59,61,63,65,-1,67,69,71,73,75,77,79,81,83,85,87,89,91,93,95,97,99,101,103,105,107,109,111,113,115,117,119,121,123,-1,-1,-1,-1,-1,-1,-1,-1,-1,-1,-1,-1,-1,-1,-1,-1,-1,-1,-1,-1,-1,-1,-1,-1,-1,-1,-1,-1,-1,-1,-1,-1,-1,-1,-1,-1,-1,-1,-1,-1,-1,-1,-1,-1,-1,-1,-1,-1,-1,-1,-1,-1,-1,-1,-1,-1,-1,-1,-1,-1,-1,-1],"loss_changes":[3.8687212E3,9.823164E2,2.331712E3,4.269209E2,1.9980716E2,2.8996497E2,9.775991E2,9.076123E1,2.9473462E2,8.9294044E1,1.2686714E2,2.0947766E2,1.4179816E2,7.1404083E2,2.3434619E2,7.057837E1,3.5437553E1,2.2721973E2,1.3924988E2,6.1564816E1,7.196811E1,7.374932E1,8.808609E1,9.865587E1,1.302384E2,3.0033386E1,1.2792433E2,5.094429E2,1.4642737E2,1.854541E2,1.1585303E2,2.6925842E1,6.5415405E1,0E0,3.5518814E1,1.5033057E2,2.5754892E2,8.467366E1,1.14652466E2,5.0123E1,4.780623E1,5.0819485E1,4.0863327E1,4.8319317E1,5.5961334E1,5.990059E1,8.10939E1,4.6558548E1,1.0171618E2,9.294232E1,1.5525177E1,3.1023064E1,2.3490326E1,6.9846405E1,4.882051E1,1.8808212E2,4.2382248E2,1.0051785E2,1.1500696E2,1.3580994E2,7.3199425E1,7.558667E1,4.885157E1,0E0,0E0,0E0,0E0,0E0,0E0,0E0,0E0,0E0,0E0,0E0,0E0,0E0,0E0,0E0,0E0,0E0,0E0,0E0,0E0,0E0,0E0,0E0,0E0,0E0,0E0,0E0,0E0,0E0,0E0,0E0,0E0,0E0,0E0,0E0,0E0,0E0,0E0,0E0,0E0,0E0,0E0,0E0,0E0,0E0,0E0,0E0,0E0,0E0,0E0,0E0,0E0,0E0,0E0,0E0,0E0,0E0,0E0,0E0,0E0,0E0,0E0],"parents":[2147483647,0,0,1,1,2,2,3,3,4,4,5,5,6,6,7,7,8,8,9,9,10,10,11,11,12,12,13,13,14,14,15,15,16,16,17,17,18,18,19,19,20,20,21,21,22,22,23,23,24,24,25,25,26,26,27,27,28,28,29,29,30,30,31,31,32,32,34,34,35,35,36,36,37,37,38,38,39,39,40,40,41,41,42,42,43,43,44,44,45,45,46,46,47,47,48,48,49,49,50,50,51,51,52,52,53,53,54,54,55,55,56,56,57,57,58,58,59,59,60,60,61,61,62,62],"right_children":[2,4,6,8,10,12,14,16,18,20,22,24,26,28,30,32,34,36,38,40,42,44,46,48,50,52,54,56,58,60,62,64,66,-1,68,70,72,74,76,78,80,82,84,86,88,90,92,94,96,98,100,102,104,106,108,110,112,114,116,118,120,122,124,-1,-1,-1,-1,-1,-1,-1,-1,-1,-1,-1,-1,-1,-1,-1,-1,-1,-1,-1,-1,-1,-1,-1,-1,-1,-1,-1,-1,-1,-1,-1,-1,-1,-1,-1,-1,-1,-1,-1,-1,-1,-1,-1,-1,-1,-1,-1,-1,-1,-1,-1,-1,-1,-1,-1,-1,-1,-1,-1,-1,-1,-1],"split_conditions":[3.906861E-1,5.726825E-1,3.457848E-1,3.4905526E-1,8.230769E-1,6.558465E-1,6.127042E-1,5.0600237E-1,1E0,-1.114E3,1.093658E5,3.308314E-1,2.4440815E-1,5.0600237E-1,6.4924747E-1,7.8870066E-2,-1.144E3,7.96875E-1,1E0,-6.802E2,5E0,4.274865E5,1.5105496E-1,2.1762852E-1,1E0,3.456E3,1.19295E4,9.4285715E-1,7.7916664E-1,4E-1,2.60496E3,2E0,4.0625E-1,-1.5168943E-1,7E0,-2.444E3,1.358487E5,2.23695E4,-6.2E1,1.1833333E1,4.4721137E4,9.781E-1,1.575E5,1.3005E4,4E1,-4.907E3,2.745E5,2.09565E5,2.0577778E1,1.5474363E-1,2.340576E4,4.5E4,1.12995E4,2.9558265E-1,5.957654E-1,9.72E3,4.3589744E-1,6.393261E-1,1.4894737E1,4.0234205E-1,2E0,2.971305E5,-2E0,-2.3507278E-2,7.0668064E-2,4.4444956E-2,6.9822215E-2,1.9636964E-2,9.054297E-2,-4.963115E-4,4.312796E-2,2.767003E-2,-1.1125665E-2,2.5049815E-2,-3.4731116E-2,4.9775112E-2,-2.8739318E-2,-9.132428E-3,-8.745423E-2,-7.492296E-2,1.573566E-2,-6.874709E-2,1.264435E-2,-3.760782E-2,4.5850966E-2,-2.2710504E-2,3.484545E-2,-6.894769E-2,6.8060514E-3,-1.10617414E-1,7.323425E-3,-6.089858E-2,-2.3715887E-2,6.1005507E-2,1.9361552E-2,-1.3345137E-2,3.1823635E-2,4.892371E-2,2.5569797E-2,9.181678E-2,-1.068859E-1,-1.4633559E-1,1.0870275E-1,5.983333E-2,-1.2705149E-1,1.1651674E-2,-2.4926705E-2,-4.585388E-2,-3.929731E-3,2.7273973E-2,-5.6762053E-3,-1.820516E-2,2.3918435E-2,-2.4259485E-4,-3.882019E-2,-5.6587618E-2,-1.875002E-2,-7.5858845E-3,-4.1161843E-2,-5.049712E-2,1.5903967E-2,-7.705257E-2,-5.2390743E-2,1.9930193E-2,-5.643441E-2],"split_indices":[41,42,42,42,441,41,42,40,2,94,423,354,40,40,41,41,260,441,96,167,11,226,41,42,307,241,368,432,441,406,177,29,408,0,301,426,423,368,131,372,186,73,7,8,39,19,7,138,476,42,135,231,178,42,354,368,408,40,478,40,12,7,468,0,0,0,0,0,0,0,0,0,0,0,0,0,0,0,0,0,0,0,0,0,0,0,0,0,0,0,0,0,0,0,0,0,0,0,0,0,0,0,0,0,0,0,0,0,0,0,0,0,0,0,0,0,0,0,0,0,0,0,0,0,0],"split_type":[0,0,0,0,0,0,0,0,0,0,0,0,0,0,0,0,0,0,0,0,0,0,0,0,0,0,0,0,0,0,0,0,0,0,0,0,0,0,0,0,0,0,0,0,0,0,0,0,0,0,0,0,0,0,0,0,0,0,0,0,0,0,0,0,0,0,0,0,0,0,0,0,0,0,0,0,0,0,0,0,0,0,0,0,0,0,0,0,0,0,0,0,0,0,0,0,0,0,0,0,0,0,0,0,0,0,0,0,0,0,0,0,0,0,0,0,0,0,0,0,0,0,0,0,0],"sum_hessian":[6.676009E4,2.2272252E4,4.4487844E4,1.7424457E4,4.8477954E3,1.0375515E4,3.411233E4,6.360627E3,1.1063829E4,1.8136451E3,3.0341501E3,7.711613E3,2.663902E3,2.3539453E4,1.0572875E4,5.7131123E3,6.475146E2,6.510592E3,4.553238E3,5.9158276E2,1.2220624E3,7.775344E2,2.2566157E3,2.8568599E3,4.854753E3,2.445293E2,2.4193728E3,1.8949455E4,4.5899985E3,6.503787E3,4.0690881E3,1.1215085E3,4.591604E3,5.512314E0,6.420023E2,2.4464292E3,4.0641626E3,1.1716843E3,3.3815535E3,1.8533897E2,4.0624377E2,4.9486377E2,7.2719855E2,5.5627625E2,2.2125813E2,5.286488E2,1.7279669E3,1.2778955E3,1.5789644E3,4.6240723E3,2.306808E2,1.0478248E1,2.3405106E2,1.6553422E3,7.6403064E2,4.2509365E3,1.4698519E4,1.5320205E3,3.057978E3,5.8303003E3,6.7348694E2,3.8456113E3,2.234768E2,1.6902351E1,1.1046062E3,3.918803E3,6.728008E2,6.0031616E2,4.1686157E1,5.833758E2,1.8630533E3,1.5634998E3,2.5006628E3,1.01927545E3,1.5240886E2,3.2740964E3,1.0745695E2,1.0287109E2,8.246788E1,3.4878746E1,3.7136502E2,4.674242E1,4.4812137E2,3.392441E1,6.932742E2,9.921988E1,4.570564E2,9.694264E1,1.243155E2,2.444296E1,5.0420587E2,4.444225E2,1.2835444E3,1.7441954E2,1.103476E3,1.215503E3,3.634613E2,1.3597401E3,3.2643323E3,2.2923853E2,1.4422716E0,7.3902526E0,3.0879955E0,2.3110953E2,2.9415336E0,1.2749049E3,3.8043723E2,5.448536E2,2.191771E2,2.7392222E3,1.5117144E3,1.3203638E4,1.4948815E3,6.9511163E2,8.369089E2,2.5051594E3,5.5281854E2,7.832971E2,5.0470034E3,1.1094219E2,5.6254474E2,9.279388E2,2.9176726E3,1.5739905E2,6.607774E1],"tree_param":{"num_deleted":"0","num_feature":"480","num_nodes":"125","size_leaf_vector":"1"}},{"base_weights":[-3.4338234E-5,1.6200414E-1,-3.224876E-1,2.8941885E-1,-1.6568297E-1,-6.2159346E-3,-4.6753606E-1,5.6155556E-1,1.9769353E-1,-3.0496547E-1,6.6817164E-2,5.7797873E-1,-6.17712E-2,-6.035021E-1,-2.945059E-1,7.8171295E-1,4.843558E-1,3.826396E-1,6.29586E-2,-5.080383E-1,-1.647538E-1,2.9178122E-1,-1.3278656E-1,6.9263947E-1,1.8406836E-2,-9.420746E-2,9.565504E-1,-5.197948E-1,-8.744722E-1,-4.077596E-1,3.7713427E-2,1.3143243E-1,8.0000675E-1,2.5889573E-1,5.589858E-1,5.8388287E-1,2.6109406E-1,2.2711483E-1,-9.751827E-2,-5.661405E-1,3.592961E-1,-9.150928E-2,-8.5601455E-1,1.699151E-1,6.399614E-1,4.402311E-1,-2.1916424E-1,4.5091885E-1,9.507246E-1,-5.1225907E-1,6.6744334E-1,3.6622885E-1,-1.60338E-1,1.024124E0,-6.2827456E-1,-4.4548365E-1,-7.961555E-1,-1.0898929E-1,-9.224351E-1,1.6021313E-1,-4.6741754E-1,1.6100179E-1,-4.6731576E-1,2.8610734E-2,-1.15281984E-1,6.0875155E-2,-1.1392738E-2,2.3979422E-2,-3.4861464E-2,1.9715866E-2,4.617022E-2,2.1635758E-2,5.2151393E-2,3.7021264E-2,8.730838E-3,-9.994866E-3,2.2993308E-2,-1.770496E-2,7.5404407E-3,-3.2418504E-2,-6.0870867E-2,4.4697225E-2,-3.933863E-2,-1.5280304E-2,1.9299464E-2,4.0775843E-2,-7.0999324E-2,-1.9174593E-2,1.9913275E-2,-3.890961E-2,5.3457018E-2,-6.698729E-2,4.004053E-2,5.5087864E-2,-1.9890245E-2,3.7531406E-2,-1.3105619E-1,-1.2473218E-1,7.364716E-2,-6.806507E-2,8.4104404E-2,1.237213E-2,9.819859E-2,3.1564433E-2,-3.3396494E-2,-2.6049465E-3,-2.9974593E-2,7.929963E-2,-1.0306635E-1,-1.2780067E-1,7.9685986E-2,-4.762677E-2,-2.4925595E-2,-1.0606912E-2,-6.3613884E-2,6.753368E-2,-4.3767825E-2,-7.8486554E-2,-4.9269013E-2,2.4039906E-3,7.566063E-2,-6.0508303E-2,-2.9251838E-2,7.421412E-3,7.8570545E-2,4.4731863E-2,-4.762169E-2],"categories":[],"categories_nodes":[],"categories_segments":[],"categories_sizes":[],"default_left":[0,0,0,0,0,0,0,0,0,0,0,0,0,0,0,0,0,0,0,0,0,0,0,0,0,0,0,0,0,0,0,0,0,0,0,0,0,0,0,0,0,0,0,0,0,0,0,0,0,0,0,0,0,0,0,0,0,0,0,0,0,0,0,0,0,0,0,0,0,0,0,0,0,0,0,0,0,0,0,0,0,0,0,0,0,0,0,0,0,0,0,0,0,0,0,0,0,0,0,0,0,0,0,0,0,0,0,0,0,0,0,0,0,0,0,0,0,0,0,0,0,0,0,0,0,0,0],"id":10,"left_children":[1,3,5,7,9,11,13,15,17,19,21,23,25,27,29,31,33,35,37,39,41,43,45,47,49,51,53,55,57,59,61,63,65,67,69,71,73,75,77,79,81,83,85,87,89,91,93,95,97,99,101,103,105,107,109,111,113,115,117,119,121,123,125,-1,-1,-1,-1,-1,-1,-1,-1,-1,-1,-1,-1,-1,-1,-1,-1,-1,-1,-1,-1,-1,-1,-1,-1,-1,-1,-1,-1,-1,-1,-1,-1,-1,-1,-1,-1,-1,-1,-1,-1,-1,-1,-1,-1,-1,-1,-1,-1,-1,-1,-1,-1,-1,-1,-1,-1,-1,-1,-1,-1,-1,-1,-1,-1],"loss_changes":[3.4693848E3,1.8451774E3,1.01875903E3,7.941809E2,4.007034E2,2.2668582E2,3.580088E2,1.3594678E2,5.9304816E2,2.2024011E2,2.0822273E2,3.8903214E1,2.107577E2,1.9290308E2,2.5215326E2,2.4647827E1,9.9822266E1,2.4520386E2,3.6278107E2,1.594494E2,2.3175745E2,9.239014E1,1.2172142E2,3.0973251E1,3.622224E1,1.8829353E2,2.1737793E1,1.3344653E2,7.371216E1,1.6941791E2,1.0621144E2,2.4839134E1,2.2588013E1,6.5276566E1,7.4656006E1,1.24147095E2,2.1039221E2,1.9498499E2,1.9111794E2,9.7001526E1,4.193904E1,1.6218286E2,5.6157227E1,6.581738E1,4.8016205E1,4.0710457E1,9.398011E1,2.9365353E1,2.1436066E1,3.8393265E1,1.5038187E1,3.4620575E1,1.6250104E2,1.6527863E1,1.7588346E1,1.0994861E2,4.6868958E1,5.785681E1,6.1622925E1,5.1712708E1,1.1847571E2,7.5313034E1,6.0070404E1,0E0,0E0,0E0,0E0,0E0,0E0,0E0,0E0,0E0,0E0,0E0,0E0,0E0,0E0,0E0,0E0,0E0,0E0,0E0,0E0,0E0,0E0,0E0,0E0,0E0,0E0,0E0,0E0,0E0,0E0,0E0,0E0,0E0,0E0,0E0,0E0,0E0,0E0,0E0,0E0,0E0,0E0,0E0,0E0,0E0,0E0,0E0,0E0,0E0,0E0,0E0,0E0,0E0,0E0,0E0,0E0,0E0,0E0,0E0,0E0,0E0,0E0,0E0,0E0],"parents":[2147483647,0,0,1,1,2,2,3,3,4,4,5,5,6,6,7,7,8,8,9,9,10,10,11,11,12,12,13,13,14,14,15,15,16,16,17,17,18,18,19,19,20,20,21,21,22,22,23,23,24,24,25,25,26,26,27,27,28,28,29,29,30,30,31,31,32,32,33,33,34,34,35,35,36,36,37,37,38,38,39,39,40,40,41,41,42,42,43,43,44,44,45,45,46,46,47,47,48,48,49,49,50,50,51,51,52,52,53,53,54,54,55,55,56,56,57,57,58,58,59,59,60,60,61,61,62,62],"right_children":[2,4,6,8,10,12,14,16,18,20,22,24,26,28,30,32,34,36,38,40,42,44,46,48,50,52,54,56,58,60,62,64,66,68,70,72,74,76,78,80,82,84,86,88,90,92,94,96,98,100,102,104,106,108,110,112,114,116,118,120,122,124,126,-1,-1,-1,-1,-1,-1,-1,-1,-1,-1,-1,-1,-1,-1,-1,-1,-1,-1,-1,-1,-1,-1,-1,-1,-1,-1,-1,-1,-1,-1,-1,-1,-1,-1,-1,-1,-1,-1,-1,-1,-1,-1,-1,-1,-1,-1,-1,-1,-1,-1,-1,-1,-1,-1,-1,-1,-1,-1,-1,-1,-1,-1,-1,-1],"split_conditions":[5.997035E-1,5.388627E-1,4.3473324E-1,2.664568E-1,1E0,2.4440815E-1,4.8780486E-2,2.0689675E-1,3.3598122E-1,-1.8166E4,1E0,-9.717E3,1E0,5.131022E-1,-6.35E2,2E0,3E0,7.96875E-1,4.797E3,5.294118E-1,6.393261E-1,5.3333336E-1,1.621921E-1,5.0602007E-1,1.3918031E2,1.2931429E-1,-1.1E1,7.248773E-1,-6.5E1,3.2491356E-1,6.528965E-1,2.5E-1,2.12E2,6.4730525E-1,-1.9368E4,-7.7E1,1.3185577E5,4.98E2,1E0,4.8845786E-1,8.2485E3,5.3333336E-1,1.5E-3,-2.869E3,-2.027E3,1.278E4,1.6157922E-1,5.6076703E4,6.78375E4,1.73775E4,-1E0,6.9410115E-1,1.05525E4,-2.5E1,2E0,-5.517143E2,3.0618334E-1,-9.24E2,9.444445E0,1.6311111E1,1.64295E4,6.363636E-1,3.726E4,2.8610734E-2,-1.15281984E-1,6.0875155E-2,-1.1392738E-2,2.3979422E-2,-3.4861464E-2,1.9715866E-2,4.617022E-2,2.1635758E-2,5.2151393E-2,3.7021264E-2,8.730838E-3,-9.994866E-3,2.2993308E-2,-1.770496E-2,7.5404407E-3,-3.2418504E-2,-6.0870867E-2,4.4697225E-2,-3.933863E-2,-1.5280304E-2,1.9299464E-2,4.0775843E-2,-7.0999324E-2,-1.9174593E-2,1.9913275E-2,-3.890961E-2,5.3457018E-2,-6.698729E-2,4.004053E-2,5.5087864E-2,-1.9890245E-2,3.7531406E-2,-1.3105619E-1,-1.2473218E-1,7.364716E-2,-6.806507E-2,8.4104404E-2,1.237213E-2,9.819859E-2,3.1564433E-2,-3.3396494E-2,-2.6049465E-3,-2.9974593E-2,7.929963E-2,-1.0306635E-1,-1.2780067E-1,7.9685986E-2,-4.762677E-2,-2.4925595E-2,-1.0606912E-2,-6.3613884E-2,6.753368E-2,-4.3767825E-2,-7.8486554E-2,-4.9269013E-2,2.4039906E-3,7.566063E-2,-6.0508303E-2,-2.9251838E-2,7.421412E-3,7.8570545E-2,4.4731863E-2,-4.762169E-2],"split_indices":[41,42,42,42,2,40,438,41,41,16,3,16,307,40,380,30,12,441,368,408,40,438,41,354,434,42,198,41,468,40,42,51,163,40,16,467,423,173,2,41,367,438,47,17,380,8,40,358,138,366,468,40,368,150,321,150,40,167,478,478,8,473,227,0,0,0,0,0,0,0,0,0,0,0,0,0,0,0,0,0,0,0,0,0,0,0,0,0,0,0,0,0,0,0,0,0,0,0,0,0,0,0,0,0,0,0,0,0,0,0,0,0,0,0,0,0,0,0,0,0,0,0,0,0,0,0,0],"split_type":[0,0,0,0,0,0,0,0,0,0,0,0,0,0,0,0,0,0,0,0,0,0,0,0,0,0,0,0,0,0,0,0,0,0,0,0,0,0,0,0,0,0,0,0,0,0,0,0,0,0,0,0,0,0,0,0,0,0,0,0,0,0,0,0,0,0,0,0,0,0,0,0,0,0,0,0,0,0,0,0,0,0,0,0,0,0,0,0,0,0,0,0,0,0,0,0,0,0,0,0,0,0,0,0,0,0,0,0,0,0,0,0,0,0,0,0,0,0,0,0,0,0,0,0,0,0,0],"sum_hessian":[6.639792E4,4.4191434E4,2.2206482E4,3.1819258E4,1.2372177E4,6.9825E3,1.5223983E4,8.019968E3,2.3799291E4,7.7369414E3,4.635236E3,6.055369E2,6.376963E3,8.523657E3,6.7003257E3,2.079773E3,5.9401943E3,1.0029835E4,1.3769455E4,3.1590173E3,4.577924E3,2.1789644E3,2.4562712E3,5.023613E2,1.0317565E2,6.1809897E3,1.9597351E2,6.514222E3,2.0094353E3,4.996716E3,1.7036097E3,5.713156E1,2.0226415E3,1.4783905E3,4.461804E3,3.775283E3,6.2545522E3,6.8064917E3,6.9629634E3,2.9610085E3,1.9800885E2,4.1403535E3,4.3757065E2,1.6151395E3,5.6382495E2,3.212233E2,2.135048E3,2.608233E2,2.4153798E2,5.688006E1,4.629559E1,7.75689E2,5.405301E3,1.8829865E2,7.674868E0,5.135846E3,1.378376E3,1.18674416E2,1.8907609E3,4.747907E2,4.5219253E3,1.3698754E3,3.337345E2,5.0356537E1,6.775025E0,1.9983074E3,2.4334154E1,1.3642781E3,1.1411238E2,7.1708624E2,3.7447178E3,1.0352732E3,2.7400098E3,2.3981025E3,3.85645E3,1.229549E3,5.5769424E3,4.096872E3,2.8660916E3,1.917731E3,1.0432776E3,1.564424E2,4.1566444E1,3.1328591E3,1.00749426E3,2.6309328E1,4.112613E2,2.9594772E2,1.3191918E3,3.296628E1,5.308587E2,2.0518494E1,3.007048E2,9.7635574E1,2.0374125E3,2.5583504E2,4.988271E0,2.235549E0,2.3930243E2,4.6156574E1,1.0723484E1,2.6672401E1,1.962319E1,7.2721515E2,4.847385E1,3.545592E3,1.8597085E3,1.8627882E2,2.0198305E0,4.6857452E0,2.9891229E0,1.9180509E3,3.2177954E3,1.0174568E2,1.2766302E3,3.7664474E1,8.100994E1,1.2866696E3,6.040913E2,4.1339508E2,6.1395626E1,8.379936E2,3.6839316E3,1.2813134E3,8.856191E1,4.508637E1,2.8864813E2],"tree_param":{"num_deleted":"0","num_feature":"480","num_nodes":"127","size_leaf_vector":"1"}},{"base_weights":[-4.4864042E-5,1.4161745E-1,-3.2068008E-1,2.6257846E-1,-1.6609624E-1,6.663554E-2,-4.2133737E-1,5.2225375E-1,1.7596094E-1,-2.9322526E-1,4.6488605E-2,6.3491035E-1,4.8168837E-3,-2.6201218E-1,-5.752328E-1,6.6121113E-1,4.082551E-1,4.870661E-1,1.0250745E-1,1.9792806E-2,-3.7963557E-1,-3.7494725E-1,1.470829E-1,-1.3512328E-1,6.583693E-1,5.610436E-2,-6.2872666E-1,-1.16064996E-1,-4.3874538E-1,8.574005E-2,-6.119272E-1,5.922828E-1,8.6408615E-1,2.3530906E-1,5.2349204E-1,3.0142546E-1,5.9735936E-1,-2.3789199E-1,1.7405216E-1,7.478332E-1,-4.111349E-2,-5.697858E-1,-2.4933656E-1,-2.9850957E-1,-1.1872935E0,-2.0746002E-1,2.3041935E-1,4.628005E-1,9.2893803E-1,1.6557972E-1,-2.3916586E-1,1.8635689E-1,-1.0793115E0,-2.6076782E-1,1.435145E-1,4.3830746E-1,-4.855894E-1,1.5033576E-1,-1.23066194E-1,-6.5046614E-1,-5.675731E-2,5.31878E-2,3.257973E-2,1.820859E-2,6.681383E-2,2.1377277E-2,-5.8152694E-2,2.4401E-2,4.776463E-2,-5.5251703E-2,2.483914E-2,4.8341904E-2,1.561345E-2,-1.1541231E-3,-3.596482E-2,-4.20479E-3,2.1149784E-2,-8.038665E-2,6.3779324E-2,2.0922482E-2,-1.4264036E-2,-4.657512E-2,1.6427837E-2,-4.2077385E-2,-7.864075E-3,-2.5874551E-2,7.398155E-2,1.5280032E-1,-9.99979E-2,-1.0267393E-2,-9.772002E-2,-6.097228E-4,2.7802026E-2,-4.9327776E-2,4.2075E-2,-2.9494325E-2,7.5762585E-2,-1.9140166E-3,2.7844096E-2,-6.047918E-2,-8.97452E-3,8.4208705E-2,-1.0830457E-2,1.4974388E-2,-9.271307E-2,-2.539242E-2,2.5106532E-2,2.4211792E-2,-1.4500041E-2,-7.919497E-2,4.4628438E-2,-4.0307578E-2,2.4090786E-3,4.1165017E-3,1.0592849E-1,-4.3861628E-2,-6.9455594E-2,8.168235E-3,-7.533493E-2],"categories":[],"categories_nodes":[],"categories_segments":[],"categories_sizes":[],"default_left":[0,0,0,0,0,0,0,0,0,0,0,0,0,0,0,0,0,0,0,0,0,0,0,0,0,0,0,0,0,0,0,0,0,0,0,0,0,0,0,0,0,0,0,0,0,0,0,0,0,0,0,0,0,0,0,0,0,0,0,0,0,0,0,0,0,0,0,0,0,0,0,0,0,0,0,0,0,0,0,0,0,0,0,0,0,0,0,0,0,0,0,0,0,0,0,0,0,0,0,0,0,0,0,0,0,0,0,0,0,0,0,0,0,0,0,0,0,0,0],"id":11,"left_children":[1,3,5,7,9,11,13,15,17,19,21,23,25,27,29,31,33,35,37,39,41,43,45,-1,47,49,51,53,55,57,59,61,63,65,67,69,71,73,75,77,79,81,83,85,87,89,91,93,95,97,99,101,103,105,107,109,111,113,-1,115,117,-1,-1,-1,-1,-1,-1,-1,-1,-1,-1,-1,-1,-1,-1,-1,-1,-1,-1,-1,-1,-1,-1,-1,-1,-1,-1,-1,-1,-1,-1,-1,-1,-1,-1,-1,-1,-1,-1,-1,-1,-1,-1,-1,-1,-1,-1,-1,-1,-1,-1,-1,-1,-1,-1,-1,-1,-1,-1],"loss_changes":[2.9994485E3,1.7047826E3,7.889226E2,7.3938696E2,3.492992E2,1.4666177E2,3.9366382E2,1.2998901E2,5.6335803E2,2.1876611E2,2.0513239E2,2.4598206E1,1.2241385E2,2.0354633E2,1.9818433E2,5.128662E1,8.99541E1,9.6236206E1,4.85824E2,7.76573E1,1.5689496E2,5.754451E1,1.1545481E2,0E0,2.107579E1,1.1269736E2,1.03822754E2,1.6247543E2,1.4687494E2,4.826526E1,1.6555493E2,5.0775024E1,1.5368347E1,9.113436E1,6.070508E1,5.453218E1,5.4108765E1,1.8627501E2,4.0945605E2,2.6142342E1,7.71815E1,1.04223694E2,1.6939502E2,5.1324333E1,4.031553E1,5.732399E1,1.0584636E2,2.6545742E1,1.8604156E1,9.996466E1,6.3831345E1,3.1537592E1,3.6729385E1,1.2877403E2,9.359239E1,4.3141502E1,9.098627E1,5.0025154E1,0E0,1.3039185E2,7.915853E1,0E0,0E0,0E0,0E0,0E0,0E0,0E0,0E0,0E0,0E0,0E0,0E0,0E0,0E0,0E0,0E0,0E0,0E0,0E0,0E0,0E0,0E0,0E0,0E0,0E0,0E0,0E0,0E0,0E0,0E0,0E0,0E0,0E0,0E0,0E0,0E0,0E0,0E0,0E0,0E0,0E0,0E0,0E0,0E0,0E0,0E0,0E0,0E0,0E0,0E0,0E0,0E0,0E0,0E0,0E0,0E0,0E0,0E0],"parents":[2147483647,0,0,1,1,2,2,3,3,4,4,5,5,6,6,7,7,8,8,9,9,10,10,11,11,12,12,13,13,14,14,15,15,16,16,17,17,18,18,19,19,20,20,21,21,22,22,24,24,25,25,26,26,27,27,28,28,29,29,30,30,31,31,32,32,33,33,34,34,35,35,36,36,37,37,38,38,39,39,40,40,41,41,42,42,43,43,44,44,45,45,46,46,47,47,48,48,49,49,50,50,51,51,52,52,53,53,54,54,55,55,56,56,57,57,59,59,60,60],"right_children":[2,4,6,8,10,12,14,16,18,20,22,24,26,28,30,32,34,36,38,40,42,44,46,-1,48,50,52,54,56,58,60,62,64,66,68,70,72,74,76,78,80,82,84,86,88,90,92,94,96,98,100,102,104,106,108,110,112,114,-1,116,118,-1,-1,-1,-1,-1,-1,-1,-1,-1,-1,-1,-1,-1,-1,-1,-1,-1,-1,-1,-1,-1,-1,-1,-1,-1,-1,-1,-1,-1,-1,-1,-1,-1,-1,-1,-1,-1,-1,-1,-1,-1,-1,-1,-1,-1,-1,-1,-1,-1,-1,-1,-1,-1,-1,-1,-1,-1,-1],"split_conditions":[6.1185485E-1,5.388627E-1,3.4252888E-1,2.664568E-1,1E0,2.4440815E-1,8.9166665E-1,3.5422474E-1,1.8501304E-1,2.4293642E-1,9E0,3.813E-3,1E0,8.2305E3,2.5024796E-1,-6.1E1,-3.36E2,6E0,2E0,2.9969704E-1,-1.8166E4,5.743339E-1,-2.994E3,-1.3512328E-1,8.157895E0,6.795E5,1.1475E5,1E0,2.3173223E-1,1E0,3E0,1.7982176E-1,1.5282E5,7.106219E-1,2.0833334E-2,-2.3901E4,4E0,8.9166665E-1,-1.7422E4,-2.825E1,9.722222E-1,5.294118E-1,-2.632E3,3.762675E6,1E0,1.5917535E6,6E0,2.0376E5,5.01E2,2.4714E4,-4.458E2,8.4753E3,9.722E-1,8.235294E-1,6.9479734E-1,1.8666667E-1,1E0,2.340576E4,-1.23066194E-1,5.8863175E-1,3.825E4,5.31878E-2,3.257973E-2,1.820859E-2,6.681383E-2,2.1377277E-2,-5.8152694E-2,2.4401E-2,4.776463E-2,-5.5251703E-2,2.483914E-2,4.8341904E-2,1.561345E-2,-1.1541231E-3,-3.596482E-2,-4.20479E-3,2.1149784E-2,-8.038665E-2,6.3779324E-2,2.0922482E-2,-1.4264036E-2,-4.657512E-2,1.6427837E-2,-4.2077385E-2,-7.864075E-3,-2.5874551E-2,7.398155E-2,1.5280032E-1,-9.99979E-2,-1.0267393E-2,-9.772002E-2,-6.097228E-4,2.7802026E-2,-4.9327776E-2,4.2075E-2,-2.9494325E-2,7.5762585E-2,-1.9140166E-3,2.7844096E-2,-6.047918E-2,-8.97452E-3,8.4208705E-2,-1.0830457E-2,1.4974388E-2,-9.271307E-2,-2.539242E-2,2.5106532E-2,2.4211792E-2,-1.4500041E-2,-7.919497E-2,4.4628438E-2,-4.0307578E-2,2.4090786E-3,4.1165017E-3,1.0592849E-1,-4.3861628E-2,-6.9455594E-2,8.168235E-3,-7.533493E-2],"split_indices":[41,42,42,42,2,40,441,41,41,41,20,15,1,368,40,122,150,11,12,40,16,40,17,0,478,9,6,2,40,298,446,42,7,40,438,16,251,441,16,244,432,408,17,389,10,183,11,7,128,8,129,142,45,408,41,408,93,135,0,40,368,0,0,0,0,0,0,0,0,0,0,0,0,0,0,0,0,0,0,0,0,0,0,0,0,0,0,0,0,0,0,0,0,0,0,0,0,0,0,0,0,0,0,0,0,0,0,0,0,0,0,0,0,0,0,0,0,0,0],"split_type":[0,0,0,0,0,0,0,0,0,0,0,0,0,0,0,0,0,0,0,0,0,0,0,0,0,0,0,0,0,0,0,0,0,0,0,0,0,0,0,0,0,0,0,0,0,0,0,0,0,0,0,0,0,0,0,0,0,0,0,0,0,0,0,0,0,0,0,0,0,0,0,0,0,0,0,0,0,0,0,0,0,0,0,0,0,0,0,0,0,0,0,0,0,0,0,0,0,0,0,0,0,0,0,0,0,0,0,0,0,0,0,0,0,0,0,0,0,0,0],"sum_hessian":[6.603326E4,4.5799008E4,2.0234254E4,3.2875805E4,1.2923202E4,4.1739185E3,1.6060335E4,8.221901E3,2.4653904E4,8.0867954E3,4.836407E3,4.0859488E2,3.7653235E3,7.892291E3,8.168044E3,3.7031677E3,4.5187334E3,4.7079995E3,1.9945906E4,1.7496233E3,6.337172E3,9.314416E2,3.9049656E3,3.1735735E0,4.054213E2,3.484179E3,2.8114453E2,4.323543E3,3.568748E3,4.2953476E2,7.7385093E3,2.766983E3,9.3618475E2,1.8081415E3,2.7105918E3,1.7560419E3,2.9519578E3,3.4637168E3,1.648219E4,1.3419937E2,1.615424E3,2.575409E3,3.761763E3,8.525851E2,7.885651E1,7.429029E2,3.1620627E3,2.368994E2,1.6852191E2,2.5421006E3,9.4207837E2,1.0029774E2,1.8084677E2,2.7760352E3,1.5475078E3,1.8052138E2,3.3882266E3,4.149247E2,1.46100645E1,7.236025E3,5.0248453E2,1.5879132E3,1.1790698E3,3.90797E1,8.9710504E2,1.7240435E3,8.409795E1,9.878738E2,1.722718E3,4.8281063E1,1.7077607E3,2.632085E3,3.198726E2,1.8038118E3,1.6599052E3,5.2630176E3,1.1219171E4,6.6558266E0,1.2754354E2,5.130245E2,1.1023994E3,2.41859E3,1.5681868E2,1.1905266E3,2.5712366E3,8.2352423E2,2.9060831E1,2.8548393E0,7.600167E1,6.990038E2,4.389914E1,1.1712275E3,1.9908351E3,1.8629543E1,2.1826985E2,9.531642E0,1.5899026E2,1.3181946E3,1.2239061E3,1.6294171E2,7.7913666E2,2.5554802E1,7.4742935E1,1.972745E1,1.6111932E2,2.4556636E3,3.2037158E2,1.00994226E3,5.3756555E2,1.6593447E1,1.6392793E2,3.079772E3,3.0845465E2,3.8672034E2,2.8204376E1,5.846602E3,1.3894227E3,4.2846964E2,7.401489E1],"tree_param":{"num_deleted":"0","num_feature":"480","num_nodes":"119","size_leaf_vector":"1"}},{"base_weights":[-5.511296E-5,2.1749565E-1,-1.8243772E-1,4.8694956E-1,1.1024111E-1,9.274427E-2,-3.191125E-1,6.534513E-1,3.9735475E-1,-1.12065464E-1,2.2771898E-1,-1.4978957E-1,1.959037E-1,-5.954559E-1,-2.3289007E-1,5.442638E-1,7.818253E-1,3.3456683E-1,7.453805E-1,-2.4647279E-1,1.056486E-1,-1.6392307E-1,2.9076728E-1,6.3208565E-2,-3.2916212E-1,-1.6908884E-1,2.7955422E-1,-6.4821535E-1,-1.2533292E-1,-4.2610148E-1,-9.092753E-2,5.593168E-1,-9.201648E-1,7.9121524E-1,-1.0354728E0,-2.6062265E-1,3.7452358E-1,-1.4480229E-1,7.5828534E-1,3.1007946E-1,-3.060885E-1,-5.710888E-1,1.7709662E-1,8.2326174E-2,-4.0016395E-1,8.28913E-2,4.0936676E-1,1.493671E-1,-3.3389547E-1,6.84331E-1,-3.7737763E-1,-2.3071846E-1,8.346861E-1,2.1761267E-1,6.403925E-1,-2.6300743E-1,-7.1349084E-1,-3.0604362E-1,4.133186E-1,-5.4902685E-1,-2.1036807E-1,-2.2248371E-1,1.2040582E-1,5.6930058E-2,3.4780435E-2,4.8984777E-2,-1.8289818E-1,6.099259E-2,1.2823495E-2,7.5032294E-2,-1.7041582E-1,-1.2503097E-2,-1.3463753E-1,3.3196054E-2,6.2671513E-3,2.599786E-2,6.198758E-2,-2.441263E-2,3.473724E-2,-2.8859464E-2,8.179182E-3,-1.6214695E-2,-7.703483E-2,1.8261192E-2,-2.5785789E-2,5.200581E-4,6.573752E-2,-9.991929E-2,-2.3121137E-2,-5.091447E-3,2.7391313E-2,5.2215587E-2,2.3961427E-2,-6.436263E-3,2.1672305E-2,-9.688016E-2,-1.3300128E-2,6.139415E-2,-1.1349568E-1,-1.896299E-2,-5.7373464E-2,2.8771635E-2,-2.4112249E-2,7.091108E-2,-1.12337686E-1,2.140104E-2,-1.2250311E-2,-4.7761884E-2,5.052433E-2,-2.9724749E-2,5.051294E-2,-5.509672E-2,2.7617123E-2,-6.604515E-2,-8.083604E-3,-1.12216175E-1,4.58172E-2,-4.5532573E-2,-1.3928352E-2,-3.9757747E-2,-2.1612092E-3,-3.1631276E-2,-5.3924215E-3,1.4131635E-2,-3.179609E-2],"categories":[],"categories_nodes":[],"categories_segments":[],"categories_sizes":[],"default_left":[0,0,0,0,0,0,0,0,0,0,0,0,0,0,0,0,0,0,0,0,0,0,0,0,0,0,0,0,0,0,0,0,0,0,0,0,0,0,0,0,0,0,0,0,0,0,0,0,0,0,0,0,0,0,0,0,0,0,0,0,0,0,0,0,0,0,0,0,0,0,0,0,0,0,0,0,0,0,0,0,0,0,0,0,0,0,0,0,0,0,0,0,0,0,0,0,0,0,0,0,0,0,0,0,0,0,0,0,0,0,0,0,0,0,0,0,0,0,0,0,0,0,0,0,0],"id":12,"left_children":[1,3,5,7,9,11,13,15,17,19,21,23,25,27,29,31,33,35,37,39,41,43,45,47,49,51,53,55,57,59,61,63,65,67,69,71,73,-1,75,77,79,81,83,85,87,89,91,93,95,97,99,101,103,105,107,109,111,113,115,117,119,121,123,-1,-1,-1,-1,-1,-1,-1,-1,-1,-1,-1,-1,-1,-1,-1,-1,-1,-1,-1,-1,-1,-1,-1,-1,-1,-1,-1,-1,-1,-1,-1,-1,-1,-1,-1,-1,-1,-1,-1,-1,-1,-1,-1,-1,-1,-1,-1,-1,-1,-1,-1,-1,-1,-1,-1,-1,-1,-1,-1,-1,-1,-1],"loss_changes":[2.6057449E3,8.6547986E2,1.3436274E3,1.2693848E2,5.595221E2,2.966578E2,5.68594E2,4.136548E1,1.20944824E2,2.1679163E2,3.4615503E2,1.3521275E2,2.540206E2,1.4069666E2,4.9901434E2,3.6103394E1,2.4164246E1,1.11880005E2,3.0709534E1,1.5206921E2,1.3685176E2,1.1313713E2,2.9762695E2,5.5423912E1,9.413162E1,9.61776E1,1.511253E2,1.2812085E2,5.5992836E1,2.042406E2,2.9165842E2,3.0168518E1,4.1738064E1,1.8456238E1,2.1070435E1,4.2400238E1,8.7234436E1,0E0,2.339978E1,4.3317753E1,1.3523694E2,4.352841E1,8.857401E1,5.7041195E1,8.458563E1,1.8678226E2,1.9796838E2,4.3709953E1,4.3087963E1,2.7083427E1,8.835684E1,8.1691826E1,2.4667347E1,1.4913135E2,4.253473E1,9.278532E1,1.00000244E2,4.892508E1,5.546959E1,1.03448E2,1.6244626E2,1.9397263E2,1.4911015E2,0E0,0E0,0E0,0E0,0E0,0E0,0E0,0E0,0E0,0E0,0E0,0E0,0E0,0E0,0E0,0E0,0E0,0E0,0E0,0E0,0E0,0E0,0E0,0E0,0E0,0E0,0E0,0E0,0E0,0E0,0E0,0E0,0E0,0E0,0E0,0E0,0E0,0E0,0E0,0E0,0E0,0E0,0E0,0E0,0E0,0E0,0E0,0E0,0E0,0E0,0E0,0E0,0E0,0E0,0E0,0E0,0E0,0E0,0E0,0E0,0E0,0E0],"parents":[2147483647,0,0,1,1,2,2,3,3,4,4,5,5,6,6,7,7,8,8,9,9,10,10,11,11,12,12,13,13,14,14,15,15,16,16,17,17,18,18,19,19,20,20,21,21,22,22,23,23,24,24,25,25,26,26,27,27,28,28,29,29,30,30,31,31,32,32,33,33,34,34,35,35,36,36,38,38,39,39,40,40,41,41,42,42,43,43,44,44,