{"learner":{"attributes":{"best_iteration":"138","best_score":"0.780952006521655"},"feature_names":[],"feature_types":[],"gradient_booster":{"model":{"gbtree_model_param":{"num_parallel_tree":"1","num_trees":"189"},"iteration_indptr":[0,1,2,3,4,5,6,7,8,9,10,11,12,13,14,15,16,17,18,19,20,21,22,23,24,25,26,27,28,29,30,31,32,33,34,35,36,37,38,39,40,41,42,43,44,45,46,47,48,49,50,51,52,53,54,55,56,57,58,59,60,61,62,63,64,65,66,67,68,69,70,71,72,73,74,75,76,77,78,79,80,81,82,83,84,85,86,87,88,89,90,91,92,93,94,95,96,97,98,99,100,101,102,103,104,105,106,107,108,109,110,111,112,113,114,115,116,117,118,119,120,121,122,123,124,125,126,127,128,129,130,131,132,133,134,135,136,137,138,139,140,141,142,143,144,145,146,147,148,149,150,151,152,153,154,155,156,157,158,159,160,161,162,163,164,165,166,167,168,169,170,171,172,173,174,175,176,177,178,179,180,181,182,183,184,185,186,187,188,189],"tree_info":[0,0,0,0,0,0,0,0,0,0,0,0,0,0,0,0,0,0,0,0,0,0,0,0,0,0,0,0,0,0,0,0,0,0,0,0,0,0,0,0,0,0,0,0,0,0,0,0,0,0,0,0,0,0,0,0,0,0,0,0,0,0,0,0,0,0,0,0,0,0,0,0,0,0,0,0,0,0,0,0,0,0,0,0,0,0,0,0,0,0,0,0,0,0,0,0,0,0,0,0,0,0,0,0,0,0,0,0,0,0,0,0,0,0,0,0,0,0,0,0,0,0,0,0,0,0,0,0,0,0,0,0,0,0,0,0,0,0,0,0,0,0,0,0,0,0,0,0,0,0,0,0,0,0,0,0,0,0,0,0,0,0,0,0,0,0,0,0,0,0,0,0,0,0,0,0,0,0,0,0,0,0,0,0,0,0,0,0,0],"trees":[{"base_weights":[2.7364239E-8,-3.5005835E-1,2.0738797E-1,-5.551443E-1,-1.2938759E-1,3.244431E-1,-2.684621E-1,-2.1862231E-1,-6.9383776E-1,-2.905503E-1,4.2629302E-1,8.070325E-2,4.893735E-1,-6.167628E-1,-1.1333371E-1,-5.049036E-1,-1.543227E-2,-1.165655E0,-6.061433E-1,1.8628535E-1,-3.5957253E-1,2.2200936E-1,8.066744E-1,1.0560679E-3,6.509079E-1,1.135172E-1,6.402495E-1,-8.1822723E-1,-2.627885E-1,-3.0132148E-1,1.5487894E-1,-8.6146325E-1,-3.3365592E-1,-5.136128E-1,1.5968327E-1,-1.2003006E0,1.9562136E-1,-8.2115287E-1,-3.805964E-1,4.1691512E-1,-3.5139972E-1,-4.3954155E-1,1.2330827E-1,-8.6292654E-2,4.379543E-1,2.0542803E-1,9.2960155E-1,-1.1090154E-1,3.572025E-1,8.556932E-1,3.8584048E-1,-1.0189737E-1,3.731802E-1,4.7043064E-1,8.22398E-1,-6.8299305E-1,-1.3355986E0,-3.801776E-1,3.770316E-1,-3.8041788E-1,3.9125237E-1,-9.079947E-2,5.1835316E-1,8.331062E-2,-1.0553478E0,-1.4032634E0,-2.7650085E-1,-7.5789183E-1,5.763828E-2,2.882871E-1,-3.4178352E-1,-1.2325188E0,-1.7976855E-1,-1.7190784E-1,6.226212E-1,-8.724933E-1,-2.8817639E-2,-4.6975365E-1,4.3139708E-1,1.8631108E-1,8.955845E-1,-5.647857E-1,5.999298E-1,-5.390679E-1,-1.3646564E-1,2.7024502E-1,-3.6938483E-1,8.1561303E-1,-2.3159252E-1,7.695234E-2,6.511208E-1,-8.8959366E-2,8.360092E-1,1.062297E0,1.9586237E-1,2.7311566E-1,-2.167348E-1,2.0521519E-1,7.3988086E-1,6.659684E-1,1.1063939E0,4.21224E-1,-1.8335488E-1,-1.9411114E-1,5.7609874E-1,6.925415E-2,6.001568E-1,2.9349202E-1,7.175009E-1,6.312193E-1,1.0710187E0,-9.410734E-1,-3.8534978E-1,-1.448801E0,-4.7450933E-1,-5.047202E-1,3.740322E-1,5.1012397E-1,-1.2804469E0,-8.189637E-1,-2.674108E-1,-5.880626E-4,9.1206056E-1,-8.417691E-1,-2.3959067E-2,-4.514274E-2,6.2106395E-1,-1.3514052E-1,5.4354317E-2,-1.16330616E-1,2.632772E-2,-1.94718E-1,-2.0790834E-2,-3.2104768E-2,1.116704E-1,-1.202925E-1,-4.6085786E-2,-1.4509284E-1,1.9401517E-2,3.3104964E-2,-1.1531305E-1,-1.0447609E-1,-1.7185768E-2,-1.2511285E-1,4.683545E-2,-1.8256548E-1,3.6689434E-2,-2.4040807E-2,1.3479179E-1,-1.0577992E-1,-7.296468E-2,-7.616151E-2,4.3242715E-2,-7.76728E-2,-3.1863328E-2,-4.6906855E-2,5.7603717E-2,-7.694193E-2,3.3338916E-2,1.0818168E-1,1.0582122E-2,-3.582343E-2,-1.2045474E-1,9.942841E-2,-9.740437E-2,-6.1454665E-2,-1.8625101E-2,-2.315305E-2,4.9241025E-2,7.0466906E-2,1.4766703E-2,-1.1846926E-1,-8.575542E-3,-7.994173E-2,1.0147005E-1,-7.1148993E-3,-9.9122584E-2,-2.81872E-2,4.35902E-2,6.826396E-2,-1.7749624E-1,8.768202E-2,-4.3974984E-2,1.14916794E-1,-5.9167016E-2,1.1191767E-1,1.936628E-2,-1.5573427E-2,1.1318853E-1,-1.2835721E-2,4.2332426E-2,-3.853223E-2,6.4743618E-3,1.08246235E-2,7.037321E-2,1.06759705E-1,5.7188142E-2,9.8660365E-3,8.1376456E-2,7.8435475E-3,1.18512414E-1,-5.837493E-2,4.7891825E-2,-5.2738614E-2,-3.926754E-3,6.729943E-2,-1.0686826E-1,-1.67222E-2,3.23041E-2,1.1097374E-2,6.888591E-2,1.8143944E-2,5.6860663E-2,1.0494707E-1,6.1725315E-2,4.9164366E-2,8.8801764E-2,1.1240448E-1,5.6613088E-2,-1.0091644E-1,4.93316E-2,-7.692977E-2,-1.037056E-2,1.463963E-2,-1.4952016E-1,-8.9518555E-2,1.5863803E-1,-1.04114674E-1,-3.3108223E-2,-1.6301272E-2,9.7201765E-2,-1.6757175E-1,6.070554E-2,-1.6827136E-1,-6.532147E-2,-1.02163866E-1,-2.8677369E-2,-4.542371E-2,-6.8602373E-4,1.813387E-2,-1.395849E-1,1.07975684E-1,-1.280447E-1,-1.312553E-1,-4.541434E-3,-6.1590113E-2,5.2465377E-3,2.5796896E-2,-6.947212E-2,3.996378E-2,8.712711E-2],"categories":[],"categories_nodes":[],"categories_segments":[],"categories_sizes":[],"default_left":[0,0,0,0,0,0,0,0,0,0,0,0,0,0,0,0,0,0,0,0,0,0,0,0,0,0,0,0,0,0,0,0,0,0,0,0,0,0,0,0,0,0,0,0,0,0,0,0,0,0,0,0,0,0,0,0,0,0,0,0,0,0,0,0,0,0,0,0,0,0,0,0,0,0,0,0,0,0,0,0,0,0,0,0,0,0,0,0,0,0,0,0,0,0,0,0,0,0,0,0,0,0,0,0,0,0,0,0,0,0,0,0,0,0,0,0,0,0,0,0,0,0,0,0,0,0,0,0,0,0,0,0,0,0,0,0,0,0,0,0,0,0,0,0,0,0,0,0,0,0,0,0,0,0,0,0,0,0,0,0,0,0,0,0,0,0,0,0,0,0,0,0,0,0,0,0,0,0,0,0,0,0,0,0,0,0,0,0,0,0,0,0,0,0,0,0,0,0,0,0,0,0,0,0,0,0,0,0,0,0,0,0,0,0,0,0,0,0,0,0,0,0,0,0,0,0,0,0,0,0,0,0,0,0,0,0,0,0,0,0,0,0,0,0,0,0,0,0,0,0,0],"id":0,"left_children":[1,3,5,7,9,11,13,15,17,19,21,23,25,27,29,31,33,35,37,39,41,43,45,47,49,51,53,55,57,59,61,63,65,67,69,71,73,75,77,79,81,83,85,87,89,91,93,95,97,99,101,103,105,107,109,111,113,115,117,119,121,123,125,127,129,131,133,135,137,139,141,143,145,-1,147,149,151,153,155,157,159,161,163,165,167,169,171,173,175,177,179,181,183,185,187,189,191,193,195,197,199,201,-1,203,205,207,209,211,213,215,217,219,221,223,225,227,229,231,233,235,237,239,241,243,245,247,249,-1,-1,-1,-1,-1,-1,-1,-1,-1,-1,-1,-1,-1,-1,-1,-1,-1,-1,-1,-1,-1,-1,-1,-1,-1,-1,-1,-1,-1,-1,-1,-1,-1,-1,-1,-1,-1,-1,-1,-1,-1,-1,-1,-1,-1,-1,-1,-1,-1,-1,-1,-1,-1,-1,-1,-1,-1,-1,-1,-1,-1,-1,-1,-1,-1,-1,-1,-1,-1,-1,-1,-1,-1,-1,-1,-1,-1,-1,-1,-1,-1,-1,-1,-1,-1,-1,-1,-1,-1,-1,-1,-1,-1,-1,-1,-1,-1,-1,-1,-1,-1,-1,-1,-1,-1,-1,-1,-1,-1,-1,-1,-1,-1,-1,-1,-1,-1,-1,-1,-1,-1,-1,-1,-1],"loss_changes":[5.0231465E3,1.1648936E3,2.4202795E3,6.2254297E2,1.1106843E3,1.4018286E3,4.6344946E2,2.2657626E2,3.9018213E2,3.1646802E2,2.1649588E2,6.392123E2,1.1793545E3,1.8828357E2,2.9936737E2,9.844446E1,1.9892381E2,7.001709E1,3.8612573E2,1.5096973E2,3.243556E2,1.2090754E2,7.1789185E1,4.9250787E2,9.330859E1,3.3333646E2,4.586704E2,1.1691382E2,7.226284E1,1.9136148E2,2.1855118E2,9.6071686E1,6.649024E1,8.2800125E1,1.0890869E2,4.7225586E1,3.1797157E1,1.6589478E2,2.818847E2,9.3837845E1,7.4562584E1,2.1726538E2,8.653836E1,9.829963E1,8.2123825E1,3.1001347E1,7.849072E1,3.8199496E2,1.71672E2,4.5512695E1,5.995883E1,2.0377914E2,1.8635681E2,3.356454E2,3.3960205E2,1.02349E2,3.3227173E1,7.6446846E1,3.3602184E1,1.550622E2,7.311508E1,7.330972E1,5.71539E1,6.026066E1,6.2209137E1,3.5514854E1,6.4886765E1,5.436783E1,3.7018707E1,8.318637E1,4.1012688E1,4.4858887E1,4.1458412E1,0E0,2.001892E1,1.0062305E2,8.4572464E1,1.6241583E2,5.0475853E1,8.122299E1,4.057103E1,3.9100777E1,4.2848656E1,1.4431946E2,1.0668053E2,4.890172E1,6.3423233E1,3.4282394E1,7.861047E1,5.133126E1,5.2540894E1,3.9170193E1,2.4429276E1,3.359192E1,4.131985E1,1.22522095E2,3.4965436E2,1.0220376E2,4.5603546E1,4.6538376E1,3.368445E1,4.33403E1,0E0,1.480011E2,6.2917404E1,6.945099E1,6.70379E1,1.3795279E2,1.06020996E2,1.4470874E2,8.2640625E1,7.037598E1,6.7252075E1,2.2943176E1,3.7756443E1,6.459668E1,3.729409E1,3.0462925E1,1.7739182E0,6.8898926E1,1.2133992E2,5.2403873E1,5.7939903E1,4.469397E1,6.0766613E1,3.032451E1,4.590811E1,0E0,0E0,0E0,0E0,0E0,0E0,0E0,0E0,0E0,0E0,0E0,0E0,0E0,0E0,0E0,0E0,0E0,0E0,0E0,0E0,0E0,0E0,0E0,0E0,0E0,0E0,0E0,0E0,0E0,0E0,0E0,0E0,0E0,0E0,0E0,0E0,0E0,0E0,0E0,0E0,0E0,0E0,0E0,0E0,0E0,0E0,0E0,0E0,0E0,0E0,0E0,0E0,0E0,0E0,0E0,0E0,0E0,0E0,0E0,0E0,0E0,0E0,0E0,0E0,0E0,0E0,0E0,0E0,0E0,0E0,0E0,0E0,0E0,0E0,0E0,0E0,0E0,0E0,0E0,0E0,0E0,0E0,0E0,0E0,0E0,0E0,0E0,0E0,0E0,0E0,0E0,0E0,0E0,0E0,0E0,0E0,0E0,0E0,0E0,0E0,0E0,0E0,0E0,0E0,0E0,0E0,0E0,0E0,0E0,0E0,0E0,0E0,0E0,0E0,0E0,0E0,0E0,0E0,0E0,0E0,0E0,0E0,0E0,0E0],"parents":[2147483647,0,0,1,1,2,2,3,3,4,4,5,5,6,6,7,7,8,8,9,9,10,10,11,11,12,12,13,13,14,14,15,15,16,16,17,17,18,18,19,19,20,20,21,21,22,22,23,23,24,24,25,25,26,26,27,27,28,28,29,29,30,30,31,31,32,32,33,33,34,34,35,35,36,36,37,37,38,38,39,39,40,40,41,41,42,42,43,43,44,44,45,45,46,46,47,47,48,48,49,49,50,50,51,51,52,52,53,53,54,54,55,55,56,56,57,57,58,58,59,59,60,60,61,61,62,62,63,63,64,64,65,65,66,66,67,67,68,68,69,69,70,70,71,71,72,72,74,74,75,75,76,76,77,77,78,78,79,79,80,80,81,81,82,82,83,83,84,84,85,85,86,86,87,87,88,88,89,89,90,90,91,91,92,92,93,93,94,94,95,95,96,96,97,97,98,98,99,99,100,100,101,101,103,103,104,104,105,105,106,106,107,107,108,108,109,109,110,110,111,111,112,112,113,113,114,114,115,115,116,116,117,117,118,118,119,119,120,120,121,121,122,122,123,123,124,124,125,125,126,126],"right_children":[2,4,6,8,10,12,14,16,18,20,22,24,26,28,30,32,34,36,38,40,42,44,46,48,50,52,54,56,58,60,62,64,66,68,70,72,74,76,78,80,82,84,86,88,90,92,94,96,98,100,102,104,106,108,110,112,114,116,118,120,122,124,126,128,130,132,134,136,138,140,142,144,146,-1,148,150,152,154,156,158,160,162,164,166,168,170,172,174,176,178,180,182,184,186,188,190,192,194,196,198,200,202,-1,204,206,208,210,212,214,216,218,220,222,224,226,228,230,232,234,236,238,240,242,244,246,248,250,-1,-1,-1,-1,-1,-1,-1,-1,-1,-1,-1,-1,-1,-1,-1,-1,-1,-1,-1,-1,-1,-1,-1,-1,-1,-1,-1,-1,-1,-1,-1,-1,-1,-1,-1,-1,-1,-1,-1,-1,-1,-1,-1,-1,-1,-1,-1,-1,-1,-1,-1,-1,-1,-1,-1,-1,-1,-1,-1,-1,-1,-1,-1,-1,-1,-1,-1,-1,-1,-1,-1,-1,-1,-1,-1,-1,-1,-1,-1,-1,-1,-1,-1,-1,-1,-1,-1,-1,-1,-1,-1,-1,-1,-1,-1,-1,-1,-1,-1,-1,-1,-1,-1,-1,-1,-1,-1,-1,-1,-1,-1,-1,-1,-1,-1,-1,-1,-1,-1,-1,-1,-1,-1,-1],"split_conditions":[2.092253E-1,2E0,3E0,1.1360511E5,-1.035E3,6E0,-2.169E3,5E0,-3.641E3,1.2658032E5,9E0,7.307692E-1,-2.335E3,1E0,3E0,1E0,-2.485E3,3.322895E4,7E0,4.9712125E5,8E-1,5E0,-2.267E3,5.908177E2,4.545E5,4E0,-6.055E2,1.1355E6,-7.8E1,4.428E1,-1.233E3,5.136399E4,-4.928E3,4.5E2,2E0,2.8933332E1,4.9E1,3.353445E3,4.9357896E3,1E0,2.094156E4,1.2304044E3,2E0,4.5846E4,-1.552E3,2.9E1,-9E1,8.609445E4,-9.5E2,5.34338E-1,2.0001412E6,3E0,-1.136E3,1.4E1,1E0,3.9422494E-1,2.4E1,1.9635385E3,9.135E5,-3.16E2,-4.4866666E2,-1.11775E3,-6.96E2,-1.68E3,-1.28E2,2.7225E3,-2.1E1,-1.625E3,-4.582E3,1.0665E6,4E0,8.06E2,-7.12E2,-1.7190784E-1,2E0,-4.06E3,-7.608E2,-1.702E3,-2.268E3,7E0,4.545E5,6.743385E3,-3.115E3,4.3E1,-7.44E2,8E0,2.8E1,-6.46E2,1.02E-1,-3.628E3,2.646E-1,7E0,4E0,7.65E5,1.31E2,-4.182E3,1E0,1.1E1,8.1335903E3,1E0,-9.97E2,-1.079E3,-1.8335488E-1,-1.377E3,1.289E-1,4.3012315E-1,-4.222E2,6.0870206E-1,1.6733602E5,1E0,6.795E5,1.8E1,-2.27E2,-1.909E3,1E1,-1.623E3,1.9894737E1,-4.765E3,4.64805E4,1E0,4.565291E-1,1.303E-1,9.6402E3,6.8E1,-1.751E3,1.3313821E-1,5.056689E-1,-1.3514052E-1,5.4354317E-2,-1.16330616E-1,2.632772E-2,-1.94718E-1,-2.0790834E-2,-3.2104768E-2,1.116704E-1,-1.202925E-1,-4.6085786E-2,-1.4509284E-1,1.9401517E-2,3.3104964E-2,-1.1531305E-1,-1.0447609E-1,-1.7185768E-2,-1.2511285E-1,4.683545E-2,-1.8256548E-1,3.6689434E-2,-2.4040807E-2,1.3479179E-1,-1.0577992E-1,-7.296468E-2,-7.616151E-2,4.3242715E-2,-7.76728E-2,-3.1863328E-2,-4.6906855E-2,5.7603717E-2,-7.694193E-2,3.3338916E-2,1.0818168E-1,1.0582122E-2,-3.582343E-2,-1.2045474E-1,9.942841E-2,-9.740437E-2,-6.1454665E-2,-1.8625101E-2,-2.315305E-2,4.9241025E-2,7.0466906E-2,1.4766703E-2,-1.1846926E-1,-8.575542E-3,-7.994173E-2,1.0147005E-1,-7.1148993E-3,-9.9122584E-2,-2.81872E-2,4.35902E-2,6.826396E-2,-1.7749624E-1,8.768202E-2,-4.3974984E-2,1.14916794E-1,-5.9167016E-2,1.1191767E-1,1.936628E-2,-1.5573427E-2,1.1318853E-1,-1.2835721E-2,4.2332426E-2,-3.853223E-2,6.4743618E-3,1.08246235E-2,7.037321E-2,1.06759705E-1,5.7188142E-2,9.8660365E-3,8.1376456E-2,7.8435475E-3,1.18512414E-1,-5.837493E-2,4.7891825E-2,-5.2738614E-2,-3.926754E-3,6.729943E-2,-1.0686826E-1,-1.67222E-2,3.23041E-2,1.1097374E-2,6.888591E-2,1.8143944E-2,5.6860663E-2,1.0494707E-1,6.1725315E-2,4.9164366E-2,8.8801764E-2,1.1240448E-1,5.6613088E-2,-1.0091644E-1,4.93316E-2,-7.692977E-2,-1.037056E-2,1.463963E-2,-1.4952016E-1,-8.9518555E-2,1.5863803E-1,-1.04114674E-1,-3.3108223E-2,-1.6301272E-2,9.7201765E-2,-1.6757175E-1,6.070554E-2,-1.6827136E-1,-6.532147E-2,-1.02163866E-1,-2.8677369E-2,-4.542371E-2,-6.8602373E-4,1.813387E-2,-1.395849E-1,1.07975684E-1,-1.280447E-1,-1.312553E-1,-4.541434E-3,-6.1590113E-2,5.2465377E-3,2.5796896E-2,-6.947212E-2,3.996378E-2,8.712711E-2],"split_indices":[314,399,72,383,338,14,18,14,18,383,400,366,18,406,399,71,18,350,14,186,366,14,18,394,12,400,340,143,82,139,338,99,18,93,72,438,367,139,350,406,93,394,72,323,18,378,18,383,338,314,143,406,340,399,400,314,365,394,12,82,127,127,127,175,125,93,82,90,20,12,28,365,127,0,60,20,198,18,90,399,12,384,19,439,19,334,367,127,41,19,57,378,260,12,89,20,406,434,384,399,198,127,0,171,52,314,89,314,383,406,12,316,82,127,434,171,436,20,11,35,314,57,111,399,340,393,314,0,0,0,0,0,0,0,0,0,0,0,0,0,0,0,0,0,0,0,0,0,0,0,0,0,0,0,0,0,0,0,0,0,0,0,0,0,0,0,0,0,0,0,0,0,0,0,0,0,0,0,0,0,0,0,0,0,0,0,0,0,0,0,0,0,0,0,0,0,0,0,0,0,0,0,0,0,0,0,0,0,0,0,0,0,0,0,0,0,0,0,0,0,0,0,0,0,0,0,0,0,0,0,0,0,0,0,0,0,0,0,0,0,0,0,0,0,0,0,0,0,0,0,0],"split_type":[0,0,0,0,0,0,0,0,0,0,0,0,0,0,0,0,0,0,0,0,0,0,0,0,0,0,0,0,0,0,0,0,0,0,0,0,0,0,0,0,0,0,0,0,0,0,0,0,0,0,0,0,0,0,0,0,0,0,0,0,0,0,0,0,0,0,0,0,0,0,0,0,0,0,0,0,0,0,0,0,0,0,0,0,0,0,0,0,0,0,0,0,0,0,0,0,0,0,0,0,0,0,0,0,0,0,0,0,0,0,0,0,0,0,0,0,0,0,0,0,0,0,0,0,0,0,0,0,0,0,0,0,0,0,0,0,0,0,0,0,0,0,0,0,0,0,0,0,0,0,0,0,0,0,0,0,0,0,0,0,0,0,0,0,0,0,0,0,0,0,0,0,0,0,0,0,0,0,0,0,0,0,0,0,0,0,0,0,0,0,0,0,0,0,0,0,0,0,0,0,0,0,0,0,0,0,0,0,0,0,0,0,0,0,0,0,0,0,0,0,0,0,0,0,0,0,0,0,0,0,0,0,0,0,0,0,0,0,0,0,0,0,0,0,0,0,0,0,0,0,0],"sum_hessian":[6.918936E4,2.5740408E4,4.3448953E4,1.3340531E4,1.2399877E4,3.487124E4,8.577715E3,3.8942373E3,9.446294E3,9.612472E3,2.787405E3,1.4073871E4,2.0797365E4,2.6422498E3,5.935465E3,1.6159648E3,2.2782725E3,1.4786278E3,7.9676665E3,1.2152556E3,8.397217E3,1.814508E3,9.72897E2,1.2349827E4,1.7240437E3,5.957653E3,1.4839713E4,1.6830377E3,9.592121E2,3.4895488E3,2.4459158E3,5.229941E2,1.0929708E3,5.9204626E2,1.6862262E3,1.4420449E3,3.6582817E1,4.0777678E3,3.8898987E3,8.5062213E2,3.646335E2,7.204227E3,1.1929896E3,7.4766956E2,1.0668385E3,1.6560086E2,8.072961E2,9.396612E3,2.9532153E3,9.7136206E2,7.526816E2,3.2566045E3,2.701048E3,7.6816313E3,7.158081E3,1.3361147E3,3.4692294E2,8.1084973E2,1.483624E2,3.1322737E3,3.5727518E2,1.4598969E3,9.8601904E2,8.9149704E1,4.3384433E2,5.424629E1,1.0387245E3,4.144794E2,1.7756685E2,1.3423885E3,3.438376E2,1.3977114E3,4.4333508E1,6.118965E0,3.0463854E1,3.829527E3,2.4824074E2,3.505423E3,3.844756E2,5.749994E2,2.7562274E2,2.9816138E2,6.647215E1,5.4227007E3,1.781526E3,9.19282E2,2.7370758E2,1.0309912E2,6.4457043E2,3.9658105E2,6.7025745E2,1.1348106E2,5.2119812E1,6.832786E2,1.2401751E2,2.0298168E3,7.3667954E3,2.114816E3,8.3839923E2,5.550037E2,4.1635837E2,7.416675E2,1.1014137E1,2.8673342E3,3.892704E2,1.155336E3,1.5457122E3,4.477367E3,3.2042642E3,4.0484988E3,3.1095823E3,7.1445966E2,6.216551E2,3.0601096E2,4.0912006E1,6.9621466E2,1.1463509E2,1.3797546E2,1.0386936E1,6.4048816E2,2.4917854E3,2.0445114E2,1.5282404E2,1.1837122E2,1.3415256E3,1.5210353E2,8.339155E2,2.1181803E1,6.79679E1,4.0112155E2,3.272278E1,3.6849766E1,1.7396523E1,1.00728674E3,3.1437767E1,1.6468669E2,2.4979271E2,1.3922338E1,1.636445E2,1.3044596E3,3.792905E1,6.593178E1,2.779058E2,1.3828458E3,1.4865643E1,1.0470229E1,3.3863277E1,1.4216367E1,1.6247488E1,1.6642258E3,2.1653013E3,9.564098E1,1.5259976E2,1.1550345E3,2.3503884E3,5.290006E1,3.3157553E2,7.612151E1,4.9887787E2,2.2273123E2,5.2891525E1,2.2657124E2,7.1590126E1,5.3448975E1,1.3023183E1,4.466445E3,9.562562E2,1.5481323E3,2.3339365E2,2.0125893E2,7.180231E2,6.9822426E1,2.0388516E2,1.0983528E1,9.211559E1,5.330728E2,1.1149761E2,1.9843254E2,1.9814853E2,6.623708E2,7.886666E0,2.9836653E1,8.36444E1,4.2903984E1,9.215827E0,6.410154E2,4.2263245E1,9.075935E1,3.3258152E1,5.5270624E2,1.4771106E3,4.607081E3,2.7597146E3,1.7714581E3,3.4335785E2,2.8232123E2,5.56078E2,1.1505156E2,4.3995215E2,2.9761894E1,3.865965E2,3.9771507E1,7.0189594E2,9.0882794E2,1.9585062E3,3.6817188E2,2.1098509E1,5.9824146E2,5.5709454E2,2.3760393E2,1.3081083E3,3.1827224E3,1.294645E3,7.4099554E2,2.4632686E3,2.6247837E3,1.4237152E3,2.8129272E3,2.9665503E2,6.823641E2,3.2095577E1,2.6231967E2,3.5933542E2,8.588626E0,2.9742233E2,3.444633E1,6.4656777E0,1.6902942E2,5.271852E2,6.077819E1,5.3856903E1,5.167126E0,1.3280833E2,5.303103E0,5.0838327E0,4.6317624E2,1.7731195E2,1.4507734E3,1.041012E3,1.8163762E2,2.2813526E1,1.424371E2,1.0386936E1,7.398503E1,4.4386192E1,1.5258975E2,1.1889359E3,1.0412071E2,4.798281E1,4.437801E2,3.901354E2],"tree_param":{"num_deleted":"0","num_feature":"441","num_nodes":"251","size_leaf_vector":"1"}},{"base_weights":[-2.4808394E-5,2.875611E-1,-6.346051E-1,8.6659443E-1,9.6572705E-2,-7.826548E-1,-2.8233802E-1,1.0918995E0,7.09862E-1,2.1026546E-1,-3.6903566E-1,-9.1406107E-1,-5.410852E-1,-4.0751648E-1,1.8649238E-1,1.1712265E0,8.570362E-1,8.2149243E-1,3.8936946E-1,4.4841606E-2,4.5516548E-1,-1.1524004E-1,-6.311971E-1,-9.511953E-1,-1.688075E-1,-9.837655E-1,-4.004901E-1,-5.5273074E-1,-1.4823002E-1,-8.0461815E-2,5.598056E-1,9.819958E-1,1.2548271E0,-3.2532845E-2,9.059254E-1,7.038472E-1,1.0533683E0,4.7771254E-1,-1.01731606E-1,3.046638E-1,-1.0148962E-1,6.360906E-1,2.51948E-1,-5.798295E-1,-1.6273264E-2,-9.389052E-1,-4.933133E-1,-8.4578043E-1,-1.1487571E0,-3.0183503E-1,7.6998603E-1,-5.578623E-1,-1.131866E0,-4.5663688E-1,3.2799757E-1,-8.793785E-1,-4.4677287E-1,-1.3919632E-2,-7.075489E-1,5.066204E-1,-3.914043E-1,6.437001E-1,-5.638365E-1,1.069776E0,4.3719295E-1,1.2617362E0,-6.065705E-2,7.030509E-1,-1.018809E0,7.427605E-2,9.416893E-1,-8.8572723E-4,7.4980634E-1,5.6099945E-1,1.0954936E0,2.020946E-1,6.389522E-1,-6.5649843E-1,2.4377443E-1,-9.148183E-2,4.9859756E-1,1.7303923E-1,-2.636841E-1,9.1410136E-1,5.196291E-1,3.4942216E-1,-2.0742844E-1,-1.2797332E0,-4.2683214E-1,-1.0515706E-1,4.694947E-1,-1.0010343E0,-1.0564627E-1,-9.8970044E-1,-4.069385E-1,-9.1586983E-1,-5.165978E-1,-8.3293694E-1,-1.2095085E0,-2.1227027E-1,-1.8904117E-1,-2.0228241E-1,1.1828567E0,-1.4199233E0,-3.6419025E-1,-8.73835E-1,-1.3459874E0,-7.012004E-2,-5.7292634E-1,-5.831632E-1,5.947321E-1,-1.2272999E0,-6.437902E-1,-9.0867186E-1,-3.7328538E-1,2.1750678E-1,-2.1183468E-1,-3.3110902E-1,-1.2318974E0,5.820257E-1,-1.2967949E0,-2.060848E-1,-1.4333757E0,9.363591E-1,3.4976622E-1,-1.5979872E0,4.1210026E-1,7.050752E-2,1.1699567E-1,-8.7482646E-2,6.726942E-2,1.4208654E-1,1.17941454E-1,-8.197866E-2,1.0266644E-1,2.270799E-2,-1.8424237E-1,-1.7425305E-1,4.5059633E-2,3.2136254E-2,9.8036036E-2,1.673084E-2,-9.615558E-2,6.0491987E-2,9.0532415E-2,7.322833E-2,-1.3473909E-1,1.3133191E-2,1.11111976E-1,-1.1317201E-2,4.5769144E-2,-1.3730906E-1,6.681461E-2,-7.543195E-3,-1.100622E-1,-2.0668248E-2,5.8678694E-2,-1.7471882E-2,3.3829205E-2,4.0000398E-2,8.9526586E-2,-3.299723E-2,2.4716256E-2,-3.9616574E-2,2.3615127E-2,6.494587E-2,1.0166571E-1,6.718012E-2,2.2837417E-2,2.8604088E-2,8.7386645E-2,1.1173547E-3,-5.1808257E-2,-5.1450206E-4,-1.5909228E-1,-2.1313438E-2,-9.516107E-2,1.9185869E-2,-2.5983715E-2,3.132715E-2,1.0322104E-1,1.805722E-2,-1.0555922E-1,6.941764E-2,-7.312236E-2,4.988722E-3,-1.2348161E-1,4.7817756E-3,-4.9208645E-2,-8.341401E-2,-1.1608088E-1,-8.159558E-3,-6.728799E-2,-8.649447E-2,1.3567631E-1,-1.2847978E-1,-9.722978E-2,-3.4215238E-2,6.426563E-2,9.116976E-2,-1.7668985E-1,1.3369325E-1,1.6442597E-2,-3.552442E-2,-1.9134422E-1,-1.4295462E-1,-1.8601056E-2,-9.997382E-2,-1.385977E-2,-1.4051421E-1,6.5113166E-3,1.1356427E-2,-5.7200532E-2,-2.5112513E-2,-7.1229294E-2,8.894153E-2,-8.694421E-2,-1.42564E-1,7.230399E-2,-1.3094E-1,2.9488076E-2,-1.3131055E-1,-5.1016033E-2,-1.3572796E-1,-6.80887E-2,1.716121E-2,-4.3642353E-2,2.7639208E-2,-7.919917E-2,-1.6553879E-2,-1.6512607E-1,8.93453E-2,-4.7779843E-2,-1.4245765E-2,-1.5589091E-1,7.292998E-2,-6.986146E-3,-1.7061366E-1,-6.6856496E-2,-8.200908E-2,-4.5884545E-3,-1.6433212E-1,1.0744337E-1,9.917321E-2,-9.7812496E-2,-1.7414205E-1,4.0645476E-2,-6.612524E-2,-1.8842095E-1,1.0832354E-1,-5.1803138E-2],"categories":[],"categories_nodes":[],"categories_segments":[],"categories_sizes":[],"default_left":[0,0,0,0,0,0,0,0,0,0,0,0,0,0,0,0,0,0,0,0,0,0,0,0,0,0,0,0,0,0,0,0,0,0,0,0,0,0,0,0,0,0,0,0,0,0,0,0,0,0,0,0,0,0,0,0,0,0,0,0,0,0,0,0,0,0,0,0,0,0,0,0,0,0,0,0,0,0,0,0,0,0,0,0,0,0,0,0,0,0,0,0,0,0,0,0,0,0,0,0,0,0,0,0,0,0,0,0,0,0,0,0,0,0,0,0,0,0,0,0,0,0,0,0,0,0,0,0,0,0,0,0,0,0,0,0,0,0,0,0,0,0,0,0,0,0,0,0,0,0,0,0,0,0,0,0,0,0,0,0,0,0,0,0,0,0,0,0,0,0,0,0,0,0,0,0,0,0,0,0,0,0,0,0,0,0,0,0,0,0,0,0,0,0,0,0,0,0,0,0,0,0,0,0,0,0,0,0,0,0,0,0,0,0,0,0,0,0,0,0,0,0,0,0,0,0,0,0,0,0,0,0,0,0,0,0,0,0,0,0,0,0,0,0,0,0,0,0,0,0,0],"id":1,"left_children":[1,3,5,7,9,11,13,15,17,19,21,23,25,27,29,31,33,35,37,39,41,43,45,47,49,51,53,55,57,59,61,63,65,67,69,71,73,75,77,79,81,83,85,87,89,91,93,95,97,99,101,103,105,107,109,111,113,115,117,119,121,123,125,127,129,131,-1,133,135,137,139,141,143,145,147,149,151,153,155,157,159,161,163,165,167,169,171,173,175,177,179,181,183,185,187,189,191,193,195,197,-1,199,201,203,205,207,209,211,213,215,217,219,221,223,225,227,229,231,233,235,237,239,241,243,245,247,249,-1,-1,-1,-1,-1,-1,-1,-1,-1,-1,-1,-1,-1,-1,-1,-1,-1,-1,-1,-1,-1,-1,-1,-1,-1,-1,-1,-1,-1,-1,-1,-1,-1,-1,-1,-1,-1,-1,-1,-1,-1,-1,-1,-1,-1,-1,-1,-1,-1,-1,-1,-1,-1,-1,-1,-1,-1,-1,-1,-1,-1,-1,-1,-1,-1,-1,-1,-1,-1,-1,-1,-1,-1,-1,-1,-1,-1,-1,-1,-1,-1,-1,-1,-1,-1,-1,-1,-1,-1,-1,-1,-1,-1,-1,-1,-1,-1,-1,-1,-1,-1,-1,-1,-1,-1,-1,-1,-1,-1,-1,-1,-1,-1,-1,-1,-1,-1,-1,-1,-1,-1,-1,-1,-1],"loss_changes":[1.2614787E4,5.260255E3,1.1240303E3,4.158379E2,1.893602E3,4.8129102E2,3.745301E2,8.913721E1,2.4870703E2,1.164723E3,4.6703943E2,2.7184082E2,3.3256396E2,1.8954138E2,1.341119E2,5.593994E1,5.331781E1,1.4006128E2,7.814365E1,6.5248016E2,4.259978E2,1.6406131E2,1.4604529E2,1.9399902E2,5.864237E1,8.066321E1,1.6628937E2,1.1132617E2,1.3591225E2,1.4354445E2,5.3249573E1,5.271057E1,3.29541E1,4.772593E1,3.44765E1,1.1100513E2,3.5377686E1,6.767694E1,5.292067E1,4.7505945E2,4.888931E2,1.9803247E2,2.445882E2,6.655444E1,1.2710909E2,5.5154297E1,1.0192743E2,1.4046143E2,6.143506E1,5.7987488E1,2.3654388E1,5.533103E1,5.1605225E1,1.6948645E2,7.1129395E1,6.392743E1,8.245969E1,6.69187E1,6.8742386E1,3.778804E1,9.8941154E1,4.462059E1,4.053551E1,3.413965E1,4.8788254E1,3.099585E1,0E0,1.9424232E1,2.9242317E1,3.4269264E1,2.6396973E1,3.4225365E1,7.194861E1,4.636203E1,2.3922241E1,4.5548645E1,5.7434235E1,2.7248688E1,2.6442524E1,7.278311E1,1.6198547E2,1.5212796E2,4.5711713E2,4.8430786E1,1.9145691E2,1.4950293E2,6.496125E1,4.43779E1,5.76315E1,1.14373764E2,3.9706436E1,6.422064E1,3.8126076E1,9.0025024E1,7.880798E1,9.9822754E1,7.2998474E1,3.8197388E1,4.7458252E1,4.3481148E1,0E0,3.3403435E1,6.227829E0,3.1382256E1,5.183844E1,4.0229675E1,4.3516785E1,8.058652E1,1.298446E2,2.8789192E1,5.956073E1,4.008673E1,4.1625305E1,3.3218445E1,7.253519E1,4.025606E1,5.2204742E1,3.730407E1,5.1804565E1,2.5213165E1,1.7497082E0,4.2995186E1,4.2534485E1,2.8663177E1,3.1800919E1,3.9523544E0,1.374678E1,0E0,0E0,0E0,0E0,0E0,0E0,0E0,0E0,0E0,0E0,0E0,0E0,0E0,0E0,0E0,0E0,0E0,0E0,0E0,0E0,0E0,0E0,0E0,0E0,0E0,0E0,0E0,0E0,0E0,0E0,0E0,0E0,0E0,0E0,0E0,0E0,0E0,0E0,0E0,0E0,0E0,0E0,0E0,0E0,0E0,0E0,0E0,0E0,0E0,0E0,0E0,0E0,0E0,0E0,0E0,0E0,0E0,0E0,0E0,0E0,0E0,0E0,0E0,0E0,0E0,0E0,0E0,0E0,0E0,0E0,0E0,0E0,0E0,0E0,0E0,0E0,0E0,0E0,0E0,0E0,0E0,0E0,0E0,0E0,0E0,0E0,0E0,0E0,0E0,0E0,0E0,0E0,0E0,0E0,0E0,0E0,0E0,0E0,0E0,0E0,0E0,0E0,0E0,0E0,0E0,0E0,0E0,0E0,0E0,0E0,0E0,0E0,0E0,0E0,0E0,0E0,0E0,0E0,0E0,0E0,0E0,0E0,0E0,0E0],"parents":[2147483647,0,0,1,1,2,2,3,3,4,4,5,5,6,6,7,7,8,8,9,9,10,10,11,11,12,12,13,13,14,14,15,15,16,16,17,17,18,18,19,19,20,20,21,21,22,22,23,23,24,24,25,25,26,26,27,27,28,28,29,29,30,30,31,31,32,32,33,33,34,34,35,35,36,36,37,37,38,38,39,39,40,40,41,41,42,42,43,43,44,44,45,45,46,46,47,47,48,48,49,49,50,50,51,51,52,52,53,53,54,54,55,55,56,56,57,57,58,58,59,59,60,60,61,61,62,62,63,63,64,64,65,65,67,67,68,68,69,69,70,70,71,71,72,72,73,73,74,74,75,75,76,76,77,77,78,78,79,79,80,80,81,81,82,82,83,83,84,84,85,85,86,86,87,87,88,88,89,89,90,90,91,91,92,92,93,93,94,94,95,95,96,96,97,97,98,98,99,99,101,101,102,102,103,103,104,104,105,105,106,106,107,107,108,108,109,109,110,110,111,111,112,112,113,113,114,114,115,115,116,116,117,117,118,118,119,119,120,120,121,121,122,122,123,123,124,124,125,125,126,126],"right_children":[2,4,6,8,10,12,14,16,18,20,22,24,26,28,30,32,34,36,38,40,42,44,46,48,50,52,54,56,58,60,62,64,66,68,70,72,74,76,78,80,82,84,86,88,90,92,94,96,98,100,102,104,106,108,110,112,114,116,118,120,122,124,126,128,130,132,-1,134,136,138,140,142,144,146,148,150,152,154,156,158,160,162,164,166,168,170,172,174,176,178,180,182,184,186,188,190,192,194,196,198,-1,200,202,204,206,208,210,212,214,216,218,220,222,224,226,228,230,232,234,236,238,240,242,244,246,248,250,-1,-1,-1,-1,-1,-1,-1,-1,-1,-1,-1,-1,-1,-1,-1,-1,-1,-1,-1,-1,-1,-1,-1,-1,-1,-1,-1,-1,-1,-1,-1,-1,-1,-1,-1,-1,-1,-1,-1,-1,-1,-1,-1,-1,-1,-1,-1,-1,-1,-1,-1,-1,-1,-1,-1,-1,-1,-1,-1,-1,-1,-1,-1,-1,-1,-1,-1,-1,-1,-1,-1,-1,-1,-1,-1,-1,-1,-1,-1,-1,-1,-1,-1,-1,-1,-1,-1,-1,-1,-1,-1,-1,-1,-1,-1,-1,-1,-1,-1,-1,-1,-1,-1,-1,-1,-1,-1,-1,-1,-1,-1,-1,-1,-1,-1,-1,-1,-1,-1,-1,-1,-1,-1,-1],"split_conditions":[5.388627E-1,2.664568E-1,2.638889E-1,1.4916746E-1,3E0,1E0,-1.156E3,2E0,2E0,1E0,8.933081E-1,6.8E-1,9E0,1E0,1E0,3.2442278E-1,-1.0245E3,6.0870206E-1,3.705984E5,7.9285717E-1,1E0,8E0,-1.907E3,7.062051E-1,-7.71E2,6.006575E-1,5E-1,-3.055E3,2E0,2.2382006E5,3.198535E5,5E0,2.123909E6,2.295E5,-1.606E3,2E0,2E0,1E0,-1.262E3,-2.342E3,1.5153489E5,1.275651E4,1.4805E4,-9.493333E2,6E-1,8.1031984E-1,2E0,3E0,-2.5E1,4.622E-2,-2.597E3,7.31E2,9.39807E5,1.0105605E5,-9.18E2,8.122275E3,2.205E5,1E0,1.06785E4,3.7112445E4,9.675E3,6.3470554E-1,2.5E1,-2.035E3,5.324895E4,7.801577E-2,-6.065705E-2,-9.05E2,6.1684255E-2,1.149E3,7.371E4,7.2508E-2,1.309E3,2.1579531E-1,-2.825E3,4.5090097E-1,-2.068E3,-8.18E2,2.475E5,3E0,3E0,-6.73E2,4.1E1,1E0,9.230769E-1,4.3333334E-1,2.0246E-2,3.2965505E-1,6.255E5,2.133536E5,3E0,2.7516195E4,3.7910047E-1,1.0265152E4,3.4252888E-1,3E0,1.084995E5,-7.3E1,2.8E1,3E0,-1.8904117E-1,4.7917703E4,-7.17E2,-7.625E2,-2.671E3,2.425365E5,6.8E-1,3.42E5,6.161217E-1,1.0125E5,5.2767E4,8.0056566E-1,3.5625E3,-1.27E3,7.3017E4,2.025E6,3.542E-1,7E0,5.714286E-1,5.2E1,1.35E5,-2.602E3,2.6856012E7,4E0,-1.3935015E4,-3.538E3,6E0,7.050752E-2,1.1699567E-1,-8.7482646E-2,6.726942E-2,1.4208654E-1,1.17941454E-1,-8.197866E-2,1.0266644E-1,2.270799E-2,-1.8424237E-1,-1.7425305E-1,4.5059633E-2,3.2136254E-2,9.8036036E-2,1.673084E-2,-9.615558E-2,6.0491987E-2,9.0532415E-2,7.322833E-2,-1.3473909E-1,1.3133191E-2,1.11111976E-1,-1.1317201E-2,4.5769144E-2,-1.3730906E-1,6.681461E-2,-7.543195E-3,-1.100622E-1,-2.0668248E-2,5.8678694E-2,-1.7471882E-2,3.3829205E-2,4.0000398E-2,8.9526586E-2,-3.299723E-2,2.4716256E-2,-3.9616574E-2,2.3615127E-2,6.494587E-2,1.0166571E-1,6.718012E-2,2.2837417E-2,2.8604088E-2,8.7386645E-2,1.1173547E-3,-5.1808257E-2,-5.1450206E-4,-1.5909228E-1,-2.1313438E-2,-9.516107E-2,1.9185869E-2,-2.5983715E-2,3.132715E-2,1.0322104E-1,1.805722E-2,-1.0555922E-1,6.941764E-2,-7.312236E-2,4.988722E-3,-1.2348161E-1,4.7817756E-3,-4.9208645E-2,-8.341401E-2,-1.1608088E-1,-8.159558E-3,-6.728799E-2,-8.649447E-2,1.3567631E-1,-1.2847978E-1,-9.722978E-2,-3.4215238E-2,6.426563E-2,9.116976E-2,-1.7668985E-1,1.3369325E-1,1.6442597E-2,-3.552442E-2,-1.9134422E-1,-1.4295462E-1,-1.8601056E-2,-9.997382E-2,-1.385977E-2,-1.4051421E-1,6.5113166E-3,1.1356427E-2,-5.7200532E-2,-2.5112513E-2,-7.1229294E-2,8.894153E-2,-8.694421E-2,-1.42564E-1,7.230399E-2,-1.3094E-1,2.9488076E-2,-1.3131055E-1,-5.1016033E-2,-1.3572796E-1,-6.80887E-2,1.716121E-2,-4.3642353E-2,2.7639208E-2,-7.919917E-2,-1.6553879E-2,-1.6512607E-1,8.93453E-2,-4.7779843E-2,-1.4245765E-2,-1.5589091E-1,7.292998E-2,-6.986146E-3,-1.7061366E-1,-6.6856496E-2,-8.200908E-2,-4.5884545E-3,-1.6433212E-1,1.0744337E-1,9.917321E-2,-9.7812496E-2,-1.7414205E-1,4.0645476E-2,-6.612524E-2,-1.8842095E-1,1.0832354E-1,-5.1803138E-2],"split_indices":[40,40,398,40,72,6,338,72,72,6,401,368,21,6,6,314,127,314,187,401,7,21,18,40,169,40,368,18,72,98,320,379,146,188,340,30,30,71,175,338,383,385,327,198,368,314,29,29,428,17,20,132,100,383,340,397,12,7,327,381,327,40,439,87,385,40,0,340,40,132,322,17,132,393,338,314,340,127,9,29,30,127,439,71,401,368,17,40,188,383,29,383,40,381,40,72,188,170,439,368,0,187,20,89,169,146,368,188,40,9,320,314,352,388,100,100,48,334,401,37,98,18,346,379,396,18,37,0,0,0,0,0,0,0,0,0,0,0,0,0,0,0,0,0,0,0,0,0,0,0,0,0,0,0,0,0,0,0,0,0,0,0,0,0,0,0,0,0,0,0,0,0,0,0,0,0,0,0,0,0,0,0,0,0,0,0,0,0,0,0,0,0,0,0,0,0,0,0,0,0,0,0,0,0,0,0,0,0,0,0,0,0,0,0,0,0,0,0,0,0,0,0,0,0,0,0,0,0,0,0,0,0,0,0,0,0,0,0,0,0,0,0,0,0,0,0,0,0,0,0,0],"split_type":[0,0,0,0,0,0,0,0,0,0,0,0,0,0,0,0,0,0,0,0,0,0,0,0,0,0,0,0,0,0,0,0,0,0,0,0,0,0,0,0,0,0,0,0,0,0,0,0,0,0,0,0,0,0,0,0,0,0,0,0,0,0,0,0,0,0,0,0,0,0,0,0,0,0,0,0,0,0,0,0,0,0,0,0,0,0,0,0,0,0,0,0,0,0,0,0,0,0,0,0,0,0,0,0,0,0,0,0,0,0,0,0,0,0,0,0,0,0,0,0,0,0,0,0,0,0,0,0,0,0,0,0,0,0,0,0,0,0,0,0,0,0,0,0,0,0,0,0,0,0,0,0,0,0,0,0,0,0,0,0,0,0,0,0,0,0,0,0,0,0,0,0,0,0,0,0,0,0,0,0,0,0,0,0,0,0,0,0,0,0,0,0,0,0,0,0,0,0,0,0,0,0,0,0,0,0,0,0,0,0,0,0,0,0,0,0,0,0,0,0,0,0,0,0,0,0,0,0,0,0,0,0,0,0,0,0,0,0,0,0,0,0,0,0,0,0,0,0,0,0,0],"sum_hessian":[6.91215E4,4.756571E4,2.155579E4,1.1796839E4,3.576887E4,1.5176314E4,6.3794756E3,4.837253E3,6.959586E3,2.8749367E4,7.0195034E3,9.827618E3,5.3486963E3,5.0351997E3,1.3442756E3,3.6129597E3,1.2242932E3,5.160554E3,1.7990317E3,1.715964E4,1.1589727E4,3.567391E3,3.4521123E3,9.360909E3,4.667085E2,1.2878263E3,4.06087E3,3.2268567E3,1.8083434E3,7.842484E2,5.600272E2,1.110984E3,2.5019758E3,6.379723E1,1.160496E3,3.4262422E3,1.7343121E3,1.5247712E3,2.742605E2,6.1819814E3,1.097766E4,6.130021E3,5.459705E3,6.2562054E2,2.9417708E3,1.0664229E3,2.3856895E3,6.1074053E3,3.2535042E3,4.0937793E2,5.7330574E1,3.3350598E2,9.5432025E2,3.7706294E3,2.9024075E2,7.885643E2,2.4382922E3,1.4590126E3,3.4933075E2,2.7132938E2,5.1291907E2,5.2151636E2,3.8510883E1,9.559888E2,1.5499527E2,2.4930444E3,8.931285E0,3.6707348E1,2.708988E1,4.7974743E1,1.1125212E3,2.0982243E2,3.2164197E3,1.3781503E2,1.5964972E3,5.636091E2,9.611622E2,1.0491004E2,1.6935045E2,2.0319254E3,4.150056E3,4.0769631E3,6.900697E3,1.807766E3,4.322255E3,4.5042065E3,9.5549884E2,1.1090566E2,5.1471484E2,2.487417E3,4.5435367E2,9.9223865E2,7.418418E1,3.5204803E2,2.0336414E3,5.033823E3,1.0735822E3,5.272532E2,2.726251E3,3.88602E2,2.0775953E1,1.7240648E1,4.0089928E1,6.001945E1,2.7348654E2,4.3508917E2,5.1923114E2,8.724452E2,2.898184E3,6.5456406E1,2.2478433E2,3.166782E2,4.718861E2,3.3312167E2,2.1051707E3,6.7252057E2,7.86492E2,2.0429494E2,1.4503581E2,2.610898E2,1.0239553E1,4.3648578E2,7.643326E1,2.6022974E2,2.612866E2,1.8388323E1,2.0122562E1,2.0774506E2,7.482437E2,2.3174006E1,1.3182126E2,8.444484E2,1.6485961E3,6.1647024E0,3.0542645E1,1.1069399E1,1.6020481E1,7.6090713E0,4.0365673E1,6.583089E1,1.0466903E3,1.7926292E2,3.0559513E1,1.6676556E3,1.5487639E3,1.2702998E2,1.0785047E1,2.5611877E1,1.5708853E3,2.5259828E2,3.110108E2,1.3088227E1,9.480739E2,4.5954967E1,5.8955074E1,7.338109E1,9.596936E1,1.7027388E3,3.2918655E2,3.3254978E3,8.2455817E2,5.2317456E2,3.5537886E3,5.455042E3,1.4456547E3,5.069434E2,1.3008226E3,2.838117E3,1.4841381E3,4.019927E3,4.8427945E2,5.61409E2,3.9408987E2,2.196337E1,8.89423E1,3.6676767E2,1.4794719E2,8.517164E2,1.6357007E3,3.5684247E2,9.751121E1,4.369034E1,9.485483E2,3.2509712E1,4.167447E1,6.732115E1,2.8472687E2,3.2079343E2,1.712848E3,3.7777065E3,1.2561166E3,2.841603E2,7.894219E2,5.202534E2,6.999756E0,2.0660747E3,6.6017615E2,3.3787164E2,5.0730324E1,1.0314327E1,6.926322E0,3.455018E1,5.539747E0,1.9554314E1,4.046514E1,3.8180157E1,2.3530638E2,3.7116974E2,6.391943E1,4.983443E2,2.088681E1,6.392579E2,2.3318738E2,8.766884E2,2.0214957E3,1.031104E1,5.5145367E1,1.2819149E1,2.119652E2,3.006046E2,1.607357E1,7.706455E1,3.9482153E2,1.10513596E2,2.2260808E2,2.1842165E2,1.886749E3,6.3613995E2,3.6380615E1,7.6306476E2,2.3427256E1,2.1309835E1,1.829851E2,3.3815407E1,1.1122041E2,2.128778E2,4.8212013E1,5.1609807E0,5.0785723E0,8.946614E1,3.4701965E2,7.084691E1,5.586348E0,2.5338309E2,6.846658E0,6.111726E0,2.5517488E2,5.078366E0,1.33099575E1,1.1593026E1,8.529535E0],"tree_param":{"num_deleted":"0","num_feature":"441","num_nodes":"251","size_leaf_vector":"1"}},{"base_weights":[-6.954719E-5,4.9972063E-1,-3.649835E-1,6.983632E-1,-7.868414E-2,3.9652905E-1,-5.482953E-1,1.0053712E0,5.1189846E-1,2.8917918E-1,-3.1620705E-1,4.9945852E-1,-1.09084465E-1,-3.254293E-1,-8.351014E-1,1.268691E0,8.7998E-1,8.7560487E-1,3.295398E-1,7.5583327E-1,1.5082037E-1,-4.6342692E-1,1.950832E-3,8.274351E-1,3.7627503E-1,2.2903752E-1,-4.0338895E-1,-7.609575E-2,-5.733091E-1,-6.689929E-1,-1.0424242E0,1.43331E0,1.183294E0,9.2453146E-1,2.3449537E-1,1.0992377E0,7.584366E-1,4.103794E-1,-3.2260576E-1,7.9735774E-1,-1.3126242E0,1.3076898E-2,6.016401E-1,1.6460481E-1,-5.335465E-1,-1.5165165E-1,5.586203E-1,9.4153595E-1,5.139472E-1,1.8283677E-1,6.243183E-1,7.5732535E-1,2.1829652E-2,-2.1128936E-1,-9.8334E-1,2.332273E-2,-5.6133485E-1,-4.7167218E-1,-1.0612879E0,-4.4574803E-1,-8.203293E-1,-7.766393E-1,-1.1630473E0,1.4605067E0,9.1525114E-1,1.1975678E0,9.509896E-2,1.0698391E0,7.5185955E-1,6.714175E-1,-2.1018755E-1,4.510743E-1,1.1263812E0,8.1848234E-1,2.847973E-1,6.006914E-1,2.5916225E-1,-6.3368154E-1,6.090977E-2,9.1762674E-1,2.999189E-1,-5.5915177E-2,-1.6975386E-1,1.4875597E-1,-4.34624E-1,7.903455E-1,2.8574634E-1,2.413461E-1,-1.3800665E0,-4.6827796E-1,-1.0012982E0,-2.0037819E-2,-6.0455763E-1,4.070504E-1,1.26915E0,9.877945E-1,2.9551363E-1,6.4720875E-1,-4.908254E-2,8.427497E-1,1.3130018E-1,7.4486434E-1,2.2004229E-1,8.8623214E-1,-6.964431E-1,2.9444337E-1,-4.474163E-1,4.9404448E-1,-3.428017E-1,-1.4420471E0,-1.7206775E-1,1.9887562E-1,-1.5761368E-1,-1.7282109E-1,-8.2102215E-1,-2.026463E-1,-6.504917E-1,-8.086613E-1,-1.3052814E0,-8.0052596E-1,-2.8356433E-1,-7.076568E-1,-1.0363533E0,-6.6297215E-1,-1.1430907E0,-4.3502665E-1,-1.2050576E0,1.4793469E-1,8.917078E-2,1.1497599E-1,-7.844763E-2,1.2241005E-1,6.495353E-2,-1.1526402E-1,7.9591356E-2,1.3245009E-1,1.0117632E-1,8.307645E-2,2.9296694E-2,9.444674E-2,9.286735E-3,2.0705609E-2,-1.1480973E-1,6.7655146E-2,-1.1274995E-1,9.455148E-2,1.1939813E-1,7.2095826E-2,1.0744076E-1,3.6140617E-2,-1.829505E-1,6.699995E-2,3.4186938E-3,5.317971E-2,9.494924E-3,-2.2381382E-2,-9.950707E-2,5.578023E-2,-1.4206015E-2,9.776761E-2,1.0521798E-2,-1.2680975E-1,4.6707284E-2,2.5287578E-2,-6.2629096E-2,-2.6201937E-2,-1.4265767E-1,8.7578975E-2,-3.3588037E-2,-2.8738169E-2,6.325449E-2,4.761862E-2,-2.262544E-2,-1.7369305E-1,-5.756694E-2,-3.3038735E-2,-7.381551E-2,-1.12199046E-1,9.388551E-3,6.184474E-3,-7.9628885E-2,-1.8504362E-1,-4.6496335E-2,7.186108E-2,4.00114E-3,1.4035393E-1,1.0319813E-2,1.0096548E-1,-7.5027035E-3,-1.3265888E-1,5.2111667E-2,-4.5935787E-2,7.449322E-2,-3.570265E-2,1.0371061E-1,-8.999519E-2,9.059945E-2,1.6687317E-2,-8.378875E-2,6.097264E-2,9.095277E-2,-5.3958412E-2,3.9641213E-2,-4.677107E-2,9.971083E-2,-1.8250033E-1,6.4987555E-2,4.374847E-2,-9.222593E-2,4.119365E-2,-8.3725736E-2,-1.3762127E-1,7.862655E-2,6.901029E-2,-4.169323E-2,-1.5210911E-2,-1.619226E-1,-1.7794603E-1,1.0766685E-2,-4.814152E-3,4.1197907E-2,6.0762544E-3,-3.7157338E-2,-8.401956E-2,4.62822E-3,-9.6489154E-2,-4.0657688E-2,-5.337857E-2,-2.2240896E-3,-5.269624E-2,-1.0496169E-1,-9.15828E-2,-2.1705791E-2,-1.3741499E-1,-4.0642362E-2,-9.021243E-2,-1.2967298E-3,-2.091181E-2,-1.17175356E-1,-7.7090956E-2,-1.9281806E-2,5.8128156E-2,-1.0539613E-1,-3.9767172E-2,-8.345451E-2,-1.23339295E-1,-2.8180217E-2,-9.819016E-2,-6.320619E-3,-1.1396106E-1,-1.4086917E-1],"categories":[],"categories_nodes":[],"categories_segments":[],"categories_sizes":[],"default_left":[0,0,0,0,0,0,0,0,0,0,0,0,0,0,0,0,0,0,0,0,0,0,0,0,0,0,0,0,0,0,0,0,0,0,0,0,0,0,0,0,0,0,0,0,0,0,0,0,0,0,0,0,0,0,0,0,0,0,0,0,0,0,0,0,0,0,0,0,0,0,0,0,0,0,0,0,0,0,0,0,0,0,0,0,0,0,0,0,0,0,0,0,0,0,0,0,0,0,0,0,0,0,0,0,0,0,0,0,0,0,0,0,0,0,0,0,0,0,0,0,0,0,0,0,0,0,0,0,0,0,0,0,0,0,0,0,0,0,0,0,0,0,0,0,0,0,0,0,0,0,0,0,0,0,0,0,0,0,0,0,0,0,0,0,0,0,0,0,0,0,0,0,0,0,0,0,0,0,0,0,0,0,0,0,0,0,0,0,0,0,0,0,0,0,0,0,0,0,0,0,0,0,0,0,0,0,0,0,0,0,0,0,0,0,0,0,0,0,0,0,0,0,0,0,0,0,0,0,0,0,0,0,0,0,0,0,0,0,0,0,0,0,0,0,0,0,0,0,0,0,0],"id":2,"left_children":[1,3,5,7,9,11,13,15,17,19,21,23,25,27,29,31,33,35,37,39,41,43,45,47,49,51,53,55,57,59,61,63,65,67,69,71,73,75,77,79,81,83,85,87,89,91,93,95,97,99,101,103,105,107,109,111,113,115,117,119,121,123,125,127,129,131,133,135,137,139,141,143,145,147,149,151,153,155,157,159,161,-1,-1,163,165,167,169,171,173,175,177,179,181,183,185,187,189,191,193,195,197,199,201,203,205,207,209,211,213,215,217,219,221,223,225,227,229,231,233,235,237,239,241,243,245,247,249,-1,-1,-1,-1,-1,-1,-1,-1,-1,-1,-1,-1,-1,-1,-1,-1,-1,-1,-1,-1,-1,-1,-1,-1,-1,-1,-1,-1,-1,-1,-1,-1,-1,-1,-1,-1,-1,-1,-1,-1,-1,-1,-1,-1,-1,-1,-1,-1,-1,-1,-1,-1,-1,-1,-1,-1,-1,-1,-1,-1,-1,-1,-1,-1,-1,-1,-1,-1,-1,-1,-1,-1,-1,-1,-1,-1,-1,-1,-1,-1,-1,-1,-1,-1,-1,-1,-1,-1,-1,-1,-1,-1,-1,-1,-1,-1,-1,-1,-1,-1,-1,-1,-1,-1,-1,-1,-1,-1,-1,-1,-1,-1,-1,-1,-1,-1,-1,-1,-1,-1,-1,-1,-1,-1],"loss_changes":[1.2578539E4,3.3441543E3,5.564891E3,1.2397314E3,6.5028735E2,4.0258862E2,2.0534238E3,2.6914844E2,8.9382153E2,1.8842653E2,2.1181805E2,2.5933313E2,1.3035968E2,1.1174946E3,4.8311426E2,3.53916E1,1.5933398E2,1.1711206E2,4.7357397E2,5.8383453E1,1.3993416E2,1.3623553E2,1.2249298E2,6.2250977E1,2.241377E2,6.673839E1,7.780594E1,4.3494122E2,4.492002E2,2.6323926E2,1.9938477E2,1.1292969E1,2.6956055E1,1.2940625E2,6.999933E1,2.6679688E1,8.3862915E1,2.2979688E2,1.18266815E2,3.8913116E1,2.9705448E0,1.049807E2,3.1212463E1,3.7231865E1,8.4444824E1,6.691493E1,3.2847786E1,3.8098755E1,3.53124E1,8.924403E1,9.961511E1,3.2807777E1,5.629661E1,4.908077E1,6.448895E1,2.3773639E2,1.545361E2,3.6095898E2,9.5236084E1,1.8127924E2,1.1242163E2,8.0599976E1,1.3083936E2,7.789551E0,1.9791336E1,2.421753E1,2.1598198E1,4.03042E1,8.5748535E1,2.85998E1,7.026961E1,2.3464735E1,1.6997437E1,6.471094E1,5.4797222E1,1.3885657E2,1.9937003E2,8.0838715E1,4.4932587E1,2.5607147E1,3.440893E1,0E0,0E0,1.0718281E2,6.844728E1,3.201111E1,3.9694397E1,3.276512E1,3.272005E0,9.065637E1,4.500708E1,5.54111E1,4.310177E1,2.9338547E1,8.31588E0,2.7918823E1,3.2627266E1,4.146643E1,3.078288E1,2.1771545E1,8.420126E1,3.4531372E1,6.340883E1,2.4218811E1,2.3294424E1,4.8841175E1,5.452859E1,4.6593895E1,3.4362434E1,2.512088E1,2.8954725E1,1.9998396E2,1.7223679E2,9.003537E1,5.438214E1,1.7911667E2,2.2173108E2,4.8628235E1,4.8533203E1,7.9129944E1,1.430017E2,9.945117E1,4.594153E1,6.763483E1,3.5510193E1,4.7903927E1,5.250586E1,0E0,0E0,0E0,0E0,0E0,0E0,0E0,0E0,0E0,0E0,0E0,0E0,0E0,0E0,0E0,0E0,0E0,0E0,0E0,0E0,0E0,0E0,0E0,0E0,0E0,0E0,0E0,0E0,0E0,0E0,0E0,0E0,0E0,0E0,0E0,0E0,0E0,0E0,0E0,0E0,0E0,0E0,0E0,0E0,0E0,0E0,0E0,0E0,0E0,0E0,0E0,0E0,0E0,0E0,0E0,0E0,0E0,0E0,0E0,0E0,0E0,0E0,0E0,0E0,0E0,0E0,0E0,0E0,0E0,0E0,0E0,0E0,0E0,0E0,0E0,0E0,0E0,0E0,0E0,0E0,0E0,0E0,0E0,0E0,0E0,0E0,0E0,0E0,0E0,0E0,0E0,0E0,0E0,0E0,0E0,0E0,0E0,0E0,0E0,0E0,0E0,0E0,0E0,0E0,0E0,0E0,0E0,0E0,0E0,0E0,0E0,0E0,0E0,0E0,0E0,0E0,0E0,0E0,0E0,0E0,0E0,0E0,0E0,0E0],"parents":[2147483647,0,0,1,1,2,2,3,3,4,4,5,5,6,6,7,7,8,8,9,9,10,10,11,11,12,12,13,13,14,14,15,15,16,16,17,17,18,18,19,19,20,20,21,21,22,22,23,23,24,24,25,25,26,26,27,27,28,28,29,29,30,30,31,31,32,32,33,33,34,34,35,35,36,36,37,37,38,38,39,39,40,40,41,41,42,42,43,43,44,44,45,45,46,46,47,47,48,48,49,49,50,50,51,51,52,52,53,53,54,54,55,55,56,56,57,57,58,58,59,59,60,60,61,61,62,62,63,63,64,64,65,65,66,66,67,67,68,68,69,69,70,70,71,71,72,72,73,73,74,74,75,75,76,76,77,77,78,78,79,79,80,80,83,83,84,84,85,85,86,86,87,87,88,88,89,89,90,90,91,91,92,92,93,93,94,94,95,95,96,96,97,97,98,98,99,99,100,100,101,101,102,102,103,103,104,104,105,105,106,106,107,107,108,108,109,109,110,110,111,111,112,112,113,113,114,114,115,115,116,116,117,117,118,118,119,119,120,120,121,121,122,122,123,123,124,124,125,125,126,126],"right_children":[2,4,6,8,10,12,14,16,18,20,22,24,26,28,30,32,34,36,38,40,42,44,46,48,50,52,54,56,58,60,62,64,66,68,70,72,74,76,78,80,82,84,86,88,90,92,94,96,98,100,102,104,106,108,110,112,114,116,118,120,122,124,126,128,130,132,134,136,138,140,142,144,146,148,150,152,154,156,158,160,162,-1,-1,164,166,168,170,172,174,176,178,180,182,184,186,188,190,192,194,196,198,200,202,204,206,208,210,212,214,216,218,220,222,224,226,228,230,232,234,236,238,240,242,244,246,248,250,-1,-1,-1,-1,-1,-1,-1,-1,-1,-1,-1,-1,-1,-1,-1,-1,-1,-1,-1,-1,-1,-1,-1,-1,-1,-1,-1,-1,-1,-1,-1,-1,-1,-1,-1,-1,-1,-1,-1,-1,-1,-1,-1,-1,-1,-1,-1,-1,-1,-1,-1,-1,-1,-1,-1,-1,-1,-1,-1,-1,-1,-1,-1,-1,-1,-1,-1,-1,-1,-1,-1,-1,-1,-1,-1,-1,-1,-1,-1,-1,-1,-1,-1,-1,-1,-1,-1,-1,-1,-1,-1,-1,-1,-1,-1,-1,-1,-1,-1,-1,-1,-1,-1,-1,-1,-1,-1,-1,-1,-1,-1,-1,-1,-1,-1,-1,-1,-1,-1,-1,-1,-1,-1,-1],"split_conditions":[4.6444517E-1,5.388627E-1,3.1703177E-1,2.0717677E-1,2.4688324E-1,5.2598524E-1,5.388627E-1,2.881296E-1,3.1703177E-1,7.388141E-2,2.6923078E-1,1.3937578E-1,6.090051E-1,6.1739177E-1,6.458688E-1,6.0882274E-2,5.5327445E-1,1.5474363E-1,5.2598524E-1,1.72E2,6.666667E-1,3.002762E-1,-5.8365216E2,6.543593E-1,5.0010455E-1,1.4375806E-1,1.29285E4,5.1290786E-1,5.884477E-1,8.5064936E-1,9.9498695E-1,1E0,3.75E4,1.22342005E-1,8.2758623E-1,-5.96E2,5.328979E-1,1.5E1,9E0,5.6E1,2.7457627E-2,5.6E1,2.6E1,2.0853E4,6.170058E-1,-1.86E2,8.1E1,1E0,1.30905E4,1.8397696E-1,6.677973E-1,1.7955E4,8.6153847E-1,1.0615563E-1,2E0,8.933081E-1,8.035714E-1,8.250988E-1,8.7916666E-1,-2.578E3,7.062051E-1,5.196672E-1,3.002762E-1,9E1,1E0,5.810664E-1,4E0,6.363636E-1,5.7E1,3.51E5,6.7725E3,1.0638298E-2,-8.25E2,1.1619047E1,4.08E-2,5.7E1,7.8699636E-1,7.1727E4,7.2E-1,5.3997797E-1,-7.33E2,-5.5915177E-2,-1.6975386E-1,5.196672E-1,2.4E1,5.1290786E-1,4.9735395E4,3E0,4.47165E4,4.0117175E5,1.3947256E7,6.099633E-1,-2.05E1,3.582316E-1,5.502989E3,2.1455464E5,-8.45E2,-2.703E3,6E0,3.1659375E3,9.925E-1,1E0,5.4E0,-2.695E3,-1.24E2,3.8002273E4,1.00017E4,2.76462E5,-1.068E3,-1.022E3,-9.13E2,-5.7E1,1.8746531E5,-1.20375E3,1.2219512E1,-2.328E3,7.198338E-1,5.2564225E5,3E0,2E0,6.9369936E-1,1.7666666E1,1.3785046E-1,6.3470554E-1,4.1666666E-1,-7.28E2,5.7398814E-1,1.4793469E-1,8.917078E-2,1.1497599E-1,-7.844763E-2,1.2241005E-1,6.495353E-2,-1.1526402E-1,7.9591356E-2,1.3245009E-1,1.0117632E-1,8.307645E-2,2.9296694E-2,9.444674E-2,9.286735E-3,2.0705609E-2,-1.1480973E-1,6.7655146E-2,-1.1274995E-1,9.455148E-2,1.1939813E-1,7.2095826E-2,1.0744076E-1,3.6140617E-2,-1.829505E-1,6.699995E-2,3.4186938E-3,5.317971E-2,9.494924E-3,-2.2381382E-2,-9.950707E-2,5.578023E-2,-1.4206015E-2,9.776761E-2,1.0521798E-2,-1.2680975E-1,4.6707284E-2,2.5287578E-2,-6.2629096E-2,-2.6201937E-2,-1.4265767E-1,8.7578975E-2,-3.3588037E-2,-2.8738169E-2,6.325449E-2,4.761862E-2,-2.262544E-2,-1.7369305E-1,-5.756694E-2,-3.3038735E-2,-7.381551E-2,-1.12199046E-1,9.388551E-3,6.184474E-3,-7.9628885E-2,-1.8504362E-1,-4.6496335E-2,7.186108E-2,4.00114E-3,1.4035393E-1,1.0319813E-2,1.0096548E-1,-7.5027035E-3,-1.3265888E-1,5.2111667E-2,-4.5935787E-2,7.449322E-2,-3.570265E-2,1.0371061E-1,-8.999519E-2,9.059945E-2,1.6687317E-2,-8.378875E-2,6.097264E-2,9.095277E-2,-5.3958412E-2,3.9641213E-2,-4.677107E-2,9.971083E-2,-1.8250033E-1,6.4987555E-2,4.374847E-2,-9.222593E-2,4.119365E-2,-8.3725736E-2,-1.3762127E-1,7.862655E-2,6.901029E-2,-4.169323E-2,-1.5210911E-2,-1.619226E-1,-1.7794603E-1,1.0766685E-2,-4.814152E-3,4.1197907E-2,6.0762544E-3,-3.7157338E-2,-8.401956E-2,4.62822E-3,-9.6489154E-2,-4.0657688E-2,-5.337857E-2,-2.2240896E-3,-5.269624E-2,-1.0496169E-1,-9.15828E-2,-2.1705791E-2,-1.3741499E-1,-4.0642362E-2,-9.021243E-2,-1.2967298E-3,-2.091181E-2,-1.17175356E-1,-7.7090956E-2,-1.9281806E-2,5.8128156E-2,-1.0539613E-1,-3.9767172E-2,-8.345451E-2,-1.23339295E-1,-2.8180217E-2,-9.819016E-2,-6.320619E-3,-1.1396106E-1,-1.4086917E-1],"split_indices":[39,40,40,39,39,38,40,40,40,39,398,40,39,39,39,39,38,40,38,123,398,38,391,39,314,40,327,38,38,401,392,67,104,39,401,126,38,402,438,37,314,37,402,156,38,339,365,5,327,38,39,327,401,40,74,401,401,401,401,338,40,38,38,211,123,38,310,401,37,355,327,430,340,438,54,37,401,320,401,38,126,0,0,38,123,38,385,408,200,380,346,38,343,39,395,103,340,169,118,352,43,418,438,169,339,103,318,145,197,339,170,427,380,83,438,338,39,382,425,16,38,438,38,40,433,170,38,0,0,0,0,0,0,0,0,0,0,0,0,0,0,0,0,0,0,0,0,0,0,0,0,0,0,0,0,0,0,0,0,0,0,0,0,0,0,0,0,0,0,0,0,0,0,0,0,0,0,0,0,0,0,0,0,0,0,0,0,0,0,0,0,0,0,0,0,0,0,0,0,0,0,0,0,0,0,0,0,0,0,0,0,0,0,0,0,0,0,0,0,0,0,0,0,0,0,0,0,0,0,0,0,0,0,0,0,0,0,0,0,0,0,0,0,0,0,0,0,0,0,0,0],"split_type":[0,0,0,0,0,0,0,0,0,0,0,0,0,0,0,0,0,0,0,0,0,0,0,0,0,0,0,0,0,0,0,0,0,0,0,0,0,0,0,0,0,0,0,0,0,0,0,0,0,0,0,0,0,0,0,0,0,0,0,0,0,0,0,0,0,0,0,0,0,0,0,0,0,0,0,0,0,0,0,0,0,0,0,0,0,0,0,0,0,0,0,0,0,0,0,0,0,0,0,0,0,0,0,0,0,0,0,0,0,0,0,0,0,0,0,0,0,0,0,0,0,0,0,0,0,0,0,0,0,0,0,0,0,0,0,0,0,0,0,0,0,0,0,0,0,0,0,0,0,0,0,0,0,0,0,0,0,0,0,0,0,0,0,0,0,0,0,0,0,0,0,0,0,0,0,0,0,0,0,0,0,0,0,0,0,0,0,0,0,0,0,0,0,0,0,0,0,0,0,0,0,0,0,0,0,0,0,0,0,0,0,0,0,0,0,0,0,0,0,0,0,0,0,0,0,0,0,0,0,0,0,0,0,0,0,0,0,0,0,0,0,0,0,0,0,0,0,0,0,0,0],"sum_hessian":[6.8966695E4,2.910449E4,3.98622E4,2.1664133E4,7.4403584E3,7.7337124E3,3.2128488E4,8.184398E3,1.3479734E4,2.9191345E3,4.5212236E3,6.4256357E3,1.3080767E3,1.8080756E4,1.4047732E4,2.6372E3,5.547198E3,4.5002935E3,8.979441E3,6.665486E2,2.2525862E3,3.0906455E3,1.4305782E3,1.7528767E3,4.672759E3,6.0882666E2,6.9925E2,9.014599E3,9.066158E3,7.8014116E3,6.2463203E3,8.953852E2,1.7418147E3,5.188645E3,3.58553E2,1.5443308E3,2.955963E3,7.989445E3,9.8999634E2,6.540333E2,1.2515264E1,1.7261937E3,5.2639233E2,3.1027692E2,2.7803687E3,1.1217734E3,3.0880475E2,1.2836576E3,4.6921912E2,2.6263325E3,2.0464265E3,1.7077403E2,4.3805264E2,5.262893E2,1.7296068E2,7.482495E3,1.5321031E3,7.504977E3,1.5611812E3,3.1534805E3,4.647931E3,1.9522064E3,4.2941143E3,8.48996E2,4.6389202E1,1.7191642E3,2.26505E1,2.81476E3,2.3738853E3,1.805975E2,1.779555E2,6.278157E1,1.4815492E3,2.6227368E3,3.3322617E2,3.5361306E3,4.453314E3,5.4626196E2,4.4373438E2,5.260115E2,1.2802184E2,5.0609956E0,7.454268E0,1.3252383E3,4.0095554E2,3.2859668E2,1.9779564E2,2.9639536E2,1.3881555E1,2.4416677E3,3.3870105E2,8.699976E2,2.5177585E2,2.5580865E2,5.2996105E1,1.1973893E3,8.6268326E1,3.792955E2,8.992362E1,1.8913637E2,2.437196E3,1.5757351E3,4.7069135E2,1.572233E2,1.3550727E1,2.7731558E2,1.6073708E2,8.227438E1,4.4401495E2,1.0999189E2,6.296879E1,3.7976956E3,3.6847996E3,6.144702E2,9.1763293E2,2.9975027E3,4.507474E3,7.691407E2,7.9204047E2,9.8809045E2,2.1653901E3,3.0574963E3,1.5904347E3,1.4921694E3,4.60037E2,2.348914E2,4.0592227E3,8.20227E2,2.876897E1,4.1049263E1,5.339939E0,1.6385988E3,8.056547E1,7.9145746E0,1.4735925E1,5.186564E2,2.2961035E3,2.0249006E3,3.489847E2,1.2226256E2,5.8334957E1,1.23703384E2,5.4252125E1,5.5434887E1,7.3466816E0,4.0716183E2,1.0743875E3,1.9018324E3,7.2090436E2,3.2237442E2,1.0851727E1,3.1505044E3,3.8562637E2,1.6731785E3,2.7801355E3,2.567217E2,2.8954025E2,1.2818219E2,3.155522E2,4.8961786E2,3.639361E1,1.1698226E1,1.16323616E2,1.168884E3,1.5635416E2,3.4260477E2,5.8350765E1,3.0563147E2,2.2965218E1,7.463058E1,1.23165054E2,1.9729218E2,9.910318E1,8.812618E0,5.068937E0,1.6174661E3,8.2420154E2,3.0505832E2,3.364274E1,7.8781555E2,8.2182106E1,2.4133003E1,2.2764284E2,1.3784302E2,1.1796564E2,4.733629E1,5.6598167E0,1.1733065E3,2.408274E1,9.937414E0,7.633091E1,3.0478083E1,3.488174E2,7.05838E1,1.933982E1,6.160301E0,1.8297607E2,2.351707E3,8.548904E1,8.680423E2,7.076929E2,8.830436E1,3.82387E2,1.1657053E1,1.4556625E2,7.178093E0,6.3726335E0,2.487158E2,2.8599771E1,5.0144188E1,1.1059288E2,1.0616669E1,7.1657715E1,2.9176231E1,4.148387E2,1.3507808E1,9.648408E1,8.539341E0,5.4429447E1,1.7592498E3,2.0384458E3,1.8239331E3,1.8608666E3,1.5117284E2,4.632974E2,6.8018665E2,2.3744627E2,1.056432E3,1.9410707E3,3.4439055E3,1.0635687E3,6.5071765E2,1.1842305E2,7.351835E2,5.6856956E1,8.7505884E2,1.130316E2,1.9990677E3,1.6632236E2,2.722513E3,3.3498343E2,1.6780664E1,1.573654E3,5.873216E2,9.0484784E2,4.1599026E2,4.404672E1,9.4402725E1,1.4048868E2,3.0769148E3,9.82308E2],"tree_param":{"num_deleted":"0","num_feature":"441","num_nodes":"251","size_leaf_vector":"1"}},{"base_weights":[-9.594463E-5,4.5167455E-1,-3.2990292E-1,6.297366E-1,-7.7708475E-2,2.1322311E-1,-5.402974E-1,9.096085E-1,4.6051806E-1,5.0595975E-1,-2.028491E-1,5.4198E-1,1.1365129E-2,-3.4757522E-1,-7.771707E-1,1.1085696E0,7.648058E-1,7.632527E-1,2.775062E-1,2.6324391E-2,6.374725E-1,-3.4740046E-1,9.54939E-2,6.653861E-1,2.3081169E-1,1.362877E-1,-5.1366657E-1,-1.8937643E-1,-6.852767E-1,-9.155434E-1,-5.6580716E-1,1.261438E0,1.0045254E0,8.6421186E-1,4.4582364E-1,1.0007995E0,6.612176E-1,3.515019E-1,-3.203353E-1,-1.7902382E-1,9.990262E-2,9.0528095E-1,3.558088E-1,3.4490767E-1,-4.141684E-1,-5.496784E-2,4.9387622E-1,4.710466E-1,7.925539E-1,3.9420268E-1,-3.8979962E-1,2.7137816E-1,-1.4509173E-1,-3.522746E-1,-9.152629E-1,-9.977093E-2,-6.604756E-1,-3.906186E-1,-8.121714E-1,-7.2955537E-1,-1.0779035E0,-4.6953297E-1,-1.0375096E0,1.2978357E0,9.794736E-1,9.2510805E-2,1.0270363E0,9.741739E-1,6.224093E-1,3.799792E-2,5.939392E-1,6.87416E-1,1.0559846E0,7.4765515E-1,3.3523175E-1,4.3758002E-1,-1.2115973E-1,-5.967067E-1,2.3469182E-2,-1.1377095E0,1.9169205E-1,1.0041548E0,5.6506105E-2,4.7839895E-1,-4.897085E-1,4.1697562E-1,-1.3050164E0,-4.6791735E-1,2.8905654E-1,-1.1520862E-1,5.555003E-1,6.890556E-1,6.680529E-2,4.19889E-3,5.697413E-1,8.7913334E-1,5.399548E-1,4.6079957E-1,-5.75036E-1,-5.0807667E-1,1.2508366E0,1.2476502E-1,5.2016217E-1,2.0633087E-2,-4.7033855E-1,-1.570541E-1,-7.823346E-1,-1.0157701E0,1.6067527E-1,-2.0133659E-1,2.340043E-1,-3.2261634E-1,-8.992187E-1,-8.3716065E-1,-2.4360172E-1,-6.8752795E-1,-1.0747848E0,-6.846585E-1,-1.2783972E0,-3.5013852E-1,-1.121162E0,-8.208339E-1,-3.5434574E-1,-1.0832647E0,-2.4876889E-2,1.4118437E-1,1.2144666E-1,-3.371478E-2,1.0658586E-1,3.5987556E-2,-1.7579019E-1,1.0592294E-1,4.8935667E-2,6.7344055E-2,1.0401495E-1,6.746293E-2,-3.6014404E-2,5.759436E-2,-3.413124E-2,6.257193E-2,-1.1283044E-1,7.9459846E-2,-6.3158564E-2,1.06542446E-1,-5.0413787E-2,6.7709856E-2,1.08943425E-1,4.12054E-2,-7.5963795E-2,5.173884E-2,8.913569E-3,-2.0929707E-2,6.6398434E-2,-3.6644574E-2,-1.2226973E-1,4.9494304E-2,-1.7296745E-2,4.612978E-2,-1.7723033E-1,-1.0739976E-1,2.7674178E-2,1.1672945E-1,7.2353E-2,7.408024E-2,-1.0252899E-1,-1.2225711E-1,5.2447546E-2,-5.343975E-3,-1.744885E-1,4.6393946E-2,-1.6657269E-1,-1.6634005E-1,-4.835303E-2,-1.0890831E-1,-4.0615138E-2,6.638403E-2,-2.4163162E-2,-4.445966E-2,2.9513494E-3,-1.09052956E-1,6.7296594E-2,7.807078E-2,-2.811788E-2,4.7869783E-2,-4.8366938E-2,7.64759E-2,-2.6602319E-2,7.6823965E-2,2.3798479E-2,9.270631E-2,2.952902E-2,6.147173E-2,-6.085186E-2,1.7098859E-2,6.6472314E-2,-1.2860915E-1,2.2435576E-2,-1.0360521E-2,-1.0176339E-1,6.406464E-2,1.5636005E-1,2.671526E-3,5.187146E-2,5.714647E-2,-2.0184612E-2,1.7985703E-2,-4.1132357E-2,-6.7058675E-2,1.3653043E-3,5.4016574E-3,-5.886943E-2,-1.1425231E-1,-3.391895E-2,3.3529665E-2,-1.0942688E-1,8.836636E-2,-1.2581979E-1,2.4976054E-2,-2.6913667E-2,4.1922983E-2,-8.141971E-3,-5.8112133E-2,1.6057862E-2,-9.852821E-2,-3.502856E-2,-6.255656E-2,-1.410109E-1,2.711021E-2,-3.4434978E-2,-7.362228E-2,-5.016935E-3,-2.3051484E-2,-1.1317431E-1,-7.337974E-2,-2.3133408E-2,-1.453141E-2,-1.4007872E-1,-1.4452721E-1,-1.6280143E-2,-1.1599016E-1,-7.179522E-2,-9.489652E-2,-3.720935E-2,-2.327609E-2,-6.2950015E-2,5.3798802E-2,-1.1082621E-1,9.7555295E-2,-1.0876709E-1],"categories":[],"categories_nodes":[],"categories_segments":[],"categories_sizes":[],"default_left":[0,0,0,0,0,0,0,0,0,0,0,0,0,0,0,0,0,0,0,0,0,0,0,0,0,0,0,0,0,0,0,0,0,0,0,0,0,0,0,0,0,0,0,0,0,0,0,0,0,0,0,0,0,0,0,0,0,0,0,0,0,0,0,0,0,0,0,0,0,0,0,0,0,0,0,0,0,0,0,0,0,0,0,0,0,0,0,0,0,0,0,0,0,0,0,0,0,0,0,0,0,0,0,0,0,0,0,0,0,0,0,0,0,0,0,0,0,0,0,0,0,0,0,0,0,0,0,0,0,0,0,0,0,0,0,0,0,0,0,0,0,0,0,0,0,0,0,0,0,0,0,0,0,0,0,0,0,0,0,0,0,0,0,0,0,0,0,0,0,0,0,0,0,0,0,0,0,0,0,0,0,0,0,0,0,0,0,0,0,0,0,0,0,0,0,0,0,0,0,0,0,0,0,0,0,0,0,0,0,0,0,0,0,0,0,0,0,0,0,0,0,0,0,0,0,0,0,0,0,0,0,0,0,0,0,0,0,0,0,0,0,0,0,0,0,0,0,0,0],"id":3,"left_children":[1,3,5,7,9,11,13,15,17,19,21,23,25,27,29,31,33,35,37,39,41,43,45,47,49,51,53,55,57,59,61,63,65,67,69,71,73,75,77,-1,79,81,83,85,87,89,91,93,95,97,99,101,103,105,107,109,111,113,115,117,119,121,123,125,127,129,131,133,135,137,139,141,143,145,147,149,151,153,155,157,159,161,163,165,167,169,171,173,175,177,179,181,183,185,187,189,191,193,195,197,199,201,203,205,207,209,211,213,215,217,219,221,223,225,227,229,231,233,235,237,239,241,243,245,247,-1,-1,-1,-1,-1,-1,-1,-1,-1,-1,-1,-1,-1,-1,-1,-1,-1,-1,-1,-1,-1,-1,-1,-1,-1,-1,-1,-1,-1,-1,-1,-1,-1,-1,-1,-1,-1,-1,-1,-1,-1,-1,-1,-1,-1,-1,-1,-1,-1,-1,-1,-1,-1,-1,-1,-1,-1,-1,-1,-1,-1,-1,-1,-1,-1,-1,-1,-1,-1,-1,-1,-1,-1,-1,-1,-1,-1,-1,-1,-1,-1,-1,-1,-1,-1,-1,-1,-1,-1,-1,-1,-1,-1,-1,-1,-1,-1,-1,-1,-1,-1,-1,-1,-1,-1,-1,-1,-1,-1,-1,-1,-1,-1,-1,-1,-1,-1,-1,-1,-1,-1,-1,-1,-1],"loss_changes":[1.0236456E4,2.7328071E3,4.5379917E3,1.0269971E3,5.3313763E2,7.358721E2,1.3064287E3,2.3462695E2,7.489424E2,8.127304E1,2.5922296E2,1.6183386E2,4.5075342E2,8.431466E2,3.7501807E2,5.3456055E1,1.4971533E2,1.2280493E2,3.729812E2,3.738448E1,7.596631E1,1.8729129E2,1.17652695E2,7.426172E1,1.2177905E2,2.1106079E2,8.529138E1,4.5374536E2,1.8794873E2,2.3349365E2,2.3033826E2,1.2988525E1,4.2035645E1,9.532617E1,6.803999E1,2.5710205E1,1.00237915E2,3.0523267E2,8.82722E1,0E0,3.0716503E1,4.339624E1,5.1497852E1,4.2954575E1,1.3972406E2,5.2478863E1,4.480446E1,5.5148773E1,3.9416016E1,6.1583374E1,4.9239594E1,1.367565E2,9.710728E1,7.9120995E1,4.104416E1,3.0628864E2,1.3827386E2,9.942436E1,1.1443335E2,8.830554E1,1.2995068E2,1.7059839E2,3.9853516E1,9.952881E0,1.8890472E1,2.5632055E1,3.4145996E1,4.8472168E1,5.8253967E1,6.1669064E1,4.594287E1,3.326445E1,1.965149E1,6.721814E1,6.3332573E1,1.7641565E2,8.015908E1,7.37798E1,3.8510887E1,1.9773623E1,2.7294075E1,2.0383942E1,4.1535595E1,3.4534554E1,3.4471638E1,3.427336E1,3.6616592E0,1.312027E2,5.2438293E1,6.1893013E1,2.5518845E1,3.304883E1,3.874953E1,4.334128E1,6.488541E1,3.769458E1,4.0574265E1,5.2451675E1,3.5257614E1,4.8192513E1,2.2677994E0,9.1203354E1,5.1624054E1,8.221527E1,5.8944427E1,5.9290398E1,4.6609146E1,3.7049744E1,3.5128696E1,2.1191391E2,1.2319462E2,8.913238E1,4.7181763E1,4.463794E1,5.936976E1,7.4102905E1,5.4112793E1,7.4401855E1,3.7588745E1,4.7719112E1,6.020215E1,5.9560974E1,1.0630847E2,3.3970337E1,4.1713226E1,0E0,0E0,0E0,0E0,0E0,0E0,0E0,0E0,0E0,0E0,0E0,0E0,0E0,0E0,0E0,0E0,0E0,0E0,0E0,0E0,0E0,0E0,0E0,0E0,0E0,0E0,0E0,0E0,0E0,0E0,0E0,0E0,0E0,0E0,0E0,0E0,0E0,0E0,0E0,0E0,0E0,0E0,0E0,0E0,0E0,0E0,0E0,0E0,0E0,0E0,0E0,0E0,0E0,0E0,0E0,0E0,0E0,0E0,0E0,0E0,0E0,0E0,0E0,0E0,0E0,0E0,0E0,0E0,0E0,0E0,0E0,0E0,0E0,0E0,0E0,0E0,0E0,0E0,0E0,0E0,0E0,0E0,0E0,0E0,0E0,0E0,0E0,0E0,0E0,0E0,0E0,0E0,0E0,0E0,0E0,0E0,0E0,0E0,0E0,0E0,0E0,0E0,0E0,0E0,0E0,0E0,0E0,0E0,0E0,0E0,0E0,0E0,0E0,0E0,0E0,0E0,0E0,0E0,0E0,0E0,0E0,0E0,0E0,0E0],"parents":[2147483647,0,0,1,1,2,2,3,3,4,4,5,5,6,6,7,7,8,8,9,9,10,10,11,11,12,12,13,13,14,14,15,15,16,16,17,17,18,18,19,19,20,20,21,21,22,22,23,23,24,24,25,25,26,26,27,27,28,28,29,29,30,30,31,31,32,32,33,33,34,34,35,35,36,36,37,37,38,38,40,40,41,41,42,42,43,43,44,44,45,45,46,46,47,47,48,48,49,49,50,50,51,51,52,52,53,53,54,54,55,55,56,56,57,57,58,58,59,59,60,60,61,61,62,62,63,63,64,64,65,65,66,66,67,67,68,68,69,69,70,70,71,71,72,72,73,73,74,74,75,75,76,76,77,77,78,78,79,79,80,80,81,81,82,82,83,83,84,84,85,85,86,86,87,87,88,88,89,89,90,90,91,91,92,92,93,93,94,94,95,95,96,96,97,97,98,98,99,99,100,100,101,101,102,102,103,103,104,104,105,105,106,106,107,107,108,108,109,109,110,110,111,111,112,112,113,113,114,114,115,115,116,116,117,117,118,118,119,119,120,120,121,121,122,122,123,123,124,124],"right_children":[2,4,6,8,10,12,14,16,18,20,22,24,26,28,30,32,34,36,38,40,42,44,46,48,50,52,54,56,58,60,62,64,66,68,70,72,74,76,78,-1,80,82,84,86,88,90,92,94,96,98,100,102,104,106,108,110,112,114,116,118,120,122,124,126,128,130,132,134,136,138,140,142,144,146,148,150,152,154,156,158,160,162,164,166,168,170,172,174,176,178,180,182,184,186,188,190,192,194,196,198,200,202,204,206,208,210,212,214,216,218,220,222,224,226,228,230,232,234,236,238,240,242,244,246,248,-1,-1,-1,-1,-1,-1,-1,-1,-1,-1,-1,-1,-1,-1,-1,-1,-1,-1,-1,-1,-1,-1,-1,-1,-1,-1,-1,-1,-1,-1,-1,-1,-1,-1,-1,-1,-1,-1,-1,-1,-1,-1,-1,-1,-1,-1,-1,-1,-1,-1,-1,-1,-1,-1,-1,-1,-1,-1,-1,-1,-1,-1,-1,-1,-1,-1,-1,-1,-1,-1,-1,-1,-1,-1,-1,-1,-1,-1,-1,-1,-1,-1,-1,-1,-1,-1,-1,-1,-1,-1,-1,-1,-1,-1,-1,-1,-1,-1,-1,-1,-1,-1,-1,-1,-1,-1,-1,-1,-1,-1,-1,-1,-1,-1,-1,-1,-1,-1,-1,-1,-1,-1,-1,-1],"split_conditions":[4.6444517E-1,5.424451E-1,3.9621958E-1,2.0717677E-1,1.396533E-1,2.1762852E-1,5.585066E-1,3.5729328E-1,3.457848E-1,1.6146E4,2.638889E-1,6.55881E-1,5.1290786E-1,6.6428554E-1,7.954545E-2,1.8088798E-1,5E1,1.5474363E-1,5.2598524E-1,4.25358E3,4.1E1,2.8098425E-1,-4.4E1,-8.42E2,1.2591E4,9.2E-1,6.803259E-1,5.3997797E-1,7.6666665E-1,6.277757E-1,5.884477E-1,3E0,2E0,1.5110265E-1,-1.6533333E2,1.7642975E-1,1.48059E4,5.5E1,9E0,-1.7902382E-1,-2.353E3,7E0,5.2598524E-1,2.0853E4,5E-1,9.3333334E-1,4.9E1,1.65735E4,2E0,1E0,9E0,5.286651E-1,3.4252888E-1,9.0909094E-1,7.619048E-1,5.526707E2,8.214286E-1,-8.8E1,2E0,7.2693175E-1,3.002762E-1,1E0,-1.21E2,7.388141E-2,-5.51E2,1.3995E6,5.6671876E-1,2.53E2,5.5327445E-1,7.894737E-1,9E0,4.2E1,6.8E1,1.65E1,6.316539E-1,2E0,3.188889E1,7.184574E-1,7.2E-1,-6E1,7.316E-1,4.77E5,2.6027865E4,-8.9E1,6.795E5,1E1,2.021E3,1.665E5,8.0087994E5,-3.74E2,1.233E4,5.196672E-1,3.0890015E-1,5.072942E-1,6.21E5,4.282407E4,3.375E4,4.0947723E-1,1E0,2.1229625E-1,-1.2286666E3,1.4315789E1,1.191E-1,6.608878E-1,1E0,1.7E1,7.0412644E5,4.545E4,-4.95625E1,2.877477E-1,9.315E3,2.2E-1,-8.944445E0,7.2994167E-1,4.0967098E-1,3E0,2.8098425E-1,1.8297297E1,-3.875E1,9.588461E-2,4.4E1,-3.5E1,5E1,3.0564225E4,1.0141043E-1,1.4118437E-1,1.2144666E-1,-3.371478E-2,1.0658586E-1,3.5987556E-2,-1.7579019E-1,1.0592294E-1,4.8935667E-2,6.7344055E-2,1.0401495E-1,6.746293E-2,-3.6014404E-2,5.759436E-2,-3.413124E-2,6.257193E-2,-1.1283044E-1,7.9459846E-2,-6.3158564E-2,1.06542446E-1,-5.0413787E-2,6.7709856E-2,1.08943425E-1,4.12054E-2,-7.5963795E-2,5.173884E-2,8.913569E-3,-2.0929707E-2,6.6398434E-2,-3.6644574E-2,-1.2226973E-1,4.9494304E-2,-1.7296745E-2,4.612978E-2,-1.7723033E-1,-1.0739976E-1,2.7674178E-2,1.1672945E-1,7.2353E-2,7.408024E-2,-1.0252899E-1,-1.2225711E-1,5.2447546E-2,-5.343975E-3,-1.744885E-1,4.6393946E-2,-1.6657269E-1,-1.6634005E-1,-4.835303E-2,-1.0890831E-1,-4.0615138E-2,6.638403E-2,-2.4163162E-2,-4.445966E-2,2.9513494E-3,-1.09052956E-1,6.7296594E-2,7.807078E-2,-2.811788E-2,4.7869783E-2,-4.8366938E-2,7.64759E-2,-2.6602319E-2,7.6823965E-2,2.3798479E-2,9.270631E-2,2.952902E-2,6.147173E-2,-6.085186E-2,1.7098859E-2,6.6472314E-2,-1.2860915E-1,2.2435576E-2,-1.0360521E-2,-1.0176339E-1,6.406464E-2,1.5636005E-1,2.671526E-3,5.187146E-2,5.714647E-2,-2.0184612E-2,1.7985703E-2,-4.1132357E-2,-6.7058675E-2,1.3653043E-3,5.4016574E-3,-5.886943E-2,-1.1425231E-1,-3.391895E-2,3.3529665E-2,-1.0942688E-1,8.836636E-2,-1.2581979E-1,2.4976054E-2,-2.6913667E-2,4.1922983E-2,-8.141971E-3,-5.8112133E-2,1.6057862E-2,-9.852821E-2,-3.502856E-2,-6.255656E-2,-1.410109E-1,2.711021E-2,-3.4434978E-2,-7.362228E-2,-5.016935E-3,-2.3051484E-2,-1.1317431E-1,-7.337974E-2,-2.3133408E-2,-1.453141E-2,-1.4007872E-1,-1.4452721E-1,-1.6280143E-2,-1.1599016E-1,-7.179522E-2,-9.489652E-2,-3.720935E-2,-2.327609E-2,-6.2950015E-2,5.3798802E-2,-1.1082621E-1,9.7555295E-2,-1.0876709E-1],"split_indices":[39,40,40,39,39,40,40,40,40,11,398,39,38,39,398,40,68,40,38,317,68,38,427,83,327,401,39,38,401,39,38,167,30,39,89,314,328,68,438,0,196,161,38,156,368,366,68,11,72,5,310,314,40,401,430,394,401,427,72,38,38,64,125,39,152,186,38,131,38,401,167,402,168,438,38,72,436,38,401,153,44,12,385,114,12,260,132,12,380,126,113,38,39,39,12,147,328,314,425,336,171,438,42,39,35,333,145,186,429,38,328,70,429,39,38,29,38,438,204,70,437,427,68,380,336,0,0,0,0,0,0,0,0,0,0,0,0,0,0,0,0,0,0,0,0,0,0,0,0,0,0,0,0,0,0,0,0,0,0,0,0,0,0,0,0,0,0,0,0,0,0,0,0,0,0,0,0,0,0,0,0,0,0,0,0,0,0,0,0,0,0,0,0,0,0,0,0,0,0,0,0,0,0,0,0,0,0,0,0,0,0,0,0,0,0,0,0,0,0,0,0,0,0,0,0,0,0,0,0,0,0,0,0,0,0,0,0,0,0,0,0,0,0,0,0,0,0,0,0],"split_type":[0,0,0,0,0,0,0,0,0,0,0,0,0,0,0,0,0,0,0,0,0,0,0,0,0,0,0,0,0,0,0,0,0,0,0,0,0,0,0,0,0,0,0,0,0,0,0,0,0,0,0,0,0,0,0,0,0,0,0,0,0,0,0,0,0,0,0,0,0,0,0,0,0,0,0,0,0,0,0,0,0,0,0,0,0,0,0,0,0,0,0,0,0,0,0,0,0,0,0,0,0,0,0,0,0,0,0,0,0,0,0,0,0,0,0,0,0,0,0,0,0,0,0,0,0,0,0,0,0,0,0,0,0,0,0,0,0,0,0,0,0,0,0,0,0,0,0,0,0,0,0,0,0,0,0,0,0,0,0,0,0,0,0,0,0,0,0,0,0,0,0,0,0,0,0,0,0,0,0,0,0,0,0,0,0,0,0,0,0,0,0,0,0,0,0,0,0,0,0,0,0,0,0,0,0,0,0,0,0,0,0,0,0,0,0,0,0,0,0,0,0,0,0,0,0,0,0,0,0,0,0,0,0,0,0,0,0,0,0,0,0,0,0,0,0,0,0,0,0],"sum_hessian":[6.870041E4,2.898977E4,3.9710633E4,2.1692979E4,7.29679E3,1.1087813E4,2.862282E4,8.172327E3,1.3520651E4,1.2877155E3,6.0090747E3,4.2174155E3,6.870398E3,1.5783609E4,1.2839212E4,3.4396033E3,4.732724E3,5.092903E3,8.427749E3,2.773614E2,1.01035406E3,4.0477292E3,1.9613455E3,3.0189812E3,1.1984342E3,5.5504907E3,1.3199069E3,1.074949E4,5.034119E3,7.7573813E3,5.081831E3,1.3884618E3,2.0511414E3,3.6069595E3,1.1257645E3,1.5276315E3,3.5652715E3,7.499888E3,9.278602E2,9.888735E0,2.6747266E2,5.1678046E2,4.9357358E2,3.5566983E2,3.6920593E3,1.4242821E3,5.3706335E2,1.1959772E3,1.823004E3,9.489618E2,2.4947243E2,3.7501008E3,1.8003901E3,9.428679E2,3.770389E2,9.0326455E3,1.7168441E3,1.5165851E3,3.517534E3,3.6181655E3,4.139216E3,4.2220986E3,8.597326E2,1.2265311E3,1.6193068E2,4.9530933E1,2.0016105E3,2.4773374E3,1.1296221E3,3.002643E2,8.255002E2,2.3074448E2,1.2968871E3,2.817023E3,7.482485E2,6.3445366E3,1.1553518E3,5.1396643E2,4.138938E2,1.7681072E1,2.497916E2,4.626977E2,5.408276E1,4.3145224E2,6.212134E1,3.4150052E2,1.4169314E1,3.4302153E3,2.618439E2,1.2970964E3,1.2718573E2,3.681833E2,1.6888008E2,2.088959E2,9.8708124E2,1.3558129E3,4.6719116E2,8.884411E2,6.0520657E1,2.3334071E2,1.6131725E1,2.3605093E3,1.3895914E3,1.1932987E3,6.070915E2,6.494316E2,2.9343634E2,3.448785E2,3.216039E1,6.925621E3,2.1070251E3,7.1183545E2,1.0050086E3,3.7447574E2,1.1421093E3,2.387825E3,1.1297089E3,3.3466475E3,2.7151816E2,2.3274248E2,3.9064731E3,1.0410256E3,3.1810728E3,8.224988E2,3.7233826E1,5.1133734E2,7.151938E2,9.791557E0,1.5213911E2,4.3981583E1,5.54935E0,1.8876208E3,1.1398963E2,4.4772073E2,2.0296168E3,1.0729131E3,5.670899E1,1.23953094E2,1.7631123E2,8.111686E2,1.4331572E1,2.1377097E2,1.697351E1,1.2894023E3,7.4847093E0,2.3374607E3,4.7956238E2,6.9977216E2,4.8476315E1,5.1617856E3,1.1827509E3,1.0394055E3,1.1594634E2,3.7691098E2,1.3705548E2,1.2128181E2,2.92612E2,5.100998E0,1.2580073E1,1.4996054E1,2.3479553E2,2.905996E2,1.720981E2,3.3320744E1,2.0762016E1,1.070568E1,4.2074655E2,4.687226E1,1.5249081E1,3.3472977E2,6.7707386E0,9.151836E0,5.017478E0,3.0873254E2,3.121483E3,1.5331708E2,1.08526825E2,3.953062E2,9.017902E2,7.919999E0,1.1926573E2,3.365836E2,3.1599688E1,9.66741E1,7.2205986E1,5.4282806E1,1.546131E2,6.16749E2,3.7033224E2,1.2524103E3,1.03402565E2,4.3907343E2,2.8117735E1,3.677057E2,5.207354E2,3.1707836E1,2.881282E1,1.3075476E2,1.02585945E2,6.499598E0,9.632127E0,1.8909423E3,4.6956714E2,1.2975986E3,9.19928E1,8.723314E2,3.2096725E2,4.2914868E2,1.7794281E2,4.3674133E2,2.1269026E2,1.609985E2,1.3243784E2,1.875797E1,3.2612054E2,2.1554483E1,1.0605904E1,9.045639E2,6.021057E3,1.3272808E3,7.797444E2,4.6360712E2,2.4822835E2,8.6810895E2,1.3689966E2,2.750055E2,9.947026E1,1.8668387E2,9.554254E2,2.2181973E3,1.6962773E2,7.171748E1,1.0579915E3,3.0188008E3,3.2784668E2,2.668221E1,2.4483594E2,3.301703E1,1.9972545E2,3.5623347E3,3.441385E2,8.0893207E2,2.3209352E2,2.2074805E3,9.7359235E2,1.2177563E1,8.1032117E2,1.9221922E1,1.8011902E1],"tree_param":{"num_deleted":"0","num_feature":"441","num_nodes":"249","size_leaf_vector":"1"}},{"base_weights":[-1.1543105E-4,-3.0002928E-1,1.6510734E-1,-4.9266127E-1,-1.0483919E-1,1.0573269E-1,6.7497987E-1,-6.1880326E-1,-2.7583137E-1,8.6404555E-2,-2.8366062E-1,2.2511452E-1,-1.4656232E-1,3.271755E-2,7.3257214E-1,-6.889354E-1,-2.2463375E-1,-6.9596916E-1,-1.3495672E-1,-2.4286376E-1,2.5080484E-1,-4.0992674E-1,1.1364363E-2,5.202779E-1,1.3093132E-1,-3.029817E-1,1.7497228E-1,1.850186E-1,-1.3024864E0,9.008786E-1,5.441509E-1,-5.1075363E-1,-7.8215533E-1,-9.4950855E-1,-1.3522916E-1,-9.682018E-1,-5.2204216E-1,9.497513E-2,-3.0730695E-1,-3.4180716E-1,2.1513279E-1,3.6544162E-1,-1.2418914E-1,-4.9529418E-1,5.094637E-2,-5.8037835E-1,1.0838375E-1,3.5786945E-1,7.0703924E-1,-1.561837E-1,2.2144234E-1,-4.3518022E-1,-4.0587205E-2,1.0715981E-1,6.442047E-1,-1.7446375E-1,2.4121934E-1,-1.7111688E0,4.1090526E-2,9.120593E-1,-1.0950747E0,-2.660749E-1,5.775387E-1,-1.0061516E0,-4.3390343E-1,-8.171147E-1,-1.7344385E-1,8.4275854E-1,-1.1184951E0,-4.0181983E-2,-9.297745E-1,-1.0066589E0,1.22192144E-1,-2.1888258E-1,-7.693153E-1,3.8868794E-1,-7.466705E-2,-2.5358313E-1,-1.265011E0,-4.6667632E-1,4.3628365E-2,-5.5131607E-2,7.78269E-1,8.998432E-2,4.8897782E-1,4.9644276E-1,-2.3279198E-1,-3.5068578E-1,-6.69114E-1,1.7863548E-1,-5.9749126E-1,-3.9601582E-1,-1.5372638E0,-3.1734645E-2,4.084677E-1,4.5047003E-1,-8.40554E-2,6.290332E-1,1.1647358E0,-6.844852E-2,-5.1932615E-1,-1.084402E-1,2.9965937E-1,-5.891936E-1,-1.5311919E-1,-2.910274E-1,2.0544468E-1,1.4256781E-1,-8.34415E-1,-2.2026148E-1,7.234363E-1,2.92202E-1,-1.8263023E-1,-6.520634E-2,-1.8870041E-1,9.510738E-1,3.7420335E-1,9.201058E-3,-1.8946289E-1,5.717604E-1,-8.7221426E-1,4.8336172E-1,7.915087E-1,-1.2710981E-1,-3.4681935E-2,-5.1538568E-2,-4.003664E-3,-1.040678E-1,-7.4971795E-2,-5.6560375E-3,-1.7496993E-1,9.530939E-3,1.5207829E-1,-1.2527989E-1,1.5410005E-1,8.952568E-2,-9.250914E-3,5.0892144E-2,-1.20711796E-1,-1.05489925E-1,7.092147E-2,2.9793277E-3,-7.188108E-2,-9.040335E-2,1.8248899E-2,5.637133E-2,-1.1652926E-2,-1.7058892E-2,9.162875E-2,-3.1092698E-2,5.697428E-2,8.721733E-3,-1.4579125E-1,-5.552567E-2,1.3883754E-2,-1.738359E-1,9.3380725E-3,-1.2946272E-1,1.2842722E-2,-1.0486714E-1,9.214555E-2,6.791887E-2,-2.9607154E-3,7.8368E-2,3.7947E-2,6.30451E-2,-1.6497989E-1,-2.9413858E-2,7.008344E-2,-7.633907E-2,-2.4380123E-2,-4.5083936E-2,-8.4607385E-2,-2.0730339E-2,3.6038764E-2,-1.06075265E-1,2.4016324E-2,-2.5564972E-2,-1.834275E-1,-1.8189716E-1,9.333311E-3,1.0422361E-2,-3.2970328E-2,3.1246675E-2,1.219335E-1,3.865869E-2,8.963626E-2,-6.427289E-2,1.6645942E-2,8.786524E-2,5.229571E-2,1.2985851E-1,8.965534E-2,9.0086E-3,-2.620378E-2,-5.8004316E-2,4.870052E-2,-1.8527826E-2,3.637797E-2,4.0503632E-2,5.403473E-3,-6.787079E-2,-1.772461E-2,-2.4769077E-2,5.2922722E-2,-7.178258E-2,-1.6005013E-2,-4.6719316E-2,3.148438E-2,2.248858E-2,-2.164294E-2,2.3283022E-2,-1.1182012E-1,-6.1148364E-2,1.1956556E-1,8.614632E-2,3.4478553E-2,-1.6601477E-3,6.0977764E-2,9.635953E-2,-1.3857093E-3,4.653584E-2,-1.7647943E-1,1.279547E-1,-9.492259E-3,5.5740263E-2,-1.4722379E-1,-1.8126373E-1,4.9572848E-2,-5.496023E-2,8.217263E-2],"categories":[],"categories_nodes":[],"categories_segments":[],"categories_sizes":[],"default_left":[0,0,0,0,0,0,0,0,0,0,0,0,0,0,0,0,0,0,0,0,0,0,0,0,0,0,0,0,0,0,0,0,0,0,0,0,0,0,0,0,0,0,0,0,0,0,0,0,0,0,0,0,0,0,0,0,0,0,0,0,0,0,0,0,0,0,0,0,0,0,0,0,0,0,0,0,0,0,0,0,0,0,0,0,0,0,0,0,0,0,0,0,0,0,0,0,0,0,0,0,0,0,0,0,0,0,0,0,0,0,0,0,0,0,0,0,0,0,0,0,0,0,0,0,0,0,0,0,0,0,0,0,0,0,0,0,0,0,0,0,0,0,0,0,0,0,0,0,0,0,0,0,0,0,0,0,0,0,0,0,0,0,0,0,0,0,0,0,0,0,0,0,0,0,0,0,0,0,0,0,0,0,0,0,0,0,0,0,0,0,0,0,0,0,0,0,0,0,0,0,0,0,0,0,0,0,0,0,0,0,0,0,0,0,0,0,0,0,0,0,0,0,0,0,0,0,0,0,0,0,0],"id":4,"left_children":[1,3,5,7,9,11,13,15,17,19,21,23,25,27,29,31,33,35,37,39,41,43,45,47,49,51,53,55,57,59,61,63,65,67,69,71,73,75,77,79,81,83,85,87,89,91,93,95,97,99,101,103,105,107,109,-1,111,113,-1,115,117,119,121,123,125,127,129,131,133,135,137,139,-1,141,143,145,147,149,151,153,155,157,159,161,163,165,167,169,171,173,175,177,179,181,183,185,187,189,191,193,195,197,199,201,203,205,207,209,211,213,215,217,-1,-1,-1,219,221,-1,-1,223,225,227,229,-1,-1,-1,-1,-1,-1,-1,-1,-1,-1,-1,-1,-1,-1,-1,-1,-1,-1,-1,-1,-1,-1,-1,-1,-1,-1,-1,-1,-1,-1,-1,-1,-1,-1,-1,-1,-1,-1,-1,-1,-1,-1,-1,-1,-1,-1,-1,-1,-1,-1,-1,-1,-1,-1,-1,-1,-1,-1,-1,-1,-1,-1,-1,-1,-1,-1,-1,-1,-1,-1,-1,-1,-1,-1,-1,-1,-1,-1,-1,-1,-1,-1,-1,-1,-1,-1,-1,-1,-1,-1,-1,-1,-1,-1,-1,-1,-1,-1,-1,-1,-1,-1,-1,-1,-1,-1,-1,-1],"loss_changes":[3.3856091E3,9.124756E2,1.3336011E3,3.3391235E2,4.1231973E2,1.1885544E3,1.699353E2,2.1329272E2,2.659024E2,3.1545422E2,2.3210315E2,7.445708E2,6.375409E2,7.734489E1,1.3323071E2,1.0847217E2,7.5551895E1,5.2917236E1,1.3345541E2,8.8022285E1,1.6712277E2,1.7168933E2,1.07325645E2,1.9627295E2,5.277768E2,2.9578033E2,1.3194562E2,3.7425198E1,2.797419E1,5.0667603E1,5.4039978E1,8.5384155E1,9.139087E1,3.972535E1,7.85575E1,3.817746E1,5.1602295E1,7.194047E1,9.8705414E1,7.685315E1,5.2612404E1,1.01256256E2,6.149969E1,9.230066E1,5.664123E1,4.58469E1,6.754144E1,1.4194043E2,1.0682825E2,1.5506277E2,3.9844293E2,2.462373E2,1.761577E2,1.2101218E2,3.602713E1,0E0,3.5575302E1,4.661606E0,0E0,4.609961E1,1.2373195E1,4.088319E1,3.8175476E1,5.2309753E1,6.2664795E1,6.050586E1,4.3175903E1,5.7355795E0,4.388054E1,4.563345E1,4.4964455E1,3.647757E1,0E0,3.8765152E1,4.8886627E1,4.6803993E1,8.7196495E1,8.6277504E1,2.672847E1,6.475479E1,3.4875893E1,5.3480797E1,3.0285316E1,6.505308E1,6.602057E1,4.0140915E1,4.4637802E1,8.855211E1,6.4152466E1,4.014392E1,4.3935753E1,4.437742E1,1.9551277E1,4.44242E1,3.941857E1,8.132086E1,8.429959E1,6.7753174E1,1.4540649E1,1.2039055E2,5.8152405E1,1.0747462E2,3.230432E2,1.3511389E2,1.2945164E2,7.908068E1,1.06277466E2,1.033499E2,4.010753E1,2.5510592E1,2.4786423E1,3.1911879E1,0E0,0E0,0E0,2.4944824E1,3.033609E1,0E0,0E0,1.615784E1,4.0739807E1,3.869748E1,2.4087097E1,0E0,0E0,0E0,0E0,0E0,0E0,0E0,0E0,0E0,0E0,0E0,0E0,0E0,0E0,0E0,0E0,0E0,0E0,0E0,0E0,0E0,0E0,0E0,0E0,0E0,0E0,0E0,0E0,0E0,0E0,0E0,0E0,0E0,0E0,0E0,0E0,0E0,0E0,0E0,0E0,0E0,0E0,0E0,0E0,0E0,0E0,0E0,0E0,0E0,0E0,0E0,0E0,0E0,0E0,0E0,0E0,0E0,0E0,0E0,0E0,0E0,0E0,0E0,0E0,0E0,0E0,0E0,0E0,0E0,0E0,0E0,0E0,0E0,0E0,0E0,0E0,0E0,0E0,0E0,0E0,0E0,0E0,0E0,0E0,0E0,0E0,0E0,0E0,0E0,0E0,0E0,0E0,0E0,0E0,0E0,0E0,0E0,0E0,0E0,0E0,0E0,0E0,0E0,0E0,0E0,0E0,0E0,0E0],"parents":[2147483647,0,0,1,1,2,2,3,3,4,4,5,5,6,6,7,7,8,8,9,9,10,10,11,11,12,12,13,13,14,14,15,15,16,16,17,17,18,18,19,19,20,20,21,21,22,22,23,23,24,24,25,25,26,26,27,27,28,28,29,29,30,30,31,31,32,32,33,33,34,34,35,35,36,36,37,37,38,38,39,39,40,40,41,41,42,42,43,43,44,44,45,45,46,46,47,47,48,48,49,49,50,50,51,51,52,52,53,53,54,54,56,56,57,57,59,59,60,60,61,61,62,62,63,63,64,64,65,65,66,66,67,67,68,68,69,69,70,70,71,71,73,73,74,74,75,75,76,76,77,77,78,78,79,79,80,80,81,81,82,82,83,83,84,84,85,85,86,86,87,87,88,88,89,89,90,90,91,91,92,92,93,93,94,94,95,95,96,96,97,97,98,98,99,99,100,100,101,101,102,102,103,103,104,104,105,105,106,106,107,107,108,108,109,109,110,110,111,111,115,115,116,116,119,119,120,120,121,121,122,122],"right_children":[2,4,6,8,10,12,14,16,18,20,22,24,26,28,30,32,34,36,38,40,42,44,46,48,50,52,54,56,58,60,62,64,66,68,70,72,74,76,78,80,82,84,86,88,90,92,94,96,98,100,102,104,106,108,110,-1,112,114,-1,116,118,120,122,124,126,128,130,132,134,136,138,140,-1,142,144,146,148,150,152,154,156,158,160,162,164,166,168,170,172,174,176,178,180,182,184,186,188,190,192,194,196,198,200,202,204,206,208,210,212,214,216,218,-1,-1,-1,220,222,-1,-1,224,226,228,230,-1,-1,-1,-1,-1,-1,-1,-1,-1,-1,-1,-1,-1,-1,-1,-1,-1,-1,-1,-1,-1,-1,-1,-1,-1,-1,-1,-1,-1,-1,-1,-1,-1,-1,-1,-1,-1,-1,-1,-1,-1,-1,-1,-1,-1,-1,-1,-1,-1,-1,-1,-1,-1,-1,-1,-1,-1,-1,-1,-1,-1,-1,-1,-1,-1,-1,-1,-1,-1,-1,-1,-1,-1,-1,-1,-1,-1,-1,-1,-1,-1,-1,-1,-1,-1,-1,-1,-1,-1,-1,-1,-1,-1,-1,-1,-1,-1,-1,-1,-1,-1,-1,-1,-1,-1,-1,-1,-1],"split_conditions":[-1.073E3,6.25E-2,5E-1,1E0,4.3E1,4.7E1,2E0,1.025496E4,9E0,-2.409E3,1E0,9.4285715E-1,1E0,6.1E1,2.8E1,4.2E1,-4.928E3,1E0,5.355E3,3E0,1.35E4,2.826087E-1,7E0,-1.156E3,1E0,2.3076923E-1,3.09762E3,-5.342857E1,4.6790325E6,1.1E2,1.5804E5,9E0,4.642857E-1,3.103551E4,1.4E-1,1.6E1,7.785422E5,9.441504E4,1.2349098E6,9E3,3E0,1E0,1.1E1,6.5835E3,7.2E3,8E-2,-7.48E2,8.717786E3,5.3E1,2.083E-1,-2.575E3,2.83878E5,-3.1384615E1,1.1518658E6,5E0,-1.7446375E-1,3E0,4.9357896E3,4.1090526E-2,5.6E1,6.8E-1,9.5454544E-1,1.5E0,-8.11E2,3E0,2.745E5,9E1,1.1279423E-1,-6E0,-2.225875E3,-1.01E3,6.7674675E6,1.22192144E-1,3.825E4,2.677518E4,-3.43E2,8.181818E-1,2.7333E4,-1.458E3,9.8E1,-1.541E3,1E0,1.1489715E4,8.786498E4,2.3973192E5,1.8E-1,2.224275E4,-3.496E3,-1.2537153E3,-1.119E3,3.6315E2,2.8431E4,2.1748555E6,1.2946872E-1,-4.54E2,-5.4E1,8.75E-1,8.786498E4,1.3E1,1.6E1,6.903639E4,1.413E3,8.775E3,-2.93E2,2.366325E3,2.83419E5,3.48E2,1.30905E4,1E0,2.7E1,5.7E1,-9.69E2,-1.8263023E-1,-6.520634E-2,-1.8870041E-1,2.097792E6,-1.0666667E1,9.201058E-3,-1.8946289E-1,-5.45E2,1.3526145E4,-1.379E3,6E1,-1.2710981E-1,-3.4681935E-2,-5.1538568E-2,-4.003664E-3,-1.040678E-1,-7.4971795E-2,-5.6560375E-3,-1.7496993E-1,9.530939E-3,1.5207829E-1,-1.2527989E-1,1.5410005E-1,8.952568E-2,-9.250914E-3,5.0892144E-2,-1.20711796E-1,-1.05489925E-1,7.092147E-2,2.9793277E-3,-7.188108E-2,-9.040335E-2,1.8248899E-2,5.637133E-2,-1.1652926E-2,-1.7058892E-2,9.162875E-2,-3.1092698E-2,5.697428E-2,8.721733E-3,-1.4579125E-1,-5.552567E-2,1.3883754E-2,-1.738359E-1,9.3380725E-3,-1.2946272E-1,1.2842722E-2,-1.0486714E-1,9.214555E-2,6.791887E-2,-2.9607154E-3,7.8368E-2,3.7947E-2,6.30451E-2,-1.6497989E-1,-2.9413858E-2,7.008344E-2,-7.633907E-2,-2.4380123E-2,-4.5083936E-2,-8.4607385E-2,-2.0730339E-2,3.6038764E-2,-1.06075265E-1,2.4016324E-2,-2.5564972E-2,-1.834275E-1,-1.8189716E-1,9.333311E-3,1.0422361E-2,-3.2970328E-2,3.1246675E-2,1.219335E-1,3.865869E-2,8.963626E-2,-6.427289E-2,1.6645942E-2,8.786524E-2,5.229571E-2,1.2985851E-1,8.965534E-2,9.0086E-3,-2.620378E-2,-5.8004316E-2,4.870052E-2,-1.8527826E-2,3.637797E-2,4.0503632E-2,5.403473E-3,-6.787079E-2,-1.772461E-2,-2.4769077E-2,5.2922722E-2,-7.178258E-2,-1.6005013E-2,-4.6719316E-2,3.148438E-2,2.248858E-2,-2.164294E-2,2.3283022E-2,-1.1182012E-1,-6.1148364E-2,1.1956556E-1,8.614632E-2,3.4478553E-2,-1.6601477E-3,6.0977764E-2,9.635953E-2,-1.3857093E-3,4.653584E-2,-1.7647943E-1,1.279547E-1,-9.492259E-3,5.5740263E-2,-1.4722379E-1,-1.8126373E-1,4.9572848E-2,-5.496023E-2,8.217263E-2],"split_indices":[83,398,368,6,68,68,30,95,21,18,6,392,6,402,402,68,18,71,327,30,327,368,21,338,64,398,93,429,98,211,324,21,368,383,46,206,186,383,99,112,60,71,402,327,326,46,340,326,378,48,18,145,429,99,21,0,16,350,0,37,368,392,368,18,30,10,402,336,154,391,152,357,0,385,93,179,368,93,387,378,152,64,382,383,98,46,94,18,391,340,103,95,99,336,19,126,398,383,402,402,344,94,327,340,139,10,88,327,417,432,68,18,0,0,0,383,154,0,0,127,382,131,367,0,0,0,0,0,0,0,0,0,0,0,0,0,0,0,0,0,0,0,0,0,0,0,0,0,0,0,0,0,0,0,0,0,0,0,0,0,0,0,0,0,0,0,0,0,0,0,0,0,0,0,0,0,0,0,0,0,0,0,0,0,0,0,0,0,0,0,0,0,0,0,0,0,0,0,0,0,0,0,0,0,0,0,0,0,0,0,0,0,0,0,0,0,0,0,0,0,0,0,0,0,0,0,0,0,0,0,0],"split_type":[0,0,0,0,0,0,0,0,0,0,0,0,0,0,0,0,0,0,0,0,0,0,0,0,0,0,0,0,0,0,0,0,0,0,0,0,0,0,0,0,0,0,0,0,0,0,0,0,0,0,0,0,0,0,0,0,0,0,0,0,0,0,0,0,0,0,0,0,0,0,0,0,0,0,0,0,0,0,0,0,0,0,0,0,0,0,0,0,0,0,0,0,0,0,0,0,0,0,0,0,0,0,0,0,0,0,0,0,0,0,0,0,0,0,0,0,0,0,0,0,0,0,0,0,0,0,0,0,0,0,0,0,0,0,0,0,0,0,0,0,0,0,0,0,0,0,0,0,0,0,0,0,0,0,0,0,0,0,0,0,0,0,0,0,0,0,0,0,0,0,0,0,0,0,0,0,0,0,0,0,0,0,0,0,0,0,0,0,0,0,0,0,0,0,0,0,0,0,0,0,0,0,0,0,0,0,0,0,0,0,0,0,0,0,0,0,0,0,0,0,0,0,0,0,0,0,0,0,0,0,0],"sum_hessian":[6.832155E4,2.4268441E4,4.4053105E4,1.2213491E4,1.2054951E4,3.9459277E4,4.5938257E3,7.720306E3,4.4931846E3,5.8253955E3,6.229555E3,2.6785111E4,1.2674167E4,3.781629E2,4.215663E3,6.5535293E3,1.1667771E3,1.1272848E3,3.3659E3,1.9397998E3,3.885596E3,4.3622085E3,1.8673467E3,6.478243E3,2.030687E4,8.526348E3,4.1478193E3,3.402172E2,3.79457E1,2.2246885E3,1.9909746E3,2.2532034E3,4.3003257E3,1.2705116E2,1.0397258E3,4.3767072E2,6.896141E2,1.4422493E3,1.9236508E3,1.5953925E3,3.444073E2,2.9758845E3,9.097114E2,3.6804119E3,6.817968E2,2.6233365E2,1.6050131E3,3.4665942E3,3.011649E3,4.8670635E3,1.5439806E4,5.66937E3,2.8569773E3,3.625149E3,5.226704E2,8.778086E0,3.3143912E2,3.0638927E1,7.306775E0,2.2128357E3,1.1852563E1,7.85213E1,1.9124532E3,3.0097055E2,1.9522329E3,4.0664404E3,2.3388539E2,1.0603504E1,1.16447655E2,9.295763E2,1.1014961E2,4.3064917E2,7.021552E0,3.1064505E2,3.7896902E2,5.275594E2,9.1468994E2,1.82267E3,1.009806E2,1.2048481E3,3.905443E2,2.3332863E2,1.1107867E2,9.2192706E2,2.0539573E3,1.3494888E2,7.747626E2,2.0106667E3,1.6697451E3,5.7023224E2,1.1156454E2,2.211405E2,4.1193142E1,1.0947397E3,5.102733E2,2.8660295E3,6.005649E2,2.575138E3,4.365111E2,3.9209507E3,9.46113E2,2.959144E3,1.2480661E4,3.6663499E3,2.0030201E3,1.415714E3,1.4412632E3,3.4945835E3,1.3056554E2,4.3733273E1,4.7893713E2,3.243009E2,7.138209E0,5.032876E0,2.5606052E1,2.0624624E3,1.5037334E2,5.126401E0,6.726162E0,3.298481E1,4.553649E1,1.3302253E3,5.8222797E2,2.140348E2,8.693576E1,1.6173339E3,3.3489896E2,9.3858795E2,3.1278523E3,2.1870381E2,1.51815815E1,5.5860505E0,5.0174537E0,1.1135328E2,5.0943766E0,4.839117E1,8.811851E2,1.7667246E1,9.248236E1,4.1924762E2,1.1401563E1,2.0808112E2,1.0256395E2,3.3202454E2,4.69445E1,3.9173315E2,1.358262E2,8.347191E2,7.9970825E1,1.7045708E3,1.1809936E2,1.267531E1,8.830529E1,1.0511576E3,1.5369054E2,9.685815E0,3.808585E2,2.9316141E1,2.0401248E2,7.613458E0,1.0346521E2,1.5476251E2,7.6716455E2,5.547864E2,1.499171E3,1.276828E2,7.2660737E0,7.276361E2,4.7126472E1,4.1234995E2,1.5983168E3,7.4918976E2,9.2055536E2,1.8252074E2,3.8771152E2,7.166447E1,3.990007E1,2.0255046E2,1.8590054E1,3.5026337E1,6.1668053E0,7.5218164E2,3.4255807E2,4.574945E2,5.2778774E1,2.5085027E3,3.5752686E2,1.8544286E2,4.1512204E2,7.657902E2,1.8093477E3,2.8861957E2,1.4789154E2,2.1559392E3,1.7650115E3,8.9267694E2,5.343606E1,2.5455483E3,4.1359555E2,8.733289E3,3.747372E3,3.0113499E3,6.549999E2,1.7597588E3,2.4326138E2,3.3138687E2,1.0843271E3,2.0116075E2,1.2401024E3,2.8430469E3,6.5153644E2,2.7463203E1,1.0310233E2,3.471073E1,9.022544E0,3.5005795E2,1.2887918E2,1.649018E2,1.5939911E2,2.0360431E3,2.6419401E1,1.4497745E2,5.3958836E0,1.5553308E1,1.7431501E1,1.3482973E1,3.2053516E1,6.346599E0,1.3238787E3,1.2450846E1,5.697771E2],"tree_param":{"num_deleted":"0","num_feature":"441","num_nodes":"231","size_leaf_vector":"1"}},{"base_weights":[-1.4082373E-4,4.599532E-1,-2.5800204E-1,5.99517E-1,-5.4267153E-2,3.4758824E-1,-4.0850833E-1,8.4828854E-1,4.542225E-1,-2.4809669E-1,2.5672683E-1,4.7843E-1,8.042736E-2,-2.1355982E-1,-6.276035E-1,9.9983644E-1,7.2112423E-1,7.912315E-1,3.2150587E-1,1.3467761E-2,-4.744275E-1,8.4818125E-1,1.7144749E-1,7.669796E-1,3.598434E-1,-5.3214446E-2,3.826485E-1,-4.4749666E-2,-4.8459727E-1,-4.3583703E-1,-7.8322875E-1,1.1404643E0,8.982575E-1,9.0763336E-1,6.3017577E-1,6.5875024E-1,9.611963E-1,1.9312197E-1,5.1313764E-1,3.8227448E-1,-1.3432376E-1,-6.3098305E-1,-1.6177821E-1,4.1929618E-1,1.0194229E0,3.0192325E-1,-3.325033E-1,8.8690174E-1,5.623731E-1,1.3611236E-1,5.1396775E-1,1.0444302E-1,-3.8940442E-1,4.583275E-1,-6.0174835E-1,-1.8007699E-1,1.6799119E-1,-5.389501E-1,-5.882936E-2,-2.9574865E-1,-6.397587E-1,-6.43997E-1,-9.689578E-1,7.523934E-1,1.1725473E0,1.0421728E-1,9.191974E-1,5.08481E-1,9.736093E-1,7.0684975E-1,3.3852926E-1,8.674208E-1,5.266827E-1,9.764164E-1,-3.4271562E-1,4.084106E-1,6.0145576E-2,2.4647468E-1,6.11504E-1,8.723081E-1,1.7493267E-1,2.4967928E-1,-2.7960745E-1,-9.928025E-1,-4.6378908E-1,5.633809E-1,-2.9994145E-1,7.21529E-1,-1.3097081E0,1.1104316E0,-1.3271028E-1,3.5340425E-1,-8.8083494E-1,2.6729876E-2,-7.415786E-1,9.2283547E-1,4.4187894E-1,-1.824492E-1,6.4197946E-1,-4.5734696E-2,3.0690682E-1,6.560393E-2,5.584243E-1,2.1830131E-1,-3.498321E-1,1.9192657E-1,-5.3840405E-1,5.759536E-1,-1.8386494E-1,4.2626026E-1,-1.1328523E0,-7.734759E-2,-3.8991207E-1,3.54255E-1,-2.1627134E-2,-6.4081496E-1,-3.5566646E-1,5.316335E-1,-1.9607194E-1,-7.4386674E-1,-2.18045E-1,-6.9375235E-1,-1.0514425E-1,-7.3693347E-1,-3.9563608E-1,-1.1861888E0,-8.960199E-1,8.628609E-2,-1.1657226E-1,1.2325045E-1,9.953607E-2,-5.4493953E-2,9.0610564E-2,9.2872076E-2,-5.7128247E-2,-1.21906854E-1,5.9231885E-2,9.822433E-2,-4.0551286E-2,1.6789129E-2,7.490694E-2,-1.8680054E-1,3.6863815E-2,-1.0307479E-1,8.840119E-2,-1.2831299E-1,5.547318E-2,-5.4733075E-2,9.885889E-2,6.647069E-2,-1.2881498E-1,7.684953E-3,5.2614518E-2,-1.2040929E-2,4.54462E-2,-4.2688806E-2,3.395399E-2,6.443512E-2,-2.5998462E-2,1.0357913E-1,-1.1485203E-1,6.0528792E-2,-1.1507512E-2,7.3882416E-2,-8.8235404E-4,-1.7035833E-2,-9.373038E-2,-6.4571865E-2,-1.4323139E-1,-5.225196E-2,6.551128E-2,-5.12196E-2,9.406533E-2,-3.8049076E-2,1.2672096E-1,-5.6022722E-2,9.218513E-2,-6.536156E-2,-1.7329778E-1,1.2279596E-1,3.5528455E-2,1.2644924E-1,-1.683431E-1,5.9097078E-2,1.4808024E-2,-1.4292441E-1,-1.7568782E-2,-4.1772213E-2,5.615309E-2,-7.369189E-3,-1.0398288E-1,9.348339E-2,-6.225726E-2,6.946962E-2,-8.0517225E-2,2.3772731E-2,-1.605671E-1,7.255055E-2,1.34714795E-2,2.120823E-2,-3.390096E-2,3.911874E-2,-3.0578762E-2,3.4833293E-2,-3.7204176E-2,3.670908E-2,6.547221E-2,1.0747018E-2,6.053514E-2,-2.0843742E-2,-1.2892471E-1,-3.54748E-2,6.0109604E-2,-7.397383E-2,-2.8968218E-3,-1.2965403E-1,6.0171057E-2,-1.9240336E-1,-3.4534184E-3,-9.422179E-2,9.54136E-2,-1.6123371E-1,2.7650177E-2,1.0601439E-2,-2.4547119E-2,-5.2188348E-2,-4.7587096E-3,7.7124476E-3,4.5913965E-2,-4.1660037E-2,9.618082E-3,-1.0390718E-1,-5.829207E-2,-4.620786E-2,8.119373E-3,6.210919E-2,-1.6012703E-1,-6.5039486E-2,-1.4861604E-3,-9.28963E-2,-2.4751453E-2,-2.7812955E-3,-4.1114148E-2,-9.628892E-2,-6.033975E-2,-5.3830873E-2,3.9698865E-2,-6.315179E-2,-1.0330939E-1,-1.5149987E-2,-6.525431E-2,-1.2056396E-1,5.7528567E-2,-9.6078835E-2,-5.680127E-2],"categories":[],"categories_nodes":[],"categories_segments":[],"categories_sizes":[],"default_left":[0,0,0,0,0,0,0,0,0,0,0,0,0,0,0,0,0,0,0,0,0,0,0,0,0,0,0,0,0,0,0,0,0,0,0,0,0,0,0,0,0,0,0,0,0,0,0,0,0,0,0,0,0,0,0,0,0,0,0,0,0,0,0,0,0,0,0,0,0,0,0,0,0,0,0,0,0,0,0,0,0,0,0,0,0,0,0,0,0,0,0,0,0,0,0,0,0,0,0,0,0,0,0,0,0,0,0,0,0,0,0,0,0,0,0,0,0,0,0,0,0,0,0,0,0,0,0,0,0,0,0,0,0,0,0,0,0,0,0,0,0,0,0,0,0,0,0,0,0,0,0,0,0,0,0,0,0,0,0,0,0,0,0,0,0,0,0,0,0,0,0,0,0,0,0,0,0,0,0,0,0,0,0,0,0,0,0,0,0,0,0,0,0,0,0,0,0,0,0,0,0,0,0,0,0,0,0,0,0,0,0,0,0,0,0,0,0,0,0,0,0,0,0,0,0,0,0,0,0,0,0,0,0,0,0,0,0,0,0,0,0,0,0,0,0,0,0,0,0,0,0,0,0,0,0],"id":5,"left_children":[1,3,5,7,9,11,13,15,17,19,21,23,25,27,29,31,33,35,37,39,41,43,45,47,49,51,53,55,57,59,61,63,65,67,69,71,73,75,77,79,81,83,85,87,89,91,93,95,97,99,101,103,105,107,109,111,113,115,117,119,121,123,125,127,129,131,133,135,137,139,141,143,145,147,149,151,153,155,157,159,161,163,165,167,169,171,173,175,177,179,181,183,185,187,189,191,193,195,197,199,201,203,205,207,209,211,213,215,217,219,221,223,225,227,229,231,233,235,237,239,241,243,245,247,249,251,253,-1,-1,-1,-1,-1,-1,-1,-1,-1,-1,-1,-1,-1,-1,-1,-1,-1,-1,-1,-1,-1,-1,-1,-1,-1,-1,-1,-1,-1,-1,-1,-1,-1,-1,-1,-1,-1,-1,-1,-1,-1,-1,-1,-1,-1,-1,-1,-1,-1,-1,-1,-1,-1,-1,-1,-1,-1,-1,-1,-1,-1,-1,-1,-1,-1,-1,-1,-1,-1,-1,-1,-1,-1,-1,-1,-1,-1,-1,-1,-1,-1,-1,-1,-1,-1,-1,-1,-1,-1,-1,-1,-1,-1,-1,-1,-1,-1,-1,-1,-1,-1,-1,-1,-1,-1,-1,-1,-1,-1,-1,-1,-1,-1,-1,-1,-1,-1,-1,-1,-1,-1,-1,-1,-1,-1,-1,-1,-1],"loss_changes":[8.078244E3,1.755105E3,3.9772476E3,6.948628E2,3.1480933E2,3.0360034E2,1.4926387E3,1.3593018E2,5.4295264E2,1.9046082E2,1.00998474E2,1.992345E2,1.1540508E2,8.462133E2,4.9074023E2,4.515381E1,6.48905E1,7.661792E1,2.1431708E2,8.1449974E1,8.431955E1,1.8112793E1,1.1542087E2,4.114966E1,1.424862E2,1.0507897E2,6.5540695E1,3.2817734E2,1.6423425E2,2.104602E2,2.342373E2,1.5951294E1,3.1190308E1,3.2758545E1,5.7843994E1,5.2763367E1,3.0115234E1,1.4942856E2,9.154602E1,4.3282646E1,5.959043E1,6.9042816E1,5.796174E1,3.9474342E1,1.8990936E1,8.517103E1,5.3094723E1,1.6677612E1,3.7469223E1,5.2430096E1,4.8748962E1,6.9896034E1,5.4921455E1,6.1600784E1,3.4865654E1,1.5015314E2,1.5654315E2,1.1729309E2,6.531396E1,1.5210474E2,8.65802E1,1.1959277E2,6.056201E1,2.3473057E1,1.2020874E1,2.6247532E1,2.6550781E1,2.6966965E1,1.328833E1,4.6653687E1,3.673933E1,2.4434998E1,6.0877136E1,2.8058105E1,1.8052027E1,7.7763885E1,2.2989828E2,5.9283554E1,7.325165E1,4.3097397E1,3.7716637E1,3.710254E1,5.5490627E1,5.4333893E1,5.210414E1,3.808242E1,6.172639E1,1.6796772E1,2.012556E0,1.4355179E1,3.256983E1,6.509215E1,2.233934E1,4.6172203E1,3.3568596E1,1.8895935E1,2.6331175E1,3.722324E1,2.402568E1,6.194092E1,4.5065857E1,2.7588835E1,4.0784668E1,4.6262497E1,3.5715763E1,2.9259195E1,5.1674088E1,3.3976746E1,3.2880035E1,1.6920483E1,2.8689983E1,1.4425119E2,1.0341205E2,6.495364E1,1.0227738E2,9.26521E1,1.046752E2,3.000315E1,5.3805046E1,5.9101257E1,1.3693428E2,6.571875E1,6.036483E1,1.1730908E2,8.874272E1,3.408423E1,6.1399414E1,0E0,0E0,0E0,0E0,0E0,0E0,0E0,0E0,0E0,0E0,0E0,0E0,0E0,0E0,0E0,0E0,0E0,0E0,0E0,0E0,0E0,0E0,0E0,0E0,0E0,0E0,0E0,0E0,0E0,0E0,0E0,0E0,0E0,0E0,0E0,0E0,0E0,0E0,0E0,0E0,0E0,0E0,0E0,0E0,0E0,0E0,0E0,0E0,0E0,0E0,0E0,0E0,0E0,0E0,0E0,0E0,0E0,0E0,0E0,0E0,0E0,0E0,0E0,0E0,0E0,0E0,0E0,0E0,0E0,0E0,0E0,0E0,0E0,0E0,0E0,0E0,0E0,0E0,0E0,0E0,0E0,0E0,0E0,0E0,0E0,0E0,0E0,0E0,0E0,0E0,0E0,0E0,0E0,0E0,0E0,0E0,0E0,0E0,0E0,0E0,0E0,0E0,0E0,0E0,0E0,0E0,0E0,0E0,0E0,0E0,0E0,0E0,0E0,0E0,0E0,0E0,0E0,0E0,0E0,0E0,0E0,0E0,0E0,0E0,0E0,0E0,0E0,0E0],"parents":[2147483647,0,0,1,1,2,2,3,3,4,4,5,5,6,6,7,7,8,8,9,9,10,10,11,11,12,12,13,13,14,14,15,15,16,16,17,17,18,18,19,19,20,20,21,21,22,22,23,23,24,24,25,25,26,26,27,27,28,28,29,29,30,30,31,31,32,32,33,33,34,34,35,35,36,36,37,37,38,38,39,39,40,40,41,41,42,42,43,43,44,44,45,45,46,46,47,47,48,48,49,49,50,50,51,51,52,52,53,53,54,54,55,55,56,56,57,57,58,58,59,59,60,60,61,61,62,62,63,63,64,64,65,65,66,66,67,67,68,68,69,69,70,70,71,71,72,72,73,73,74,74,75,75,76,76,77,77,78,78,79,79,80,80,81,81,82,82,83,83,84,84,85,85,86,86,87,87,88,88,89,89,90,90,91,91,92,92,93,93,94,94,95,95,96,96,97,97,98,98,99,99,100,100,101,101,102,102,103,103,104,104,105,105,106,106,107,107,108,108,109,109,110,110,111,111,112,112,113,113,114,114,115,115,116,116,117,117,118,118,119,119,120,120,121,121,122,122,123,123,124,124,125,125,126,126],"right_children":[2,4,6,8,10,12,14,16,18,20,22,24,26,28,30,32,34,36,38,40,42,44,46,48,50,52,54,56,58,60,62,64,66,68,70,72,74,76,78,80,82,84,86,88,90,92,94,96,98,100,102,104,106,108,110,112,114,116,118,120,122,124,126,128,130,132,134,136,138,140,142,144,146,148,150,152,154,156,158,160,162,164,166,168,170,172,174,176,178,180,182,184,186,188,190,192,194,196,198,200,202,204,206,208,210,212,214,216,218,220,222,224,226,228,230,232,234,236,238,240,242,244,246,248,250,252,254,-1,-1,-1,-1,-1,-1,-1,-1,-1,-1,-1,-1,-1,-1,-1,-1,-1,-1,-1,-1,-1,-1,-1,-1,-1,-1,-1,-1,-1,-1,-1,-1,-1,-1,-1,-1,-1,-1,-1,-1,-1,-1,-1,-1,-1,-1,-1,-1,-1,-1,-1,-1,-1,-1,-1,-1,-1,-1,-1,-1,-1,-1,-1,-1,-1,-1,-1,-1,-1,-1,-1,-1,-1,-1,-1,-1,-1,-1,-1,-1,-1,-1,-1,-1,-1,-1,-1,-1,-1,-1,-1,-1,-1,-1,-1,-1,-1,-1,-1,-1,-1,-1,-1,-1,-1,-1,-1,-1,-1,-1,-1,-1,-1,-1,-1,-1,-1,-1,-1,-1,-1,-1,-1,-1,-1,-1,-1,-1],"split_conditions":[4.131426E-1,5.726825E-1,3.1703177E-1,3.457848E-1,1E0,6.3749754E-1,6.1912584E-1,2.0717677E-1,1.5110265E-1,2.4688324E-1,7.883353E-2,1.4375806E-1,6.0870206E-1,5.478105E-1,8.703704E-1,1.8088798E-1,1.6441418E-1,1E0,1E0,2.31705E5,-1.55E3,3.32946E5,2.055285E6,1.0731722E-1,3.637911E-1,1.19835E4,1E0,1E0,6.2179355E3,5.513813E-1,5.726825E-1,1.87704E5,2E0,1.7140584E-1,1.48059E4,7.8699636E-1,1.341E6,1.6987928E5,1E0,9.102135E-2,7.5438595E-1,1.125E5,8.56431E3,4E0,5.6E1,1.125E6,8.9235836E-1,1E0,-8.58E2,1E0,4.03E2,1.875E-1,4.71E-2,7.92E5,1.02105E5,9.315E3,6.21E3,1E0,2.6027865E4,2.5091395E4,1E0,1E0,2.971305E5,-1.35E2,4.86E5,5E0,1E1,2.2222222E-1,2.32425E3,-9.041E3,1.29384E5,-2.462625E3,5.4E4,-1.975E1,-2.67E2,2.547E5,1.3788889E1,7.72E-2,-6.2E1,-2E2,8.214286E-1,-1.2486E3,2.24199E4,5.899253E5,-3E0,2.385E5,1.5E0,1E0,-1.527E3,1E0,7.2470236E-1,4.095E3,1E0,-2.47E2,-2.092E3,1.875E-1,1.216E-1,1.035504E4,8.24E-2,8.731884E-1,5.5E1,2.5123945E-1,1.755E5,-7.7E1,-6.25E2,-1.41E3,3E0,2.5555556E0,1.567899E5,5.7093527E-2,2E0,8.761905E-1,2E0,1E0,-2.432E3,2.08512E5,2E0,4E0,1.2E1,2E1,4.545E5,1.2E-1,-1.074E3,7.198338E-1,3.860684E5,3.08E2,3E0,8.628609E-2,-1.1657226E-1,1.2325045E-1,9.953607E-2,-5.4493953E-2,9.0610564E-2,9.2872076E-2,-5.7128247E-2,-1.21906854E-1,5.9231885E-2,9.822433E-2,-4.0551286E-2,1.6789129E-2,7.490694E-2,-1.8680054E-1,3.6863815E-2,-1.0307479E-1,8.840119E-2,-1.2831299E-1,5.547318E-2,-5.4733075E-2,9.885889E-2,6.647069E-2,-1.2881498E-1,7.684953E-3,5.2614518E-2,-1.2040929E-2,4.54462E-2,-4.2688806E-2,3.395399E-2,6.443512E-2,-2.5998462E-2,1.0357913E-1,-1.1485203E-1,6.0528792E-2,-1.1507512E-2,7.3882416E-2,-8.8235404E-4,-1.7035833E-2,-9.373038E-2,-6.4571865E-2,-1.4323139E-1,-5.225196E-2,6.551128E-2,-5.12196E-2,9.406533E-2,-3.8049076E-2,1.2672096E-1,-5.6022722E-2,9.218513E-2,-6.536156E-2,-1.7329778E-1,1.2279596E-1,3.5528455E-2,1.2644924E-1,-1.683431E-1,5.9097078E-2,1.4808024E-2,-1.4292441E-1,-1.7568782E-2,-4.1772213E-2,5.615309E-2,-7.369189E-3,-1.0398288E-1,9.348339E-2,-6.225726E-2,6.946962E-2,-8.0517225E-2,2.3772731E-2,-1.605671E-1,7.255055E-2,1.34714795E-2,2.120823E-2,-3.390096E-2,3.911874E-2,-3.0578762E-2,3.4833293E-2,-3.7204176E-2,3.670908E-2,6.547221E-2,1.0747018E-2,6.053514E-2,-2.0843742E-2,-1.2892471E-1,-3.54748E-2,6.0109604E-2,-7.397383E-2,-2.8968218E-3,-1.2965403E-1,6.0171057E-2,-1.9240336E-1,-3.4534184E-3,-9.422179E-2,9.54136E-2,-1.6123371E-1,2.7650177E-2,1.0601439E-2,-2.4547119E-2,-5.2188348E-2,-4.7587096E-3,7.7124476E-3,4.5913965E-2,-4.1660037E-2,9.618082E-3,-1.0390718E-1,-5.829207E-2,-4.620786E-2,8.119373E-3,6.210919E-2,-1.6012703E-1,-6.5039486E-2,-1.4861604E-3,-9.28963E-2,-2.4751453E-2,-2.7812955E-3,-4.1114148E-2,-9.628892E-2,-6.033975E-2,-5.3830873E-2,3.9698865E-2,-6.315179E-2,-1.0330939E-1,-1.5149987E-2,-6.525431E-2,-1.2056396E-1,5.7528567E-2,-9.6078835E-2,-5.680127E-2],"split_indices":[39,40,40,40,6,39,39,39,39,39,39,40,314,40,401,40,40,6,6,98,169,10,98,336,314,328,5,6,352,40,40,10,30,314,328,401,10,383,64,39,401,9,385,404,37,12,401,5,127,406,88,48,57,12,188,328,328,6,385,361,63,406,10,125,12,58,404,368,190,19,10,171,347,160,387,10,438,70,91,176,401,177,328,98,160,12,368,77,171,124,401,328,426,126,196,97,70,397,57,401,37,40,324,126,90,18,406,438,146,335,405,401,406,64,18,10,15,405,436,436,12,70,196,39,383,400,400,0,0,0,0,0,0,0,0,0,0,0,0,0,0,0,0,0,0,0,0,0,0,0,0,0,0,0,0,0,0,0,0,0,0,0,0,0,0,0,0,0,0,0,0,0,0,0,0,0,0,0,0,0,0,0,0,0,0,0,0,0,0,0,0,0,0,0,0,0,0,0,0,0,0,0,0,0,0,0,0,0,0,0,0,0,0,0,0,0,0,0,0,0,0,0,0,0,0,0,0,0,0,0,0,0,0,0,0,0,0,0,0,0,0,0,0,0,0,0,0,0,0,0,0,0,0,0,0],"split_type":[0,0,0,0,0,0,0,0,0,0,0,0,0,0,0,0,0,0,0,0,0,0,0,0,0,0,0,0,0,0,0,0,0,0,0,0,0,0,0,0,0,0,0,0,0,0,0,0,0,0,0,0,0,0,0,0,0,0,0,0,0,0,0,0,0,0,0,0,0,0,0,0,0,0,0,0,0,0,0,0,0,0,0,0,0,0,0,0,0,0,0,0,0,0,0,0,0,0,0,0,0,0,0,0,0,0,0,0,0,0,0,0,0,0,0,0,0,0,0,0,0,0,0,0,0,0,0,0,0,0,0,0,0,0,0,0,0,0,0,0,0,0,0,0,0,0,0,0,0,0,0,0,0,0,0,0,0,0,0,0,0,0,0,0,0,0,0,0,0,0,0,0,0,0,0,0,0,0,0,0,0,0,0,0,0,0,0,0,0,0,0,0,0,0,0,0,0,0,0,0,0,0,0,0,0,0,0,0,0,0,0,0,0,0,0,0,0,0,0,0,0,0,0,0,0,0,0,0,0,0,0,0,0,0,0,0,0,0,0,0,0,0,0,0,0,0,0,0,0,0,0,0,0,0,0],"sum_hessian":[6.808816E4,2.44543E4,4.363386E4,1.9233893E4,5.220409E3,8.685363E3,3.4948496E4,7.0898667E3,1.2144025E4,3.216131E3,2.0042778E3,5.829554E3,2.8558083E3,1.8494373E4,1.6454121E4,3.2316682E3,3.8581985E3,3.4297803E3,8.714245E3,1.4923744E3,1.7237568E3,2.5144392E2,1.752834E3,1.6963824E3,4.133172E3,1.980748E3,8.750604E2,1.1397093E4,7.0972812E3,7.3728555E3,9.081267E3,1.351038E3,1.8806301E3,1.2617443E3,2.596454E3,1.9301646E3,1.4996157E3,5.219466E3,3.4947795E3,4.264935E2,1.0658809E3,1.1479271E3,5.758297E2,7.273165E1,1.7871227E2,1.3926656E3,3.6016824E2,1.0674204E3,6.2896204E2,1.6866576E3,2.4465144E3,1.3488768E3,6.318712E2,8.1308594E2,6.197447E1,6.966049E3,4.4310435E3,6.2935874E3,8.036941E2,4.371921E3,3.0009346E3,5.192886E3,3.8883801E3,1.05032684E2,1.2460052E3,4.8474014E1,1.8321561E3,1.8020673E2,1.0815376E3,2.0548184E3,5.4163586E2,7.4595953E2,1.1842051E3,1.4825615E3,1.7054232E1,1.9921333E3,3.2273325E3,9.427013E2,2.5520781E3,1.25850395E2,3.0064313E2,2.9237595E2,7.7350494E2,3.6124023E2,7.866868E2,9.166134E1,4.841684E2,6.2405716E1,1.0325932E1,1.6566254E2,1.3049733E1,1.3352485E3,5.7417152E1,1.9226428E2,1.6790398E2,9.866767E2,8.074369E1,6.0607452E1,5.6835455E2,8.172515E2,8.69406E2,2.2091956E2,2.225595E3,1.0789669E3,2.699099E2,1.288535E2,5.030177E2,6.8730084E2,1.2578515E2,2.1178541E1,4.0795925E1,4.6774624E3,2.2885864E3,2.2348562E3,2.1961875E3,4.0436958E3,2.2498914E3,1.510318E2,6.526623E2,6.447966E2,3.7271245E3,2.7253855E3,2.7554907E2,3.7774136E3,1.4154727E3,9.7356116E2,2.9148188E3,9.9833275E1,5.1994095E0,9.265273E2,3.1947797E2,2.6965183E1,2.1508833E1,1.8208986E3,1.1257569E1,7.7139225E0,1.724928E2,1.0750948E3,6.442785E0,1.4963362E2,1.9051847E3,6.4695845E0,5.351663E2,5.9339685E0,7.400256E2,1.7390226E1,1.1668148E3,1.140122E1,1.4711603E3,8.400197E0,8.654035E0,5.224568E2,1.4696765E3,2.2141724E3,1.01316016E3,1.1403408E2,8.2866724E2,2.459633E3,9.244493E1,1.1688217E2,8.968223E0,1.20596924E2,1.800462E2,1.0044796E2,1.9192798E2,6.644011E2,1.0910381E2,2.0322324E2,1.58017E2,7.4795984E2,3.872699E1,2.3709524E1,6.795181E1,4.6121957E2,2.2948812E1,8.192108E0,5.4213608E1,5.046998E0,5.278934E0,1.4281004E2,2.2852499E1,6.961755E0,6.0879784E0,6.181504E2,7.1709814E2,3.172051E1,2.5696642E1,1.05121155E2,8.714312E1,5.2217583E1,1.1568639E2,9.794673E2,7.209403E0,6.750183E1,1.3241856E1,4.7435944E1,1.3171507E1,4.8763113E2,8.0723434E1,4.3506458E2,3.8218695E2,7.645923E2,1.0481372E2,1.3433817E2,8.65814E1,7.467312E2,1.4788638E3,8.397761E2,2.3919078E2,2.3566154E2,3.4248367E1,5.521543E1,7.363807E1,3.6020786E2,1.4280986E2,8.6563835E0,6.786444E2,9.001796E0,1.16783356E2,5.67684E0,1.5501702E1,3.0332352E1,1.04635725E1,2.2375142E3,2.4399485E3,1.6514161E3,6.3717017E2,6.1407025E2,1.6207859E3,5.039763E2,1.6922112E3,5.1107117E2,3.5326245E3,1.8091531E3,4.4073837E2,1.4563248E2,5.3993244E0,1.8535611E2,4.673062E2,4.6902097E2,1.7577563E2,1.878064E3,1.8490604E3,6.825727E2,2.0428127E3,1.478953E2,1.27653786E2,2.788135E3,9.8927875E2,7.2659045E2,6.8888214E2,9.6324023E2,1.0320899E1,2.432556E3,4.822631E2],"tree_param":{"num_deleted":"0","num_feature":"441","num_nodes":"255","size_leaf_vector":"1"}},{"base_weights":[-1.4294643E-4,3.444214E-1,-2.8554016E-1,4.8828253E-1,-7.37451E-2,1.6335358E-1,-4.5998198E-1,7.0767754E-1,3.259513E-1,2.2868036E-1,-2.4523477E-1,2.6352143E-1,-2.7741936E-1,-3.7863195E-1,-8.278392E-1,9.1613024E-1,6.010161E-1,6.929538E-1,2.2143328E-1,5.584279E-2,5.0046813E-1,-3.966847E-1,3.4857146E-3,4.4204602E-1,6.129571E-2,8.6464345E-2,-5.013998E-1,-2.7944943E-1,-6.784579E-1,-9.6000713E-1,-6.712007E-1,1.1114607E0,8.398358E-1,6.4205784E-1,4.1402895E-2,7.193333E-1,1.1166828E-1,2.8763038E-1,-2.3980999E-1,8.00299E-1,-9.54835E-3,-9.01742E-3,5.775931E-1,-8.4110737E-1,-3.1023395E-1,-4.9791455E-1,1.2648939E-1,5.4489356E-1,2.0271733E-1,5.9235084E-1,-5.711149E-3,-6.2964463E-1,2.3874524E-1,-3.150383E-1,-7.80194E-1,-1.5982002E-1,-5.2716047E-1,-7.323646E-1,-2.2453865E-1,-7.4447036E-1,-1.065121E0,-7.3384243E-1,-5.272839E-2,4.057927E-1,1.1290611E0,8.7207526E-1,3.9364713E-1,7.0076615E-1,3.125297E-1,-1.8567796E-1,7.093649E-1,1.0895686E0,6.828872E-1,-2.7080157E-1,8.240004E-1,3.5134047E-1,-6.5565184E-2,-5.130479E-1,2.4213362E-2,8.818053E-1,-8.828371E-2,4.0067786E-1,-1.2225617E-1,6.1513615E-1,-3.303616E-1,4.4372115E-1,8.8120663E-1,-9.318096E-1,2.2849184E-1,1.656817E-1,-3.97408E-1,-6.486782E-1,6.146165E-1,3.6677516E-1,-4.3629218E-2,8.310246E-1,4.8239997E-1,2.4752982E-1,-7.9452085E-1,1.8604308E-1,8.232225E-1,-7.625095E-2,4.6040094E-1,4.5744386E-1,-8.452625E-1,5.3603464E-1,-3.1246517E-2,-7.81868E-1,-1.6203871E-1,-9.87173E-1,-3.284127E-1,4.0081125E-1,-2.0331095E-1,-3.2747054E-1,-6.777508E-1,-8.758184E-1,-6.0709286E-1,-5.047671E-1,1.1058386E-1,-5.9219605E-1,-1.0799543E0,-4.39118E-2,-1.089724E0,-5.62869E-1,-9.0130174E-1,2.0614734E-1,-9.5878536E-1,-8.007361E-2,1.0652118E-1,1.1473446E-1,6.858432E-2,5.625078E-2,9.0937845E-2,-2.7209032E-2,6.006656E-2,8.3923265E-2,5.8844555E-2,-3.1380203E-2,4.1554507E-2,-8.090119E-2,3.4060513E-3,-1.0048433E-1,8.277402E-2,-1.8838799E-2,1.1179987E-1,6.413435E-2,9.435587E-2,1.5758859E-2,-1.1908342E-1,-2.2941744E-2,1.0909041E-1,2.3948336E-2,5.2993666E-2,-5.4092534E-2,8.861321E-3,-1.4284483E-2,-7.111239E-2,-4.106945E-2,2.6257893E-2,-6.39567E-2,9.462559E-2,4.7152195E-2,-1.0417559E-1,-1.9004894E-2,5.4100275E-2,9.930273E-2,-1.128998E-1,9.478295E-2,-5.2237302E-2,-2.5825442E-3,5.7645686E-2,-9.437259E-2,9.1967426E-2,-1.03700496E-1,-9.614803E-3,6.8062566E-2,-1.6536556E-1,2.51704E-2,-1.08169556E-1,-8.653172E-2,-3.231938E-2,-8.8525735E-2,-9.462542E-3,1.1820133E-1,-3.9880328E-2,4.1626222E-2,-8.397385E-2,8.4214954E-4,-1.1423545E-1,8.6213596E-2,-1.7956033E-2,2.9615043E-2,5.7764083E-2,6.910625E-2,1.6532645E-2,-1.7179154E-1,-1.1787264E-2,-1.4887999E-1,3.358875E-2,9.062374E-2,7.946971E-3,1.8789677E-3,-4.6233304E-2,5.3432185E-2,-9.522672E-2,-8.668195E-2,1.0072961E-1,-1.0973249E-1,6.560251E-2,5.816969E-2,-1.16243064E-1,-1.9749975E-2,6.5670334E-2,-9.996539E-2,2.3995016E-2,1.8812811E-2,-3.7477393E-2,6.076886E-2,-1.06154874E-1,6.115089E-2,-8.003439E-2,5.1500835E-2,-1.996768E-2,-3.138809E-2,1.2978875E-3,-1.6762247E-2,-5.599264E-2,-7.423749E-2,-1.4060481E-2,-9.9377856E-2,-5.7570327E-2,-4.5019668E-2,-8.6045206E-2,-6.367965E-2,6.799192E-2,3.204126E-3,1.6695212E-1,-1.03917375E-1,-4.1908495E-2,8.4599835E-4,-1.1716478E-1,7.0046395E-2,-1.23732984E-1,-1.1386772E-1,-6.511957E-2,-6.756895E-2,-6.9260686E-3,-9.717988E-2,-3.3142727E-2,3.8791757E-2,-1.3417165E-1,-1.5316431E-1,3.1401373E-3],"categories":[],"categories_nodes":[],"categories_segments":[],"categories_sizes":[],"default_left":[0,0,0,0,0,0,0,0,0,0,0,0,0,0,0,0,0,0,0,0,0,0,0,0,0,0,0,0,0,0,0,0,0,0,0,0,0,0,0,0,0,0,0,0,0,0,0,0,0,0,0,0,0,0,0,0,0,0,0,0,0,0,0,0,0,0,0,0,0,0,0,0,0,0,0,0,0,0,0,0,0,0,0,0,0,0,0,0,0,0,0,0,0,0,0,0,0,0,0,0,0,0,0,0,0,0,0,0,0,0,0,0,0,0,0,0,0,0,0,0,0,0,0,0,0,0,0,0,0,0,0,0,0,0,0,0,0,0,0,0,0,0,0,0,0,0,0,0,0,0,0,0,0,0,0,0,0,0,0,0,0,0,0,0,0,0,0,0,0,0,0,0,0,0,0,0,0,0,0,0,0,0,0,0,0,0,0,0,0,0,0,0,0,0,0,0,0,0,0,0,0,0,0,0,0,0,0,0,0,0,0,0,0,0,0,0,0,0,0,0,0,0,0,0,0,0,0,0,0,0,0,0,0,0,0,0,0,0,0,0,0,0,0,0,0,0,0,0,0,0,0,0,0],"id":6,"left_children":[1,3,5,7,9,11,13,15,17,19,21,23,25,27,29,31,33,35,37,39,41,43,45,47,49,51,53,55,57,59,61,63,65,67,69,71,73,75,77,79,81,83,85,87,89,91,93,95,97,99,101,103,105,107,109,111,113,115,117,119,121,123,125,127,129,131,133,135,137,139,141,143,145,147,149,151,153,155,157,159,-1,161,163,165,167,169,171,173,175,177,179,181,183,185,187,189,191,193,195,197,199,201,203,205,207,209,211,213,215,217,219,221,223,225,227,229,231,233,235,237,239,241,243,245,247,249,251,-1,-1,-1,-1,-1,-1,-1,-1,-1,-1,-1,-1,-1,-1,-1,-1,-1,-1,-1,-1,-1,-1,-1,-1,-1,-1,-1,-1,-1,-1,-1,-1,-1,-1,-1,-1,-1,-1,-1,-1,-1,-1,-1,-1,-1,-1,-1,-1,-1,-1,-1,-1,-1,-1,-1,-1,-1,-1,-1,-1,-1,-1,-1,-1,-1,-1,-1,-1,-1,-1,-1,-1,-1,-1,-1,-1,-1,-1,-1,-1,-1,-1,-1,-1,-1,-1,-1,-1,-1,-1,-1,-1,-1,-1,-1,-1,-1,-1,-1,-1,-1,-1,-1,-1,-1,-1,-1,-1,-1,-1,-1,-1,-1,-1,-1,-1,-1,-1,-1,-1,-1,-1,-1,-1,-1,-1],"loss_changes":[6.650561E3,1.8432112E3,2.8966755E3,8.116587E2,4.0684042E2,4.571587E2,7.9686865E2,2.1497314E2,5.0249512E2,1.3332193E2,1.8856082E2,3.045379E2,1.5632782E2,6.485852E2,9.9213135E1,4.7934814E1,1.473164E2,4.4452637E1,3.115303E2,8.453551E1,4.336087E1,1.1927545E2,1.1696486E2,1.10174255E2,1.4079922E2,7.991444E1,6.143112E1,4.8576892E2,1.3251611E2,5.8423584E1,8.5608154E1,1.0942993E1,3.3637207E1,1.1540991E2,6.6782814E1,3.6740234E1,3.4894E1,2.0076465E2,9.241177E1,2.0014023E1,7.389448E1,2.9496223E1,3.8559998E1,4.930945E1,1.0818976E2,6.3062347E1,6.2266823E1,5.5625122E1,6.0450073E1,4.14321E1,1.1558549E2,3.0516262E1,4.8489662E1,5.081099E1,4.4085327E1,2.6968832E2,1.6032776E2,8.6559814E1,5.424553E1,4.330121E1,4.4035767E1,5.6963867E1,4.813947E1,1.9867584E1,6.4664307E0,2.491919E1,2.2352962E1,7.839331E1,5.8562347E1,4.505301E1,2.3496113E1,9.194672E0,2.6810791E1,3.3118626E1,1.281959E1,1.5085895E2,1.0002469E2,4.6056244E1,6.773451E1,1.3767769E1,0E0,3.5691643E1,5.6473724E1,3.406729E1,2.4317026E1,4.1591125E1,2.1382874E1,4.092758E1,3.5474014E1,4.3641544E1,7.6220764E1,4.3106262E1,2.6404108E1,3.8046143E1,5.105215E1,1.777002E1,4.548694E1,4.695806E1,3.617391E1,4.113656E1,1.736377E1,1.1204416E2,4.876239E1,1.6837416E1,4.1444107E1,2.2971718E1,3.6435146E1,3.9356964E1,4.017657E1,3.922052E1,6.73439E1,5.4712753E1,2.4542325E2,8.526546E1,1.0551599E2,7.932727E1,1.02582275E2,4.961467E1,3.2222366E1,4.5512817E1,2.668811E1,3.8461014E1,3.6038086E1,5.5413513E1,4.035083E1,4.547986E1,2.5912994E1,0E0,0E0,0E0,0E0,0E0,0E0,0E0,0E0,0E0,0E0,0E0,0E0,0E0,0E0,0E0,0E0,0E0,0E0,0E0,0E0,0E0,0E0,0E0,0E0,0E0,0E0,0E0,0E0,0E0,0E0,0E0,0E0,0E0,0E0,0E0,0E0,0E0,0E0,0E0,0E0,0E0,0E0,0E0,0E0,0E0,0E0,0E0,0E0,0E0,0E0,0E0,0E0,0E0,0E0,0E0,0E0,0E0,0E0,0E0,0E0,0E0,0E0,0E0,0E0,0E0,0E0,0E0,0E0,0E0,0E0,0E0,0E0,0E0,0E0,0E0,0E0,0E0,0E0,0E0,0E0,0E0,0E0,0E0,0E0,0E0,0E0,0E0,0E0,0E0,0E0,0E0,0E0,0E0,0E0,0E0,0E0,0E0,0E0,0E0,0E0,0E0,0E0,0E0,0E0,0E0,0E0,0E0,0E0,0E0,0E0,0E0,0E0,0E0,0E0,0E0,0E0,0E0,0E0,0E0,0E0,0E0,0E0,0E0,0E0,0E0,0E0],"parents":[2147483647,0,0,1,1,2,2,3,3,4,4,5,5,6,6,7,7,8,8,9,9,10,10,11,11,12,12,13,13,14,14,15,15,16,16,17,17,18,18,19,19,20,20,21,21,22,22,23,23,24,24,25,25,26,26,27,27,28,28,29,29,30,30,31,31,32,32,33,33,34,34,35,35,36,36,37,37,38,38,39,39,40,40,41,41,42,42,43,43,44,44,45,45,46,46,47,47,48,48,49,49,50,50,51,51,52,52,53,53,54,54,55,55,56,56,57,57,58,58,59,59,60,60,61,61,62,62,63,63,64,64,65,65,66,66,67,67,68,68,69,69,70,70,71,71,72,72,73,73,74,74,75,75,76,76,