{"learner":{"attributes":{"best_iteration":"124","best_score":"0.7814546385252188"},"feature_names":[],"feature_types":[],"gradient_booster":{"model":{"gbtree_model_param":{"num_parallel_tree":"1","num_trees":"175"},"iteration_indptr":[0,1,2,3,4,5,6,7,8,9,10,11,12,13,14,15,16,17,18,19,20,21,22,23,24,25,26,27,28,29,30,31,32,33,34,35,36,37,38,39,40,41,42,43,44,45,46,47,48,49,50,51,52,53,54,55,56,57,58,59,60,61,62,63,64,65,66,67,68,69,70,71,72,73,74,75,76,77,78,79,80,81,82,83,84,85,86,87,88,89,90,91,92,93,94,95,96,97,98,99,100,101,102,103,104,105,106,107,108,109,110,111,112,113,114,115,116,117,118,119,120,121,122,123,124,125,126,127,128,129,130,131,132,133,134,135,136,137,138,139,140,141,142,143,144,145,146,147,148,149,150,151,152,153,154,155,156,157,158,159,160,161,162,163,164,165,166,167,168,169,170,171,172,173,174,175],"tree_info":[0,0,0,0,0,0,0,0,0,0,0,0,0,0,0,0,0,0,0,0,0,0,0,0,0,0,0,0,0,0,0,0,0,0,0,0,0,0,0,0,0,0,0,0,0,0,0,0,0,0,0,0,0,0,0,0,0,0,0,0,0,0,0,0,0,0,0,0,0,0,0,0,0,0,0,0,0,0,0,0,0,0,0,0,0,0,0,0,0,0,0,0,0,0,0,0,0,0,0,0,0,0,0,0,0,0,0,0,0,0,0,0,0,0,0,0,0,0,0,0,0,0,0,0,0,0,0,0,0,0,0,0,0,0,0,0,0,0,0,0,0,0,0,0,0,0,0,0,0,0,0,0,0,0,0,0,0,0,0,0,0,0,0,0,0,0,0,0,0,0,0,0,0,0,0],"trees":[{"base_weights":[2.7364239E-8,5.234136E-1,-3.8210312E-1,1.0241641E0,3.6478323E-1,-1.8302749E-1,-7.379778E-1,5.659471E-1,1.097082E0,2.4284607E-2,5.3569055E-1,-5.334535E-1,2.8689636E-2,-4.8734653E-1,-9.823655E-1,4.7026392E-2,7.6014674E-1,8.604497E-1,1.198898E0,-1.6806754E-1,3.350977E-1,7.4165756E-1,3.679123E-1,-2.533583E-1,-7.2868156E-1,2.7815676E-1,-2.0941843E-1,-5.9270525E-1,2.9722411E-2,-1.232201E0,-7.9270154E-1,2.9736316E-1,-7.7178985E-1,1.0048989E0,4.9369895E-1,1.219083E0,7.348864E-1,1.4023933E0,1.107011E0,-2.353849E-1,5.670933E-1,1.9278201E-1,7.994056E-1,5.3508097E-1,1.0156742E0,-1.7485213E-1,4.4378176E-1,-6.011403E-1,5.918022E-2,-8.5090727E-1,-3.2742682E-1,7.626452E-2,5.9755933E-1,-9.9235795E-2,-6.1643064E-1,-7.400628E-1,-3.009978E-1,1.3126284E-1,-6.4587265E-1,-1.3011477E0,-7.822103E-1,-9.8498213E-1,-4.9661613E-1,-7.955113E-1,4.6496877E-1,-9.861365E-1,1.3253182E-1,1.0427276E0,-9.1899216E-2,-1.7678577E-1,5.510718E-1,8.29679E-1,1.359494E0,-2.4381001E-1,7.8893125E-1,4.427636E-1,1.418885E0,7.1068656E-1,1.1617715E0,1.4796829E-1,-3.541186E-1,6.1708474E-1,-1.7602897E-1,-2.5798002E-1,2.998691E-1,4.6030357E-1,9.983231E-1,2.977289E-1,6.7394626E-1,9.01583E-1,1.2637637E0,-6.730562E-1,2.5238147E-2,5.244933E-1,2.4734544E-2,-6.5887237E-1,2.603649E-1,5.905198E-1,-2.6367048E-2,-9.564822E-1,-5.4247653E-1,-5.6359094E-1,2.0900713E-1,-2.2361097E-1,1.9536611E-1,7.1394295E-1,2.7020437E-1,-5.421492E-1,6.138588E-3,-7.7710944E-1,-1.6095294E-1,-7.959561E-1,-1.4910363E-1,-4.1276655E-1,5.725238E-1,-1.0314291E-1,4.0431362E-1,-3.6452222E-1,-1.4772257E0,-1.4917259E0,-1.1578841E0,-6.260603E-1,-1.5980898E0,-8.1469953E-1,-1.2524663E0,-7.0880675E-1,-1.946633E-1,6.711629E-3,-1.8390156E-1,-1.6827136E-1,5.412373E-2,1.7856086E-2,-1.3747267E-1,-3.8150612E-2,1.0918863E-1,3.0364692E-2,8.7458245E-2,-3.0796248E-2,1.02511406E-1,1.409461E-1,5.0309833E-2,1.1779571E-2,-1.8489385E-1,8.0407195E-2,-1.747965E-1,9.979668E-2,-8.992443E-2,1.341275E-1,1.61552E-1,7.70642E-2,-6.666654E-2,1.3340148E-1,1.0297205E-1,-3.1551078E-2,3.3012375E-2,-4.5011353E-2,1.9428624E-2,8.1719225E-3,7.900641E-2,-5.0142832E-2,3.2587506E-2,-8.6351335E-3,4.3318354E-2,-7.206019E-2,5.668657E-2,1.0322262E-1,-9.38044E-2,1.1765675E-2,7.8046665E-2,7.466396E-2,2.334962E-2,1.0112226E-2,9.515494E-2,1.3379322E-1,8.834403E-2,-2.5099916E-2,-9.9450685E-2,2.2281086E-2,-3.6561195E-2,6.0651395E-3,6.0769208E-2,-1.6801959E-2,4.5695137E-2,-8.325317E-2,-4.3611456E-2,4.152968E-2,-1.7678577E-1,-6.6614665E-2,7.5444646E-2,1.051434E-2,-4.6002503E-2,-1.2758724E-1,-8.7582156E-2,-1.02664255E-1,-4.4065136E-2,-4.754198E-2,-1.6212825E-1,-4.9123825E-3,6.5110594E-2,-3.342967E-2,5.493274E-2,6.6671656E-3,4.2794768E-2,5.6489825E-2,9.623953E-2,6.4079785E-3,6.104743E-2,-8.537154E-2,-3.03197E-2,-1.2053828E-2,2.5627991E-2,-1.1391182E-1,-6.0151365E-2,-9.9603504E-2,7.5677163E-3,-9.035798E-2,-4.879814E-2,1.0442848E-2,-9.3186684E-2,-2.2592643E-2,-8.630415E-2,-1.1471859E-2,9.453005E-2,-2.2122214E-2,5.5827636E-2,5.0437927E-2,-6.426019E-2,-1.8617235E-1,-1.5515874E-2,-1.7616025E-1,3.976747E-2,5.443578E-2,-1.513378E-1,-1.4325742E-1,-1.0157891E-1,8.407145E-2,-7.03431E-2,-1.7665157E-1,3.976747E-2,-1.1292082E-1,-6.6490136E-2,-1.28513E-1,-9.475721E-4,-7.7765316E-2,1.9101446E-2,8.368716E-3,-7.735874E-2],"categories":[],"categories_nodes":[],"categories_segments":[],"categories_sizes":[],"default_left":[0,0,0,0,0,0,0,0,0,0,0,0,0,0,0,0,0,0,0,0,0,0,0,0,0,0,0,0,0,0,0,0,0,0,0,0,0,0,0,0,0,0,0,0,0,0,0,0,0,0,0,0,0,0,0,0,0,0,0,0,0,0,0,0,0,0,0,0,0,0,0,0,0,0,0,0,0,0,0,0,0,0,0,0,0,0,0,0,0,0,0,0,0,0,0,0,0,0,0,0,0,0,0,0,0,0,0,0,0,0,0,0,0,0,0,0,0,0,0,0,0,0,0,0,0,0,0,0,0,0,0,0,0,0,0,0,0,0,0,0,0,0,0,0,0,0,0,0,0,0,0,0,0,0,0,0,0,0,0,0,0,0,0,0,0,0,0,0,0,0,0,0,0,0,0,0,0,0,0,0,0,0,0,0,0,0,0,0,0,0,0,0,0,0,0,0,0,0,0,0,0,0,0,0,0,0,0,0,0,0,0,0,0,0,0,0,0,0,0,0,0,0,0,0,0,0,0,0,0,0,0,0,0,0,0,0,0,0,0,0,0,0,0,0,0,0,0],"id":0,"left_children":[1,3,5,7,9,11,13,15,17,19,21,23,25,27,29,31,33,35,37,39,41,43,45,47,49,51,53,55,57,59,61,63,65,67,69,71,73,75,77,79,81,83,85,87,89,91,93,95,97,99,101,103,105,107,109,111,113,115,117,119,121,123,125,127,129,131,-1,133,-1,-1,135,137,139,141,143,145,147,149,151,153,155,157,-1,159,161,163,165,167,169,171,173,175,177,179,181,183,185,187,189,191,193,195,197,199,201,203,205,207,209,211,213,215,217,219,221,223,225,227,229,231,233,235,237,239,241,243,245,-1,-1,-1,-1,-1,-1,-1,-1,-1,-1,-1,-1,-1,-1,-1,-1,-1,-1,-1,-1,-1,-1,-1,-1,-1,-1,-1,-1,-1,-1,-1,-1,-1,-1,-1,-1,-1,-1,-1,-1,-1,-1,-1,-1,-1,-1,-1,-1,-1,-1,-1,-1,-1,-1,-1,-1,-1,-1,-1,-1,-1,-1,-1,-1,-1,-1,-1,-1,-1,-1,-1,-1,-1,-1,-1,-1,-1,-1,-1,-1,-1,-1,-1,-1,-1,-1,-1,-1,-1,-1,-1,-1,-1,-1,-1,-1,-1,-1,-1,-1,-1,-1,-1,-1,-1,-1,-1,-1,-1,-1,-1,-1,-1,-1,-1,-1,-1,-1,-1,-1],"loss_changes":[1.3838133E4,2.318856E3,2.8333154E3,2.3404883E2,1.2903967E3,1.902925E3,8.7827783E2,9.73421E1,1.4492773E2,4.4315878E2,5.0991846E2,5.280481E2,9.498502E2,3.859867E2,3.4317334E2,5.4387577E1,4.5354736E1,8.13324E1,7.760156E1,2.267382E2,1.8708829E2,3.74562E2,3.352019E2,4.314641E2,2.7887012E2,5.0351935E2,3.668523E2,2.5277515E2,8.241996E1,9.616797E1,2.3471875E2,3.7566566E1,2.9240257E1,2.7558533E1,4.4906845E1,2.4680237E1,7.186395E1,2.0152588E1,6.2569824E1,1.9101793E2,4.5811028E1,1.0483372E2,4.436075E1,1.2440112E2,7.9451904E1,9.958185E1,2.4148901E2,9.3613525E1,9.507997E1,1.415271E2,1.6868626E2,1.7097241E2,1.15026E2,3.0056293E2,1.27424805E2,1.2901978E2,1.932573E2,6.687719E1,3.6181534E1,7.239404E1,5.2340454E1,1.1302124E2,1.0421219E2,2.4761591E1,2.9854103E1,2.6021725E1,0E0,2.5545593E1,0E0,0E0,2.6227158E1,2.8698715E1,1.4069214E1,4.181902E1,5.073767E1,1.8510088E1,1.7526367E1,3.0009918E1,5.6963623E1,8.392613E1,1.6873944E2,3.4853775E1,0E0,5.9454308E1,9.0351074E1,3.1556625E1,2.840567E1,1.2136091E2,7.616333E1,7.804968E1,2.404834E1,3.858336E1,5.5183266E1,2.3101428E2,9.62375E1,6.776074E1,3.803715E1,6.0257523E1,1.02836876E2,8.257202E1,5.4503693E1,8.54122E1,4.6531036E1,1.16614784E2,1.0251544E2,8.204968E1,5.570651E1,9.188544E1,1.6490492E2,8.1194336E1,9.0133835E1,1.1794116E2,6.738503E1,1.4731174E2,5.7670456E1,4.4068127E1,5.087683E1,3.689417E1,2.1690468E1,5.2030518E1,5.9209717E1,4.0660187E1,2.3094574E1,7.145984E1,3.945398E1,5.9379486E1,1.08600555E2,0E0,0E0,0E0,0E0,0E0,0E0,0E0,0E0,0E0,0E0,0E0,0E0,0E0,0E0,0E0,0E0,0E0,0E0,0E0,0E0,0E0,0E0,0E0,0E0,0E0,0E0,0E0,0E0,0E0,0E0,0E0,0E0,0E0,0E0,0E0,0E0,0E0,0E0,0E0,0E0,0E0,0E0,0E0,0E0,0E0,0E0,0E0,0E0,0E0,0E0,0E0,0E0,0E0,0E0,0E0,0E0,0E0,0E0,0E0,0E0,0E0,0E0,0E0,0E0,0E0,0E0,0E0,0E0,0E0,0E0,0E0,0E0,0E0,0E0,0E0,0E0,0E0,0E0,0E0,0E0,0E0,0E0,0E0,0E0,0E0,0E0,0E0,0E0,0E0,0E0,0E0,0E0,0E0,0E0,0E0,0E0,0E0,0E0,0E0,0E0,0E0,0E0,0E0,0E0,0E0,0E0,0E0,0E0,0E0,0E0,0E0,0E0,0E0,0E0,0E0,0E0,0E0,0E0,0E0,0E0],"parents":[2147483647,0,0,1,1,2,2,3,3,4,4,5,5,6,6,7,7,8,8,9,9,10,10,11,11,12,12,13,13,14,14,15,15,16,16,17,17,18,18,19,19,20,20,21,21,22,22,23,23,24,24,25,25,26,26,27,27,28,28,29,29,30,30,31,31,32,32,33,33,34,34,35,35,36,36,37,37,38,38,39,39,40,40,41,41,42,42,43,43,44,44,45,45,46,46,47,47,48,48,49,49,50,50,51,51,52,52,53,53,54,54,55,55,56,56,57,57,58,58,59,59,60,60,61,61,62,62,63,63,64,64,65,65,67,67,70,70,71,71,72,72,73,73,74,74,75,75,76,76,77,77,78,78,79,79,80,80,81,81,83,83,84,84,85,85,86,86,87,87,88,88,89,89,90,90,91,91,92,92,93,93,94,94,95,95,96,96,97,97,98,98,99,99,100,100,101,101,102,102,103,103,104,104,105,105,106,106,107,107,108,108,109,109,110,110,111,111,112,112,113,113,114,114,115,115,116,116,117,117,118,118,119,119,120,120,121,121,122,122,123,123,124,124,125,125,126,126],"right_children":[2,4,6,8,10,12,14,16,18,20,22,24,26,28,30,32,34,36,38,40,42,44,46,48,50,52,54,56,58,60,62,64,66,68,70,72,74,76,78,80,82,84,86,88,90,92,94,96,98,100,102,104,106,108,110,112,114,116,118,120,122,124,126,128,130,132,-1,134,-1,-1,136,138,140,142,144,146,148,150,152,154,156,158,-1,160,162,164,166,168,170,172,174,176,178,180,182,184,186,188,190,192,194,196,198,200,202,204,206,208,210,212,214,216,218,220,222,224,226,228,230,232,234,236,238,240,242,244,246,-1,-1,-1,-1,-1,-1,-1,-1,-1,-1,-1,-1,-1,-1,-1,-1,-1,-1,-1,-1,-1,-1,-1,-1,-1,-1,-1,-1,-1,-1,-1,-1,-1,-1,-1,-1,-1,-1,-1,-1,-1,-1,-1,-1,-1,-1,-1,-1,-1,-1,-1,-1,-1,-1,-1,-1,-1,-1,-1,-1,-1,-1,-1,-1,-1,-1,-1,-1,-1,-1,-1,-1,-1,-1,-1,-1,-1,-1,-1,-1,-1,-1,-1,-1,-1,-1,-1,-1,-1,-1,-1,-1,-1,-1,-1,-1,-1,-1,-1,-1,-1,-1,-1,-1,-1,-1,-1,-1,-1,-1,-1,-1,-1,-1,-1,-1,-1,-1,-1,-1],"split_conditions":[4.6444517E-1,1.5110265E-1,6.55881E-1,1E0,-1.96E2,2.092253E-1,8.9235836E-1,-4.45E2,2.0800689E-1,2.5E-1,8.472222E-1,8.366234E-1,8.666667E-1,6.0173327E-1,2.0800689E-1,8.5455E3,7.388141E-2,9.293096E-1,7.307692E-1,5E-1,-3.7E1,-1.103E3,-4.31E2,-2.016E3,1.827E3,-1.266E3,3E0,-1.38E3,1.439622E6,4E0,-2.31E2,-3E1,7.222222E-1,8.736657E-1,-1.175E1,-6.8E1,-5.132E3,-8.59E2,-3.09E3,9.836258E4,1.668825E4,1E0,6.5E-1,3.5470086E-1,8E0,-1.586E3,3E0,-4.9E1,7.894737E-1,-2.96E2,-1.757E3,5E0,2E0,-5.426667E2,-1.26E2,7.222222E-1,5E0,-7.136667E2,7.2994167E-1,-1.672E3,1.148625E4,7.174595E-1,4.575E2,-1.071E3,7.973557E3,-1.4412794E3,1.3253182E-1,-6.42E2,-9.1899216E-2,-1.7678577E-1,-4.89E2,1.7145E4,1E0,-1.141E3,3.341E-1,2.1E1,6E-1,1.364E-1,6.0882274E-2,1.6371E4,4.4574672E-1,-8.1747406E2,-1.7602897E-1,-1E1,-3.025E3,8.62E-2,3.1E1,4.3333334E-1,3E0,-5.44E2,5.589E3,2.9641712E-1,3.4155E3,1E0,5.574781E-1,-2.578E3,1.0890909E-1,-1.603E3,3E0,-3.194E3,-4.344E3,2.8409326E-1,-2.16E2,1.7E4,2.5E1,-1.79E2,5.83454E-1,1.5594286E-1,5.513034E-1,-1.932E3,3.682501E-1,1.3710189E0,1.21815E4,3E0,-3E2,-7E1,-1.12E2,-2.142E3,-2.53E2,1E0,1E0,4.352156E3,3.34215E4,-2.117E3,3E1,2E0,2E0,6.711629E-3,-1.8390156E-1,-1.6827136E-1,5.412373E-2,1.7856086E-2,-1.3747267E-1,-3.8150612E-2,1.0918863E-1,3.0364692E-2,8.7458245E-2,-3.0796248E-2,1.02511406E-1,1.409461E-1,5.0309833E-2,1.1779571E-2,-1.8489385E-1,8.0407195E-2,-1.747965E-1,9.979668E-2,-8.992443E-2,1.341275E-1,1.61552E-1,7.70642E-2,-6.666654E-2,1.3340148E-1,1.0297205E-1,-3.1551078E-2,3.3012375E-2,-4.5011353E-2,1.9428624E-2,8.1719225E-3,7.900641E-2,-5.0142832E-2,3.2587506E-2,-8.6351335E-3,4.3318354E-2,-7.206019E-2,5.668657E-2,1.0322262E-1,-9.38044E-2,1.1765675E-2,7.8046665E-2,7.466396E-2,2.334962E-2,1.0112226E-2,9.515494E-2,1.3379322E-1,8.834403E-2,-2.5099916E-2,-9.9450685E-2,2.2281086E-2,-3.6561195E-2,6.0651395E-3,6.0769208E-2,-1.6801959E-2,4.5695137E-2,-8.325317E-2,-4.3611456E-2,4.152968E-2,-1.7678577E-1,-6.6614665E-2,7.5444646E-2,1.051434E-2,-4.6002503E-2,-1.2758724E-1,-8.7582156E-2,-1.02664255E-1,-4.4065136E-2,-4.754198E-2,-1.6212825E-1,-4.9123825E-3,6.5110594E-2,-3.342967E-2,5.493274E-2,6.6671656E-3,4.2794768E-2,5.6489825E-2,9.623953E-2,6.4079785E-3,6.104743E-2,-8.537154E-2,-3.03197E-2,-1.2053828E-2,2.5627991E-2,-1.1391182E-1,-6.0151365E-2,-9.9603504E-2,7.5677163E-3,-9.035798E-2,-4.879814E-2,1.0442848E-2,-9.3186684E-2,-2.2592643E-2,-8.630415E-2,-1.1471859E-2,9.453005E-2,-2.2122214E-2,5.5827636E-2,5.0437927E-2,-6.426019E-2,-1.8617235E-1,-1.5515874E-2,-1.7616025E-1,3.976747E-2,5.443578E-2,-1.513378E-1,-1.4325742E-1,-1.0157891E-1,8.407145E-2,-7.03431E-2,-1.7665157E-1,3.976747E-2,-1.1292082E-1,-6.6490136E-2,-1.28513E-1,-9.475721E-4,-7.7765316E-2,1.9101446E-2,8.368716E-3,-7.735874E-2],"split_indices":[45,45,45,26,95,320,407,95,320,404,407,407,407,320,320,333,45,398,407,374,433,344,88,344,101,344,78,344,152,405,132,159,374,399,166,433,21,88,21,386,332,26,404,404,406,87,78,132,398,116,87,406,78,116,88,374,441,394,45,21,332,45,95,95,362,397,0,132,0,0,394,12,174,344,47,384,374,47,45,12,320,397,0,159,21,53,167,374,78,132,332,45,332,26,320,344,343,344,78,21,23,399,132,356,443,116,320,76,320,21,320,404,333,78,88,132,21,93,87,78,26,387,162,21,444,124,78,0,0,0,0,0,0,0,0,0,0,0,0,0,0,0,0,0,0,0,0,0,0,0,0,0,0,0,0,0,0,0,0,0,0,0,0,0,0,0,0,0,0,0,0,0,0,0,0,0,0,0,0,0,0,0,0,0,0,0,0,0,0,0,0,0,0,0,0,0,0,0,0,0,0,0,0,0,0,0,0,0,0,0,0,0,0,0,0,0,0,0,0,0,0,0,0,0,0,0,0,0,0,0,0,0,0,0,0,0,0,0,0,0,0,0,0,0,0,0,0],"split_type":[0,0,0,0,0,0,0,0,0,0,0,0,0,0,0,0,0,0,0,0,0,0,0,0,0,0,0,0,0,0,0,0,0,0,0,0,0,0,0,0,0,0,0,0,0,0,0,0,0,0,0,0,0,0,0,0,0,0,0,0,0,0,0,0,0,0,0,0,0,0,0,0,0,0,0,0,0,0,0,0,0,0,0,0,0,0,0,0,0,0,0,0,0,0,0,0,0,0,0,0,0,0,0,0,0,0,0,0,0,0,0,0,0,0,0,0,0,0,0,0,0,0,0,0,0,0,0,0,0,0,0,0,0,0,0,0,0,0,0,0,0,0,0,0,0,0,0,0,0,0,0,0,0,0,0,0,0,0,0,0,0,0,0,0,0,0,0,0,0,0,0,0,0,0,0,0,0,0,0,0,0,0,0,0,0,0,0,0,0,0,0,0,0,0,0,0,0,0,0,0,0,0,0,0,0,0,0,0,0,0,0,0,0,0,0,0,0,0,0,0,0,0,0,0,0,0,0,0,0,0,0,0,0,0,0,0,0,0,0,0,0,0,0,0,0,0,0],"sum_hessian":[6.918936E4,2.9195852E4,3.9993508E4,7.0224717E3,2.2173379E4,2.564773E4,1.4345778E4,9.6529785E2,6.057174E3,7.410529E3,1.4762851E4,9.659003E3,1.5988728E4,7.0838965E3,7.2618823E3,2.6321176E2,7.020861E2,1.8250314E3,4.2321426E3,4.577884E3,2.8326448E3,6.6256675E3,8.137183E3,3.968156E3,5.6908467E3,7.808037E3,8.180691E3,5.8846787E3,1.1992174E3,3.1314592E3,4.130423E3,2.0206978E2,6.114197E1,3.6449698E2,3.375891E2,4.7101407E2,1.3540173E3,1.3120896E3,2.920053E3,4.1944824E3,3.834013E2,2.1691812E3,6.634636E2,3.7793965E3,2.8462708E3,9.977869E2,7.139396E3,1.8777441E3,2.0904119E3,4.361251E3,1.3295958E3,4.784822E3,3.023215E3,6.438864E3,1.7418269E3,3.9086616E3,1.9760173E3,1.0432283E3,1.5598917E2,2.713769E3,4.1769016E2,2.5027727E3,1.6276504E3,2.6371004E1,1.7569878E2,5.595277E1,5.189201E0,3.579174E2,6.57958E0,7.6147118E0,3.2997443E2,1.2665876E2,3.4435532E2,7.0673904E1,1.2833434E3,2.2638407E1,1.2894512E3,3.5618384E2,2.5638691E3,9.9185455E2,3.202628E3,3.7605856E2,7.342758E0,4.1613467E2,1.7530465E3,2.465222E2,4.1694144E2,1.3961708E3,2.3832258E3,1.9528356E3,8.934352E2,2.8523E2,7.125569E2,5.986166E3,1.1532301E3,1.7600343E3,1.17709885E2,2.8907092E2,1.801341E3,3.2475298E3,1.1137212E3,9.231361E2,4.0645972E2,1.3599202E3,3.4249019E3,2.2294158E3,7.937993E2,1.2366764E3,5.2021875E3,1.2870782E3,4.5474863E2,3.570605E3,3.380568E2,1.7523307E3,2.236866E2,5.616722E2,4.815561E2,1.1762158E2,3.8367588E1,1.1605375E3,1.5532314E3,3.520745E2,6.561567E1,1.531716E3,9.710568E2,9.5511633E2,6.7253406E2,1.49489355E1,1.1422068E1,5.303103E0,1.7039568E2,1.4133074E1,4.18197E1,1.1716097E1,3.462013E2,1.880727E2,1.4190172E2,1.8484337E1,1.0817442E2,3.2476108E2,1.9594229E1,5.8435974E1,1.223793E1,1.2764086E3,6.934827E0,1.6194803E1,6.443603E0,9.3015045E2,3.5930072E2,3.417482E2,1.44356365E1,1.1086621E3,1.4552072E3,2.7962936E2,7.122252E2,2.7256914E3,4.769364E2,9.2193886E1,2.8386465E2,2.937795E2,1.2235517E2,4.499282E2,1.3031183E3,1.99274E1,2.265948E2,4.1022586E2,6.715557E0,1.01776495E3,3.7840576E2,2.0450145E3,3.382113E2,1.1491558E2,1.83792E3,7.4552844E2,1.4790678E2,1.2408726E2,1.6114276E2,4.7358966E2,2.3896722E2,9.106919E2,5.075474E3,7.9797253E2,3.552576E2,9.874738E2,7.725604E2,1.1009517E2,7.6147118E0,3.300327E1,2.5606766E2,1.3827638E3,4.1857724E2,6.517984E2,2.5957312E3,1.9194832E2,9.217728E2,8.5344116E2,6.9694984E1,2.5718463E2,1.4927509E2,1.1900684E3,1.6985176E2,2.2057048E3,1.2191969E3,1.3955244E3,8.338914E2,4.9508258E2,2.9871677E2,5.35662E2,7.0101447E2,3.4536858E3,1.7485016E3,4.1860138E2,8.6847687E2,9.969822E1,3.5505038E2,2.644525E3,9.2607996E2,2.5600497E2,8.205182E1,1.2395043E3,5.1282635E2,7.890728E1,1.4477931E2,4.771542E2,8.451795E1,4.400169E2,4.1539207E1,1.3461723E1,1.0415986E2,3.336705E1,5.00054E0,1.1957441E1,1.1485801E3,5.264482E2,1.0267832E3,1.7146643E1,3.3492786E2,6.061513E1,5.00054E0,4.9206458E2,1.0396514E3,9.461595E2,2.4897331E1,8.8735913E2,6.7757164E1,4.547451E2,2.1778896E2],"tree_param":{"num_deleted":"0","num_feature":"446","num_nodes":"247","size_leaf_vector":"1"}},{"base_weights":[-2.771467E-5,2.857222E-1,-6.305709E-1,7.087077E-1,-4.6737637E-2,-1.1613265E-1,-8.4781593E-1,1.0730805E0,5.25575E-1,6.141314E-1,-2.4446876E-1,-3.532697E-1,2.6161477E-1,-9.7477156E-1,-5.350546E-1,1.265937E0,9.3651575E-1,8.896752E-1,3.662546E-1,6.844622E-1,-1.1379043E-1,-1.223662E-1,-7.4826235E-1,-4.3647047E-2,-6.11998E-1,5.2532566E-1,1.6052274E-2,-7.980539E-1,-1.1553435E0,-4.2980263E-1,-1.0905862E0,1.4087338E0,1.1294507E0,1.1789565E0,8.039227E-1,9.368676E-1,2.5478446E-1,4.434736E-1,-2.9854164E-1,9.316529E-1,5.206278E-1,7.4612945E-2,-1.1358764E0,-6.4999782E-3,-5.3949004E-1,-4.400896E-1,-9.999474E-1,8.074018E-1,-1.1746463E-1,-7.8097E-1,-1.9533044E-1,-2.1083978E-1,6.015655E-1,1.5261579E-1,-5.2937514E-1,-8.5766244E-1,-3.175492E-1,-4.2253727E-1,-1.1997607E0,-5.353281E-1,2.329783E-2,-1.1619328E0,-2.1960102E-1,1.4437244E0,1.1364294E0,1.1598248E0,1.4558348E-1,7.4973047E-1,1.2195294E0,8.635566E-1,3.1507576E-1,9.9845445E-1,5.360723E-1,6.413497E-1,-2.1525694E-1,2.1886659E-1,5.844306E-1,-4.8916084E-1,2.3457043E-1,1.0672462E0,7.091111E-1,6.397828E-1,1.412412E-1,-8.05686E-1,2.6613575E-1,-1.4208276E0,5.4426223E-1,1.8334879E-1,-2.0964086E-1,-6.4926606E-1,-2.3430005E-2,-2.1414553E-1,-7.122532E-1,-7.244084E-1,-1.153879E0,8.896512E-1,-9.13219E-2,3.8298944E-1,-2.565773E-1,-1.21609546E-1,-9.249382E-1,-4.1139603E-2,-8.7588733E-1,7.7444196E-2,-1.3991716E0,1.0479373E0,4.7018027E-1,-3.4666753E-1,2.612147E-1,-9.531862E-1,-1.23816706E-1,-3.321154E-1,-9.121228E-1,1.757384E-1,-5.2626354E-1,-9.1566515E-1,-1.0515199E-1,-9.174621E-1,-1.2676712E0,-4.292329E-1,-8.425441E-1,9.6419565E-2,-1.3848047E0,-3.567285E-1,-1.2348835E0,-1.176142E0,2.400082E-1,1.495004E-1,1.2684989E-1,1.1996348E-1,-7.2057016E-2,1.1749747E-1,8.076486E-3,1.06166534E-1,-3.5951972E-2,8.7364964E-2,-6.783366E-2,1.2286385E-1,-4.686342E-3,6.0206886E-2,9.296032E-2,-1.0662728E-1,4.2350765E-2,1.2764105E-1,9.366549E-2,7.654621E-2,1.8606126E-2,-1.7614825E-1,7.446318E-2,-6.1401077E-2,7.430459E-2,3.95282E-2,3.420978E-3,9.407593E-3,6.5094456E-2,-1.9071251E-2,-9.363668E-2,6.894043E-2,-1.2002192E-2,1.1829696E-1,8.362955E-2,8.300461E-2,2.2032753E-2,4.6764363E-2,8.447949E-2,3.3864368E-2,-5.271097E-2,-1.311419E-1,1.7082948E-3,5.0011653E-2,-3.7323717E-2,-7.1330294E-2,-1.91452E-1,1.7004482E-1,-7.653784E-2,-4.9601677E-3,3.869758E-2,-8.786495E-3,-6.2216606E-2,-5.089407E-2,-1.04900956E-1,3.8031504E-2,-3.2505553E-2,-3.3048313E-2,5.140821E-2,-8.865511E-2,-2.541056E-2,-8.602632E-2,-1.6424285E-2,-1.0776331E-2,-1.1955124E-1,5.9649605E-2,1.3059199E-1,4.6864193E-2,-1.0500369E-1,-1.9654462E-3,-6.1448034E-2,-1.4755246E-1,3.150623E-3,-7.974917E-2,-1.2878224E-1,-4.760116E-2,1.6930794E-2,-1.1732286E-1,-9.991023E-3,7.316049E-2,-4.373647E-2,-1.9207698E-1,2.2188133E-2,-3.350281E-2,1.15959026E-1,5.0632246E-2,-1.888762E-1,-1.1794849E-2,-1.7144853E-1,3.971089E-2,-3.716165E-2,-6.394559E-2,-1.9358689E-1,7.434082E-2,-5.0930448E-2,-9.7488284E-2,-6.462503E-3,-4.02696E-2,-9.543925E-2,4.1725773E-2,-7.6567195E-2,6.364637E-2,-6.3949905E-2,-1.1933892E-1,2.7001465E-2,6.3372724E-2,-4.0051825E-2,-7.5072914E-2,-1.3092373E-1,-1.3787872E-1,-1.1098615E-1,-8.419024E-2,-3.0579751E-2,-9.50627E-2,1.9878915E-3,-2.3487447E-2,3.6766123E-2,3.5831448E-2,-1.7023504E-1,-1.0884415E-1,5.4973733E-2,-1.2725078E-1,5.5926055E-2,3.4910787E-2,-1.8280412E-1,6.395637E-2,-1.0736766E-1],"categories":[],"categories_nodes":[],"categories_segments":[],"categories_sizes":[],"default_left":[0,0,0,0,0,0,0,0,0,0,0,0,0,0,0,0,0,0,0,0,0,0,0,0,0,0,0,0,0,0,0,0,0,0,0,0,0,0,0,0,0,0,0,0,0,0,0,0,0,0,0,0,0,0,0,0,0,0,0,0,0,0,0,0,0,0,0,0,0,0,0,0,0,0,0,0,0,0,0,0,0,0,0,0,0,0,0,0,0,0,0,0,0,0,0,0,0,0,0,0,0,0,0,0,0,0,0,0,0,0,0,0,0,0,0,0,0,0,0,0,0,0,0,0,0,0,0,0,0,0,0,0,0,0,0,0,0,0,0,0,0,0,0,0,0,0,0,0,0,0,0,0,0,0,0,0,0,0,0,0,0,0,0,0,0,0,0,0,0,0,0,0,0,0,0,0,0,0,0,0,0,0,0,0,0,0,0,0,0,0,0,0,0,0,0,0,0,0,0,0,0,0,0,0,0,0,0,0,0,0,0,0,0,0,0,0,0,0,0,0,0,0,0,0,0,0,0,0,0,0,0,0,0,0,0,0,0,0,0,0,0,0,0,0,0,0,0,0,0,0,0,0,0],"id":1,"left_children":[1,3,5,7,9,11,13,15,17,19,21,23,25,27,29,31,33,35,37,39,41,43,45,47,49,51,53,55,57,59,61,63,65,67,69,71,73,75,77,79,81,83,85,87,89,91,93,95,97,99,101,103,105,107,109,111,113,115,117,119,121,123,125,127,129,131,133,135,137,139,141,143,145,147,149,151,153,155,157,159,161,163,165,167,169,171,173,175,177,179,181,183,185,187,189,191,-1,193,195,197,199,201,203,205,207,209,211,213,215,217,219,221,223,225,227,229,231,233,235,237,239,241,243,245,247,249,251,-1,-1,-1,-1,-1,-1,-1,-1,-1,-1,-1,-1,-1,-1,-1,-1,-1,-1,-1,-1,-1,-1,-1,-1,-1,-1,-1,-1,-1,-1,-1,-1,-1,-1,-1,-1,-1,-1,-1,-1,-1,-1,-1,-1,-1,-1,-1,-1,-1,-1,-1,-1,-1,-1,-1,-1,-1,-1,-1,-1,-1,-1,-1,-1,-1,-1,-1,-1,-1,-1,-1,-1,-1,-1,-1,-1,-1,-1,-1,-1,-1,-1,-1,-1,-1,-1,-1,-1,-1,-1,-1,-1,-1,-1,-1,-1,-1,-1,-1,-1,-1,-1,-1,-1,-1,-1,-1,-1,-1,-1,-1,-1,-1,-1,-1,-1,-1,-1,-1,-1,-1,-1,-1,-1,-1,-1],"loss_changes":[1.2449928E4,6.6867197E3,2.4081465E3,1.395791E3,3.4793108E3,5.7331573E2,6.010498E2,1.8313574E2,8.076428E2,3.1399756E2,1.2605774E3,3.1493277E2,1.5984427E2,3.429082E2,2.5542566E2,5.4898926E1,1.3088306E2,1.267666E2,4.9759595E2,2.2596924E2,1.0428251E2,7.9730676E2,3.0964185E2,1.1260219E2,1.5064105E2,6.692844E1,9.5366776E1,1.5579321E2,1.7288623E2,1.7601453E2,4.3023315E1,1.1817139E1,4.4269043E1,2.4298462E1,7.710425E1,9.684766E1,5.3677475E1,2.7475903E2,1.02656876E2,6.646118E1,1.520326E2,7.740256E1,4.1123314E1,4.97994E2,2.0315002E2,1.1047595E2,9.246777E1,2.1059006E1,1.1488797E2,1.4450885E2,6.4950294E1,3.8626606E1,6.277466E1,5.560649E1,4.394947E1,1.3842188E2,6.2168396E1,4.779309E1,9.51167E1,9.695453E1,7.182723E1,3.7357788E1,2.4006306E1,9.316406E0,2.0292618E1,2.3483643E1,2.1516607E1,2.3178375E1,1.5297974E1,4.0286133E1,4.391227E1,5.75271E1,4.222139E1,4.1499283E1,5.1554043E1,1.0909953E2,1.7391052E2,9.907007E1,4.305536E1,3.595227E1,4.9846527E1,8.996814E1,1.06460724E2,3.41663E1,5.655162E1,2.3901428E1,2.090158E1,3.1663705E2,3.133147E2,1.6534607E2,7.685615E1,8.356902E1,6.490491E1,6.006601E1,6.12666E1,1.5944763E1,0E0,4.4561043E1,1.0944005E2,5.6886612E1,5.6798096E1,4.638423E1,2.626548E1,3.1111647E1,1.9031239E1,3.8143677E1,7.217003E1,5.715667E1,7.251712E1,3.73677E1,4.4561333E1,7.8455E1,9.417285E1,4.1248173E1,5.6221794E1,3.9734375E1,4.112849E1,6.286798E1,6.941016E1,1.1289212E2,7.136212E1,5.965212E1,1.9672523E1,3.6986877E1,4.051294E1,1.8220633E1,2.0254536E1,0E0,0E0,0E0,0E0,0E0,0E0,0E0,0E0,0E0,0E0,0E0,0E0,0E0,0E0,0E0,0E0,0E0,0E0,0E0,0E0,0E0,0E0,0E0,0E0,0E0,0E0,0E0,0E0,0E0,0E0,0E0,0E0,0E0,0E0,0E0,0E0,0E0,0E0,0E0,0E0,0E0,0E0,0E0,0E0,0E0,0E0,0E0,0E0,0E0,0E0,0E0,0E0,0E0,0E0,0E0,0E0,0E0,0E0,0E0,0E0,0E0,0E0,0E0,0E0,0E0,0E0,0E0,0E0,0E0,0E0,0E0,0E0,0E0,0E0,0E0,0E0,0E0,0E0,0E0,0E0,0E0,0E0,0E0,0E0,0E0,0E0,0E0,0E0,0E0,0E0,0E0,0E0,0E0,0E0,0E0,0E0,0E0,0E0,0E0,0E0,0E0,0E0,0E0,0E0,0E0,0E0,0E0,0E0,0E0,0E0,0E0,0E0,0E0,0E0,0E0,0E0,0E0,0E0,0E0,0E0,0E0,0E0,0E0,0E0,0E0,0E0],"parents":[2147483647,0,0,1,1,2,2,3,3,4,4,5,5,6,6,7,7,8,8,9,9,10,10,11,11,12,12,13,13,14,14,15,15,16,16,17,17,18,18,19,19,20,20,21,21,22,22,23,23,24,24,25,25,26,26,27,27,28,28,29,29,30,30,31,31,32,32,33,33,34,34,35,35,36,36,37,37,38,38,39,39,40,40,41,41,42,42,43,43,44,44,45,45,46,46,47,47,48,48,49,49,50,50,51,51,52,52,53,53,54,54,55,55,56,56,57,57,58,58,59,59,60,60,61,61,62,62,63,63,64,64,65,65,66,66,67,67,68,68,69,69,70,70,71,71,72,72,73,73,74,74,75,75,76,76,77,77,78,78,79,79,80,80,81,81,82,82,83,83,84,84,85,85,86,86,87,87,88,88,89,89,90,90,91,91,92,92,93,93,94,94,95,95,97,97,98,98,99,99,100,100,101,101,102,102,103,103,104,104,105,105,106,106,107,107,108,108,109,109,110,110,111,111,112,112,113,113,114,114,115,115,116,116,117,117,118,118,119,119,120,120,121,121,122,122,123,123,124,124,125,125,126,126],"right_children":[2,4,6,8,10,12,14,16,18,20,22,24,26,28,30,32,34,36,38,40,42,44,46,48,50,52,54,56,58,60,62,64,66,68,70,72,74,76,78,80,82,84,86,88,90,92,94,96,98,100,102,104,106,108,110,112,114,116,118,120,122,124,126,128,130,132,134,136,138,140,142,144,146,148,150,152,154,156,158,160,162,164,166,168,170,172,174,176,178,180,182,184,186,188,190,192,-1,194,196,198,200,202,204,206,208,210,212,214,216,218,220,222,224,226,228,230,232,234,236,238,240,242,244,246,248,250,252,-1,-1,-1,-1,-1,-1,-1,-1,-1,-1,-1,-1,-1,-1,-1,-1,-1,-1,-1,-1,-1,-1,-1,-1,-1,-1,-1,-1,-1,-1,-1,-1,-1,-1,-1,-1,-1,-1,-1,-1,-1,-1,-1,-1,-1,-1,-1,-1,-1,-1,-1,-1,-1,-1,-1,-1,-1,-1,-1,-1,-1,-1,-1,-1,-1,-1,-1,-1,-1,-1,-1,-1,-1,-1,-1,-1,-1,-1,-1,-1,-1,-1,-1,-1,-1,-1,-1,-1,-1,-1,-1,-1,-1,-1,-1,-1,-1,-1,-1,-1,-1,-1,-1,-1,-1,-1,-1,-1,-1,-1,-1,-1,-1,-1,-1,-1,-1,-1,-1,-1,-1,-1,-1,-1,-1,-1],"split_conditions":[5.388627E-1,4.523607E-1,4.2019022E-1,3.0927536E-1,2.664568E-1,1E0,2.5E-1,2.0717677E-1,1.7015974E-1,6.391508E-1,5.1290786E-1,2.4688324E-1,2.5475997E-1,6.277757E-1,5.884477E-1,1.8088798E-1,1.5474363E-1,5.2598524E-1,5.328979E-1,1.4916746E-1,1.62E4,6.8387747E-1,8.3928573E-1,3.0652523E-1,3.5470086E-1,1.251E4,9.4856406E5,5.625E3,3.002762E-1,-1.044E3,-7E1,3E0,6.316539E-1,-3.92E2,5.328979E-1,-9E1,4.95E3,6E0,3.1E1,1.0731722E-1,6.660729E-1,-6.0725E2,1.3E1,8.933081E-1,3.1930605E4,6.3924927E-1,5.9509623E-1,5.4545456E-1,7.388141E-2,9.63E4,1.912344E-1,1.1E1,6.793651E-1,1.48095E4,-8.75E2,4.6179E4,2E0,-1.672E3,8.125E-1,6.766816E-1,3.81663E5,3.71835E4,1.4909677E-1,4.77E5,1.7349756E4,4.622E-2,2.091547E-1,1.70055E4,9.5353516E4,1.48095E4,2.3076924E3,6.363636E-1,1.0891397E-1,1.062E4,7.8571427E-1,2E0,-3.317E3,6.779254E-1,4.4183582E-1,6.3271874E-1,6.749905E-1,3.05E2,1.188E4,-7E0,2.1762852E-1,3.899952E4,1.73835E4,-1.681E3,2E0,3E0,4.382814E-1,3E0,-5.17E2,2E0,3.13191E4,-5.06E2,-9.13219E-2,7.987E-1,9.2E-1,-2.381E3,7.223929E-1,-1.785E3,1.171E3,6.161217E-1,2.6E1,-6.5E1,3.7E1,4.048605E5,7.335E5,2.41965E6,5.8499E-1,1.73835E4,3.002762E-1,7.062051E-1,1.6149222E5,8E0,7.6455E4,2E0,1.8E1,-3.09E3,1.24999925E-1,1.726E-1,1.042E-1,-1.863E3,-3.16E2,1.03455E4,6.975E5,1.495004E-1,1.2684989E-1,1.1996348E-1,-7.2057016E-2,1.1749747E-1,8.076486E-3,1.06166534E-1,-3.5951972E-2,8.7364964E-2,-6.783366E-2,1.2286385E-1,-4.686342E-3,6.0206886E-2,9.296032E-2,-1.0662728E-1,4.2350765E-2,1.2764105E-1,9.366549E-2,7.654621E-2,1.8606126E-2,-1.7614825E-1,7.446318E-2,-6.1401077E-2,7.430459E-2,3.95282E-2,3.420978E-3,9.407593E-3,6.5094456E-2,-1.9071251E-2,-9.363668E-2,6.894043E-2,-1.2002192E-2,1.1829696E-1,8.362955E-2,8.300461E-2,2.2032753E-2,4.6764363E-2,8.447949E-2,3.3864368E-2,-5.271097E-2,-1.311419E-1,1.7082948E-3,5.0011653E-2,-3.7323717E-2,-7.1330294E-2,-1.91452E-1,1.7004482E-1,-7.653784E-2,-4.9601677E-3,3.869758E-2,-8.786495E-3,-6.2216606E-2,-5.089407E-2,-1.04900956E-1,3.8031504E-2,-3.2505553E-2,-3.3048313E-2,5.140821E-2,-8.865511E-2,-2.541056E-2,-8.602632E-2,-1.6424285E-2,-1.0776331E-2,-1.1955124E-1,5.9649605E-2,1.3059199E-1,4.6864193E-2,-1.0500369E-1,-1.9654462E-3,-6.1448034E-2,-1.4755246E-1,3.150623E-3,-7.974917E-2,-1.2878224E-1,-4.760116E-2,1.6930794E-2,-1.1732286E-1,-9.991023E-3,7.316049E-2,-4.373647E-2,-1.9207698E-1,2.2188133E-2,-3.350281E-2,1.15959026E-1,5.0632246E-2,-1.888762E-1,-1.1794849E-2,-1.7144853E-1,3.971089E-2,-3.716165E-2,-6.394559E-2,-1.9358689E-1,7.434082E-2,-5.0930448E-2,-9.7488284E-2,-6.462503E-3,-4.02696E-2,-9.543925E-2,4.1725773E-2,-7.6567195E-2,6.364637E-2,-6.3949905E-2,-1.1933892E-1,2.7001465E-2,6.3372724E-2,-4.0051825E-2,-7.5072914E-2,-1.3092373E-1,-1.3787872E-1,-1.1098615E-1,-8.419024E-2,-3.0579751E-2,-9.50627E-2,1.9878915E-3,-2.3487447E-2,3.6766123E-2,3.5831448E-2,-1.7023504E-1,-1.0884415E-1,5.4973733E-2,-1.2725078E-1,5.5926055E-2,3.4910787E-2,-1.8280412E-1,6.395637E-2,-1.0736766E-1],"split_indices":[46,45,45,46,46,6,404,45,45,44,44,45,45,45,44,46,46,44,44,46,333,45,407,44,404,12,192,358,44,392,132,173,44,132,44,21,333,15,443,342,45,116,379,407,369,45,45,436,45,192,342,24,407,12,394,336,82,21,407,45,326,329,76,13,110,19,46,119,154,12,358,407,45,12,404,15,21,44,46,45,45,137,333,159,46,391,12,392,78,78,46,427,394,412,193,131,0,50,407,175,46,96,138,46,24,434,167,151,13,192,46,12,44,46,361,318,336,78,445,21,85,76,54,344,392,12,13,0,0,0,0,0,0,0,0,0,0,0,0,0,0,0,0,0,0,0,0,0,0,0,0,0,0,0,0,0,0,0,0,0,0,0,0,0,0,0,0,0,0,0,0,0,0,0,0,0,0,0,0,0,0,0,0,0,0,0,0,0,0,0,0,0,0,0,0,0,0,0,0,0,0,0,0,0,0,0,0,0,0,0,0,0,0,0,0,0,0,0,0,0,0,0,0,0,0,0,0,0,0,0,0,0,0,0,0,0,0,0,0,0,0,0,0,0,0,0,0,0,0,0,0,0,0],"split_type":[0,0,0,0,0,0,0,0,0,0,0,0,0,0,0,0,0,0,0,0,0,0,0,0,0,0,0,0,0,0,0,0,0,0,0,0,0,0,0,0,0,0,0,0,0,0,0,0,0,0,0,0,0,0,0,0,0,0,0,0,0,0,0,0,0,0,0,0,0,0,0,0,0,0,0,0,0,0,0,0,0,0,0,0,0,0,0,0,0,0,0,0,0,0,0,0,0,0,0,0,0,0,0,0,0,0,0,0,0,0,0,0,0,0,0,0,0,0,0,0,0,0,0,0,0,0,0,0,0,0,0,0,0,0,0,0,0,0,0,0,0,0,0,0,0,0,0,0,0,0,0,0,0,0,0,0,0,0,0,0,0,0,0,0,0,0,0,0,0,0,0,0,0,0,0,0,0,0,0,0,0,0,0,0,0,0,0,0,0,0,0,0,0,0,0,0,0,0,0,0,0,0,0,0,0,0,0,0,0,0,0,0,0,0,0,0,0,0,0,0,0,0,0,0,0,0,0,0,0,0,0,0,0,0,0,0,0,0,0,0,0,0,0,0,0,0,0,0,0,0,0,0,0],"sum_hessian":[6.909606E4,4.754854E4,2.1547525E4,2.0924879E4,2.662366E4,6.39816E3,1.5149365E4,6.997447E3,1.3927432E4,6.1308047E3,2.0492855E4,3.9306785E3,2.467482E3,1.0773918E4,4.375448E3,2.8974304E3,4.100016E3,4.237879E3,9.689554E3,5.5906987E3,5.4010596E2,1.649602E4,3.9968354E3,1.7898804E3,2.140798E3,1.1892262E3,1.2782557E3,5.447811E3,5.3261064E3,3.6800022E3,6.9544586E2,1.4114257E3,1.4860046E3,1.4467692E3,2.653247E3,3.9442231E3,2.9365564E2,8.681493E3,1.00806067E3,2.2265815E3,3.3641174E3,4.5682532E2,8.328063E1,1.2910761E4,3.5852595E3,1.79802E3,2.1988154E3,1.4206491E2,1.6478154E3,1.522501E3,6.1829706E2,1.1143675E2,1.0777894E3,1.0228707E3,2.5538506E2,4.845876E3,6.0193506E2,3.0497992E2,5.0211265E3,2.984696E3,6.953062E2,6.4248285E2,5.296299E1,1.2468998E3,1.6452588E2,1.4413289E3,4.4675804E1,1.2662832E2,1.3201409E3,2.364088E3,2.891592E2,3.417581E3,5.26642E2,1.6093619E2,1.3271947E2,3.3484604E3,5.333032E3,7.4261444E2,2.6544626E2,1.3812183E3,8.453632E2,2.5595469E3,8.045705E2,8.105667E1,3.7576865E2,7.1336334E1,1.1944294E1,6.6737715E3,6.2369893E3,2.9561672E3,6.290924E2,9.834057E2,8.146144E2,7.901484E2,1.408667E3,1.3604463E2,6.0202847E0,3.5803632E2,1.289779E3,2.73185E2,1.249316E3,5.0495258E2,1.13344475E2,9.043295E1,2.10038E1,2.4350903E2,8.342804E2,1.8234549E2,8.405252E2,1.2422199E2,1.3116306E2,4.5567502E2,4.390201E3,1.7901015E2,4.229249E2,1.186876E2,1.8629233E2,9.764817E2,4.0446448E3,2.2203193E3,7.6437665E2,6.6186743E2,3.3438766E1,5.3862064E1,5.886208E2,1.6683079E1,3.627991E1,9.5878143E2,2.8811844E2,1.5945268E2,5.0731897E0,1.4212853E3,2.0043638E1,1.5486604E1,2.91892E1,1.1687484E2,9.753477E0,1.3107426E3,9.398339E0,4.7875253E2,1.8853354E3,2.0403166E1,2.6875604E2,6.180632E2,2.7995178E3,3.174229E2,2.092191E2,5.970847E0,1.5496535E2,9.397524E1,3.8744217E1,1.711861E3,1.6365996E3,6.3728094E2,4.6957515E3,4.462383E2,2.9637613E2,1.158727E2,1.4957356E2,9.174075E2,4.6381085E2,6.771295E2,1.682337E2,1.3931034E3,1.1664435E3,6.214993E2,1.8307118E2,4.9832268E1,3.1224407E1,2.7525568E2,1.00512985E2,3.0323574E1,4.101276E1,6.185319E0,5.758975E0,3.1131108E3,3.5606606E3,4.816414E3,1.4205748E3,2.1897527E3,7.664144E2,2.6889642E2,3.6019598E2,8.4841394E2,1.3499174E2,5.894346E2,2.2517978E2,6.354898E2,1.5465857E2,5.405367E1,1.3546133E3,8.12545E1,5.4790123E1,3.3847833E2,1.9558004E1,7.7668677E2,5.130923E2,2.6878368E1,2.4630664E2,9.269608E2,3.2235516E2,1.6426044E2,3.4069214E2,8.1574554E1,3.1769926E1,3.96408E1,5.0792152E1,1.5750839E1,5.25296E0,1.804148E1,2.2546756E2,8.2246454E2,1.1815895E1,1.5715338E2,2.5192102E1,6.92245E2,1.4828024E2,9.5411674E1,2.8810312E1,4.00761E1,9.108697E1,1.3312854E2,3.2254648E2,3.3717282E2,4.0530283E3,1.4290465E2,3.6105495E1,3.7122463E1,3.8580243E2,9.615786E1,2.2529741E1,5.2875366E1,1.3341696E2,6.870157E2,2.8946603E2,2.3689202E3,1.6757247E3,5.098768E2,1.7104425E3,6.7915894E2,8.521773E1,2.980112E2,3.6385623E2,5.133084E0,2.8305685E1,2.9692816E1,2.4169247E1,5.768154E2,1.1805388E1,5.1344566E0,1.1548623E1,2.8212324E1,8.067587E0],"tree_param":{"num_deleted":"0","num_feature":"446","num_nodes":"253","size_leaf_vector":"1"}},{"base_weights":[-6.0704093E-5,-3.4036168E-1,1.8762755E-1,-5.635027E-1,-1.13002986E-1,-3.5533242E-2,3.4973872E-1,-7.021914E-1,-3.2405737E-1,-3.645264E-1,4.744808E-2,-2.1314344E-1,1.8084408E-1,4.3185246E-1,-2.7938481E-2,-7.779842E-1,-2.7486575E-1,-5.798713E-2,-5.176257E-1,-4.9368772E-1,-2.7263377E-2,-5.6547225E-2,4.6592587E-1,-3.5021946E-1,9.848032E-2,7.227817E-4,4.51944E-1,3.1523016E-1,6.681763E-1,-4.5023033E-1,8.817403E-2,-8.6179525E-1,-5.375839E-1,7.647598E-1,-3.3426136E-1,3.9141726E-1,-1.9459376E-1,-5.874801E-1,4.632798E-2,-5.810957E-1,5.153787E-2,-3.349196E-1,2.4475616E-1,-1.7588887E-1,2.4091476E-1,2.1076146E-1,9.0878475E-1,7.6527335E-2,-4.7058263E-1,-4.4104196E-2,5.3128016E-1,-1.1909593E-1,4.378201E-1,3.5241812E-1,8.014891E-1,8.491171E-2,4.9242973E-1,4.9276713E-1,9.258673E-1,-5.27982E-1,6.07307E-1,2.0874212E-2,6.7420596E-1,-9.510054E-1,-6.2392676E-1,-6.039763E-1,1.9744638E-1,1.1100873E0,-7.755154E-1,-6.0400903E-1,-5.7930287E-2,-1.3455683E0,4.4741413E-1,-6.244185E-1,-7.529205E-2,-4.5054665E-1,-9.078099E-1,-3.0132842E-1,4.8317808E-1,-7.039951E-1,-2.107884E-1,-1.7994791E-1,9.8323464E-2,-5.624406E-1,4.167728E-2,7.5895774E-1,6.663412E-2,5.356557E-1,-2.4538039E-1,3.2866842E-1,-3.6563945E-1,3.3515307E-1,-3.6412838E-1,3.8304943E-1,1.0285542E0,-3.144319E-1,2.6021993E-1,-5.983979E-1,-2.1806975E-1,-3.8594365E-1,1.4371094E-1,3.6101165E-1,9.52693E-1,-3.3035702E-1,4.0942546E-2,2.9998538E-1,9.417258E-1,2.4571407E-1,8.0792165E-1,9.718763E-1,1.4558913E-1,-2.7452682E-3,4.5597196E-1,3.926924E-1,9.1937953E-1,1.798667E-1,5.877549E-1,8.590132E-1,1.1657228E0,-7.353768E-1,-1.6204084E-1,-7.031989E-1,1.1276723E0,-1.2417583E-1,2.812379E-1,-7.503583E-1,7.1798784E-1,-9.7907625E-2,-1.877698E-2,-1.4876877E-2,-7.563026E-2,-5.563065E-2,-1.3083543E-1,3.3898335E-2,-1.7364414E-1,-3.426313E-2,1.3706408E-1,-1.6567318E-1,3.944554E-2,2.736472E-2,-7.231096E-2,-6.305208E-2,1.2328854E-2,-1.720504E-1,-5.591091E-2,5.5655356E-2,-3.2898128E-2,-1.5032282E-1,-4.4812456E-2,7.465691E-4,-1.0584483E-1,-5.1104844E-2,2.3928983E-2,-2.1244539E-2,-1.0422772E-1,-5.8960836E-2,6.384685E-2,-6.616848E-2,6.972338E-2,-7.87273E-2,-2.4588645E-2,-6.9614366E-2,3.1339012E-3,1.8861167E-2,-8.281713E-2,-3.615567E-2,-1.149827E-1,-3.810778E-2,5.3764742E-2,-2.412825E-2,8.927621E-2,1.8145157E-2,-6.490439E-2,1.0579282E-1,1.6112758E-2,-6.819283E-2,-1.682668E-2,4.4649158E-2,-5.195233E-3,-1.8139532E-1,-2.5313824E-2,3.5905037E-2,-1.7595553E-1,-6.438666E-2,6.121401E-2,5.0989013E-2,-1.71728E-1,1.0752314E-1,-1.204834E-1,-4.3333195E-2,6.799393E-2,-1.5108625E-2,4.000753E-2,-6.813412E-2,-9.60789E-3,-5.916786E-2,-5.040906E-3,-9.0118006E-2,-1.1601864E-2,3.46384E-2,-2.1507306E-2,4.9455922E-2,-6.5195486E-2,-7.440604E-2,1.0010105E-1,-5.0575312E-2,1.8285735E-2,2.982383E-2,-1.0119537E-2,1.3706148E-2,6.826843E-2,1.0241329E-1,-2.9801646E-2,-2.2625055E-2,3.4305703E-2,8.9570716E-2,-1.3587415E-3,-8.1274785E-2,1.0074393E-1,-3.798376E-2,6.334889E-2,-1.6959623E-2,2.1596132E-2,5.346222E-2,-7.203899E-2,6.4084567E-3,5.1115733E-2,-4.4873822E-2,9.4910644E-2,-5.6262713E-2,2.7485058E-2,1.7172374E-2,6.588917E-2,7.9263784E-2,1.1279004E-1,1.3476985E-2,1.1935941E-1,-8.631312E-2,2.171752E-3,-8.3586335E-2,1.5023378E-2,-1.455149E-1,1.0571362E-1,1.4160042E-1,4.363786E-2,-1.8640194E-2,6.2154144E-2,-1.0349721E-2,4.1228916E-2,3.8802724E-2,-1.7194568E-1,-1.0966322E-2,7.893413E-2],"categories":[],"categories_nodes":[],"categories_segments":[],"categories_sizes":[],"default_left":[0,0,0,0,0,0,0,0,0,0,0,0,0,0,0,0,0,0,0,0,0,0,0,0,0,0,0,0,0,0,0,0,0,0,0,0,0,0,0,0,0,0,0,0,0,0,0,0,0,0,0,0,0,0,0,0,0,0,0,0,0,0,0,0,0,0,0,0,0,0,0,0,0,0,0,0,0,0,0,0,0,0,0,0,0,0,0,0,0,0,0,0,0,0,0,0,0,0,0,0,0,0,0,0,0,0,0,0,0,0,0,0,0,0,0,0,0,0,0,0,0,0,0,0,0,0,0,0,0,0,0,0,0,0,0,0,0,0,0,0,0,0,0,0,0,0,0,0,0,0,0,0,0,0,0,0,0,0,0,0,0,0,0,0,0,0,0,0,0,0,0,0,0,0,0,0,0,0,0,0,0,0,0,0,0,0,0,0,0,0,0,0,0,0,0,0,0,0,0,0,0,0,0,0,0,0,0,0,0,0,0,0,0,0,0,0,0,0,0,0,0,0,0,0,0,0,0,0,0,0,0,0,0,0,0,0,0,0,0,0,0,0,0,0,0,0,0,0,0,0,0,0,0],"id":2,"left_children":[1,3,5,7,9,11,13,15,17,19,21,23,25,27,29,31,33,35,37,39,41,43,45,47,49,51,53,55,57,59,61,63,65,67,69,71,73,75,77,79,81,83,85,87,89,91,93,95,97,99,101,103,105,107,109,111,113,115,117,119,121,123,125,127,129,131,133,135,137,139,141,143,145,147,149,151,153,155,157,159,161,-1,163,165,167,169,171,173,175,177,179,181,183,185,187,189,191,193,195,197,199,201,203,205,207,209,211,213,215,217,219,221,223,225,227,229,231,233,235,237,239,241,243,245,247,249,251,-1,-1,-1,-1,-1,-1,-1,-1,-1,-1,-1,-1,-1,-1,-1,-1,-1,-1,-1,-1,-1,-1,-1,-1,-1,-1,-1,-1,-1,-1,-1,-1,-1,-1,-1,-1,-1,-1,-1,-1,-1,-1,-1,-1,-1,-1,-1,-1,-1,-1,-1,-1,-1,-1,-1,-1,-1,-1,-1,-1,-1,-1,-1,-1,-1,-1,-1,-1,-1,-1,-1,-1,-1,-1,-1,-1,-1,-1,-1,-1,-1,-1,-1,-1,-1,-1,-1,-1,-1,-1,-1,-1,-1,-1,-1,-1,-1,-1,-1,-1,-1,-1,-1,-1,-1,-1,-1,-1,-1,-1,-1,-1,-1,-1,-1,-1,-1,-1,-1,-1,-1,-1,-1,-1,-1,-1],"loss_changes":[4.398808E3,1.2419824E3,1.6058577E3,4.10073E2,4.8945496E2,7.1786456E2,7.973855E2,2.531565E2,2.3345483E2,2.057464E2,3.2229834E2,4.3824246E2,4.1119415E2,5.818596E2,2.252358E2,1.3339844E2,7.312189E1,1.17352715E2,1.0340448E2,1.6279718E2,1.0963584E2,2.1063039E2,1.6638107E2,3.6600165E2,1.9347018E2,2.6507388E2,1.1665875E2,5.771699E2,3.149397E2,8.177548E1,1.4209088E2,1.03910645E2,8.40632E1,3.4944008E1,8.322267E1,4.3948303E1,7.511003E1,1.0201294E2,4.4210808E1,1.3381537E2,4.1122353E1,5.269468E1,6.3636993E1,2.0949608E2,9.0550354E1,6.7094086E1,3.3516815E1,1.12712524E2,1.7923926E2,1.515001E2,5.5400467E1,1.3432E2,7.534972E1,1.2705954E2,8.302841E1,2.0006845E2,3.4000708E2,1.2335028E2,4.4295654E1,6.99556E1,4.7376144E1,1.221301E2,2.3685684E1,7.65083E1,8.4557434E1,5.2253967E1,3.9800236E1,2.043766E1,1.3359446E1,5.9268036E1,5.7443993E1,3.2156792E0,3.6829445E1,4.8638176E1,9.344342E1,6.8475464E1,6.50686E1,4.4315434E1,3.206539E1,8.410559E1,8.63881E1,0E0,3.8811436E1,4.4809166E1,4.89423E1,2.4145943E1,4.26457E1,7.3581535E1,1.2976471E2,6.660774E1,3.4605335E1,3.9198776E1,4.602152E1,2.7920708E1,4.6959534E1,5.9620384E1,6.1468803E1,1.5364429E2,1.17060555E2,1.16262344E2,1.1083056E2,7.539343E1,1.9023392E1,1.542269E2,8.272183E1,5.331064E1,2.4151718E1,9.7602585E1,3.5817657E1,3.8299988E1,3.988268E1,1.8163904E2,1.0913515E2,2.5227081E2,6.1954712E1,6.847569E1,9.4176636E1,3.8600708E1,1.7451172E1,5.6992126E1,7.067409E1,2.8052597E1,9.204449E0,9.649301E1,5.8378822E1,1.34145155E1,2.1380142E1,0E0,0E0,0E0,0E0,0E0,0E0,0E0,0E0,0E0,0E0,0E0,0E0,0E0,0E0,0E0,0E0,0E0,0E0,0E0,0E0,0E0,0E0,0E0,0E0,0E0,0E0,0E0,0E0,0E0,0E0,0E0,0E0,0E0,0E0,0E0,0E0,0E0,0E0,0E0,0E0,0E0,0E0,0E0,0E0,0E0,0E0,0E0,0E0,0E0,0E0,0E0,0E0,0E0,0E0,0E0,0E0,0E0,0E0,0E0,0E0,0E0,0E0,0E0,0E0,0E0,0E0,0E0,0E0,0E0,0E0,0E0,0E0,0E0,0E0,0E0,0E0,0E0,0E0,0E0,0E0,0E0,0E0,0E0,0E0,0E0,0E0,0E0,0E0,0E0,0E0,0E0,0E0,0E0,0E0,0E0,0E0,0E0,0E0,0E0,0E0,0E0,0E0,0E0,0E0,0E0,0E0,0E0,0E0,0E0,0E0,0E0,0E0,0E0,0E0,0E0,0E0,0E0,0E0,0E0,0E0,0E0,0E0,0E0,0E0,0E0,0E0],"parents":[2147483647,0,0,1,1,2,2,3,3,4,4,5,5,6,6,7,7,8,8,9,9,10,10,11,11,12,12,13,13,14,14,15,15,16,16,17,17,18,18,19,19,20,20,21,21,22,22,23,23,24,24,25,25,26,26,27,27,28,28,29,29,30,30,31,31,32,32,33,33,34,34,35,35,36,36,37,37,38,38,39,39,40,40,41,41,42,42,43,43,44,44,45,45,46,46,47,47,48,48,49,49,50,50,51,51,52,52,53,53,54,54,55,55,56,56,57,57,58,58,59,59,60,60,61,61,62,62,63,63,64,64,65,65,66,66,67,67,68,68,69,69,70,70,71,71,72,72,73,73,74,74,75,75,76,76,77,77,78,78,79,79,80,80,82,82,83,83,84,84,85,85,86,86,87,87,88,88,89,89,90,90,91,91,92,92,93,93,94,94,95,95,96,96,97,97,98,98,99,99,100,100,101,101,102,102,103,103,104,104,105,105,106,106,107,107,108,108,109,109,110,110,111,111,112,112,113,113,114,114,115,115,116,116,117,117,118,118,119,119,120,120,121,121,122,122,123,123,124,124,125,125,126,126],"right_children":[2,4,6,8,10,12,14,16,18,20,22,24,26,28,30,32,34,36,38,40,42,44,46,48,50,52,54,56,58,60,62,64,66,68,70,72,74,76,78,80,82,84,86,88,90,92,94,96,98,100,102,104,106,108,110,112,114,116,118,120,122,124,126,128,130,132,134,136,138,140,142,144,146,148,150,152,154,156,158,160,162,-1,164,166,168,170,172,174,176,178,180,182,184,186,188,190,192,194,196,198,200,202,204,206,208,210,212,214,216,218,220,222,224,226,228,230,232,234,236,238,240,242,244,246,248,250,252,-1,-1,-1,-1,-1,-1,-1,-1,-1,-1,-1,-1,-1,-1,-1,-1,-1,-1,-1,-1,-1,-1,-1,-1,-1,-1,-1,-1,-1,-1,-1,-1,-1,-1,-1,-1,-1,-1,-1,-1,-1,-1,-1,-1,-1,-1,-1,-1,-1,-1,-1,-1,-1,-1,-1,-1,-1,-1,-1,-1,-1,-1,-1,-1,-1,-1,-1,-1,-1,-1,-1,-1,-1,-1,-1,-1,-1,-1,-1,-1,-1,-1,-1,-1,-1,-1,-1,-1,-1,-1,-1,-1,-1,-1,-1,-1,-1,-1,-1,-1,-1,-1,-1,-1,-1,-1,-1,-1,-1,-1,-1,-1,-1,-1,-1,-1,-1,-1,-1,-1,-1,-1,-1,-1,-1,-1],"split_conditions":[-1.073E3,6.25E-2,6E0,1E0,-1.7367E4,5.952381E-2,6.795E5,1.025496E4,1E0,1E0,-1.092E3,4.6199372E-1,-1.226E3,2.9545453E-1,1.2359179E-1,3.351307E-1,2.3985404E4,9.109899E4,1.264635E3,5.8695654E3,5.908177E2,3.8437888E-1,8.4615386E-1,8.609445E4,4E0,4E0,3.1930605E4,-6.1125E2,-1.103E3,1.95E4,9.870968E3,-1.4653E4,6E0,-3.47E2,1.6107328E-1,1E0,-1.9504E4,3.509027E5,-1.321E3,1.353E3,8.478E4,2E0,2E0,7.457418E4,1E0,7.94E-2,1.2084E-1,-4.04E3,-1.3734E4,-3.605E3,2.9625E2,-1.8534E4,5.8695654E3,1.8095238E0,5.805E5,6.5163636E-1,4E0,2.0264445E-1,2.15E0,-2.08E2,-2.402E3,3E0,-5.39E2,1.28E2,7.316561E3,3.771594E6,7.92E-1,5.316964E-2,4.4236035E4,4.87E-2,8E0,6.9E-2,1.23E-2,1.1725515E4,9E5,3.2E1,-1.6631428E3,5.3E1,3.711535E-2,-1.757E3,2E0,-1.7994791E-1,4.568504E5,6.795E5,-1.2885E3,5.7E2,1.3024008E-1,1.3896881E5,1.6694762E4,1.2E1,4.82E-2,1.72E2,-2.89E2,-3.71E2,9.2E1,3E0,-1.9E1,3.7E1,1E0,-2.54E2,3.51441E5,1.187E-1,-4.2E2,3.7E1,1.5E1,1E0,4.3186184E4,2.0656484E4,7.8192E5,-1.85E1,-4.25E2,1E0,1.3132872E6,1E0,1E0,2.5988129E4,1E0,-8E0,-3.0666666E1,9.068826E-1,9.45E2,2.717802E4,1.3124301E6,6E0,-9.123333E2,-4.151E3,4.1666875E4,-9.7907625E-2,-1.877698E-2,-1.4876877E-2,-7.563026E-2,-5.563065E-2,-1.3083543E-1,3.3898335E-2,-1.7364414E-1,-3.426313E-2,1.3706408E-1,-1.6567318E-1,3.944554E-2,2.736472E-2,-7.231096E-2,-6.305208E-2,1.2328854E-2,-1.720504E-1,-5.591091E-2,5.5655356E-2,-3.2898128E-2,-1.5032282E-1,-4.4812456E-2,7.465691E-4,-1.0584483E-1,-5.1104844E-2,2.3928983E-2,-2.1244539E-2,-1.0422772E-1,-5.8960836E-2,6.384685E-2,-6.616848E-2,6.972338E-2,-7.87273E-2,-2.4588645E-2,-6.9614366E-2,3.1339012E-3,1.8861167E-2,-8.281713E-2,-3.615567E-2,-1.149827E-1,-3.810778E-2,5.3764742E-2,-2.412825E-2,8.927621E-2,1.8145157E-2,-6.490439E-2,1.0579282E-1,1.6112758E-2,-6.819283E-2,-1.682668E-2,4.4649158E-2,-5.195233E-3,-1.8139532E-1,-2.5313824E-2,3.5905037E-2,-1.7595553E-1,-6.438666E-2,6.121401E-2,5.0989013E-2,-1.71728E-1,1.0752314E-1,-1.204834E-1,-4.3333195E-2,6.799393E-2,-1.5108625E-2,4.000753E-2,-6.813412E-2,-9.60789E-3,-5.916786E-2,-5.040906E-3,-9.0118006E-2,-1.1601864E-2,3.46384E-2,-2.1507306E-2,4.9455922E-2,-6.5195486E-2,-7.440604E-2,1.0010105E-1,-5.0575312E-2,1.8285735E-2,2.982383E-2,-1.0119537E-2,1.3706148E-2,6.826843E-2,1.0241329E-1,-2.9801646E-2,-2.2625055E-2,3.4305703E-2,8.9570716E-2,-1.3587415E-3,-8.1274785E-2,1.0074393E-1,-3.798376E-2,6.334889E-2,-1.6959623E-2,2.1596132E-2,5.346222E-2,-7.203899E-2,6.4084567E-3,5.1115733E-2,-4.4873822E-2,9.4910644E-2,-5.6262713E-2,2.7485058E-2,1.7172374E-2,6.588917E-2,7.9263784E-2,1.1279004E-1,1.3476985E-2,1.1935941E-1,-8.631312E-2,2.171752E-3,-8.3586335E-2,1.5023378E-2,-1.455149E-1,1.0571362E-1,1.4160042E-1,4.363786E-2,-1.8640194E-2,6.2154144E-2,-1.0349721E-2,4.1228916E-2,3.8802724E-2,-1.7194568E-1,-1.0966322E-2,7.893413E-2],"split_indices":[89,404,15,6,20,404,13,101,7,6,344,320,392,404,320,320,389,389,143,356,400,320,404,389,316,316,369,346,392,356,356,20,316,95,320,423,20,193,89,138,336,267,82,389,289,63,76,23,20,23,100,20,356,404,13,320,373,320,404,88,23,316,88,373,390,151,50,341,101,57,31,63,60,390,105,81,346,211,320,87,422,0,105,13,89,138,341,106,369,340,58,123,346,131,123,420,115,443,70,132,105,47,132,443,339,6,403,108,11,349,346,6,105,70,424,365,70,435,435,404,138,162,389,440,89,23,365,0,0,0,0,0,0,0,0,0,0,0,0,0,0,0,0,0,0,0,0,0,0,0,0,0,0,0,0,0,0,0,0,0,0,0,0,0,0,0,0,0,0,0,0,0,0,0,0,0,0,0,0,0,0,0,0,0,0,0,0,0,0,0,0,0,0,0,0,0,0,0,0,0,0,0,0,0,0,0,0,0,0,0,0,0,0,0,0,0,0,0,0,0,0,0,0,0,0,0,0,0,0,0,0,0,0,0,0,0,0,0,0,0,0,0,0,0,0,0,0,0,0,0,0,0,0],"split_type":[0,0,0,0,0,0,0,0,0,0,0,0,0,0,0,0,0,0,0,0,0,0,0,0,0,0,0,0,0,0,0,0,0,0,0,0,0,0,0,0,0,0,0,0,0,0,0,0,0,0,0,0,0,0,0,0,0,0,0,0,0,0,0,0,0,0,0,0,0,0,0,0,0,0,0,0,0,0,0,0,0,0,0,0,0,0,0,0,0,0,0,0,0,0,0,0,0,0,0,0,0,0,0,0,0,0,0,0,0,0,0,0,0,0,0,0,0,0,0,0,0,0,0,0,0,0,0,0,0,0,0,0,0,0,0,0,0,0,0,0,0,0,0,0,0,0,0,0,0,0,0,0,0,0,0,0,0,0,0,0,0,0,0,0,0,0,0,0,0,0,0,0,0,0,0,0,0,0,0,0,0,0,0,0,0,0,0,0,0,0,0,0,0,0,0,0,0,0,0,0,0,0,0,0,0,0,0,0,0,0,0,0,0,0,0,0,0,0,0,0,0,0,0,0,0,0,0,0,0,0,0,0,0,0,0,0,0,0,0,0,0,0,0,0,0,0,0,0,0,0,0,0,0],"sum_hessian":[6.886874E4,2.4480992E4,4.4387746E4,1.2354349E4,1.2126645E4,1.8677395E4,2.5710354E4,7.8219053E3,4.5324434E3,4.72245E3,7.404194E3,1.0257604E4,8.41979E3,2.111864E4,4.5917114E3,6.642869E3,1.1790361E3,1.9093022E3,2.6231409E3,3.414383E3,1.3080673E3,5.9311235E3,1.4730701E3,7.1238604E3,3.1337437E3,5.059328E3,3.3604622E3,1.4142072E4,6.976569E3,9.896299E2,3.6020815E3,4.9237217E3,1.7191472E3,6.3078125E1,1.115958E3,4.4464786E2,1.4646544E3,2.333997E3,2.8914374E2,2.9425771E3,4.7180588E2,6.1371716E2,6.943501E2,4.2331816E3,1.6979423E3,9.355215E2,5.375486E2,1.5673163E3,5.556544E3,2.3578542E3,7.7588947E2,3.971401E3,1.0879274E3,2.617259E3,7.432031E2,6.149989E3,7.9920835E3,4.152734E3,2.823835E3,9.223203E2,6.730959E1,3.2319595E3,3.7012213E2,3.578605E3,1.3451167E3,1.5768911E3,1.4225621E2,5.17542E1,1.1323925E1,5.6410583E2,5.518522E2,1.3167623E1,4.3148022E2,3.1728696E2,1.1473674E3,1.6367368E3,6.972603E2,1.6118158E2,1.27962166E2,2.2086562E3,7.3392084E2,1.0707659E1,4.610982E2,3.822733E2,2.3144386E2,1.7780444E2,5.1654565E2,3.7604413E2,3.8571375E3,1.4837394E3,2.1420287E2,7.6944916E2,1.6607233E2,1.0051781E2,4.3703076E2,5.0077914E2,1.0665372E3,3.6882703E3,1.8682736E3,8.3571936E2,1.5221349E3,5.5393365E2,2.219558E2,1.7113046E3,2.2600964E3,8.555121E2,2.3241527E2,2.1217642E3,4.9549478E2,5.8956616E2,1.5363698E2,4.9755806E3,1.1744078E3,6.4802E3,1.5118837E3,9.677502E2,3.184984E3,2.2119006E3,6.119345E2,5.880419E2,3.3427844E2,1.903069E1,4.8278904E1,2.075956E3,1.1560034E3,1.055478E1,3.5956735E2,3.4513845E3,1.2722055E2,2.935509E2,1.0515658E3,1.4786134E3,9.827761E1,1.3332329E2,8.932922E0,7.822844E0,4.3931355E1,6.221714E0,5.1022115E0,6.724889E1,4.9685693E2,1.3207146E2,4.1978073E2,8.112446E0,5.0551767E0,3.785499E2,5.293033E1,5.1756844E1,2.6553012E2,1.059201E3,8.816645E1,1.5050006E3,1.317362E2,1.1340329E2,5.8385706E2,1.2363081E2,3.755077E1,1.9827091E1,1.0813507E2,1.8683054E3,3.4035086E2,2.4364615E2,4.902747E2,4.2087936E2,4.021886E1,2.8605807E2,9.62152E1,1.250691E2,1.06374756E2,2.0884119E1,1.5692033E2,4.4577557E2,7.0770065E1,1.5628413E2,2.1976001E2,5.7787634E2,3.279261E3,1.1328779E3,3.5086142E2,1.4349318E1,1.9985355E2,7.6158923E2,7.8599243E0,1.293493E2,3.6723026E1,9.550727E1,5.0105343E0,4.2859186E2,8.4389E0,4.4779868E2,5.298045E1,2.7060983E2,7.9592737E2,3.1652634E3,5.230068E2,5.7792285E2,1.2903507E3,2.8650198E2,5.4921735E2,9.727013E2,5.4943353E2,4.8986282E2,6.4070816E1,5.7468204E0,2.1620897E2,1.2754287E3,4.358758E2,8.038613E2,1.4562351E3,6.010073E2,2.5450476E2,2.1809235E2,1.4322925E1,3.6256314E2,1.759201E3,4.4757693E2,4.7917873E1,1.10920105E1,5.784741E2,7.4080284E1,7.95567E1,2.8225134E3,2.1530674E3,1.1013203E3,7.308748E1,1.7175261E3,4.762674E3,3.185235E1,1.4800314E3,1.09200554E2,8.585496E2,4.655735E2,2.7194104E3,1.7771542E3,4.3474637E2,1.6261448E1,5.9567303E2,5.0302057E2,8.502128E1,1.0532744E2,2.28951E2,1.3456106E1,5.574583E0,3.3329258E1,1.4949647E1,1.9167625E3,1.5919351E2,2.9377136E2,8.622321E2,5.129193E0,5.4255877E0,2.849603E1,3.3107132E2],"tree_param":{"num_deleted":"0","num_feature":"446","num_nodes":"253","size_leaf_vector":"1"}},{"base_weights":[-8.169256E-5,2.4702051E-1,-5.46539E-1,6.7007023E-1,-1.9298093E-2,-1.3348888E-1,-7.632357E-1,9.494743E-1,4.9080718E-1,4.6008083E-1,-2.2913311E-1,1.7695819E-1,-3.3703816E-1,-4.9143037E-1,-8.689711E-1,1.1530315E0,8.408756E-1,8.235415E-1,3.558867E-1,5.4980046E-1,-5.0766855E-2,-2.268535E-2,-4.8427635E-1,-2.0460722E-1,3.1451643E-1,-5.928639E-1,-1.734177E-1,-3.991587E-1,-9.554184E-1,-7.0470536E-1,-1.0183384E0,1.3000875E0,1.0689077E0,9.989281E-1,7.0561445E-1,8.6682117E-1,2.5260562E-1,4.2241508E-1,-3.1598416E-1,8.470199E-1,4.1854256E-1,3.980108E-1,-2.350192E-1,6.664102E-2,-4.8022586E-1,-8.137204E-1,-3.4234905E-1,-3.7418666E-1,3.6463448E-1,4.0168878E-1,-4.5054284E-1,-6.4050776E-1,5.442131E-1,-7.914741E-2,-7.847452E-1,-1.919933E-1,-6.1266863E-1,-7.850057E-1,-1.3080343E0,-6.428906E-1,-1.041977E0,-3.5445032E-1,-1.058338E0,1.3131497E0,3.0257183E-1,7.4465734E-1,1.1257584E0,1.0125109E0,6.466291E-2,7.904535E-1,3.8101867E-1,6.0826296E-1,9.3640834E-1,3.344995E-1,-1.808305E-1,5.0265396E-1,6.170613E-3,-6.564202E-1,-4.1982215E-2,9.5225865E-1,6.1375284E-1,2.2957262E-1,6.250676E-1,6.6088575E-1,-1.2978826E-2,2.6984666E-2,-5.5207884E-1,-2.4856436E-1,1.4967947E-1,-5.9252703E-1,4.356655E-2,4.3802332E-2,-8.836933E-1,1.1124732E-1,-4.41159E-1,-2.3536475E-1,-1.1983423E0,-1.6764031E-1,4.4346434E-1,7.6581913E-1,2.7125442E-1,-6.3777375E-1,6.256987E-1,4.60854E-2,-6.841103E-1,-1.6799672E-1,7.559098E-1,1.8251595E-1,-2.727781E-1,-8.608992E-1,1.0824803E0,-4.1056934E-1,9.075009E-2,-7.414565E-1,-2.1692762E-1,-8.7464315E-1,-5.6712464E-3,-1.4676113E0,5.5089225E-3,-9.323086E-1,-5.5062807E-1,-6.9127697E-1,-1.178443E0,3.8025743E-1,-5.211657E-1,-9.8963004E-1,-1.2777585E0,1.3320075E-1,9.1332644E-2,-3.8838174E-2,1.1360089E-1,2.2485165E-2,9.9487625E-2,1.1496841E-1,4.7531184E-2,9.634318E-2,1.2674539E-1,1.4051251E-1,-8.0115646E-2,7.291948E-2,1.12278655E-1,4.5801863E-2,-4.098783E-2,6.688191E-2,-5.4308046E-3,9.7108684E-2,4.205642E-2,-6.5100132E-3,7.379352E-2,6.733013E-2,3.3674985E-2,-3.4872912E-2,1.9556863E-2,2.036706E-2,-8.67591E-2,1.5861345E-2,-5.70738E-2,4.5393664E-2,1.0004307E-1,2.2580499E-2,7.792974E-2,-2.350967E-2,3.196387E-2,7.176515E-2,2.4402764E-2,7.543418E-2,-5.2491177E-2,4.219178E-2,-6.8465516E-2,-1.3906641E-1,1.0668068E-2,-6.756776E-2,3.765565E-2,7.622874E-2,-3.0357212E-2,-1.3918671E-2,3.0129468E-2,-5.2731097E-2,-1.246373E-1,1.6998507E-2,-1.6120532E-1,7.688218E-2,-2.4743138E-2,-9.5777296E-2,-2.9186068E-2,2.0159645E-2,-8.580599E-2,-5.0075527E-2,3.5008416E-2,1.9996123E-2,-4.1369464E-2,-7.202565E-3,-1.515269E-1,6.096789E-2,-2.8217737E-2,8.010407E-2,-1.20267056E-1,1.2980893E-2,6.23285E-2,-5.344499E-2,-1.8930654E-1,1.3895695E-1,-1.5353079E-2,3.2708872E-2,-9.6980415E-2,-8.067461E-2,-4.054002E-2,-5.6472916E-2,9.805085E-2,-1.8342211E-3,5.9632193E-2,-3.5061575E-2,3.0816529E-2,5.317665E-2,-9.3466066E-2,1.541779E-1,2.4753813E-2,-6.958814E-3,-7.116996E-2,2.1495229E-2,-5.8749057E-2,-2.2631502E-2,-8.939848E-2,-3.649431E-2,4.8185535E-2,-9.322493E-2,5.4050524E-2,-1.3790523E-1,8.199295E-2,-1.5260938E-1,5.3542137E-2,7.770844E-2,-1.6150065E-1,-9.9501066E-2,-2.7599042E-2,-4.1649047E-2,-7.828217E-2,-8.972842E-2,3.901509E-2,-6.1663944E-2,-1.3188915E-1,-8.7893195E-2,7.701441E-2,-7.3570445E-2,4.025147E-2,-1.0797371E-1,-7.980588E-2,-1.0800703E-1,-1.540262E-1],"categories":[],"categories_nodes":[],"categories_segments":[],"categories_sizes":[],"default_left":[0,0,0,0,0,0,0,0,0,0,0,0,0,0,0,0,0,0,0,0,0,0,0,0,0,0,0,0,0,0,0,0,0,0,0,0,0,0,0,0,0,0,0,0,0,0,0,0,0,0,0,0,0,0,0,0,0,0,0,0,0,0,0,0,0,0,0,0,0,0,0,0,0,0,0,0,0,0,0,0,0,0,0,0,0,0,0,0,0,0,0,0,0,0,0,0,0,0,0,0,0,0,0,0,0,0,0,0,0,0,0,0,0,0,0,0,0,0,0,0,0,0,0,0,0,0,0,0,0,0,0,0,0,0,0,0,0,0,0,0,0,0,0,0,0,0,0,0,0,0,0,0,0,0,0,0,0,0,0,0,0,0,0,0,0,0,0,0,0,0,0,0,0,0,0,0,0,0,0,0,0,0,0,0,0,0,0,0,0,0,0,0,0,0,0,0,0,0,0,0,0,0,0,0,0,0,0,0,0,0,0,0,0,0,0,0,0,0,0,0,0,0,0,0,0,0,0,0,0,0,0,0,0,0,0,0,0,0,0,0,0,0,0,0,0,0,0,0,0],"id":3,"left_children":[1,3,5,7,9,11,13,15,17,19,21,23,25,27,29,31,33,35,37,39,41,43,45,47,49,51,53,55,57,59,61,63,65,67,69,71,73,75,77,79,81,83,85,87,89,91,93,95,97,99,101,103,105,107,109,111,113,115,117,119,121,123,125,127,129,131,133,135,137,139,141,143,145,147,-1,149,151,153,155,157,159,161,163,165,167,169,171,173,175,177,179,181,183,185,187,189,191,-1,193,195,197,199,201,203,205,-1,207,209,211,213,215,217,219,221,223,225,227,229,231,233,235,237,239,241,243,245,247,-1,-1,-1,-1,-1,-1,-1,-1,-1,-1,-1,-1,-1,-1,-1,-1,-1,-1,-1,-1,-1,-1,-1,-1,-1,-1,-1,-1,-1,-1,-1,-1,-1,-1,-1,-1,-1,-1,-1,-1,-1,-1,-1,-1,-1,-1,-1,-1,-1,-1,-1,-1,-1,-1,-1,-1,-1,-1,-1,-1,-1,-1,-1,-1,-1,-1,-1,-1,-1,-1,-1,-1,-1,-1,-1,-1,-1,-1,-1,-1,-1,-1,-1,-1,-1,-1,-1,-1,-1,-1,-1,-1,-1,-1,-1,-1,-1,-1,-1,-1,-1,-1,-1,-1,-1,-1,-1,-1,-1,-1,-1,-1,-1,-1,-1,-1,-1,-1,-1,-1,-1,-1],"loss_changes":[9.275374E3,5.329288E3,1.914377E3,9.148047E2,2.9201318E3,4.6522833E2,4.027588E2,1.568877E2,4.995315E2,4.0511536E2,1.0635521E3,1.5310828E2,1.8601865E2,1.6792957E2,2.4706152E2,2.9310059E1,9.8924805E1,7.913379E1,3.542967E2,2.9294238E2,1.0934847E2,4.562221E2,4.21969E2,7.477902E1,1.431403E2,9.429242E1,1.5630939E2,1.4500287E2,3.811615E1,9.9667725E1,1.40021E2,1.1308838E1,2.8364746E1,2.7176025E1,6.894714E1,5.3131836E1,3.903442E1,2.4080115E2,6.6616806E1,5.5928345E1,2.0345947E2,4.1598164E1,7.788016E1,2.4449187E2,1.0727829E2,1.6314929E2,2.8301044E2,6.7936264E1,2.9380583E1,9.121292E1,4.4676212E1,4.987146E1,3.43602E1,1.192146E2,5.2464417E1,1.0303773E2,8.216333E1,3.0848602E1,4.4181244E1,1.081626E2,3.47843E1,3.7182358E1,7.39043E1,5.467407E0,7.876703E0,3.0898087E1,2.0399536E1,2.525293E1,3.8068142E1,3.9747803E1,3.2036934E1,2.554602E1,4.1628174E1,3.5488636E1,0E0,1.7090503E2,7.845978E1,5.803093E1,4.219022E1,3.7583496E1,4.5968475E1,1.1415465E2,8.774237E1,2.641652E1,4.4441273E1,5.824101E1,4.893811E1,1.0853702E2,3.2381903E2,6.3368042E1,6.7843925E1,4.369417E1,1.099115E2,9.9140175E1,2.4463855E2,3.9794853E1,3.0486412E1,0E0,2.093652E1,3.6122314E1,7.0562675E1,2.3328735E1,1.9895393E1,2.8963623E1,5.318042E1,0E0,1.9791958E1,8.31987E1,6.1249283E1,3.6323273E1,5.234249E0,9.6486755E1,6.140851E1,9.5519775E1,4.134211E1,3.2794342E1,5.392992E1,2.2829773E1,3.1044209E1,4.0151917E1,9.5868835E1,4.7308853E1,4.1325684E1,2.8376614E1,4.9148163E1,6.4758545E1,5.9858765E1,0E0,0E0,0E0,0E0,0E0,0E0,0E0,0E0,0E0,0E0,0E0,0E0,0E0,0E0,0E0,0E0,0E0,0E0,0E0,0E0,0E0,0E0,0E0,0E0,0E0,0E0,0E0,0E0,0E0,0E0,0E0,0E0,0E0,0E0,0E0,0E0,0E0,0E0,0E0,0E0,0E0,0E0,0E0,0E0,0E0,0E0,0E0,0E0,0E0,0E0,0E0,0E0,0E0,0E0,0E0,0E0,0E0,0E0,0E0,0E0,0E0,0E0,0E0,0E0,0E0,0E0,0E0,0E0,0E0,0E0,0E0,0E0,0E0,0E0,0E0,0E0,0E0,0E0,0E0,0E0,0E0,0E0,0E0,0E0,0E0,0E0,0E0,0E0,0E0,0E0,0E0,0E0,0E0,0E0,0E0,0E0,0E0,0E0,0E0,0E0,0E0,0E0,0E0,0E0,0E0,0E0,0E0,0E0,0E0,0E0,0E0,0E0,0E0,0E0,0E0,0E0,0E0,0E0,0E0,0E0,0E0,0E0],"parents":[2147483647,0,0,1,1,2,2,3,3,4,4,5,5,6,6,7,7,8,8,9,9,10,10,11,11,12,12,13,13,14,14,15,15,16,16,17,17,18,18,19,19,20,20,21,21,22,22,23,23,24,24,25,25,26,26,27,27,28,28,29,29,30,30,31,31,32,32,33,33,34,34,35,35,36,36,37,37,38,38,39,39,40,40,41,41,42,42,43,43,44,44,45,45,46,46,47,47,48,48,49,49,50,50,51,51,52,52,53,53,54,54,55,55,56,56,57,57,58,58,59,59,60,60,61,61,62,62,63,63,64,64,65,65,66,66,67,67,68,68,69,69,70,70,71,71,72,72,73,73,75,75,76,76,77,77,78,78,79,79,80,80,81,81,82,82,83,83,84,84,85,85,86,86,87,87,88,88,89,89,90,90,91,91,92,92,93,93,94,94,95,95,96,96,98,98,99,99,100,100,101,101,102,102,103,103,104,104,106,106,107,107,108,108,109,109,110,110,111,111,112,112,113,113,114,114,115,115,116,116,117,117,118,118,119,119,120,120,121,121,122,122,123,123,124,124,125,125,126,126],"right_children":[2,4,6,8,10,12,14,16,18,20,22,24,26,28,30,32,34,36,38,40,42,44,46,48,50,52,54,56,58,60,62,64,66,68,70,72,74,76,78,80,82,84,86,88,90,92,94,96,98,100,102,104,106,108,110,112,114,116,118,120,122,124,126,128,130,132,134,136,138,140,142,144,146,148,-1,150,152,154,156,158,160,162,164,166,168,170,172,174,176,178,180,182,184,186,188,190,192,-1,194,196,198,200,202,204,206,-1,208,210,212,214,216,218,220,222,224,226,228,230,232,234,236,238,240,242,244,246,248,-1,-1,-1,-1,-1,-1,-1,-1,-1,-1,-1,-1,-1,-1,-1,-1,-1,-1,-1,-1,-1,-1,-1,-1,-1,-1,-1,-1,-1,-1,-1,-1,-1,-1,-1,-1,-1,-1,-1,-1,-1,-1,-1,-1,-1,-1,-1,-1,-1,-1,-1,-1,-1,-1,-1,-1,-1,-1,-1,-1,-1,-1,-1,-1,-1,-1,-1,-1,-1,-1,-1,-1,-1,-1,-1,-1,-1,-1,-1,-1,-1,-1,-1,-1,-1,-1,-1,-1,-1,-1,-1,-1,-1,-1,-1,-1,-1,-1,-1,-1,-1,-1,-1,-1,-1,-1,-1,-1,-1,-1,-1,-1,-1,-1,-1,-1,-1,-1,-1,-1,-1,-1],"split_conditions":[5.388627E-1,4.0978E-1,4.6147662E-1,3.457848E-1,3.1703177E-1,2.4688324E-1,9.791667E-1,1.6441418E-1,1.5110265E-1,5.464089E-1,6.1739177E-1,-1.9825E4,-1.7438E4,5.884477E-1,6.277757E-1,1.5110265E-1,2.1303761E-1,5.1290786E-1,5.464089E-1,1.4916746E-1,1.5474363E-1,5.1290786E-1,3E0,6.2933624E2,5.196672E-1,9.230769E-1,5.196672E-1,1.0577197E-1,3.0303062E5,6.099633E-1,3.002762E-1,1.7E2,1.7140584E-1,4.622E-2,1.48059E4,-1.8047E4,1.1475E6,5.5E1,2.3809524E-2,6.3271874E-1,4.6199372E-1,1.0622451E-1,1.1E1,3E0,3.513875E4,2.8098425E-1,9.187675E-1,2.4E1,-3.264706E1,7.883353E-2,5.7142857E-2,3.908106E4,1.050555E5,1.0227079E-1,3.322895E4,-1.5171E4,3E1,-1.86E2,-4.2E1,-1.989E4,1.116E5,7.5771E4,5.7398814E-1,5.810664E-1,9E0,-1.466E3,6E1,-4E1,6.713E-1,1.7E1,5.954189E-1,2.0952642E-1,1E0,9E0,-1.808305E-1,1.6E1,4.32E5,4.5E4,1.422E4,-8.58E2,3.1914783E-1,-1.9634E4,6.677973E-1,1E0,6.2593436E-1,8.560345E2,3.0769208E-1,1.548774E-1,-1.6986E4,3.125E-1,1.2E1,9.4505495E-1,7.826087E-2,6.316539E-1,8.181818E-1,6.109913E-1,7.388141E-2,-1.6764031E-1,2.28771E5,1.72E2,4.871795E-1,1.7032725E4,-1.383091E3,5.4801E5,2.6923078E-1,-1.6799672E-1,-1.013E3,2.6923078E-1,1.5266666E1,3.122E-3,6.497542E5,6.528965E-1,6.9293934E-1,4.3541512E-1,7.67439E3,3.276E-1,2.6346415E-1,6.38325E4,7.1055E3,9.490995E3,1E0,2.2285656E4,-1.455E3,-2.066E3,2.33748E5,8.028E4,-1.7112E4,1.3320075E-1,9.1332644E-2,-3.8838174E-2,1.1360089E-1,2.2485165E-2,9.9487625E-2,1.1496841E-1,4.7531184E-2,9.634318E-2,1.2674539E-1,1.4051251E-1,-8.0115646E-2,7.291948E-2,1.12278655E-1,4.5801863E-2,-4.098783E-2,6.688191E-2,-5.4308046E-3,9.7108684E-2,4.205642E-2,-6.5100132E-3,7.379352E-2,6.733013E-2,3.3674985E-2,-3.4872912E-2,1.9556863E-2,2.036706E-2,-8.67591E-2,1.5861345E-2,-5.70738E-2,4.5393664E-2,1.0004307E-1,2.2580499E-2,7.792974E-2,-2.350967E-2,3.196387E-2,7.176515E-2,2.4402764E-2,7.543418E-2,-5.2491177E-2,4.219178E-2,-6.8465516E-2,-1.3906641E-1,1.0668068E-2,-6.756776E-2,3.765565E-2,7.622874E-2,-3.0357212E-2,-1.3918671E-2,3.0129468E-2,-5.2731097E-2,-1.246373E-1,1.6998507E-2,-1.6120532E-1,7.688218E-2,-2.4743138E-2,-9.5777296E-2,-2.9186068E-2,2.0159645E-2,-8.580599E-2,-5.0075527E-2,3.5008416E-2,1.9996123E-2,-4.1369464E-2,-7.202565E-3,-1.515269E-1,6.096789E-2,-2.8217737E-2,8.010407E-2,-1.20267056E-1,1.2980893E-2,6.23285E-2,-5.344499E-2,-1.8930654E-1,1.3895695E-1,-1.5353079E-2,3.2708872E-2,-9.6980415E-2,-8.067461E-2,-4.054002E-2,-5.6472916E-2,9.805085E-2,-1.8342211E-3,5.9632193E-2,-3.5061575E-2,3.0816529E-2,5.317665E-2,-9.3466066E-2,1.541779E-1,2.4753813E-2,-6.958814E-3,-7.116996E-2,2.1495229E-2,-5.8749057E-2,-2.2631502E-2,-8.939848E-2,-3.649431E-2,4.8185535E-2,-9.322493E-2,5.4050524E-2,-1.3790523E-1,8.199295E-2,-1.5260938E-1,5.3542137E-2,7.770844E-2,-1.6150065E-1,-9.9501066E-2,-2.7599042E-2,-4.1649047E-2,-7.828217E-2,-8.972842E-2,3.901509E-2,-6.1663944E-2,-1.3188915E-1,-8.7893195E-2,7.701441E-2,-7.3570445E-2,4.025147E-2,-1.0797371E-1,-7.980588E-2,-1.0800703E-1,-1.540262E-1],"split_indices":[46,45,45,46,46,45,398,46,45,44,45,20,20,44,45,45,45,44,44,46,46,44,16,400,44,374,44,342,105,44,44,129,320,19,334,20,327,74,404,45,320,342,340,16,350,44,398,129,122,45,439,389,329,342,356,20,443,133,116,20,105,337,44,44,412,392,74,132,50,444,44,342,5,444,0,408,106,326,334,133,320,20,45,5,45,364,84,44,20,55,322,398,439,44,374,46,45,0,329,129,404,403,186,192,404,0,394,404,444,19,386,46,45,44,117,53,320,143,334,101,7,323,394,175,326,108,20,0,0,0,0,0,0,0,0,0,0,0,0,0,0,0,0,0,0,0,0,0,0,0,0,0,0,0,0,0,0,0,0,0,0,0,0,0,0,0,0,0,0,0,0,0,0,0,0,0,0,0,0,0,0,0,0,0,0,0,0,0,0,0,0,0,0,0,0,0,0,0,0,0,0,0,0,0,0,0,0,0,0,0,0,0,0,0,0,0,0,0,0,0,0,0,0,0,0,0,0,0,0,0,0,0,0,0,0,0,0,0,0,0,0,0,0,0,0,0,0,0,0],"split_type":[0,0,0,0,0,0,0,0,0,0,0,0,0,0,0,0,0,0,0,0,0,0,0,0,0,0,0,0,0,0,0,0,0,0,0,0,0,0,0,0,0,0,0,0,0,0,0,0,0,0,0,0,0,0,0,0,0,0,0,0,0,0,0,0,0,0,0,0,0,0,0,0,0,0,0,0,0,0,0,0,0,0,0,0,0,0,0,0,0,0,0,0,0,0,0,0,0,0,0,0,0,0,0,0,0,0,0,0,0,0,0,0,0,0,0,0,0,0,0,0,0,0,0,0,0,0,0,0,0,0,0,0,0,0,0,0,0,0,0,0,0,0,0,0,0,0,0,0,0,0,0,0,0,0,0,0,0,0,0,0,0,0,0,0,0,0,0,0,0,0,0,0,0,0,0,0,0,0,0,0,0,0,0,0,0,0,0,0,0,0,0,0,0,0,0,0,0,0,0,0,0,0,0,0,0,0,0,0,0,0,0,0,0,0,0,0,0,0,0,0,0,0,0,0,0,0,0,0,0,0,0,0,0,0,0,0,0,0,0,0,0,0,0,0,0,0,0,0,0],"sum_hessian":[6.868879E4,4.7300535E4,2.1388252E4,1.8272684E4,2.9027852E4,7.3602803E3,1.4027973E4,7.13992E3,1.1132764E4,8.837328E3,2.0190523E4,2.9148188E3,4.4454614E3,3.930307E3,1.0097665E4,2.4806243E3,4.659296E3,3.2103792E3,7.922385E3,7.517042E3,1.3202859E3,1.1160862E4,9.029662E3,7.7224426E2,2.1425747E3,1.7330927E3,2.7123687E3,3.279904E3,6.504028E2,4.811721E3,5.2859443E3,8.974114E2,1.5832129E3,2.145683E3,2.5136125E3,2.9836836E3,2.2669557E2,7.2089307E3,7.134541E2,2.3010671E3,5.215975E3,3.8395026E2,9.3633563E2,9.338539E3,1.8223236E3,2.717356E3,6.3123057E3,5.952573E2,1.7698695E2,1.923843E3,2.1873154E2,1.6638152E3,6.9277565E1,2.3509653E3,3.6140317E2,1.6656493E3,1.6142548E3,4.4066418E2,2.0973859E2,4.0688862E3,7.428348E2,3.0094345E2,4.985001E3,8.854995E2,1.1911848E1,2.382784E2,1.3449346E3,2.1148525E3,3.0830498E1,1.9916289E3,5.2198376E2,6.347916E2,2.348892E3,2.1883739E2,7.858193E0,6.0436895E3,1.165241E3,3.1753476E2,3.9591937E2,1.5835598E3,7.175074E2,2.7248525E3,2.4911223E3,2.338002E2,1.5015005E2,5.131809E2,4.2315475E2,1.946778E3,7.391761E3,1.5004875E3,3.21836E2,2.0503325E2,2.5123228E3,1.1290715E3,5.1832344E3,5.1054587E2,8.471147E1,5.827856E0,1.7115909E2,5.0610135E2,1.4177417E3,1.8666527E2,3.2066265E1,9.934882E1,1.5644663E3,5.41799E0,6.3859577E1,9.998597E2,1.3511057E3,3.477589E2,1.3644266E1,9.3916864E2,7.264806E2,1.2172467E3,3.9700806E2,3.9509848E2,4.556571E1,1.869139E2,2.2824701E1,9.813594E2,3.0875269E3,2.0978357E2,5.330512E2,5.5421658E1,2.4552179E2,3.8004585E3,1.1845424E3,8.433896E2,4.210993E1,6.8045754E0,5.107273E0,7.804534E1,1.6023306E2,1.296478E3,4.845645E1,1.7774534E3,3.373992E2,1.1854486E1,1.897601E1,1.6843488E3,3.072802E2,4.7605682E2,4.5926933E1,5.8162427E2,5.3167385E1,2.2001038E3,1.487883E2,1.1036271E2,1.0847468E2,2.9777485E3,3.065941E3,4.051735E2,7.6006757E2,6.260055E1,2.5493419E2,2.87536E2,1.0838337E2,1.4050555E2,1.4430543E3,2.1530699E2,5.022004E2,4.421418E2,2.2827107E3,2.0034475E3,4.8767484E2,2.1705716E2,1.6743038E1,9.136496E1,5.8785095E1,2.643847E1,4.867424E2,3.736901E2,4.946467E1,9.9807365E1,1.8469706E3,2.5442979E3,4.8474634E3,1.3660421E3,1.3444554E2,2.998385E2,2.1997505E1,5.8287643E1,1.467456E2,2.2322888E3,2.8003397E2,1.0335284E3,9.5543144E1,4.820521E3,3.6271338E2,1.483306E2,3.6221524E2,1.8871574E1,6.58399E1,1.3939034E2,3.1768759E1,4.977877E2,8.313673E0,1.0123496E3,4.0539212E2,1.7378654E2,1.2878728E1,1.5797184E1,1.626908E1,7.835361E1,2.0995216E1,1.0851101E3,4.793562E2,9.061806E0,5.4797768E1,6.7377185E2,3.2608786E2,1.1918168E3,1.59289E2,1.7179977E1,3.3057895E2,8.256064E0,5.3882017E0,4.4101816E2,4.981505E2,6.146132E2,1.1186741E2,2.7864584E2,9.386008E2,3.2800757E2,6.9000496E1,3.7997226E2,1.5126205E1,1.6855814E1,2.8709892E1,1.8184274E2,5.0711436E0,1.5815123E1,7.0095778E0,8.95309E2,8.6050385E1,1.9587544E3,1.1287726E3,1.7635835E2,3.3425217E1,1.07686905E2,4.2536432E2,1.2806638E1,4.261502E1,1.9940944E2,4.611234E1,2.5815635E3,1.218895E3,6.786063E2,5.0593607E2],"tree_param":{"num_deleted":"0","num_feature":"446","num_nodes":"249","size_leaf_vector":"1"}},{"base_weights":[-9.7218406E-5,1.0041508E-1,-5.2801657E-1,-1.6051519E-1,2.4958983E-1,-2.587157E-1,-6.8688256E-1,-1.6994255E-2,-4.4943854E-1,3.3839974E-1,-1.03124686E-1,-6.591881E-2,-5.405734E-1,-7.702901E-1,-2.8007045E-1,5.93305E-1,-6.691523E-2,-5.1163834E-1,2.8608382E-1,2.1269621E-1,5.378989E-1,-2.0783828E-1,2.6978144E-1,-2.890048E-1,2.0248365E-1,-6.3063884E-1,-3.745775E-2,-8.185187E-1,-2.5184768E-1,-4.0468514E-1,4.9367943E-1,9.0524775E-1,3.9824748E-1,2.1731457E-1,-1.5848035E-1,-6.0569894E-1,-1.2816332E-1,4.1007972E-1,-4.301793E-1,2.6858386E-1,-2.9801255E-1,3.9235705E-1,7.474579E-1,-2.674937E-1,4.0572357E-1,7.338499E-2,5.422153E-1,-1.1181538E0,-1.9949116E-1,2.6265544E-1,-1.2354364E0,-7.1173215E-1,-8.513532E-2,-6.8447214E-1,2.5096017E-1,-6.730692E-1,-9.4501156E-1,-5.4835874E-1,1.7815778E-1,-5.140076E-1,2.3513252E-1,-1.6141902E-1,5.851651E-1,9.708551E-1,-1.7082408E-1,1.0298018E-1,8.005341E-1,3.693454E-2,4.402967E-1,-2.1601929E-1,4.348254E-1,-6.827199E-1,-1.8182437E-1,-6.76678E-2,-9.4374365E-1,5.330899E-1,-2.2410043E-1,-9.6722597E-1,3.7730154E-1,4.9796656E-1,1.5671113E-1,-6.4057404E-1,-1.0061676E-1,8.37383E-1,3.2538685E-1,1.9841929E-1,7.867444E-1,-3.3524957E-1,1.7356841E-1,4.5004645E-1,-1.3855869E0,-3.0091605E-1,2.430775E-1,-9.83882E-2,6.4173144E-1,-1.3369913E0,5.0009036E-1,-3.1185058E-1,4.0131986E-1,-4.300763E-1,3.3599988E-1,-1.5813233E0,4.4385247E-2,-7.907671E-1,-1.6577652E-1,-3.1224522E-1,9.986345E-1,-3.7357345E-2,-1.3492775E0,3.3969426E-1,-1.643084E-1,-6.256183E-1,-1.2646146E0,-1.0394896E0,-7.124558E-1,2.0456728E-1,-7.370895E-1,-1.3102345E0,3.0216143E-1,-3.9984292E-1,-1.0706125E0,-3.0713797E-1,7.3206395E-1,-8.190996E-1,7.0632803E-1,1.3853282E-2,1.0411912E-1,-1.6969827E-1,3.8799826E-2,-5.3603675E-2,3.289214E-2,-1.0087054E-1,8.510634E-2,-1.3173058E-3,9.846818E-2,-4.8763948E-3,5.451546E-2,-2.9201765E-2,1.6312953E-2,2.3517093E-2,7.576689E-2,-7.736612E-2,-3.5691485E-2,-5.8968037E-2,3.4350322E-3,-3.4848366E-2,8.950492E-3,-1.5892988E-1,-1.1156007E-2,5.7523686E-2,-1.725351E-1,8.1314474E-2,-6.456151E-2,-1.3603921E-1,5.543331E-2,-6.909767E-2,9.487247E-2,1.5878707E-2,6.086525E-2,4.134306E-2,3.4055344E-3,4.812142E-2,-7.3272936E-2,4.0479504E-2,-2.5483865E-2,-1.1041094E-1,8.551393E-2,2.5259677E-2,6.705624E-2,9.11004E-2,2.155068E-3,4.3319356E-2,8.463378E-2,-5.479608E-2,-1.8520681E-2,-8.5171245E-2,2.8865306E-2,7.024317E-2,1.4625872E-2,-1.761608E-1,-6.894582E-2,8.076143E-3,-7.957516E-2,3.2819774E-2,-8.609044E-2,-4.1400168E-2,8.4476955E-2,1.1695102E-2,7.5641595E-2,2.0679576E-2,-1.466981E-1,1.5074955E-1,-3.5447408E-2,-3.9148655E-2,4.692501E-2,6.958877E-2,-1.804409E-2,-6.236204E-2,1.4700964E-1,2.1016149E-2,6.948568E-2,-1.8755065E-1,9.919199E-3,-8.359804E-2,1.4183806E-2,-4.432353E-2,5.582794E-2,-1.2490249E-2,-1.7705244E-1,6.927453E-3,1.3757132E-1,4.077713E-2,-1.680384E-1,-1.6268486E-2,-1.7957965E-1,5.631382E-2,-3.3239774E-2,-6.6242866E-2,2.0187596E-2,-1.3476811E-1,6.506879E-2,-1.1123214E-1,-7.355442E-2,-6.013138E-2,-1.4045547E-1,-1.7060019E-1,5.3109992E-2,-1.127033E-1,-3.949522E-2,-4.742203E-2,-1.6761701E-1,5.1779415E-2,-4.3762073E-2,-5.4379284E-2,4.633425E-3,-1.4635704E-1,-6.359188E-2,2.6054723E-2,-1.0659877E-1,9.342139E-2,-1.574602E-1,3.7327494E-2,-1.6378789E-1,9.0081714E-2,-1.3692567E-2],"categories":[],"categories_nodes":[],"categories_segments":[],"categories_sizes":[],"default_left":[0,0,0,0,0,0,0,0,0,0,0,0,0,0,0,0,0,0,0,0,0,0,0,0,0,0,0,0,0,0,0,0,0,0,0,0,0,0,0,0,0,0,0,0,0,0,0,0,0,0,0,0,0,0,0,0,0,0,0,0,0,0,0,0,0,0,0,0,0,0,0,0,0,0,0,0,0,0,0,0,0,0,0,0,0,0,0,0,0,0,0,0,0,0,0,0,0,0,0,0,0,0,0,0,0,0,0,0,0,0,0,0,0,0,0,0,0,0,0,0,0,0,0,0,0,0,0,0,0,0,0,0,0,0,0,0,0,0,0,0,0,0,0,0,0,0,0,0,0,0,0,0,0,0,0,0,0,0,0,0,0,0,0,0,0,0,0,0,0,0,0,0,0,0,0,0,0,0,0,0,0,0,0,0,0,0,0,0,0,0,0,0,0,0,0,0,0,0,0,0,0,0,0,0,0,0,0,0,0,0,0,0,0,0,0,0,0,0,0,0,0,0,0,0,0,0,0,0,0,0,0,0,0,0,0,0,0,0,0,0,0,0,0,0,0],"id":4,"left_children":[1,3,5,7,9,11,13,15,17,19,21,23,25,27,29,31,33,35,37,39,41,43,45,47,49,51,53,55,57,59,61,63,65,67,69,71,73,75,77,79,81,83,85,87,89,91,93,95,97,99,101,103,105,107,109,111,113,115,117,119,121,-1,123,125,127,129,131,133,135,137,139,141,143,145,147,149,151,153,155,157,159,161,163,165,167,169,171,173,175,177,179,181,183,185,187,189,191,193,195,197,199,201,-1,203,205,207,209,211,213,215,-1,217,219,221,223,225,227,229,231,233,235,237,239,241,243,-1,-1,-1,-1,-1,-1,-1,-1,-1,-1,-1,-1,-1,-1,-1,-1,-1,-1,-1,-1,-1,-1,-1,-1,-1,-1,-1,-1,-1,-1,-1,-1,-1,-1,-1,-1,-1,-1,-1,-1,-1,-1,-1,-1,-1,-1,-1,-1,-1,-1,-1,-1,-1,-1,-1,-1,-1,-1,-1,-1,-1,-1,-1,-1,-1,-1,-1,-1,-1,-1,-1,-1,-1,-1,-1,-1,-1,-1,-1,-1,-1,-1,-1,-1,-1,-1,-1,-1,-1,-1,-1,-1,-1,-1,-1,-1,-1,-1,-1,-1,-1,-1,-1,-1,-1,-1,-1,-1,-1,-1,-1,-1,-1,-1,-1,-1,-1,-1,-1,-1],"loss_changes":[3.6243472E3,2.2334695E3,4.6720508E2,8.6548486E2,1.1436277E3,2.2031989E2,2.3291016E2,4.2492935E2,3.170542E2,7.312727E2,2.86831E2,1.443067E2,7.460501E1,1.423396E2,1.13064575E2,6.380829E1,3.3556662E2,2.303114E2,4.820288E1,5.107909E2,3.4351855E2,2.1000587E2,8.613325E1,9.7451744E1,9.498561E1,6.173004E1,4.7034657E1,9.531763E1,6.214599E1,7.0677704E1,3.234279E1,2.8754456E1,7.7202934E1,1.2634982E2,3.3299832E2,1.6732056E2,6.2072594E1,3.611891E1,3.5181602E1,4.138114E2,1.1931262E2,1.9805627E2,9.9477295E1,1.5626459E2,4.1000374E1,5.9590313E1,4.306401E1,4.6002563E1,8.039076E1,5.35411E1,2.6328247E1,5.23349E1,4.5086315E1,3.3375305E1,2.9873863E1,6.739966E1,6.049341E1,4.1115326E1,3.719267E1,5.433696E1,4.0076992E1,0E0,2.7254124E1,2.2208832E1,2.1230038E1,5.4518646E1,2.6023087E1,8.254373E1,7.2071075E1,2.5621667E2,5.5412476E1,1.2831091E2,6.9674614E1,5.182516E1,4.6499886E1,3.7810287E1,3.3610016E1,2.9766972E1,2.0670841E1,1.9838867E2,3.4140338E2,6.70531E1,8.749577E1,3.0929138E1,1.4519989E2,3.902411E1,9.044873E1,1.445181E2,8.24526E1,3.8004898E1,2.0638504E0,5.535448E1,6.092167E1,2.7605465E1,3.505641E1,2.2987228E1,1.4288949E1,6.2526535E1,3.23022E1,3.8082153E1,4.279429E1,1.838073E1,0E0,4.4894165E1,3.1391607E1,4.107444E1,1.1032686E1,3.0232729E1,1.999858E1,2.5334276E1,0E0,6.869855E1,2.9422577E1,4.3005127E1,6.1332214E1,3.7440014E1,3.0335968E1,3.953165E0,2.9713911E1,4.6059906E1,2.402353E1,3.1046066E1,3.7593166E1,1.3221169E1,2.3881805E1,0E0,0E0,0E0,0E0,0E0,0E0,0E0,0E0,0E0,0E0,0E0,0E0,0E0,0E0,0E0,0E0,0E0,0E0,0E0,0E0,0E0,0E0,0E0,0E0,0E0,0E0,0E0,0E0,0E0,0E0,0E0,0E0,0E0,0E0,0E0,0E0,0E0,0E0,0E0,0E0,0E0,0E0,0E0,0E0,0E0,0E0,0E0,0E0,0E0,0E0,0E0,0E0,0E0,0E0,0E0,0E0,0E0,0E0,0E0,0E0,0E0,0E0,0E0,0E0,0E0,0E0,0E0,0E0,0E0,0E0,0E0,0E0,0E0,0E0,0E0,0E0,0E0,0E0,0E0,0E0,0E0,0E0,0E0,0E0,0E0,0E0,0E0,0E0,0E0,0E0,0E0,0E0,0E0,0E0,0E0,0E0,0E0,0E0,0E0,0E0,0E0,0E0,0E0,0E0,0E0,0E0,0E0,0E0,0E0,0E0,0E0,0E0,0E0,0E0,0E0,0E0,0E0,0E0,0E0,0E0],"parents":[2147483647,0,0,1,1,2,2,3,3,4,4,5,5,6,6,7,7,8,8,9,9,10,10,11,11,12,12,13,13,14,14,15,15,16,16,17,17,18,18,19,19,20,20,21,21,22,22,23,23,24,24,25,25,26,26,27,27,28,28,29,29,30,30,31,31,32,32,33,33,34,34,35,35,36,36,37,37,38,38,39,39,40,40,41,41,42,42,43,43,44,44,45,45,46,46,47,47,48,48,49,49,50,50,51,51,52,52,53,53,54,54,55,55,56,56,57,57,58,58,59,59,60,60,62,62,63,63,64,64,65,65,66,66,67,67,68,68,69,69,70,70,71,71,72,72,73,73,74,74,75,75,76,76,77,77,78,78,79,79,80,80,81,81,82,82,83,83,84,84,85,85,86,86,87,87,88,88,89,89,90,90,91,91,92,92,93,93,94,94,95,95,96,96,97,97,98,98,99,99,100,100,101,101,103,103,104,104,105,105,106,106,107,107,108,108,109,109,111,111,112,112,113,113,114,114,115,115,116,116,117,117,118,118,119,119,120,120,121,121,122,122,123,123,124,124],"right_children":[2,4,6,8,10,12,14,16,18,20,22,24,26,28,30,32,34,36,38,40,42,44,46,48,50,52,54,56,58,60,62,64,66,68,70,72,74,76,78,80,82,84,86,88,90,92,94,96,98,100,102,104,106,108,110,112,114,116,118,120,122,-1,124,126,128,130,132,134,136,138,140,142,144,146,148,150,152,154,156,158,160,162,164,166,168,170,172,174,176,178,180,182,184,186,188,190,192,194,196,198,200,202,-1,204,206,208,210,212,214,216,-1,218,220,222,224,226,228,230,232,234,236,238,240,242,244,-1,-1,-1,-1,-1,-1,-1,-1,-1,-1,-1,-1,-1,-1,-1,-1,-1,-1,-1,-1,-1,-1,-1,-1,-1,-1,-1,-1,-1,-1,-1,-1,-1,-1,-1,-1,-1,-1,-1,-1,-1,-1,-1,-1,-1,-1,-1,-1,-1,-1,-1,-1,-1,-1,-1,-1,-1,-1,-1,-1,-1,-1,-1,-1,-1,-1,-1,-1,-1,-1,-1,-1,-1,-1,-1,-1,-1,-1,-1,-1,-1,-1,-1,-1,-1,-1,-1,-1,-1,-1,-1,-1,-1,-1,-1,-1,-1,-1,-1,-1,-1,-1,-1,-1,-1,-1,-1,-1,-1,-1,-1,-1,-1,-1,-1,-1,-1,-1,-1,-1],"split_conditions":[5.2598524E-1,2.092253E-1,8.005952E-1,4.9E1,5.3E1,6.9369936E-1,2E0,1.9039024E-1,8E-1,1E0,4E0,-3.0666666E1,5E0,2.7873E2,6E0,1.4717362E5,1.1360511E5,7.121565E2,8.046315E3,1.0125E6,-1.092E3,7.307692E-1,-3.27E2,7.5331743E3,1E0,3E0,-8.48E2,6.698484E-1,-1.007E3,6.4451677E-1,6.8E-3,1.2387E4,2.835E5,1E0,6.8E-1,2.52E3,1.8E4,7.8E-2,1.6E1,7.8699636E-1,-6.325E2,2.385087E-1,2.23865E4,2E0,3.0175344E4,1.99089E5,-5.95E2,3.519E6,-1.86E1,-1.009E3,2E0,-6.02E2,2.457E6,-1.32E2,1.8E6,1.854E-1,1E0,5.7398814E-1,-5.69E2,5.47E-2,1E0,-1.6141902E-1,-1E0,4.84965E3,-8.83E2,1.31325E-1,4.90707E5,2.7E1,-6.89E2,3E0,-1.326E3,-5.43E2,-3.28E2,-4.079E3,9.8699445E4,1.642E3,3.3566922E5,7.7E1,7.6E1,-2.325E3,1.0105605E5,1.984299E-1,9.516239E-1,-2.2E1,1.35E1,2.6807976E-1,-5.928333E2,-4.172E3,-2.551E3,1.1060406E6,1.450107E6,-2.43E2,8.054E-1,5.2E1,1.032E3,1.09E-2,-4.23E2,7.2869354E-1,-9.73E2,6.7104E6,1E0,8E-1,4.4385247E-2,-1.6E1,6E0,1.206E4,4E0,-2.491E3,3.59E-2,6.97E-2,-1.643084E-1,6.1E1,2.4713686E7,9.973154E1,1.349E-1,-1.1596381E3,1.5E-1,-6.35E2,3.634758E4,4E1,-1.513E3,2.9475E5,6E1,1.6666667E-1,8.85E-2,1.3853282E-2,1.0411912E-1,-1.6969827E-1,3.8799826E-2,-5.3603675E-2,3.289214E-2,-1.0087054E-1,8.510634E-2,-1.3173058E-3,9.846818E-2,-4.8763948E-3,5.451546E-2,-2.9201765E-2,1.6312953E-2,2.3517093E-2,7.576689E-2,-7.736612E-2,-3.5691485E-2,-5.8968037E-2,3.4350322E-3,-3.4848366E-2,8.950492E-3,-1.5892988E-1,-1.1156007E-2,5.7523686E-2,-1.725351E-1,8.1314474E-2,-6.456151E-2,-1.3603921E-1,5.543331E-2,-6.909767E-2,9.487247E-2,1.5878707E-2,6.086525E-2,4.134306E-2,3.4055344E-3,4.812142E-2,-7.3272936E-2,4.0479504E-2,-2.5483865E-2,-1.1041094E-1,8.551393E-2,2.5259677E-2,6.705624E-2,9.11004E-2,2.155068E-3,4.3319356E-2,8.463378E-2,-5.479608E-2,-1.8520681E-2,-8.5171245E-2,2.8865306E-2,7.024317E-2,1.4625872E-2,-1.761608E-1,-6.894582E-2,8.076143E-3,-7.957516E-2,3.2819774E-2,-8.609044E-2,-4.1400168E-2,8.4476955E-2,1.1695102E-2,7.5641595E-2,2.0679576E-2,-1.466981E-1,1.5074955E-1,-3.5447408E-2,-3.9148655E-2,4.692501E-2,6.958877E-2,-1.804409E-2,-6.236204E-2,1.4700964E-1,2.1016149E-2,6.948568E-2,-1.8755065E-1,9.919199E-3,-8.359804E-2,1.4183806E-2,-4.432353E-2,5.582794E-2,-1.2490249E-2,-1.7705244E-1,6.927453E-3,1.3757132E-1,4.077713E-2,-1.680384E-1,-1.6268486E-2,-1.7957965E-1,5.631382E-2,-3.3239774E-2,-6.6242866E-2,2.0187596E-2,-1.3476811E-1,6.506879E-2,-1.1123214E-1,-7.355442E-2,-6.013138E-2,-1.4045547E-1,-1.7060019E-1,5.3109992E-2,-1.127033E-1,-3.949522E-2,-4.742203E-2,-1.6761701E-1,5.1779415E-2,-4.3762073E-2,-5.4379284E-2,4.633425E-3,-1.4635704E-1,-6.359188E-2,2.6054723E-2,-1.0659877E-1,9.342139E-2,-1.574602E-1,3.7327494E-2,-1.6378789E-1,9.0081714E-2,-1.3692567E-2],"split_indices":[44,320,407,74,74,44,412,44,372,412,316,435,316,143,316,389,389,400,332,149,344,372,116,369,5,34,133,44,114,320,51,332,327,86,374,100,332,63,81,407,133,44,369,440,154,327,345,328,122,133,18,392,355,396,194,63,86,44,137,56,130,0,348,325,98,76,328,384,133,34,175,114,132,23,325,137,389,123,373,392,389,44,398,166,143,44,133,23,175,363,328,203,50,384,94,63,396,320,96,355,86,407,0,116,406,332,266,175,56,63,0,74,352,400,63,394,76,88,325,443,392,105,217,374,47,0,0,0,0,0,0,0,0,0,0,0,0,0,0,0,0,0,0,0,0,0,0,0,0,0,0,0,0,0,0,0,0,0,0,0,0,0,0,0,0,0,0,0,0,0,0,0,0,0,0,0,0,0,0,0,0,0,0,0,0,0,0,0,0,0,0,0,0,0,0,0,0,0,0,0,0,0,0,0,0,0,0,0,0,0,0,0,0,0,0,0,0,0,0,0,0,0,0,0,0,0,0,0,0,0,0,0,0,0,0,0,0,0,0,0,0,0,0,0,0],"split_type":[0,0,0,0,0,0,0,0,0,0,0,0,0,0,0,0,0,0,0,0,0,0,0,0,0,0,0,0,0,0,0,0,0,0,0,0,0,0,0,0,0,0,0,0,0,0,0,0,0,0,0,0,0,0,0,0,0,0,0,0,0,0,0,0,0,0,0,0,0,0,0,0,0,0,0,0,0,0,0,0,0,0,0,0,0,0,0,0,0,0,0,0,0,0,0,0,0,0,0,0,0,0,0,0,0,0,0,0,0,0,0,0,0,0,0,0,0,0,0,0,0,0,0,0,0,0,0,0,0,0,0,0,0,0,0,0,0,0,0,0,0,0,0,0,0,0,0,0,0,0,0,0,0,0,0,0,0,0,0,0,0,0,0,0,0,0,0,0,0,0,0,0,0,0,0,0,0,0,0,0,0,0,0,0,0,0,0,0,0,0,0,0,0,0,0,0,0,0,0,0,0,0,0,0,0,0,0,0,0,0,0,0,0,0,0,0,0,0,0,0,0,0,0,0,0,0,0,0,0,0,0,0,0,0,0,0,0,0,0,0,0,0,0,0,0],"sum_hessian":[6.830151E4,5.7377945E4,1.0923566E4,2.0871066E4,3.650688E4,4.0540286E3,6.869537E3,1.394502E4,6.926046E3,2.9163777E4,7.3431006E3,2.4080818E3,1.6459469E3,5.6999907E3,1.1695465E3,1.0535963E3,1.2891424E4,6.3862905E3,5.3975525E2,1.7892107E4,1.127167E4,5.733541E3,1.6095596E3,1.3150145E3,1.0930673E3,1.3958202E3,2.5012665E2,5.214343E3,4.856481E2,1.00772626E3,1.6182028E2,4.0394794E2,6.496484E2,3.1407527E3,9.750671E3,5.1279116E3,1.258379E3,4.6046866E2,7.928657E1,1.6127701E4,1.7644056E3,6.6535522E3,4.618118E3,5.225992E3,5.0754907E2,9.3604083E2,6.735187E2,1.270141E2,1.1880005E3,1.049948E3,4.3119213E1,1.2149098E3,1.8091042E2,7.669711E1,1.7342953E2,2.4283706E3,2.7859722E3,2.8727908E2,1.9836903E2,8.6083606E2,1.4689017E2,6.038827E0,1.5578146E2,3.8082693E2,2.312098E1,3.7538336E2,2.74265E2,1.73688E3,1.4038728E3,8.889228E3,8.614437E2,4.338894E3,7.890172E2,1.1724927E3,8.588646E1,3.8579623E2,7.467242E1,4.7498203E1,3.1788366E1,5.2859644E3,1.0841737E4,6.4420483E2,1.1202007E3,8.687944E2,5.784758E3,3.0878772E2,4.3093306E3,4.5302896E3,6.9570233E2,4.9602457E2,1.1524514E1,2.917459E2,6.442949E2,9.056256E1,5.829561E2,1.1203698E2,1.4977117E1,1.0012371E3,1.8676334E2,1.0005679E2,9.4989124E2,3.5803104E1,7.3161073E0,1.0608833E3,1.5402654E2,1.5015625E2,3.0754173E1,3.9400887E1,3.7296227E1,1.6645207E2,6.9774623E0,2.2499482E3,1.784224E2,1.9786547E3,8.073175E2,5.756085E1,2.2971823E2,1.4520164E1,1.8384888E2,7.1574805E2,1.4508801E2,7.04234E1,7.646677E1,1.1916007E1,1.4386545E2,2.9905855E1,3.5092108E2,5.6510634E0,1.7469915E1,9.769778E1,2.7768558E2,6.9364796E0,2.6732855E2,1.6505986E3,8.6281395E1,2.4795186E2,1.1559209E3,7.405137E3,1.4840901E3,5.333409E2,3.2810284E2,3.3909973E3,9.4789703E2,2.7273026E2,5.16287E2,4.2031357E2,7.52179E2,4.785432E1,3.803214E1,3.7946005E2,6.336189E0,2.1308434E1,5.3363987E1,3.782918E1,9.66902E0,1.1005086E1,2.0783281E1,1.3011698E3,3.9847947E3,3.5044749E3,7.337262E3,4.858369E1,5.9562115E2,2.6152228E2,8.5867847E2,7.319229E0,8.614751E2,4.7787534E3,1.0060043E3,6.0577343E1,2.4821037E2,6.2278534E2,3.6865452E3,1.8727275E3,2.6575623E3,6.9563675E1,6.261387E2,2.7021725E2,2.2580731E2,6.4888935E0,5.0356207E0,1.6517761E2,1.2656831E2,5.9882635E2,4.5468544E1,6.8276054E1,2.2286503E1,1.0491221E2,4.780439E2,8.655189E0,1.0338179E2,6.5231895E0,8.453927E0,9.090546E2,9.218248E1,1.2385474E2,6.2908596E1,9.1417206E1,8.639588E0,7.044509E2,2.4544034E2,3.0370546E1,5.4325566E0,1.011928E3,4.8955296E1,1.1163555E2,4.239098E1,1.3402405E2,1.6132198E1,9.218261E0,2.1535912E1,3.1593416E1,7.8074694E0,1.0570417E1,2.6725807E1,1.2504251E2,4.140956E1,2.1543147E3,9.563347E1,1.7128992E2,7.132467E0,1.5940315E3,3.846232E2,6.972216E2,1.1009586E2,7.785084E0,4.9775764E1,1.0628647E2,1.2343176E2,5.11968E0,9.400484E0,1.4258739E2,4.126149E1,5.409899E2,1.7475813E2,7.4959045E1,7.012897E1,4.066164E1,2.9761765E1,7.085244E1,5.6143208E0,5.072752E0,6.8432555E0,1.1684737E2,2.7018085E1],"tree_param":{"num_deleted":"0","num_feature":"446","num_nodes":"245","size_leaf_vector":"1"}},{"base_weights":[-1.4696273E-4,2.1453191E-1,-4.765541E-1,4.6133813E-1,-1.5046637E-1,-3.87927E-2,-6.42663E-1,8.3250207E-1,3.293866E-1,3.0109352E-1,-3.3872715E-1,-2.3729937E-1,2.7647156E-1,-5.1520985E-1,-8.3734214E-1,1.0180191E0,7.0259434E-1,6.3424593E-1,1.7362061E-1,6.5492207E-1,1.8440512E-1,-3.9645314E-1,1.7588107E-1,2.0165047E-1,-3.5809907E-1,5.873637E-1,1.4478679E-1,-5.6178355E-1,7.749763E-3,-9.4320434E-1,-6.1754924E-1,1.1936615E0,9.5646346E-1,8.741954E-1,5.835057E-1,5.057559E-1,8.0856377E-1,4.049233E-2,3.7618223E-1,5.6321377E-1,9.89686E-1,3.0414912E-1,-1.1042605E-1,6.1544217E-3,-4.8433962E-1,4.9367744E-1,2.2515377E-2,5.9171003E-1,2.5748475E-2,5.5638924E-2,-4.9210846E-1,-2.610781E-1,6.773616E-1,3.0084655E-1,-1.7502947E-1,-6.1607736E-1,-1.8903726E-1,3.546798E-1,-1.7660955E-1,-6.826592E-1,-9.9926966E-1,-6.709263E-1,1.5969405E-1,1.2139686E0,5.920236E-1,2.0835574E-1,9.76108E-1,2.724002E-1,9.088287E-1,4.0279397E-1,6.83746E-1,4.4375515E-1,9.1163623E-1,8.426422E-1,2.38492E-1,1.4174834E-1,-2.790846E-1,4.412039E-1,-5.5181794E-2,6.063531E-1,-2.7658215E-1,1.047312E0,-2.6422742E-1,3.789406E-1,-4.07851E-2,-2.1225974E-1,4.2201787E-1,2.7838358E-1,-2.2022773E-1,-3.996731E-1,-7.76868E-1,5.632609E-1,-5.040924E-1,-2.3137483E-1,3.6293584E-1,-1.13334015E-1,7.4903643E-1,-1.9233203E-1,3.77532E-1,-3.7407932E-1,2.860463E-1,-1.2983276E-1,-6.416836E-1,1.8230413E-1,-1.3305173E0,-1.7792238E-1,7.0358765E-1,3.5388714E-1,-7.0555377E-1,-1.1381935E0,-6.340946E-2,-7.1282345E-1,-4.3690374E-1,-8.583081E-2,-6.4573526E-1,-6.708571E-1,5.038289E-1,-3.1884024E-1,5.4085505E-1,4.238343E-1,-7.671767E-1,-1.0403762E0,-5.844188E-1,-8.729131E-1,-4.923517E-1,3.1226304E-1,-1.6059116E-1,3.948314E-2,1.22693636E-1,1.1339108E-1,-6.8787776E-2,4.8490386E-2,-1.885808E-1,9.3642734E-2,1.2050197E-1,3.9403886E-2,-1.2355365E-1,9.205305E-2,-6.463412E-2,4.5784384E-2,-3.782492E-2,7.765375E-2,4.6437226E-2,6.643183E-2,3.2158747E-2,-1.0752743E-1,9.347721E-2,8.4951185E-2,-1.2812854E-1,3.2498803E-2,-1.8728249E-1,-8.562387E-3,2.6510168E-2,-2.0018369E-2,-6.79233E-2,3.8238235E-2,7.77147E-2,-1.8231688E-2,6.0857475E-2,5.4517876E-2,1.15882695E-1,-1.2248339E-1,4.21973E-2,1.0809362E-1,-3.3515804E-2,-1.7566839E-1,9.0331435E-2,2.9750321E-2,6.2977046E-2,-3.2726984E-2,2.7174536E-2,-1.4077703E-2,-1.0252108E-1,5.076926E-2,-1.6830431E-1,3.7341226E-2,-3.5806637E-2,-4.816986E-2,-9.033858E-5,-5.188488E-2,-1.9447347E-2,-9.3235254E-2,-5.8418155E-2,-5.2545797E-2,6.2213715E-2,1.1760866E-1,-9.505304E-2,-1.3506596E-1,-1.2183501E-2,4.3228123E-2,-1.406025E-1,4.5365565E-2,-1.4411251E-1,-1.3047397E-2,8.817978E-2,-6.5392256E-3,-8.949152E-2,4.3868847E-2,-1.6814202E-1,-7.5030522E-3,-9.4841026E-2,4.3132603E-2,-3.572361E-2,-1.10502504E-1,-5.1029674E-3,-1.01529494E-1,-5.105106E-2,8.666087E-2,-5.9729606E-2,3.2108407E-3,-1.8539728E-1,7.896977E-2,2.0922848E-3,5.8496978E-2,1.3178976E-2,4.6413527E-3,-1.2426343E-1,-3.5457194E-2,-1.7192097E-1,5.3376285E-3,-8.586696E-2,-8.288766E-2,-5.285098E-2,-6.713217E-2,-3.0563513E-2,-1.4826678E-2,7.5406455E-2,-3.174473E-2,-1.3614649E-1,-1.2377318E-1,1.3679896E-1,5.6244887E-2,-1.5981588E-1,-1.13879435E-1,-1.7323963E-2,-6.0378667E-2,8.013179E-2,7.880619E-2,-1.5347928E-1,-9.255909E-2,-2.7937738E-2,-4.7944088E-2,-1.07823744E-1,-8.313652E-2,2.5459891E-3,-8.943066E-2,1.5953162E-1,-1.870768E-2,-6.876631E-2,-9.256688E-3,9.9929236E-2],"categories":[],"categories_nodes":[],"categories_segments":[],"categories_sizes":[],"default_left":[0,0,0,0,0,0,0,0,0,0,0,0,0,0,0,0,0,0,0,0,0,0,0,0,0,0,0,0,0,0,0,0,0,0,0,0,0,0,0,0,0,0,0,0,0,0,0,0,0,0,0,0,0,0,0,0,0,0,0,0,0,0,0,0,0,0,0,0,0,0,0,0,0,0,0,0,0,0,0,0,0,0,0,0,0,0,0,0,0,0,0,0,0,0,0,0,0,0,0,0,0,0,0,0,0,0,0,0,0,0,0,0,0,0,0,0,0,0,0,0,0,0,0,0,0,0,0,0,0,0,0,0,0,0,0,0,0,0,0,0,0,0,0,0,0,0,0,0,0,0,0,0,0,0,0,0,0,0,0,0,0,0,0,0,0,0,0,0,0,0,0,0,0,0,0,0,0,0,0,0,0,0,0,0,0,0,0,0,0,0,0,0,0,0,0,0,0,0,0,0,0,0,0,0,0,0,0,0,0,0,0,0,0,0,0,0,0,0,0,0,0,0,0,0,0,0,0,0,0,0,0,0,0,0,0,0,0,0,0,0,0,0,0,0,0,0,0,0,0,0,0],"id":5,"left_children":[1,3,5,7,9,11,13,15,17,19,21,23,25,27,29,31,33,35,37,39,41,43,45,47,49,51,53,55,57,59,61,63,65,67,69,71,73,75,77,79,81,83,85,87,89,91,93,95,97,99,101,103,105,107,109,111,113,115,117,119,121,123,125,127,129,131,133,135,137,139,141,143,145,147,149,151,153,155,157,159,161,163,165,167,169,171,173,175,177,179,181,183,185,187,189,191,193,195,197,199,201,203,205,207,209,-1,211,213,215,217,219,221,223,225,227,229,231,233,235,237,239,241,243,245,247,249,-1,-1,-1,-1,-1,-1,-1,-1,-1,-1,-1,-1,-1,-1,-1,-1,-1,-1,-1,-1,-1,-1,-1,-1,-1,-1,-1,-1,-1,-1,-1,-1,-1,-1,-1,-1,-1,-1,-1,-1,-1,-1,-1,-1,-1,-1,-1,-1,-1,-1,-1,-1,-1,-1,-1,-1,-1,-1,-1,-1,-1,-1,-1,-1,-1,-1,-1,-1,-1,-1,-1,-1,-1,-1,-1,-1,-1,-1,-1,-1,-1,-1,-1,-1,-1,-1,-1,-1,-1,-1,-1,-1,-1,-1,-1,-1,-1,-1,-1,-1,-1,-1,-1,-1,-1,-1,-1,-1,-1,-1,-1,-1,-1,-1,-1,-1,-1,-1,-1,-1,-1,-1,-1,-1,-1],"loss_changes":[6.959119E3,4.2255864E3,1.536977E3,1.3702764E3,1.608779E3,3.6399954E2,3.7976318E2,1.761499E2,9.8032764E2,2.2978885E2,3.9681714E2,1.8931711E2,9.192026E1,2.2561108E2,1.404419E2,3.1512695E1,8.776245E1,1.5596338E2,3.6851288E2,4.1827698E1,1.4791908E2,4.2492395E2,6.5677216E1,5.2875267E1,1.5522354E2,5.121048E1,7.891051E1,1.7201367E2,4.857326E1,5.9044434E1,8.196686E1,8.807983E0,3.2737793E1,3.6593018E1,4.596991E1,1.00801636E2,5.7318726E1,2.6692035E2,1.5203284E2,3.9512726E1,2.1633392E1,7.6874664E1,6.573094E1,1.3273001E2,2.4382593E2,3.0738914E1,7.8743546E1,2.6655128E1,4.0910778E1,6.799999E1,1.1449042E2,3.0977026E1,4.0199493E1,5.6950546E1,5.570063E1,1.2837085E2,5.0982063E1,4.064532E1,5.0780476E1,6.833087E1,5.6734375E1,6.617432E1,3.4875336E1,7.5178223E0,1.9791748E1,3.4866074E1,1.8708496E1,1.8392172E1,3.1004028E1,3.9441116E1,3.3036133E1,9.384668E1,2.5459839E1,4.184558E1,3.1362741E1,1.7570215E2,6.2526672E1,9.277118E1,6.0093105E1,3.4290314E1,3.6120644E1,1.3506958E1,2.5606934E1,4.9827454E1,4.7701954E1,5.895143E1,3.596916E1,5.9274467E1,6.7433815E1,1.8689685E2,6.571179E1,2.6641663E1,2.2964184E1,6.38256E1,4.8348934E1,3.4207233E1,2.2997574E1,2.9307713E1,2.6431322E1,4.111055E1,4.192363E1,4.752271E1,7.281012E1,2.5431318E1,1.3695457E1,0E0,3.5187103E1,5.174343E1,2.166992E1,2.3893433E1,4.3321766E1,1.02641846E2,7.997089E1,4.6488014E1,4.6429337E1,4.0859665E1,2.9316914E1,4.9290028E1,2.505628E1,3.848242E1,5.197473E1,6.443115E1,4.6021454E1,4.711133E1,5.844342E1,3.299331E1,0E0,0E0,0E0,0E0,0E0,0E0,0E0,0E0,0E0,0E0,0E0,0E0,0E0,0E0,0E0,0E0,0E0,0E0,0E0,0E0,0E0,0E0,0E0,0E0,0E0,0E0,0E0,0E0,0E0,0E0,0E0,0E0,0E0,0E0,0E0,0E0,0E0,0E0,0E0,0E0,0E0,0E0,0E0,0E0,0E0,0E0,0E0,0E0,0E0,0E0,0E0,0E0,0E0,0E0,0E0,0E0,0E0,0E0,0E0,0E0,0E0,0E0,0E0,0E0,0E0,0E0,0E0,0E0,0E0,0E0,0E0,0E0,0E0,0E0,0E0,0E0,0E0,0E0,0E0,0E0,0E0,0E0,0E0,0E0,0E0,0E0,0E0,0E0,0E0,0E0,0E0,0E0,0E0,0E0,0E0,0E0,0E0,0E0,0E0,0E0,0E0,0E0,0E0,0E0,0E0,0E0,0E0,0E0,0E0,0E0,0E0,0E0,0E0,0E0,0E0,0E0,0E0,0E0,0E0,0E0,0E0,0E0,0E0,0E0,0E0],"parents":[2147483647,0,0,1,1,2,2,3,3,4,4,5,5,6,6,7,7,8,8,9,9,10,10,11,11,12,12,13,13,14,14,15,15,16,16,17,17,18,18,19,19,20,20,21,21,22,22,23,23,24,24,25,25,26,26,27,27,28,28,29,29,30,30,31,31,32,32,33,33,34,34,35,35,36,36,37,37,38,38,39,39,40,40,41,41,42,42,43,43,44,44,45,45,46,46,47,47,48,48,49,49,50,50,51,51,52,52,53,53,54,54,55,55,56,56,57,57,58,58,59,59,60,60,61,61,62,62,63,63,64,64,65,65,66,66,67,67,68,68,69,69,70,70,71,71,72,72,73,73,74,74,75,75,76,76,77,77,78,78,79,79,80,80,81,81,82,82,83,83,84,84,85,85,86,86,87,87,88,88,89,89,90,90,91,91,92,92,93,93,94,94,95,95,96,96,97,97,98,98,99,99,100,100,101,101,102,102,103,103,104,104,106,106,107,107,108,108,109,109,110,110,111,111,112,112,113,113,114,114,115,115,116,116,117,117,118,118,119,119,120,120,121,121,122,122,123,123,124,124,125,125],"right_children":[2,4,6,8,10,12,14,16,18,20,22,24,26,28,30,32,34,36,38,40,42,44,46,48,50,52,54,56,58,60,62,64,66,68,70,72,74,76,78,80,82,84,86,88,90,92,94,96,98,100,102,104,106,108,110,112,114,116,118,120,122,124,126,128,130,132,134,136,138,140,142,144,146,148,150,152,154,156,158,160,162,164,166,168,170,172,174,176,178,180,182,184,186,188,190,192,194,196,198,200,202,204,206,208,210,-1,212,214,216,218,220,222,224,226,228,230,232,234,236,238,240,242,244,246,248,250,-1,-1,-1,-1,-1,-1,-1,-1,-1,-1,-1,-1,-1,-1,-1,-1,-1,-1,-1,-1,-1,-1,-1,-1,-1,-1,-1,-1,-1,-1,-1,-1,-1,-1,-1,-1,-1,-1,-1,-1,-1,-1,-1,-1,-1,-1,-1,-1,-1,-1,-1,-1,-1,-1,-1,-1,-1,-1,-1,-1,-1,-1,-1,-1,-1,-1,-1,-1,-1,-1,-1,-1,-1,-1,-1,-1,-1,-1,-1,-1,-1,-1,-1,-1,-1,-1,-1,-1,-1,-1,-1,-1,-1,-1,-1,-1,-1,-1,-1,-1,-1,-1,-1,-1,-1,-1,-1,-1,-1,-1,-1,-1,-1,-1,-1,-1,-1,-1,-1,-1,-1,-1,-1,-1,-1],"split_conditions":[5.388627E-1,5.5233E-1,3.953131E-1,2.664568E-1,3.1703177E-1,1E0,6.458688E-1,2.682375E-1,2.509017E-1,1.3426542E-1,4.3333334E-1,1.396533E-1,1.621921E-1,3.75E-1,6.557522E-2,6.0882274E-2,1.4916746E-1,1E0,1E0,-6.5E1,9.405E3,9.187675E-1,8.640116E5,1.493955E5,8.37945E4,1.35E4,6.84E5,1.0184153E3,9.5624044E5,3E0,4.2857113E-1,1.06E2,-2.2553E4,6.9E-2,1.51E2,4E-1,1.7064E6,9.675E3,1.7955E4,8.39E-1,1.61145E4,2E-2,6E0,9.359734E2,7.0621973E-1,1.057E-1,1.25E1,-4.13E2,2.2613333E-1,1.79055E4,9.714286E-1,5.8635E3,-2.587E3,9.9E5,6.1472476E3,1E0,2E0,2.6955E5,1.111E3,2.876625E4,1.9E1,1.61E-1,-8.9E1,1.125E5,3.7527703E4,2.53215E4,5.6666666E-1,-2.78E2,2E0,2.292E-1,8.1E3,1.3383373E5,4.5E4,6.2649E4,1.2E1,-1.6986E4,1E0,1.1192046E3,2.65E-1,1.6452E2,-2.08E2,1.55E-2,1.8934022E5,1.3470589E1,3.05E2,2.9720926E4,8.457E-1,7.223012E-1,2.6316E4,1E0,2E0,5.1724136E-1,-9.5E1,-2.0084E4,2.961E4,3E0,-1.2143462E3,1E0,2.48625E4,4E0,7.421816E-1,-9.95E2,2.745E5,-3.04E2,5.726825E-1,-1.7792238E-1,1E0,4.6755E3,1.755E5,-6.36E2,4.2642E4,-1.5318E4,-2.355E3,1.764706E-1,1.3157895E-1,1.257E-1,1.89E6,-4.725862E1,2E0,-5.186667E2,-7.56E2,-6.5E1,1.035E6,6.967773E4,6.3470554E-1,-8.95E2,-1.6059116E-1,3.948314E-2,1.22693636E-1,1.1339108E-1,-6.8787776E-2,4.8490386E-2,-1.885808E-1,9.3642734E-2,1.2050197E-1,3.9403886E-2,-1.2355365E-1,9.205305E-2,-6.463412E-2,4.5784384E-2,-3.782492E-2,7.765375E-2,4.6437226E-2,6.643183E-2,3.2158747E-2,-1.0752743E-1,9.347721E-2,8.4951185E-2,-1.2812854E-1,3.2498803E-2,-1.8728249E-1,-8.562387E-3,2.6510168E-2,-2.0018369E-2,-6.79233E-2,3.8238235E-2,7.77147E-2,-1.8231688E-2,6.0857475E-2,5.4517876E-2,1.15882695E-1,-1.2248339E-1,4.21973E-2,1.0809362E-1,-3.3515804E-2,-1.7566839E-1,9.0331435E-2,2.9750321E-2,6.2977046E-2,-3.2726984E-2,2.7174536E-2,-1.4077703E-2,-1.0252108E-1,5.076926E-2,-1.6830431E-1,3.7341226E-2,-3.5806637E-2,-4.816986E-2,-9.033858E-5,-5.188488E-2,-1.9447347E-2,-9.3235254E-2,-5.8418155E-2,-5.2545797E-2,6.2213715E-2,1.1760866E-1,-9.505304E-2,-1.3506596E-1,-1.2183501E-2,4.3228123E-2,-1.406025E-1,4.5365565E-2,-1.4411251E-1,-1.3047397E-2,8.817978E-2,-6.5392256E-3,-8.949152E-2,4.3868847E-2,-1.6814202E-1,-7.5030522E-3,-9.4841026E-2,4.3132603E-2,-3.572361E-2,-1.10502504E-1,-5.1029674E-3,-1.01529494E-1,-5.105106E-2,8.666087E-2,-5.9729606E-2,3.2108407E-3,-1.8539728E-1,7.896977E-2,2.0922848E-3,5.8496978E-2,1.3178976E-2,4.6413527E-3,-1.2426343E-1,-3.5457194E-2,-1.7192097E-1,5.3376285E-3,-8.586696E-2,-8.288766E-2,-5.285098E-2,-6.713217E-2,-3.0563513E-2,-1.4826678E-2,7.5406455E-2,-3.174473E-2,-1.3614649E-1,-1.2377318E-1,1.3679896E-1,5.6244887E-2,-1.5981588E-1,-1.13879435E-1,-1.7323963E-2,-6.0378667E-2,8.013179E-2,7.880619E-2,-1.5347928E-1,-9.255909E-2,-2.7937738E-2,-4.7944088E-2,-1.07823744E-1,-8.313652E-2,2.5459891E-3,-8.943066E-2,1.5953162E-1,-1.870768E-2,-6.876631E-2,-9.256688E-3,9.9929236E-2],"split_indices":[46,45,45,46,46,6,45,45,45,46,374,45,45,374,400,45,46,6,6,132,333,398,361,192,194,12,106,400,361,82,85,129,20,76,137,374,106,333,333,50,154,52,316,401,45,48,444,132,76,12,398,333,181,13,323,6,267,11,137,326,444,76,345,13,388,12,374,202,213,55,333,386,106,12,318,20,296,400,76,157,345,59,108,444,137,323,50,45,12,6,83,372,433,20,333,385,394,41,119,82,46,97,11,132,46,0,174,333,106,116,12,20,175,409,436,57,106,435,79,133,181,434,150,144,46,202,0,0,0,0,0,0,0,0,0,0,0,0,0,0,0,0,0,0,0,0,0,0,0,0,0,0,0,0,0,0,0,0,0,0,0,0,0,0,0,0,0,0,0,0,0,0,0,0,0,0,0,0,0,0,0,0,0,0,0,0,0,0,0,0,0,0,0,0,0,0,0,0,0,0,0,0,0,0,0,0,0,0,0,0,0,0,0,0,0,0,0,0,0,0,0,0,0,0,0,0,0,0,0,0,0,0,0,0,0,0,0,0,0,0,0,0,0,0,0,0,0,0,0,0,0],"split_type":[0,0,0,0,0,0,0,0,0,0,0,0,0,0,0,0,0,0,0,0,0,0,0,0,0,0,0,0,0,0,0,0,0,0,0,0,0,0,0,0,0,0,0,0,0,0,0,0,0,0,0,0,0,0,0,0,0,0,0,0,0,0,0,0,0,0,0,0,0,0,0,0,0,0,0,0,0,0,0,0,0,0,0,0,0,0,0,0,0,0,0,0,0,0,0,0,0,0,0,0,0,0,0,0,0,0,0,0,0,0,0,0,0,0,0,0,0,0,0,0,0,0,0,0,0,0,0,0,0,0,0,0,0,0,0,0,0,0,0,0,0,0,0,0,0,0,0,0,0,0,0,0,0,0,0,0,0,0,0,0,0,0,0,0,0,0,0,0,0,0,0,0,0,0,0,0,0,0,0,0,0,0,0,0,0,0,0,0,0,0,0,0,0,0,0,0,0,0,0,0,0,0,0,0,0,0,0,0,0,0,0,0,0,0,0,0,0,0,0,0,0,0,0,0,0,0,0,0,0,0,0,0,0,0,0,0,0,0,0,0,0,0,0,0,0,0,0,0,0,0,0],"sum_hessian":[6.8041516E4,4.6905484E4,2.113603E4,2.7983326E4,1.8922158E4,5.8143076E3,1.5321722E4,7.337764E3,2.0645562E4,5.567478E3,1.3354681E4,3.567974E3,2.2463335E3,9.261813E3,6.0599077E3,3.0192432E3,4.318521E3,6.980506E3,1.3665056E4,1.3795929E3,4.1878853E3,1.2007926E4,1.3467554E3,7.6986096E2,2.798113E3,6.6734674E2,1.5789868E3,8.504358E3,7.574551E2,4.0877646E3,1.9721431E3,7.7875635E2,2.2404868E3,1.7665977E3,2.5519236E3,4.0207236E3,2.9597822E3,8.246477E3,5.418579E3,1.0850316E3,2.9456125E2,2.978253E3,1.2096322E3,2.1517405E3,9.856185E3,4.3765356E2,9.0910187E2,2.3853966E2,5.313213E2,6.8471674E2,2.1133962E3,6.3817364E1,6.0352936E2,1.0612104E3,5.177763E2,7.422546E3,1.0818126E3,2.6251904E2,4.94936E2,7.261939E2,3.3615706E3,1.8455378E3,1.2660523E2,7.5234454E2,2.6411758E1,5.7624535E1,2.1828623E3,9.661743E1,1.6699802E3,9.122859E2,1.6396376E3,3.4897378E3,5.30986E2,2.792378E3,1.6740433E2,6.262726E3,1.9837505E3,4.7087783E3,7.098007E2,1.0322825E3,5.27492E1,2.8177643E2,1.2784805E1,2.4474731E3,5.3077985E2,1.01592975E3,1.9370244E2,9.768404E2,1.1749001E3,7.6456655E3,2.2105195E3,4.095289E2,2.8124655E1,5.2091595E2,3.8818588E2,4.3568954E1,1.949707E2,3.2827048E2,2.0305083E2,2.3877292E2,4.4594385E2,6.1813116E2,1.4952651E3,4.5699993E1,1.8117373E1,5.6690474E0,5.9786035E2,1.0086972E3,5.2513283E1,5.28177E1,4.6495862E2,4.8180356E3,2.6045105E3,8.833725E2,1.9844014E2,3.2887745E1,2.2963132E2,4.1351593E2,8.14201E1,5.124787E1,6.7494604E2,3.0571387E3,3.044319E2,8.641753E2,9.813626E2,1.172929E2,9.312338E0,1.2214812E1,7.4012976E2,1.8635773E1,7.775986E0,5.158133E1,6.0432043E0,1.8647144E3,3.181478E2,9.008903E1,6.528398E0,1.6579133E3,1.2066864E1,8.526059E2,5.9679974E1,1.1504686E3,4.8916904E2,1.2423481E3,2.2473896E3,5.588253E0,5.2539777E2,2.7839734E3,8.404479E0,1.6162881E2,5.7755075E0,2.2027646E3,4.0599614E3,1.6582738E3,3.2547665E2,4.0089705E3,6.9980786E2,5.9630963E2,1.1349106E2,9.311633E2,1.0111909E2,2.2055984E1,3.0693216E1,2.752988E2,6.477649E0,5.3900986E0,7.394707E0,1.8492572E3,5.982158E2,2.7690472E2,2.5387514E2,9.3489746E2,8.1032295E1,1.8685632E2,6.846118E0,8.502956E2,1.2654478E2,5.354085E2,6.394917E2,4.8356763E3,2.809989E3,1.2212314E3,9.8928815E2,2.0603891E1,3.8892502E2,5.5610695E0,2.2563585E1,4.5425457E1,4.754905E2,3.7426968E2,1.3916188E1,3.0992825E1,1.2576132E1,2.5573038E1,1.6939766E2,2.7896188E2,4.930859E1,1.9795789E2,5.092946E0,1.577596E2,8.101332E1,3.6405472E2,8.188911E1,4.5241585E1,5.728896E2,3.8680728E2,1.1084579E3,2.4278023E1,2.1421968E1,5.2887363E0,1.2828636E1,5.3075507E2,6.710525E1,4.9354813E2,5.1514905E2,2.2260252E1,3.025303E1,2.3173567E1,2.9644133E1,4.06235E2,5.872364E1,2.954339E3,1.8636964E3,9.3345074E2,1.6710597E3,8.2301483E2,6.0357635E1,1.3703088E2,6.1409252E1,2.6040459E1,6.8472857E0,2.2411368E2,5.5176344E0,6.1327423E1,3.521885E2,1.4848425E1,6.657167E1,4.371605E1,7.5318213E0,5.088108E2,1.6613522E2,1.941636E2,2.862975E3,2.1643277E2,8.7999115E1,8.573816E2,6.793703E0,3.836575E2,5.977051E2,7.434852E1,4.2944374E1],"tree_param":{"num_deleted":"0","num_feature":"446","num_nodes":"251","size_leaf_vector":"1"}},{"base_weights":[-1.754831E-4,8.983004E-2,-4.49064E-1,-1.8724988E-1,1.9830479E-1,-3.137977E-1,-6.586813E-1,-3.2817942E-1,1.1226174E-1,-1.951711E-1,2.93524E-1,-5.1905197E-1,-1.24152936E-1,-7.207647E-1,-2.085813E-1,-4.2850512E-1,1.517228E-1,-2.823686E-1,1.975511E-1,5.9920925E-1,-2.5061435E-1,9.5768325E-2,4.003787E-1,-1.9948693E-1,-6.37051E-1,-3.791587E-1,6.187794E-2,-8.1014603E-1,-4.726114E-1,-6.5844214E-1,3.6831412E-2,-4.8873684E-1,8.8582374E-2,-4.507552E-3,5.94277E-1,-7.8630686E-1,-1.0568494E-1,3.2737315E-1,-6.760136E-2,6.2657523E-1,-1.162305E-1,-4.109762E-1,-5.960848E-2,-6.4907275E-2,2.8890657E-1,1.4371845E-1,4.6115577E-1,-3.6758763E-1,2.8208718E-1,-9.733603E-1,-4.6636134E-1,-1.1434813E0,-3.098933E-1,-2.763936E-1,2.1508083E-1,-5.5482155E-1,-8.918304E-1,-5.7713485E-1,7.5759165E-2,-8.293482E-1,5.639649E-1,2.2491479E-1,-7.988911E-1,-5.2916956E-1,1.4058548E-1,-2.0695917E-1,3.6818716E-1,-6.862064E-2,1.3408929E0,3.1825602E-1,9.264751E-1,-1.5346264E0,-5.61278E-1,-1.7776603E-1,8.9748824E-1,2.4078827E-1,7.0260996E-1,6.591647E-1,-1.3901211E-1,1.901946E-1,7.493346E-1,-4.8820743E-1,-2.5158836E-2,-2.2170778E-1,2.4315175E-1,-5.3075624E-1,6.1713182E-3,1.452974E-1,6.415016E-1,5.8759395E-2,4.7243947E-1,5.63128E-1,2.8926253E-1,-2.63412E-1,-1.0840735E0,5.296385E-1,-6.4685285E-1,-1.0056043E0,8.65697E-1,-3.0262768E-1,-6.978349E-1,-1.4768311E0,-5.6007826E-1,-2.2870344E-1,-8.822281E-1,7.3555E-2,-5.12603E-1,2.7595362E-1,-7.2226834E-1,-3.547249E-1,-8.9844644E-1,-1.2447737E0,-8.3765936E-1,-6.193403E-1,8.69953E-1,1.8459465E-1,-1.584399E-1,-9.880931E-1,3.3251944E-1,-7.71231E-2,1.1274391E0,6.269854E-2,1.0134699E0,-1.0957215E0,3.643285E-1,-5.7548758E-2,-5.3343466E-3,-3.6172207E-2,4.4108577E-2,-4.2894535E-2,2.2974884E-2,1.8356016E-2,8.358543E-2,1.1567759E-1,-1.318937E-2,-7.5865915E-4,1.4767595E-1,4.8378896E-2,-4.6690293E-2,1.0250618E-1,-5.2121277E-3,-1.7309202E-1,2.0245532E-2,-2.3214206E-2,-1.0835558E-1,-3.422254E-2,2.7479017E-2,-8.262994E-3,1.17696874E-1,3.6056254E-2,-5.8031813E-3,2.4810405E-2,8.57512E-2,-2.2659069E-2,8.064958E-2,-2.3165455E-2,4.7068212E-2,4.5541786E-2,-9.3327634E-2,5.4811954E-2,9.844163E-2,-7.192796E-2,-3.6458034E-2,-2.6605312E-2,3.385067E-2,-4.665558E-2,6.1241246E-4,1.3941298E-2,6.507873E-2,-6.1907627E-2,2.2089353E-2,-1.528869E-2,1.5764404E-2,-2.3201508E-2,2.1529902E-2,-9.023749E-3,6.8970166E-2,1.857208E-2,-1.6122635E-2,6.2011536E-2,9.071674E-3,4.669374E-2,7.068438E-2,1.7822456E-2,6.214096E-2,-1.7184487E-2,-1.2150555E-1,-2.756323E-2,-1.4056292E-1,1.6611484E-1,3.9356966E-2,5.3607345E-2,-1.21058516E-1,-1.0332972E-1,1.2419545E-1,1.6741209E-1,-4.8404958E-2,-4.4403616E-2,8.547871E-3,-8.056869E-2,8.058049E-3,-1.7129284E-1,-3.3883214E-2,-1.2492206E-1,3.85265E-2,-6.915479E-2,-1.13582E-2,-1.1567122E-1,1.5708482E-2,-7.069036E-2,4.139263E-2,-7.271929E-2,-1.7460019E-3,4.2237844E-2,-1.1123393E-2,-3.591678E-2,-1.5203623E-1,-7.733437E-2,-1.2068254E-2,1.7557183E-2,-1.0219013E-1,4.248543E-3,-1.308013E-1,-1.3449813E-1,-7.871896E-2,-1.2102441E-1,-5.1484685E-2,2.6846578E-2,1.5266095E-1,-6.619811E-2,3.699719E-2,-1.1287254E-1,3.960493E-2,1.4264794E-1,-3.34551E-2,1.7914824E-1,3.5988603E-2,1.3282791E-2,-1.6666096E-1,2.9255508E-3,1.2399938E-1,-1.588099E-1,3.3268046E-3,-7.024954E-2,1.21706106E-1],"categories":[],"categories_nodes":[],"categories_segments":[],"categories_sizes":[],"default_left":[0,0,0,0,0,0,0,0,0,0,0,0,0,0,0,0,0,0,0,0,0,0,0,0,0,0,0,0,0,0,0,0,0,0,0,0,0,0,0,0,0,0,0,0,0,0,0,0,0,0,0,0,0,0,0,0,0,0,0,0,0,0,0,0,0,0,0,0,0,0,0,0,0,0,0,0,0,0,0,0,0,0,0,0,0,0,0,0,0,0,0,0,0,0,0,0,0,0,0,0,0,0,0,0,0,0,0,0,0,0,0,0,0,0,0,0,0,0,0,0,0,0,0,0,0,0,0,0,0,0,0,0,0,0,0,0,0,0,0,0,0,0,0,0,0,0,0,0,0,0,0,0,0,0,0,0,0,0,0,0,0,0,0,0,0,0,0,0,0,0,0,0,0,0,0,0,0,0,0,0,0,0,0,0,0,0,0,0,0,0,0,0,0,0,0,0,0,0,0,0,0,0,0,0,0,0,0,0,0,0,0,0,0,0,0,0,0,0,0,0,0,0,0,0,0,0,0,0,0,0,0,0,0,0,0,0,0,0,0,0,0,0,0,0,0],"id":6,"left_children":[1,3,5,7,9,11,13,15,17,19,21,23,25,27,29,31,33,35,37,39,41,43,45,47,49,51,53,55,57,59,61,63,65,67,69,71,73,75,77,79,-1,81,83,85,87,89,91,93,95,97,99,101,103,105,107,109,111,113,115,117,119,121,123,125,127,129,131,133,135,137,139,141,143,145,147,149,151,153,155,157,159,161,163,165,167,169,171,173,175,177,179,181,183,185,187,189,191,193,195,197,199,201,203,205,207,209,211,213,215,217,219,221,223,225,227,229,-1,231,233,-1,235,237,239,241,243,-1,-1,-1,-1,-1,-1,-1,-1,-1,-1,-1,-1,-1,-1,-1,-1,-1,-1,-1,-1,-1,-1,-1,-1,-1,-1,-1,-1,-1,-1,-1,-1,-1,-1,-1,-1,-1,-1,-1,-1,-1,-1,-1,-1,-1,-1,-1,-1,-1,-1,-1,-1,-1,-1,-1,-1,-1,-1,-1,-1,-1,-1,-1,-1,-1,-1,-1,-1,-1,-1,-1,-1,-1,-1,-1,-1,-1,-1,-1,-1,-1,-1,-1,-1,-1,-1,-1,-1,-1,-1,-1,-1,-1,-1,-1,-1,-1,-1,-1,-1,-1,-1,-1,-1,-1,-1,-1,-1,-1,-1,-1,-1,-1,-1,-1,-1,-1,-1,-1,-1],"loss_changes":[2.7305542E3,1.6920828E3,3.1984937E2,6.686129E2,1.5158694E3,2.670625E2,1.2353577E2,5.186692E2,1.7066339E2,3.4736588E2,6.883137E2,1.24134094E2,1.6929565E2,8.588342E1,5.9412407E1,2.7752075E2,1.2882433E2,8.016069E1,1.4351833E2,2.5536087E1,2.2571701E2,3.54673E2,3.2982007E2,7.216104E1,1.3767328E2,7.933392E1,1.0702385E2,5.911206E1,5.921376E1,4.0146683E1,5.503764E1,2.0312341E2,7.695488E1,1.18959755E2,4.4280807E1,3.850862E1,4.8494076E1,9.075867E1,7.124516E1,2.7038925E1,0E0,1.1936029E2,1.6518686E2,2.0659895E2,2.627132E2,1.1309256E2,2.9954346E2,4.8994614E1,5.3435654E1,4.885327E1,6.035446E1,2.342456E1,6.3994553E1,5.325707E1,8.1289406E1,4.749382E1,4.032434E1,5.350116E1,3.0313248E1,3.113662E1,1.8844633E1,3.647792E1,2.2612625E1,1.652268E2,7.2994156E1,4.400621E1,4.1155304E1,1.0221301E2,1.1504295E1,3.4933277E1,2.12874E1,1.858429E1,3.0917862E1,4.6570934E1,1.2416943E1,8.146216E1,3.6691956E1,1.6212498E1,7.066652E1,3.401838E1,1.817601E1,9.509186E1,5.8718697E1,1.2228013E2,4.954596E1,5.4969696E1,1.3047182E2,9.7493835E1,5.303076E1,8.9956245E1,4.682852E1,1.4801416E2,2.3476697E2,5.0135456E1,2.1316505E1,2.7498177E1,3.3345207E1,5.0807983E1,1.66105E1,5.1502533E1,5.5583344E1,2.0577225E1,3.1071407E1,6.44604E1,4.904413E1,6.9446236E1,4.084175E1,7.574579E1,2.4648293E1,4.3125046E1,3.4024155E1,2.332434E1,4.7046875E1,5.1439392E1,9.460775E0,2.4856234E1,0E0,2.9101898E1,1.5675514E1,0E0,8.1258335E0,2.9084099E1,1.0815315E1,2.868385E1,1.3436178E1,0E0,0E0,0E0,0E0,0E0,0E0,0E0,0E0,0E0,0E0,0E0,0E0,0E0,0E0,0E0,0E0,0E0,0E0,0E0,0E0,0E0,0E0,0E0,0E0,0E0,0E0,0E0,0E0,0E0,0E0,0E0,0E0,0E0,0E0,0E0,0E0,0E0,0E0,0E0,0E0,0E0,0E0,0E0,0E0,0E0,0E0,0E0,0E0,0E0,0E0,0E0,0E0,0E0,0E0,0E0,0E0,0E0,0E0,0E0,0E0,0E0,0E0,0E0,0E0,0E0,0E0,0E0,0E0,0E0,0E0,0E0,0E0,0E0,0E0,0E0,0E0,0E0,0E0,0E0,0E0,0E0,0E0,0E0,0E0,0E0,0E0,0E0,0E0,0E0,0E0,0E0,0E0,0E0,0E0,0E0,0E0,0E0,0E0,0E0,0E0,0E0,